{"learner":{"attributes":{"best_iteration":"120","best_msg":"[121]\ttrain-rmse:0.552660\teval-rmse:0.719491","best_ntreelimit":"121","best_score":"0.71949100282879475","niter":"140"},"feature_names":[],"feature_types":[],"gradient_booster":{"model":{"gbtree_model_param":{"num_parallel_tree":"1","num_trees":"141","size_leaf_vector":"0"},"tree_info":[0,0,0,0,0,0,0,0,0,0,0,0,0,0,0,0,0,0,0,0,0,0,0,0,0,0,0,0,0,0,0,0,0,0,0,0,0,0,0,0,0,0,0,0,0,0,0,0,0,0,0,0,0,0,0,0,0,0,0,0,0,0,0,0,0,0,0,0,0,0,0,0,0,0,0,0,0,0,0,0,0,0,0,0,0,0,0,0,0,0,0,0,0,0,0,0,0,0,0,0,0,0,0,0,0,0,0,0,0,0,0,0,0,0,0,0,0,0,0,0,0,0,0,0,0,0,0,0,0,0,0,0,0,0,0,0,0,0,0,0,0],"trees":[{"base_weights":[2.0280724E0,1.7441392E0,3.1479797E0,1.5529386E0,2.2537558E0,2.825966E0,4.553425E0,1.3373041E0,1.8251741E0,2.0905368E0,3.0351725E0,2.610357E0,4.1659093E0,5.8727274E0,3.945631E0,1.29133E0,1.935955E0,1.6301914E0,2.224465E0,1.7808384E0,2.3608E0,2.6853845E0,5.6875E0,2.174552E0,3.0322695E0,3.804E0,5.8071427E0,3.525E0,6.548485E0,3.578481E0,4.948E0,1.0877143E0,1.3747318E0,2.524138E0,1.6245902E0,1.4646884E0,1.7880466E0,1.9457628E0,2.536424E0,1.5927777E0,1.987742E0,2.1561475E0,2.7212121E0,2.5162394E0,3.9071429E0,1.8000001E0,6.114286E0,1.9226519E0,2.6131313E0,2.8720834E0,3.855814E0,4.016129E0,2.5928571E0,2.825E0,6.3636365E0,1.4666666E0,3.79E0,6.803226E0,1.7333333E0,3.6102564E0,5.5E-1,5.0625E0,1.1E0],"categories":[],"categories_nodes":[],"categories_segments":[],"categories_sizes":[],"default_left":[1,1,1,1,1,1,1,1,1,1,1,1,1,1,1,1,1,1,1,1,1,1,1,1,1,1,1,1,1,1,1,0,0,0,0,0,0,0,0,0,0,0,0,0,0,0,0,0,0,0,0,0,0,0,0,0,0,0,0,0,0,0,0],"id":0,"left_children":[1,3,5,7,9,11,13,15,17,19,21,23,25,27,29,31,33,35,37,39,41,43,45,47,49,51,53,55,57,59,61,-1,-1,-1,-1,-1,-1,-1,-1,-1,-1,-1,-1,-1,-1,-1,-1,-1,-1,-1,-1,-1,-1,-1,-1,-1,-1,-1,-1,-1,-1,-1,-1],"loss_changes":[1.2416221E3,3.0158203E2,3.455703E2,1.3140332E2,1.023208E2,1.7604639E2,9.390039E1,3.2618652E1,7.4617676E1,5.505542E1,1.19250854E2,9.637427E1,3.0179565E1,4.672229E1,2.0199707E1,1.8679077E1,1.2198761E1,1.5120239E1,2.3495361E1,9.830078E0,2.179248E1,1.7033752E1,1.5540344E1,2.5799194E1,2.6127441E1,8.855713E0,5.256378E0,9.868469E-1,2.8686035E1,5.616638E0,5.446167E0,0E0,0E0,0E0,0E0,0E0,0E0,0E0,0E0,0E0,0E0,0E0,0E0,0E0,0E0,0E0,0E0,0E0,0E0,0E0,0E0,0E0,0E0,0E0,0E0,0E0,0E0,0E0,0E0,0E0,0E0,0E0,0E0],"parents":[2147483647,0,0,1,1,2,2,3,3,4,4,5,5,6,6,7,7,8,8,9,9,10,10,11,11,12,12,13,13,14,14,15,15,16,16,17,17,18,18,19,19,20,20,21,21,22,22,23,23,24,24,25,25,26,26,27,27,28,28,29,29,30,30],"right_children":[2,4,6,8,10,12,14,16,18,20,22,24,26,28,30,32,34,36,38,40,42,44,46,48,50,52,54,56,58,60,62,-1,-1,-1,-1,-1,-1,-1,-1,-1,-1,-1,-1,-1,-1,-1,-1,-1,-1,-1,-1,-1,-1,-1,-1,-1,-1,-1,-1,-1,-1,-1,-1],"split_conditions":[2.2416668E0,2.16775E2,2.4865E2,1.3583333E0,8.6020696E-1,3.5083332E0,7.6678024E1,1.0651261E0,4.5012397E-1,1.4583334E0,3.5847105E-2,3.269365E-1,6.219116E-2,9.3E-1,7.2758865E-1,1.4258334E2,6.382638E1,1.7629166E2,1.82125E2,5E-1,2.5565E2,3.03E2,8.7E-1,1.999E2,2.9352564E-2,5.4299654E-3,3.6916666E0,2.4413088E1,3.1842792E2,9.85E1,3.6639847E1,5.4385718E-2,6.873659E-2,1.262069E-1,8.122951E-2,7.3234424E-2,8.940233E-2,9.728814E-2,1.268212E-1,7.963889E-2,9.93871E-2,1.07807375E-1,1.3606061E-1,1.2581198E-1,1.9535714E-1,9E-2,3.057143E-1,9.61326E-2,1.3065657E-1,1.4360417E-1,1.927907E-1,2.0080645E-1,1.2964286E-1,1.4125E-1,3.1818184E-1,7.333333E-2,1.895E-1,3.401613E-1,8.6666666E-2,1.8051283E-1,2.7500002E-2,2.53125E-1,5.5000003E-2],"split_indices":[5,10,10,5,31,5,1,31,31,5,8,31,8,6,31,10,17,10,10,30,10,10,6,10,8,19,5,2,7,20,2,0,0,0,0,0,0,0,0,0,0,0,0,0,0,0,0,0,0,0,0,0,0,0,0,0,0,0,0,0,0,0,0],"split_type":[0,0,0,0,0,0,0,0,0,0,0,0,0,0,0,0,0,0,0,0,0,0,0,0,0,0,0,0,0,0,0,0,0,0,0,0,0,0,0,0,0,0,0,0,0,0,0,0,0,0,0,0,0,0,0,0,0,0,0,0,0,0,0],"sum_hessian":[3.921E3,3.13E3,7.91E2,2.279E3,8.51E2,6.46E2,1.45E2,1.275E3,1.004E3,7.07E2,1.44E2,5.59E2,8.7E1,4.3E1,1.02E2,1.187E3,8.8E1,6.78E2,3.26E2,3.33E2,3.74E2,1.29E2,1.5E1,2.78E2,2.81E2,7.4E1,1.3E1,1.1E1,3.2E1,7.8E1,2.4E1,3.49E2,8.38E2,2.8E1,6E1,3.36E2,3.42E2,1.76E2,1.5E2,1.79E2,1.54E2,2.43E2,1.31E2,1.16E2,1.3E1,2E0,1.3E1,1.8E2,9.8E1,2.39E2,4.2E1,6.1E1,1.3E1,3E0,1E1,2E0,9E0,3E1,2E0,7.7E1,1E0,2.3E1,1E0],"tree_param":{"num_deleted":"0","num_feature":"36","num_nodes":"63","size_leaf_vector":"0"}},{"base_weights":[1.9144896E0,1.5089862E0,2.6706853E0,1.2709128E0,1.9088453E0,2.3926232E0,3.7437434E0,1.1514072E0,1.6731828E0,2.8757331E0,1.7490983E0,2.2794638E0,3.4367669E0,3.4809916E0,5.8260665E0,8.7254405E-1,1.3256041E0,1.416097E0,1.8565443E0,2.596104E0,4.53356E0,1.5319155E0,2.249363E0,1.9895041E0,2.504072E0,2.8787856E0,4.426265E0,3.1810083E0,4.4741297E0,9.346717E-1,5.9625053E0,7.4315846E-1,1.0452206E0,1.1567744E0,1.4320388E0,1.2020955E0,1.6340443E0,1.8868657E0,8.512797E-1,4.063372E0,2.4055064E0,4.90499E0,1.0414095E0,1.2488924E0,1.7213572E0,2.1767464E0,6.116638E0,1.8329148E0,2.204963E0,3.562811E0,2.4301732E0,2.0432663E0,3.1721282E0,6.498923E0,3.7951021E0,2.7508457E0,3.3815472E0,3.6801991E0,5.0395293E0,2.5892062E0,6.252147E0],"categories":[],"categories_nodes":[],"categories_segments":[],"categories_sizes":[],"default_left":[1,1,1,1,1,1,1,1,1,1,1,1,1,1,1,1,1,1,1,1,1,1,1,1,1,1,1,1,1,0,1,0,0,0,0,0,0,0,0,0,0,0,0,0,0,0,0,0,0,0,0,0,0,0,0,0,0,0,0,0,0],"id":1,"left_children":[1,3,5,7,9,11,13,15,17,19,21,23,25,27,29,31,33,35,37,39,41,43,45,47,49,51,53,55,57,-1,59,-1,-1,-1,-1,-1,-1,-1,-1,-1,-1,-1,-1,-1,-1,-1,-1,-1,-1,-1,-1,-1,-1,-1,-1,-1,-1,-1,-1,-1,-1],"loss_changes":[1.2041318E3,2.419414E2,4.010127E2,7.5568115E1,1.4263159E2,1.21427246E2,1.3346436E2,5.937036E1,1.4671265E1,5.034973E1,8.597217E1,5.949414E1,4.523047E1,6.0844727E1,1.4448303E1,9.992035E0,1.2089966E1,5.358368E0,4.8252563E0,2.2945557E1,1.8239563E1,2.8786865E1,5.6050415E1,1.0702148E1,3.4686523E1,1.0674988E1,2.2430542E1,7.6920166E0,6.5913086E0,0E0,1.2146362E1,0E0,0E0,0E0,0E0,0E0,0E0,0E0,0E0,0E0,0E0,0E0,0E0,0E0,0E0,0E0,0E0,0E0,0E0,0E0,0E0,0E0,0E0,0E0,0E0,0E0,0E0,0E0,0E0,0E0,0E0],"parents":[2147483647,0,0,1,1,2,2,3,3,4,4,5,5,6,6,7,7,8,8,9,9,10,10,11,11,12,12,13,13,14,14,15,15,16,16,17,17,18,18,19,19,20,20,21,21,22,22,23,23,24,24,25,25,26,26,27,27,28,28,30,30],"right_children":[2,4,6,8,10,12,14,16,18,20,22,24,26,28,30,32,34,36,38,40,42,44,46,48,50,52,54,56,58,-1,60,-1,-1,-1,-1,-1,-1,-1,-1,-1,-1,-1,-1,-1,-1,-1,-1,-1,-1,-1,-1,-1,-1,-1,-1,-1,-1,-1,-1,-1,-1],"split_conditions":[1.75E0,1.6042781E-4,2.75E0,2.13125E2,2.1589066E2,3.113368E-2,4.1499996E0,1.1500001E0,3.3568075E-1,5.8427557E-2,2.0979166E2,1.9170834E2,6.980084E-1,1.43341785E-2,1.6774624E1,1.68875E2,1.3499999E0,1.3499999E0,5.1499996E0,1.619264E-3,8.356355E1,1.1500001E0,1.5237391E-1,2.15E0,6.5885956E1,1.18E2,3.337785E-2,1.89875E2,5.708983E-1,4.6733584E-2,1.8219744E-1,3.7157923E-2,5.2261032E-2,5.783872E-2,7.160194E-2,6.0104776E-2,8.170222E-2,9.434329E-2,4.2563986E-2,2.0316862E-1,1.2027532E-1,2.4524951E-1,5.2070476E-2,6.2444624E-2,8.606786E-2,1.0883732E-1,3.058319E-1,9.164574E-2,1.1024815E-1,1.7814055E-1,1.2150866E-1,1.02163315E-1,1.5860641E-1,3.2494614E-1,1.8975511E-1,1.3754229E-1,1.6907737E-1,1.8400995E-1,2.5197646E-1,1.2946032E-1,3.1260738E-1],"split_indices":[15,8,15,10,7,8,15,15,31,8,10,10,31,8,2,10,15,15,22,8,25,15,8,15,1,24,8,10,31,0,31,0,0,0,0,0,0,0,0,0,0,0,0,0,0,0,0,0,0,0,0,0,0,0,0,0,0,0,0,0,0],"split_type":[0,0,0,0,0,0,0,0,0,0,0,0,0,0,0,0,0,0,0,0,0,0,0,0,0,0,0,0,0,0,0,0,0,0,0,0,0,0,0,0,0,0,0,0,0,0,0,0,0,0,0,0,0,0,0,0,0,0,0,0,0],"sum_hessian":[3.939E3,2.566E3,1.373E3,1.611E3,9.55E2,1.093E3,2.8E2,1.245E3,3.66E2,1.33E2,8.22E2,9.89E2,1.04E2,2.51E2,2.9E1,4.81E2,7.64E2,1.56E2,2.1E2,1.16E2,1.7E1,5.76E2,2.46E2,4.36E2,5.53E2,6.9E1,3.5E1,1.96E2,5.5E1,1E0,2.8E1,2.78E2,2.03E2,3E2,4.64E2,8.2E1,7.4E1,2.03E2,7E0,1.1E1,1.05E2,1.5E1,2E0,2.34E2,3.42E2,2.43E2,3E0,2.58E2,1.78E2,3.3E1,5.2E2,2E1,4.9E1,6E0,2.9E1,6.7E1,1.29E2,2.6E1,2.9E1,3E0,2.5E1],"tree_param":{"num_deleted":"0","num_feature":"36","num_nodes":"61","size_leaf_vector":"0"}},{"base_weights":[1.8144224E0,1.5530357E0,2.8850114E0,1.2332139E0,1.8627551E0,2.7375236E0,5.055662E0,1.0132805E0,1.597544E0,1.7400496E0,2.8919067E0,2.498623E0,3.4176729E0,2.2698622E0,5.2573285E0,8.4712464E-1,1.1896105E0,1.2458637E0,1.8752823E0,1.6022489E0,2.051949E0,2.644556E0,4.718508E0,2.2922337E0,2.9978096E0,4.585797E0,2.9424129E0,3.8293667E0,5.6731467E0,6.850284E-1,9.689927E-1,1.1490129E0,1.7300769E0,9.399034E-1,1.3900267E0,2.3017051E0,1.7079424E0,1.4635061E0,1.8700968E0,1.9951503E0,3.9020345E0,3.4770668E0,2.2387934E0,2.3519952E0,5.6298213E0,2.204314E0,3.2650015E0,3.0134206E0,2.9686052E-1,6.7615294E0,3.7640386E0,2.6080246E0,3.6986494E0],"categories":[],"categories_nodes":[],"categories_segments":[],"categories_sizes":[],"default_left":[1,1,1,1,1,1,1,1,1,1,1,1,1,0,1,1,1,1,1,1,1,1,1,1,1,1,1,0,0,0,0,0,0,0,0,0,0,0,0,0,0,0,0,0,0,0,0,0,0,0,0,0,0],"id":2,"left_children":[1,3,5,7,9,11,13,15,17,19,21,23,25,-1,27,29,31,33,35,37,39,41,43,45,47,49,51,-1,-1,-1,-1,-1,-1,-1,-1,-1,-1,-1,-1,-1,-1,-1,-1,-1,-1,-1,-1,-1,-1,-1,-1,-1,-1],"loss_changes":[1.0994785E3,3.120039E2,2.3363184E2,1.2370215E2,1.982832E2,1.0942676E2,1.5033081E1,2.7645935E1,5.49989E1,5.8646484E1,6.432959E1,4.8865723E1,8.9766846E1,0E0,4.401367E0,9.351654E0,8.36853E0,1.0249817E1,1.9331299E1,3.4573486E1,3.8240845E1,4.3561523E1,2.7734741E1,2.590149E1,5.640869E0,6.7521484E1,2.4492188E1,0E0,0E0,0E0,0E0,0E0,0E0,0E0,0E0,0E0,0E0,0E0,0E0,0E0,0E0,0E0,0E0,0E0,0E0,0E0,0E0,0E0,0E0,0E0,0E0,0E0,0E0],"parents":[2147483647,0,0,1,1,2,2,3,3,4,4,5,5,6,6,7,7,8,8,9,9,10,10,11,11,12,12,14,14,15,15,16,16,17,17,18,18,19,19,20,20,21,21,22,22,23,23,24,24,25,25,26,26],"right_children":[2,4,6,8,10,12,14,16,18,20,22,24,26,-1,28,30,32,34,36,38,40,42,44,46,48,50,52,-1,-1,-1,-1,-1,-1,-1,-1,-1,-1,-1,-1,-1,-1,-1,-1,-1,-1,-1,-1,-1,-1,-1,-1,-1,-1],"split_conditions":[2.15E0,1.3499999E0,3.85E0,1.6042781E-4,2.4360282E-2,2.37375E2,2.427004E-1,1.75875E2,1.8571667E2,2.2556391E-4,2.7421667E2,2.75E0,7.378471E1,1.1349311E-1,4.05E0,1.05E0,2.683333E2,1.7822954E-1,6.75757E1,1.75E0,1.507729E0,2.3540666E2,5E-1,3.1192917E-2,5.0083336E1,6.1464645E1,9.435065E-3,1.9146834E-1,2.8365734E-1,3.4251418E-2,4.8449636E-2,5.745065E-2,8.650385E-2,4.699517E-2,6.950133E-2,1.1508526E-1,8.539712E-2,7.31753E-2,9.350484E-2,9.9757515E-2,1.9510172E-1,1.7385334E-1,1.1193967E-1,1.1759976E-1,2.8149107E-1,1.102157E-1,1.6325007E-1,1.5067104E-1,1.4843026E-2,3.3807647E-1,1.8820193E-1,1.3040124E-1,1.8493247E-1],"split_indices":[15,15,15,8,8,10,31,10,10,8,10,15,25,0,15,15,10,31,17,15,31,7,13,8,21,0,8,0,0,0,0,0,0,0,0,0,0,0,0,0,0,0,0,0,0,0,0,0,0,0,0,0,0],"split_type":[0,0,0,0,0,0,0,0,0,0,0,0,0,0,0,0,0,0,0,0,0,0,0,0,0,0,0,0,0,0,0,0,0,0,0,0,0,0,0,0,0,0,0,0,0,0,0,0,0,0,0,0,0],"sum_hessian":[3.944E3,3.172E3,7.72E2,1.563E3,1.609E3,7.25E2,4.7E1,9.77E2,5.86E2,1.44E3,1.69E2,5.4E2,1.85E2,4E0,4.3E1,5.06E2,4.71E2,2.61E2,3.25E2,1.003E3,4.37E2,1.51E2,1.8E1,3.86E2,1.54E2,5.1E1,1.34E2,1.2E1,3.1E1,2.2E2,2.86E2,4.41E2,3E1,8.6E1,1.75E2,8.8E1,2.37E2,6.65E2,3.38E2,4.26E2,1.1E1,4.7E1,1.04E2,6E0,1.2E1,3.57E2,2.9E1,1.53E2,1E0,1.2E1,3.9E1,9.6E1,3.8E1],"tree_param":{"num_deleted":"0","num_feature":"36","num_nodes":"53","size_leaf_vector":"0"}},{"base_weights":[1.7371413E0,1.55982E0,2.5767395E0,1.1100564E0,1.6902375E0,4.9863296E0,2.4188426E0,1.3567373E0,1.0293851E0,2.4793353E0,1.6064487E0,3.541165E0,5.60452E0,4.0525427E0,2.288911E0,1.0773969E0,1.6088898E0,9.937562E-1,1.5461178E0,2.1423492E0,3.231201E0,1.4165816E0,1.75767E0,4.1059585E0,1.5903862E0,9.2084396E-1,5.749244E0,2.1628938E0,5.190071E0,2.204607E0,3.4385805E0,1.5011923E0,9.2848486E-1,1.511021E0,2.7435277E0,1.1001382E0,8.3046407E-1,1.6471363E0,6.3078266E-1,1.4837337E0,2.3712432E0,3.9874992E0,2.317757E0,1.351206E0,1.7416211E0,1.6243923E0,2.0750852E0,5.8982267E0,1.012337E0,2.6079693E0,1.2249187E0,5.534588E0,1.7393208E0,1.9854349E0,2.538333E0,4.042868E0,2.5089743E0],"categories":[],"categories_nodes":[],"categories_segments":[],"categories_sizes":[],"default_left":[1,1,1,1,1,1,1,1,1,1,1,1,1,1,1,1,1,1,1,1,1,1,1,0,0,0,1,1,1,1,1,0,0,0,0,0,0,0,0,0,0,0,0,0,0,0,0,0,0,0,0,0,0,0,0,0,0],"id":3,"left_children":[1,3,5,7,9,11,13,15,17,19,21,23,25,27,29,31,33,35,37,39,41,43,45,-1,-1,-1,47,49,51,53,55,-1,-1,-1,-1,-1,-1,-1,-1,-1,-1,-1,-1,-1,-1,-1,-1,-1,-1,-1,-1,-1,-1,-1,-1,-1,-1],"loss_changes":[5.7958496E2,1.8811426E2,2.4741748E2,1.3150391E1,1.6190625E2,1.6782349E1,1.2700073E2,1.0733826E1,8.6813965E0,5.363257E1,6.2714844E1,9.99675E0,1.3007568E1,8.765277E1,5.028174E1,4.0965805E0,5.9596252E0,8.154236E0,2.1048584E0,2.1808167E1,4.049817E1,1.915149E1,4.993286E1,0E0,0E0,0E0,1.2377686E1,4.7373657E0,2.3661194E1,3.5847656E1,1.17647705E1,0E0,0E0,0E0,0E0,0E0,0E0,0E0,0E0,0E0,0E0,0E0,0E0,0E0,0E0,0E0,0E0,0E0,0E0,0E0,0E0,0E0,0E0,0E0,0E0,0E0,0E0],"parents":[2147483647,0,0,1,1,2,2,3,3,4,4,5,5,6,6,7,7,8,8,9,9,10,10,11,11,12,12,13,13,14,14,15,15,16,16,17,17,18,18,19,19,20,20,21,21,22,22,26,26,27,27,28,28,29,29,30,30],"right_children":[2,4,6,8,10,12,14,16,18,20,22,24,26,28,30,32,34,36,38,40,42,44,46,-1,-1,-1,48,50,52,54,56,-1,-1,-1,-1,-1,-1,-1,-1,-1,-1,-1,-1,-1,-1,-1,-1,-1,-1,-1,-1,-1,-1,-1,-1,-1,-1],"split_conditions":[2.3658334E2,1.5019643E2,6.3707985E1,7.16358E1,6.514719E1,1.3816666E2,6.1103813E1,3.098116E-1,1.4441666E2,6.1046124E-2,1.15625E2,8.120978E1,6.756834E1,2.620476E2,3.15875E2,6.531282E1,1.1453571E0,6.4993805E1,2.4358368E0,2.690637E-1,6.8869064E1,6.4785373E-1,5E-1,2.0529793E-1,7.951931E-2,4.60422E-2,6.7363863E0,2.288464E0,9.24435E1,5.360037E-1,8.5019684E1,7.5059615E-2,4.6424244E-2,7.5551055E-2,1.3717638E-1,5.500691E-2,4.1523203E-2,8.235682E-2,3.1539135E-2,7.418668E-2,1.1856216E-1,1.9937496E-1,1.1588784E-1,6.75603E-2,8.708106E-2,8.121961E-2,1.0375426E-1,2.9491135E-1,5.061685E-2,1.3039847E-1,6.1245937E-2,2.767294E-1,8.696604E-2,9.9271744E-2,1.2691665E-1,2.0214342E-1,1.2544872E-1],"split_indices":[10,10,1,1,1,24,17,31,24,26,24,32,32,10,10,17,31,0,3,31,17,31,13,0,0,0,28,3,1,31,1,0,0,0,0,0,0,0,0,0,0,0,0,0,0,0,0,0,0,0,0,0,0,0,0,0,0],"split_type":[0,0,0,0,0,0,0,0,0,0,0,0,0,0,0,0,0,0,0,0,0,0,0,0,0,0,0,0,0,0,0,0,0,0,0,0,0,0,0,0,0,0,0,0,0,0,0,0,0,0,0,0,0,0,0,0,0],"sum_hessian":[3.919E3,3.238E3,6.81E2,7.3E2,2.508E3,4E1,6.41E2,1.76E2,5.54E2,2.38E2,2.27E3,1.4E1,2.6E1,4.5E1,5.96E2,8.6E1,9E1,5.21E2,3.3E1,1.67E2,7.1E1,1.011E3,1.259E3,1E1,4E0,1E0,2.5E1,1.8E1,2.7E1,5.58E2,3.8E1,2E1,6.6E1,8.5E1,5E0,3.12E2,2.09E2,2.9E1,4E0,4.5E1,1.22E2,3.7E1,3.4E1,8.46E2,1.65E2,8.91E2,3.68E2,2.4E1,1E0,1.1E1,7E0,2.4E1,3E0,3.41E2,2.17E2,2.1E1,1.7E1],"tree_param":{"num_deleted":"0","num_feature":"36","num_nodes":"57","size_leaf_vector":"0"}},{"base_weights":[1.6475865E0,1.2810642E0,2.3510435E0,1.0665578E0,1.6345432E0,2.0914242E0,3.3760056E0,8.982097E-1,1.3341945E0,1.1871599E0,1.8577837E0,1.9737345E0,2.7378E0,4.8966503E0,3.1582792E0,8.1397855E-1,1.2841111E0,1.2285125E0,1.5391133E0,3.366139E0,1.1497542E0,3.2849393E0,1.7609954E0,1.8563676E0,2.4224944E0,3.2373972E0,2.3990629E0,5.6821213E0,3.6276414E0,2.909891E0,4.2540545E0,6.624356E-1,9.3014896E-1,2.1212199E0,1.209925E0,8.4578395E-1,1.2717402E0,1.1929443E0,1.6361142E0,1.0819322E0,1.7760847E0,2.1820557E0,5.177291E0,1.6907622E0,2.7718482E0,1.7283714E0,2.0080438E0,1.9298505E0,2.7604241E0,3.9268591E0,2.742785E0,2.101586E0,2.9483607E0,1.300636E0,5.863348E0,1.2517709E0,3.89687E0,2.6470344E0,3.3954976E0,8.049225E-1,4.3185472E0],"categories":[],"categories_nodes":[],"categories_segments":[],"categories_sizes":[],"default_left":[1,1,1,1,1,1,1,1,1,1,1,1,1,1,1,1,1,1,1,0,1,1,1,1,1,1,1,1,1,1,1,0,0,0,0,0,0,0,0,0,0,0,0,0,0,0,0,0,0,0,0,0,0,0,0,0,0,0,0,0,0],"id":4,"left_children":[1,3,5,7,9,11,13,15,17,19,21,23,25,27,29,31,33,35,37,-1,39,41,43,45,47,49,51,53,55,57,59,-1,-1,-1,-1,-1,-1,-1,-1,-1,-1,-1,-1,-1,-1,-1,-1,-1,-1,-1,-1,-1,-1,-1,-1,-1,-1,-1,-1,-1,-1],"loss_changes":[1.00949805E3,1.9418457E2,3.5057764E2,7.1387085E1,9.507178E1,7.6373535E1,7.392798E1,3.1199707E1,1.1536011E1,2.2782318E1,8.372485E1,4.3589844E1,1.9818115E1,1.1283936E1,5.267163E1,1.3766968E1,8.363403E0,5.7738037E0,4.9990234E0,0E0,1.1799133E1,7.218463E1,3.8549683E1,1.0662842E1,2.5637817E1,1.0713501E1,1.0307495E1,6.666687E0,4.716797E0,1.6285645E1,5.866516E0,0E0,0E0,0E0,0E0,0E0,0E0,0E0,0E0,0E0,0E0,0E0,0E0,0E0,0E0,0E0,0E0,0E0,0E0,0E0,0E0,0E0,0E0,0E0,0E0,0E0,0E0,0E0,0E0,0E0,0E0],"parents":[2147483647,0,0,1,1,2,2,3,3,4,4,5,5,6,6,7,7,8,8,9,9,10,10,11,11,12,12,13,13,14,14,15,15,16,16,17,17,18,18,20,20,21,21,22,22,23,23,24,24,25,25,26,26,27,27,28,28,29,29,30,30],"right_children":[2,4,6,8,10,12,14,16,18,20,22,24,26,28,30,32,34,36,38,-1,40,42,44,46,48,50,52,54,56,58,60,-1,-1,-1,-1,-1,-1,-1,-1,-1,-1,-1,-1,-1,-1,-1,-1,-1,-1,-1,-1,-1,-1,-1,-1,-1,-1,-1,-1,-1,-1],"split_conditions":[1.75E0,1.6042781E-4,2.75E0,1.3499999E0,1.7535E2,1.9569423E-2,6.1130524E1,2.1541666E2,2.0646667E2,5.6636444E1,5.9624275E1,2.3758334E2,2.477109E2,1.38E1,3.85E0,1.05E0,1.015E1,1.2616667E2,2.0809944E-1,1.6830695E-1,5.5602483E-2,2.1994444E2,5E-1,1.9175E2,4.0134227E-1,3.4473022E1,5.030666E-1,1.2730677E-1,3.6125E1,4.3809526E-3,1.6774624E1,3.312178E-2,4.6507448E-2,1.06061E-1,6.0496252E-2,4.2289197E-2,6.358701E-2,5.9647214E-2,8.180571E-2,5.409661E-2,8.880424E-2,1.09102786E-1,2.5886455E-1,8.453811E-2,1.385924E-1,8.641857E-2,1.0040219E-1,9.649252E-2,1.3802122E-1,1.9634296E-1,1.3713925E-1,1.0507931E-1,1.4741804E-1,6.5031804E-2,2.931674E-1,6.258854E-2,1.948435E-1,1.3235173E-1,1.6977488E-1,4.0246125E-2,2.1592736E-1],"split_indices":[15,8,15,15,10,8,17,10,10,17,1,10,7,11,15,15,11,10,31,0,8,10,12,10,31,34,31,31,21,8,2,0,0,0,0,0,0,0,0,0,0,0,0,0,0,0,0,0,0,0,0,0,0,0,0,0,0,0,0,0,0],"split_type":[0,0,0,0,0,0,0,0,0,0,0,0,0,0,0,0,0,0,0,0,0,0,0,0,0,0,0,0,0,0,0,0,0,0,0,0,0,0,0,0,0,0,0,0,0,0,0,0,0,0,0,0,0,0,0,0,0,0,0,0,0],"sum_hessian":[3.926E3,2.583E3,1.343E3,1.61E3,9.73E2,1.074E3,2.69E2,9.91E2,6.19E2,3.26E2,6.47E2,9.12E2,1.62E2,3.1E1,2.38E2,8.16E2,1.75E2,4.13E2,2.06E2,4E0,3.22E2,3.9E1,6.08E2,7.27E2,1.85E2,6.2E1,1E2,1.7E1,1.4E1,1.97E2,4.1E1,3.57E2,4.59E2,1.2E1,1.63E2,4.4E1,3.69E2,4.8E1,1.58E2,2.93E2,2.9E1,2.6E1,1.3E1,5.71E2,3.7E1,4.01E2,3.26E2,7.8E1,1.07E2,2.3E1,3.9E1,6.8E1,3.2E1,1E0,1.6E1,2E0,1.2E1,1.32E2,6.5E1,1E0,4E1],"tree_param":{"num_deleted":"0","num_feature":"36","num_nodes":"61","size_leaf_vector":"0"}},{"base_weights":[1.5654603E0,1.3226562E0,2.5941331E0,1.1008649E0,1.6255767E0,2.2543273E0,3.5999687E0,1.0453668E0,1.8076082E0,1.5186613E0,2.4458075E0,2.0413253E0,2.9716265E0,5.843223E0,3.2425954E0,9.6090496E-1,1.3389313E0,2.2401335E0,1.4095712E0,1.376077E0,1.812301E0,4.0072255E0,2.186722E0,1.7042762E0,2.366252E0,1.868975E0,3.2727058E0,6.568296E0,3.040421E0,3.0798848E0,5.4891644E0,7.854051E-1,1.0034912E0,1.2811766E0,1.9378062E0,7.414153E-1,2.3291752E0,1.1596053E0,2.0140004E0,1.2278471E0,1.5870136E0,2.5270822E0,1.7610387E0,4.547892E0,1.3675139E0,2.0317497E0,3.3013833E0,1.5516273E0,2.4498618E0,4.1678853E0,2.2889278E0,1.9988716E0,8.1971854E-1,3.4873912E0,2.0193944E0,6.9402304E0,2.2712362E0,8.2409686E-1,3.272459E0,2.7801297E0,3.8169012E0,6.33984E0,2.6281908E0],"categories":[],"categories_nodes":[],"categories_segments":[],"categories_sizes":[],"default_left":[1,1,1,1,1,1,1,1,1,1,1,1,1,1,1,1,1,1,1,1,1,1,1,1,1,1,1,1,1,1,1,0,0,0,0,0,0,0,0,0,0,0,0,0,0,0,0,0,0,0,0,0,0,0,0,0,0,0,0,0,0,0,0],"id":5,"left_children":[1,3,5,7,9,11,13,15,17,19,21,23,25,27,29,31,33,35,37,39,41,43,45,47,49,51,53,55,57,59,61,-1,-1,-1,-1,-1,-1,-1,-1,-1,-1,-1,-1,-1,-1,-1,-1,-1,-1,-1,-1,-1,-1,-1,-1,-1,-1,-1,-1,-1,-1,-1,-1],"loss_changes":[9.958828E2,2.1582324E2,2.5266943E2,7.157495E1,1.1616528E2,8.148047E1,1.3417334E2,4.183191E1,2.0084106E1,4.825049E1,5.434552E1,4.4702026E1,3.670935E1,3.0835571E1,4.4139282E1,9.331421E0,1.0868225E1,6.680359E0,8.693893E0,2.3690552E1,9.949707E0,2.3751953E1,1.6785278E1,2.1465149E1,2.1665283E1,2.4503403E0,1.9864502E1,1.46032715E1,9.030762E-1,2.4294678E1,7.675293E0,0E0,0E0,0E0,0E0,0E0,0E0,0E0,0E0,0E0,0E0,0E0,0E0,0E0,0E0,0E0,0E0,0E0,0E0,0E0,0E0,0E0,0E0,0E0,0E0,0E0,0E0,0E0,0E0,0E0,0E0,0E0,0E0],"parents":[2147483647,0,0,1,1,2,2,3,3,4,4,5,5,6,6,7,7,8,8,9,9,10,10,11,11,12,12,13,13,14,14,15,15,16,16,17,17,18,18,19,19,20,20,21,21,22,22,23,23,24,24,25,25,26,26,27,27,28,28,29,29,30,30],"right_children":[2,4,6,8,10,12,14,16,18,20,22,24,26,28,30,32,34,36,38,40,42,44,46,48,50,52,54,56,58,60,62,-1,-1,-1,-1,-1,-1,-1,-1,-1,-1,-1,-1,-1,-1,-1,-1,-1,-1,-1,-1,-1,-1,-1,-1,-1,-1,-1,-1,-1,-1,-1,-1],"split_conditions":[2.275E0,1.4583334E0,2.3770834E2,1.0751705E0,7.789344E-1,2.4781598E-2,6.914364E1,2.1729166E2,2.0241914E0,2.1341666E2,5.936042E1,3.1431234E-1,1.8027711E-1,6.9007576E1,4.208333E0,1.34375E2,9.03468E-1,1.9847519E1,2.1496667E2,3.48311E-1,6.479167E1,4.8500004E0,4.7980115E-2,3.375E0,5.851612E1,2.505117E0,8.423724E1,5.8879995E0,5.263754E1,2.0917766E-2,7.3042015E1,3.9270256E-2,5.017456E-2,6.405883E-2,9.6890315E-2,3.7070766E-2,1.16458766E-1,5.7980265E-2,1.0070002E-1,6.1392356E-2,7.935068E-2,1.2635411E-1,8.805194E-2,2.2739461E-1,6.83757E-2,1.0158749E-1,1.6506916E-1,7.758137E-2,1.2249309E-1,2.0839427E-1,1.14446394E-1,9.994358E-2,4.0985927E-2,1.7436956E-1,1.00969724E-1,3.4701154E-1,1.1356181E-1,4.1204844E-2,1.6362296E-1,1.3900648E-1,1.9084506E-1,3.16992E-1,1.3140954E-1],"split_indices":[5,5,10,31,31,8,1,10,3,10,17,31,31,0,5,10,31,2,10,31,1,22,8,5,17,3,1,28,1,8,25,0,0,0,0,0,0,0,0,0,0,0,0,0,0,0,0,0,0,0,0,0,0,0,0,0,0,0,0,0,0,0,0],"split_type":[0,0,0,0,0,0,0,0,0,0,0,0,0,0,0,0,0,0,0,0,0,0,0,0,0,0,0,0,0,0,0,0,0,0,0,0,0,0,0,0,0,0,0,0,0,0,0,0,0,0,0,0,0,0,0,0,0,0,0,0,0,0,0],"sum_hessian":[4E3,3.238E3,7.62E2,1.872E3,1.366E3,5.72E2,1.9E2,1.738E3,1.34E2,1.211E3,1.55E2,4.44E2,1.28E2,2.4E1,1.66E2,1.353E3,3.85E2,6.2E1,7.2E1,8.19E2,3.92E2,2E1,1.35E2,2.21E2,2.23E2,2.9E1,9.9E1,1.8E1,6E0,1.57E2,9E0,2.68E2,1.085E3,3.54E2,3.1E1,4E0,5.8E1,5.3E1,1.9E1,4.85E2,3.34E2,2.3E1,3.69E2,1.6E1,4E0,1.21E2,1.4E1,1.86E2,3.5E1,7E0,2.16E2,2.5E1,4E0,8.3E1,1.6E1,1.6E1,2E0,1E0,5E0,1.15E2,4.2E1,6E0,3E0],"tree_param":{"num_deleted":"0","num_feature":"36","num_nodes":"63","size_leaf_vector":"0"}},{"base_weights":[1.5079184E0,1.2590027E0,2.428978E0,9.678937E-1,1.962093E0,2.1383314E0,3.2921195E0,7.700373E-1,1.2598114E0,1.7342103E0,2.759558E0,1.9649338E0,3.1879156E0,2.7652953E0,4.019572E0,5.554193E-1,9.639737E-1,9.679305E-1,1.4188123E0,1.5802747E0,2.0499346E0,2.4562054E0,3.9961436E0,1.6881562E0,2.4530568E0,2.9772203E0,6.0900097E0,3.2279153E0,2.1178167E0,3.7012846E0,6.660212E0,4.5161638E-1,6.597728E-1,9.019947E-1,1.1515514E0,9.047188E-1,1.4674653E0,1.2580405E0,1.6437393E0,1.5230742E0,2.2100427E0,2.5860038E0,1.9269363E0,2.3473465E0,3.316441E0,2.417146E0,4.4028273E0,1.4969239E0,2.2180843E0,2.3492103E0,4.139295E0,3.3767836E0,2.3506699E0,6.708664E0,1.8076963E0,4.5996323E0,2.8411574E0,1.6780752E0,2.862691E0,4.088878E0,2.7005277E0],"categories":[],"categories_nodes":[],"categories_segments":[],"categories_sizes":[],"default_left":[1,1,1,1,1,1,1,1,1,1,1,1,1,1,1,1,1,1,1,1,1,1,1,1,1,1,1,1,1,1,0,0,0,0,0,0,0,0,0,0,0,0,0,0,0,0,0,0,0,0,0,0,0,0,0,0,0,0,0,0,0],"id":6,"left_children":[1,3,5,7,9,11,13,15,17,19,21,23,25,27,29,31,33,35,37,39,41,43,45,47,49,51,53,55,57,59,-1,-1,-1,-1,-1,-1,-1,-1,-1,-1,-1,-1,-1,-1,-1,-1,-1,-1,-1,-1,-1,-1,-1,-1,-1,-1,-1,-1,-1,-1,-1],"loss_changes":[9.043779E2,6.3628076E2,2.039414E2,1.2650122E2,1.6095068E2,1.0875708E2,6.936499E1,5.4322693E1,3.993103E1,3.1364502E1,6.5583984E1,6.948926E1,3.567682E1,3.0605957E1,4.7630005E1,6.504669E0,6.994812E0,8.682098E0,1.8689087E1,1.4033081E1,1.0182068E1,7.572876E0,1.37595215E1,3.2249817E1,2.4422363E1,1.3091431E1,1.1191254E0,2.4598877E1,1.3211563E1,1.9600952E1,0E0,0E0,0E0,0E0,0E0,0E0,0E0,0E0,0E0,0E0,0E0,0E0,0E0,0E0,0E0,0E0,0E0,0E0,0E0,0E0,0E0,0E0,0E0,0E0,0E0,0E0,0E0,0E0,0E0,0E0,0E0],"parents":[2147483647,0,0,1,1,2,2,3,3,4,4,5,5,6,6,7,7,8,8,9,9,10,10,11,11,12,12,13,13,14,14,15,15,16,16,17,17,18,18,19,19,20,20,21,21,22,22,23,23,24,24,25,25,26,26,27,27,28,28,29,29],"right_children":[2,4,6,8,10,12,14,16,18,20,22,24,26,28,30,32,34,36,38,40,42,44,46,48,50,52,54,56,58,60,-1,-1,-1,-1,-1,-1,-1,-1,-1,-1,-1,-1,-1,-1,-1,-1,-1,-1,-1,-1,-1,-1,-1,-1,-1,-1,-1,-1,-1,-1,-1],"split_conditions":[2.1916666E0,1.8499999E0,5.776181E-1,1.475E0,2.75E0,3.375E0,2.298E2,1.25E0,1.1500001E0,1.6083333E0,2.6773334E2,1.75E0,5.6916666E0,6.8894394E1,5E-1,1.05E0,1.6500001E0,3.464842E-2,4.1219005E-1,1.144958E0,6.626253E1,3.85E0,5.99E0,2.2075E2,3.65E0,2.5912216E2,7.867999E1,2.165033E2,7.273392E1,1.335E1,3.330106E-1,2.258082E-2,3.298864E-2,4.5099735E-2,5.757757E-2,4.5235943E-2,7.3373266E-2,6.2902026E-2,8.218697E-2,7.615371E-2,1.1050214E-1,1.2930019E-1,9.634682E-2,1.1736733E-1,1.6582206E-1,1.208573E-1,2.2014137E-1,7.48462E-2,1.1090422E-1,1.1746051E-1,2.0696476E-1,1.6883919E-1,1.175335E-1,3.3543321E-1,9.038482E-2,2.2998162E-1,1.4205788E-1,8.390376E-2,1.4313455E-1,2.0444392E-1,1.3502638E-1],"split_indices":[5,15,31,5,15,5,10,15,15,5,10,15,5,17,12,15,15,8,31,31,17,15,35,10,15,7,1,7,17,11,0,0,0,0,0,0,0,0,0,0,0,0,0,0,0,0,0,0,0,0,0,0,0,0,0,0,0,0,0,0,0],"split_type":[0,0,0,0,0,0,0,0,0,0,0,0,0,0,0,0,0,0,0,0,0,0,0,0,0,0,0,0,0,0,0,0,0,0,0,0,0,0,0,0,0,0,0,0,0,0,0,0,0,0,0,0,0,0,0,0,0,0,0,0,0],"sum_hessian":[3.957E3,3.117E3,8.4E2,2.206E3,9.11E2,6.31E2,2.09E2,1.317E3,8.89E2,7.11E2,2E2,5.44E2,8.7E1,1.24E2,8.5E1,6.27E2,6.9E2,3.16E2,5.73E2,4.82E2,2.29E2,1.63E2,3.7E1,3.5E2,1.94E2,8.3E1,4E0,7E1,5.4E1,7.8E1,7E0,3.17E2,3.1E2,5.23E2,1.67E2,2.83E2,3.3E1,3.38E2,2.35E2,4.45E2,3.7E1,3.9E1,1.9E2,1.48E2,1.5E1,9E0,2.8E1,2.6E2,9E1,1.85E2,9E0,4.8E1,3.5E1,3E0,1E0,1.3E1,5.7E1,3.6E1,1.8E1,5.4E1,2.4E1],"tree_param":{"num_deleted":"0","num_feature":"36","num_nodes":"61","size_leaf_vector":"0"}},{"base_weights":[1.4161437E0,1.1900617E0,2.3226662E0,1.0058966E0,2.1951714E0,1.896318E0,2.834938E0,7.694515E-1,1.2396895E0,1.9275073E0,3.3314447E0,1.7396165E0,2.8734403E0,2.5861864E0,3.7774794E0,5.586771E-1,9.912625E-1,1.0060896E0,1.4459366E0,1.2027982E0,2.0977364E0,3.05013E0,5.3613443E0,1.6472447E0,2.1055198E0,2.50614E0,3.7039256E0,2.45859E0,4.2632813E0,4.7308455E0,3.1150506E0,4.5642096E-1,7.1564645E-1,8.607318E-1,1.2214442E0,8.8050705E-1,1.237538E0,1.3123618E0,1.6843675E0,1.3036726E0,4.6069637E-1,1.9596658E0,2.981411E0,2.3606656E0,3.5952065E0,1.6905451E0,6.067726E0,1.5639867E0,2.0183163E0,1.7736332E0,2.5479116E0,2.531706E0,7.033987E-1,3.8270178E0,9.287722E-1,2.329145E0,3.1655817E0,6.1181384E-1,4.4321513E0,5.294555E0,2.6597512E0,4.257727E0,2.6342742E0],"categories":[],"categories_nodes":[],"categories_segments":[],"categories_sizes":[],"default_left":[1,1,1,1,1,1,1,1,1,1,1,1,1,1,1,1,1,1,1,1,1,1,1,1,1,1,1,1,1,1,1,0,0,0,0,0,0,0,0,0,0,0,0,0,0,0,0,0,0,0,0,0,0,0,0,0,0,0,0,0,0,0,0],"id":7,"left_children":[1,3,5,7,9,11,13,15,17,19,21,23,25,27,29,31,33,35,37,39,41,43,45,47,49,51,53,55,57,59,61,-1,-1,-1,-1,-1,-1,-1,-1,-1,-1,-1,-1,-1,-1,-1,-1,-1,-1,-1,-1,-1,-1,-1,-1,-1,-1,-1,-1,-1,-1,-1,-1],"loss_changes":[8.166201E2,5.9050146E2,1.6869385E2,1.4874194E2,1.4412769E2,6.2066284E1,7.463574E1,6.251477E1,6.406909E1,4.7193604E1,3.675403E1,9.375488E0,8.71463E0,5.1147827E1,3.1365356E1,1.0812805E1,1.8658691E1,1.7541565E1,2.0720459E1,5.313263E0,3.3810547E1,2.3080994E1,1.5672089E1,6.3589478E0,6.1990967E0,2.4713135E-1,1.9111633E0,1.7336548E1,9.00415E0,1.8607727E1,1.4055084E1,0E0,0E0,0E0,0E0,0E0,0E0,0E0,0E0,0E0,0E0,0E0,0E0,0E0,0E0,0E0,0E0,0E0,0E0,0E0,0E0,0E0,0E0,0E0,0E0,0E0,0E0,0E0,0E0,0E0,0E0,0E0,0E0],"parents":[2147483647,0,0,1,1,2,2,3,3,4,4,5,5,6,6,7,7,8,8,9,9,10,10,11,11,12,12,13,13,14,14,15,15,16,16,17,17,18,18,19,19,20,20,21,21,22,22,23,23,24,24,25,25,26,26,27,27,28,28,29,29,30,30],"right_children":[2,4,6,8,10,12,14,16,18,20,22,24,26,28,30,32,34,36,38,40,42,44,46,48,50,52,54,56,58,60,62,-1,-1,-1,-1,-1,-1,-1,-1,-1,-1,-1,-1,-1,-1,-1,-1,-1,-1,-1,-1,-1,-1,-1,-1,-1,-1,-1,-1,-1,-1,-1,-1],"split_conditions":[2.15E0,2.358333E0,1.725E0,1.3499999E0,3.078754E-2,3.25E0,7.530433E-1,1.3583333E0,1.3083334E0,1.36132E-1,4.5333333E0,7.793011E-1,3.95E0,3.85E0,7.550214E1,1.1500001E0,4.2488718E-1,1.75E0,4.4728488E-1,2.8116873E-3,3.5583334E0,1.3499999E0,8.755E1,2.85E0,1.1083333E0,5.2E0,3.2375E2,3.025E0,1.6774624E1,3.341897E0,3.4347122E1,2.2821048E-2,3.5782322E-2,4.303659E-2,6.107221E-2,4.4025354E-2,6.18769E-2,6.561809E-2,8.4218375E-2,6.518363E-2,2.3034818E-2,9.798329E-2,1.4907055E-1,1.1803328E-1,1.7976032E-1,8.4527254E-2,3.033863E-1,7.8199334E-2,1.0091581E-1,8.868166E-2,1.2739559E-1,1.265853E-1,3.5169937E-2,1.9135089E-1,4.6438612E-2,1.16457246E-1,1.5827909E-1,3.0590693E-2,2.2160757E-1,2.6472777E-1,1.3298756E-1,2.1288636E-1,1.3171372E-1],"split_indices":[15,5,5,15,8,15,31,5,5,31,5,31,15,15,1,15,31,15,31,19,5,15,18,15,5,22,24,5,2,26,34,0,0,0,0,0,0,0,0,0,0,0,0,0,0,0,0,0,0,0,0,0,0,0,0,0,0,0,0,0,0,0,0],"split_type":[0,0,0,0,0,0,0,0,0,0,0,0,0,0,0,0,0,0,0,0,0,0,0,0,0,0,0,0,0,0,0,0,0,0,0,0,0,0,0,0,0,0,0,0,0,0,0,0,0,0,0,0,0,0,0,0,0,0,0,0,0,0,0],"sum_hessian":[3.997E3,3.201E3,7.96E2,2.707E3,4.94E2,4.37E2,3.59E2,1.348E3,1.359E3,4.02E2,9.2E1,3.79E2,5.8E1,2.87E2,7.2E1,6.93E2,6.55E2,6.4E2,7.19E2,7.8E1,3.24E2,8.3E1,9E0,3.07E2,7.2E1,4.3E1,1.5E1,2.69E2,1.8E1,2.7E1,4.5E1,4.22E2,2.71E2,4.21E2,2.34E2,4.18E2,2.22E2,4.65E2,2.54E2,6.8E1,1E1,2.83E2,4.1E1,3.9E1,4.4E1,2E0,7E0,2.55E2,5.2E1,4.4E1,2.8E1,4.2E1,1E0,1.4E1,1E0,2.31E2,3.8E1,1E0,1.7E1,2E1,7E0,1.1E1,3.4E1],"tree_param":{"num_deleted":"0","num_feature":"36","num_nodes":"63","size_leaf_vector":"0"}},{"base_weights":[1.3387284E0,1.1222855E0,2.2036395E0,8.766324E-1,1.3265654E0,1.862911E0,2.9094772E0,8.001603E-1,1.1298407E0,1.2356516E0,1.9495543E0,2.8265316E0,1.7190105E0,4.0082636E0,2.4649804E0,9.8882055E-1,7.559867E-1,1.1009405E0,2.330875E0,1.0866263E0,1.4110514E0,1.8471951E0,3.4452083E0,3.5687368E0,2.1640985E0,1.6050861E0,2.4950693E0,3.0194123E0,4.5913835E0,2.85959E0,2.1627574E0,2.5346634E0,9.5417225E-1,5.835611E-1,7.9626185E-1,7.630366E-1,1.1809433E0,3.2789612E0,-2.6227077E-2,1.181283E0,8.765464E-1,1.9058514E0,1.3375981E0,1.7409798E0,2.527827E0,1.2678553E0,3.9716287E0,4.7183537E0,2.3444433E0,2.6961951E0,1.7582766E0,1.7978476E0,1.2571936E0,2.0911741E0,3.235313E0,3.376835E0,2.0950603E0,4.975852E0,2.2392933E0,2.2346008E0,3.1838777E0,2.0143805E0,3.3150256E0],"categories":[],"categories_nodes":[],"categories_segments":[],"categories_sizes":[],"default_left":[1,1,1,1,1,1,1,1,1,1,1,1,1,1,1,1,1,1,1,1,1,1,1,1,1,1,1,1,1,1,1,0,0,0,0,0,0,0,0,0,0,0,0,0,0,0,0,0,0,0,0,0,0,0,0,0,0,0,0,0,0,0,0],"id":8,"left_children":[1,3,5,7,9,11,13,15,17,19,21,23,25,27,29,31,33,35,37,39,41,43,45,47,49,51,53,55,57,59,61,-1,-1,-1,-1,-1,-1,-1,-1,-1,-1,-1,-1,-1,-1,-1,-1,-1,-1,-1,-1,-1,-1,-1,-1,-1,-1,-1,-1,-1,-1,-1,-1],"loss_changes":[7.4765283E2,1.5977075E2,1.8721948E2,2.7347168E1,9.665137E1,7.0436646E1,1.1661719E2,8.619629E0,9.096436E0,3.843335E1,2.7469788E1,2.6201477E1,3.7990967E1,2.822998E1,1.6116943E1,8.829269E0,5.8895264E0,8.019867E0,1.5729145E1,1.5489319E1,2.285559E1,1.0708435E1,9.865173E0,3.256958E1,3.6808777E0,2.5703857E1,1.0874268E1,2.836853E0,2.8647034E1,8.694092E0,1.2129028E1,0E0,0E0,0E0,0E0,0E0,0E0,0E0,0E0,0E0,0E0,0E0,0E0,0E0,0E0,0E0,0E0,0E0,0E0,0E0,0E0,0E0,0E0,0E0,0E0,0E0,0E0,0E0,0E0,0E0,0E0,0E0,0E0],"parents":[2147483647,0,0,1,1,2,2,3,3,4,4,5,5,6,6,7,7,8,8,9,9,10,10,11,11,12,12,13,13,14,14,15,15,16,16,17,17,18,18,19,19,20,20,21,21,22,22,23,23,24,24,25,25,26,26,27,27,28,28,29,29,30,30],"right_children":[2,4,6,8,10,12,14,16,18,20,22,24,26,28,30,32,34,36,38,40,42,44,46,48,50,52,54,56,58,60,62,-1,-1,-1,-1,-1,-1,-1,-1,-1,-1,-1,-1,-1,-1,-1,-1,-1,-1,-1,-1,-1,-1,-1,-1,-1,-1,-1,-1,-1,-1,-1,-1],"split_conditions":[2.2416668E0,1.2583333E0,2.2108334E2,2.1225E2,2.52975E2,2.1634235E2,7.643405E1,7.250639E1,6.027764E0,1.90775E2,5.1532518E-2,1.08E1,3.5416665E0,2.4051428E2,8.54262E1,9.200001E0,9.941667E1,2.3837067E1,8.697034E1,8.535534E1,7.262737E1,3.1125E2,5.452997E1,6.898772E1,6.832348E1,8.728369E1,2.9358694E-2,1.365E2,1.435E1,2.5916667E0,2.3475E2,1.2673317E-1,4.7708612E-2,2.9178057E-2,3.9813094E-2,3.815183E-2,5.9047163E-2,1.6394806E-1,-1.3113539E-3,5.906415E-2,4.382732E-2,9.529257E-2,6.6879906E-2,8.704899E-2,1.2639135E-1,6.3392766E-2,1.9858144E-1,2.3591769E-1,1.1722217E-1,1.3480976E-1,8.791383E-2,8.989238E-2,6.285968E-2,1.0455871E-1,1.6176565E-1,1.6884176E-1,1.0475302E-1,2.487926E-1,1.11964665E-1,1.1173004E-1,1.5919389E-1,1.0071903E-1,1.6575128E-1],"split_indices":[5,5,10,10,10,7,1,1,26,10,8,11,5,10,1,11,24,2,1,1,1,10,1,17,1,1,8,24,11,5,27,0,0,0,0,0,0,0,0,0,0,0,0,0,0,0,0,0,0,0,0,0,0,0,0,0,0,0,0,0,0,0,0],"split_type":[0,0,0,0,0,0,0,0,0,0,0,0,0,0,0,0,0,0,0,0,0,0,0,0,0,0,0,0,0,0,0,0,0,0,0,0,0,0,0,0,0,0,0,0,0,0,0,0,0,0,0,0,0,0,0,0,0,0,0,0,0,0,0],"sum_hessian":[4.006E3,3.206E3,8E2,1.458E3,1.748E3,5.42E2,2.58E2,1.123E3,3.35E2,1.528E3,2.2E2,6.8E1,4.74E2,7.2E1,1.86E2,2.09E2,9.14E2,3.29E2,6E0,8.3E2,6.98E2,2.08E2,1.2E1,3E1,3.8E1,4.16E2,5.8E1,2.9E1,4.3E1,7.7E1,1.09E2,3E0,2.06E2,1.76E2,7.38E2,6.5E1,2.64E2,4E0,2E0,5.69E2,2.61E2,8.7E1,6.11E2,1.83E2,2.5E1,3E0,9E0,1.4E1,1.6E1,1.4E1,2.4E1,2.65E2,1.51E2,4E1,1.8E1,1.9E1,1E1,3.6E1,7E0,2.9E1,4.8E1,9.9E1,1E1],"tree_param":{"num_deleted":"0","num_feature":"36","num_nodes":"63","size_leaf_vector":"0"}},{"base_weights":[1.2712414E0,9.4830066E-1,1.8912272E0,8.4078676E-1,2.2898424E0,1.6322082E0,2.5339503E0,6.356011E-1,1.1140215E0,2.0298262E0,4.057882E0,1.5013136E0,2.68613E0,2.3708475E0,4.181598E0,4.78837E-1,7.9599315E-1,9.145554E-1,1.2943122E0,2.4173148E0,1.5203623E0,1.8177676E0,4.291338E0,1.2100679E0,1.6690148E0,3.757242E0,2.1576986E0,2.134142E0,3.132252E0,4.256069E0,8.620284E-1,3.9370054E-1,6.1256206E-1,9.663489E-1,7.5000256E-1,8.027915E-1,1.1724502E0,1.8865349E0,1.1962122E0,3.1019323E0,1.9548452E0,2.2448483E0,1.2612844E0,4.601828E0,2.3774035E0,1.0595541E0,1.3460385E0,1.6544682E0,4.8421087E0,4.0237284E0,1.4068748E0,2.461281E0,1.7059362E0,3.4063916E0,2.0687242E0,4.602732E0,2.7934096E0],"categories":[],"categories_nodes":[],"categories_segments":[],"categories_sizes":[],"default_left":[1,1,1,1,1,1,1,1,1,1,1,1,1,1,1,1,1,1,1,1,1,0,1,1,1,1,1,1,1,0,0,0,0,0,0,0,0,0,0,0,0,0,0,0,0,0,0,0,0,0,0,0,0,0,0,0,0],"id":9,"left_children":[1,3,5,7,9,11,13,15,17,19,21,23,25,27,29,31,33,35,37,39,41,-1,43,45,47,49,51,53,55,-1,-1,-1,-1,-1,-1,-1,-1,-1,-1,-1,-1,-1,-1,-1,-1,-1,-1,-1,-1,-1,-1,-1,-1,-1,-1,-1,-1],"loss_changes":[8.002832E2,3.7827637E2,2.2410498E2,1.3619995E2,8.140845E1,1.3116089E2,9.543091E1,3.474469E1,3.6432373E1,3.0279602E1,4.75058E0,4.066858E1,5.2455994E1,5.8017334E1,4.736328E0,7.8307037E0,4.6733704E0,1.3470428E1,2.95224E1,2.4331177E1,1.1621368E1,0E0,1.539032E0,5.184143E0,1.746814E1,1.5634735E1,5.9501038E0,1.6007202E1,2.8498413E1,0E0,0E0,0E0,0E0,0E0,0E0,0E0,0E0,0E0,0E0,0E0,0E0,0E0,0E0,0E0,0E0,0E0,0E0,0E0,0E0,0E0,0E0,0E0,0E0,0E0,0E0,0E0,0E0],"parents":[2147483647,0,0,1,1,2,2,3,3,4,4,5,5,6,6,7,7,8,8,9,9,10,10,11,11,12,12,13,13,14,14,15,15,16,16,17,17,18,18,19,19,20,20,22,22,23,23,24,24,25,25,26,26,27,27,28,28],"right_children":[2,4,6,8,10,12,14,16,18,20,22,24,26,28,30,32,34,36,38,40,42,-1,44,46,48,50,52,54,56,-1,-1,-1,-1,-1,-1,-1,-1,-1,-1,-1,-1,-1,-1,-1,-1,-1,-1,-1,-1,-1,-1,-1,-1,-1,-1,-1,-1],"split_conditions":[1.75E0,2.8083334E0,2.55E0,1.575E0,5.9901632E-2,2.6916666E0,4.1499996E0,1.25E0,1.25E0,8.569608E1,2.3816715E1,1.2583333E0,6.77978E1,2.2916665E0,3.2375E2,1.175E0,2.3022003E2,2.11125E2,2.2244681E2,2.026684E0,2.2976074E2,9.088838E-2,2.3704255E-1,2.05E0,9.851485E1,3.182036E2,3.503881E1,5.7941963E1,6.1101234E1,2.1280347E-1,4.3101422E-2,1.9685028E-2,3.0628104E-2,4.8317444E-2,3.750013E-2,4.0139575E-2,5.862251E-2,9.432675E-2,5.981061E-2,1.5509662E-1,9.774226E-2,1.12242416E-1,6.306422E-2,2.3009141E-1,1.1887018E-1,5.2977707E-2,6.730192E-2,8.272341E-2,2.4210544E-1,2.0118642E-1,7.034374E-2,1.23064056E-1,8.529681E-2,1.7031959E-1,1.0343621E-1,2.3013662E-1,1.3967048E-1],"split_indices":[15,5,15,5,8,5,15,15,15,1,2,5,17,5,24,5,7,10,7,3,7,0,19,15,1,7,34,17,17,0,0,0,0,0,0,0,0,0,0,0,0,0,0,0,0,0,0,0,0,0,0,0,0,0,0,0,0],"split_type":[0,0,0,0,0,0,0,0,0,0,0,0,0,0,0,0,0,0,0,0,0,0,0,0,0,0,0,0,0,0,0,0,0,0,0,0,0,0,0,0,0,0,0,0,0,0,0,0,0,0,0,0,0,0,0,0,0],"sum_hessian":[4.005E3,2.635E3,1.37E3,2.441E3,1.94E2,9.79E2,3.91E2,1.396E3,1.045E3,1.71E2,2.3E1,8.73E2,1.06E2,3.58E2,3.3E1,7.08E2,6.88E2,4.99E2,5.46E2,9.5E1,7.6E1,3E0,2E1,3.22E2,5.51E2,3.3E1,7.3E1,2.76E2,8.2E1,3.2E1,1E0,4.35E2,2.73E2,1.42E2,5.46E2,3.51E2,1.48E2,7.5E1,4.71E2,3.6E1,5.9E1,1.8E1,5.8E1,1.6E1,4E0,1.57E2,1.65E2,5.5E2,1E0,2.9E1,4E0,4.1E1,3.2E1,1.1E1,2.65E2,1.3E1,6.9E1],"tree_param":{"num_deleted":"0","num_feature":"36","num_nodes":"57","size_leaf_vector":"0"}},{"base_weights":[1.2194687E0,9.1757166E-1,1.7644742E0,7.4629384E-1,1.7437568E0,1.5650747E0,2.5302176E0,5.714478E-1,9.3266934E-1,1.582693E0,3.6480837E0,1.3824664E0,2.2082667E0,2.307172E0,4.0212526E0,3.991238E-1,7.3833644E-1,7.665722E-1,1.0921048E0,1.3425008E0,2.1829836E0,2.8974535E0,5.6316214E0,1.2555897E0,1.5786561E0,1.9499297E0,3.4043179E0,1.8488533E0,2.632629E0,4.397573E-1,4.1110163E0,3.04206E-1,4.9985254E-1,6.4010125E-1,8.1482595E-1,3.7752023E0,7.5295E-1,1.2551242E0,9.4473326E-1,1.1705475E0,1.8737937E0,3.8719027E0,1.9628855E0,2.1770947E0,3.6818433E0,1.1992272E0,1.7527971E0,1.3420409E0,1.735997E0,2.547471E0,1.687413E0,4.199957E0,1.848907E0,-1.4637828E-2,1.866406E0,3.919579E0,2.431084E0,1.9969451E0,4.319382E0],"categories":[],"categories_nodes":[],"categories_segments":[],"categories_sizes":[],"default_left":[1,1,1,1,1,1,1,1,1,1,1,1,1,1,1,1,1,1,1,1,1,1,0,1,1,1,1,1,1,0,1,0,0,0,0,0,0,0,0,0,0,0,0,0,0,0,0,0,0,0,0,0,0,0,0,0,0,0,0],"id":10,"left_children":[1,3,5,7,9,11,13,15,17,19,21,23,25,27,29,31,33,35,37,39,41,43,-1,45,47,49,51,53,55,-1,57,-1,-1,-1,-1,-1,-1,-1,-1,-1,-1,-1,-1,-1,-1,-1,-1,-1,-1,-1,-1,-1,-1,-1,-1,-1,-1,-1,-1],"loss_changes":[6.4368945E2,3.561455E2,2.0934619E2,6.770422E1,1.2703516E2,1.2743652E2,8.6169556E1,3.0851257E1,2.596228E1,5.4887573E1,3.2816437E1,1.9623901E1,6.875415E1,3.272168E1,9.765747E0,4.963051E0,3.6035767E0,1.760849E1,1.1162842E1,2.4208984E1,3.440515E1,6.6753693E0,0E0,1.2806763E1,1.0216492E1,2.75448E1,4.421161E1,3.559906E0,2.8080994E1,0E0,6.791992E0,0E0,0E0,0E0,0E0,0E0,0E0,0E0,0E0,0E0,0E0,0E0,0E0,0E0,0E0,0E0,0E0,0E0,0E0,0E0,0E0,0E0,0E0,0E0,0E0,0E0,0E0,0E0,0E0],"parents":[2147483647,0,0,1,1,2,2,3,3,4,4,5,5,6,6,7,7,8,8,9,9,10,10,11,11,12,12,13,13,14,14,15,15,16,16,17,17,18,18,19,19,20,20,21,21,23,23,24,24,25,25,26,26,27,27,28,28,30,30],"right_children":[2,4,6,8,10,12,14,16,18,20,22,24,26,28,30,32,34,36,38,40,42,44,-1,46,48,50,52,54,56,-1,58,-1,-1,-1,-1,-1,-1,-1,-1,-1,-1,-1,-1,-1,-1,-1,-1,-1,-1,-1,-1,-1,-1,-1,-1,-1,-1,-1,-1],"split_conditions":[1.75E0,2.275E0,2.75E0,1.3583333E0,6.2033612E-2,2.1916666E0,4.05E0,1.25E0,1.25E0,2.2226666E2,4.625E0,1.525E0,7.084671E-1,1.475E0,1.6774624E1,1.05E0,1.45E0,1.6189264E2,8.2630554E1,3.1166668E0,7.1890465E1,1.3499999E0,2.8158107E-1,1.0513158E0,1.91875E2,7.707881E1,6.878988E1,2.0523972E1,6.1111877E1,2.1987865E-2,1.8219744E-1,1.5210301E-2,2.4992628E-2,3.2005064E-2,4.07413E-2,1.8876012E-1,3.76475E-2,6.275621E-2,4.7236662E-2,5.8527377E-2,9.368969E-2,1.9359514E-1,9.814428E-2,1.0885473E-1,1.8409216E-1,5.996136E-2,8.763986E-2,6.7102045E-2,8.679985E-2,1.2737356E-1,8.437065E-2,2.0999785E-1,9.244535E-2,-7.318914E-4,9.33203E-2,1.9597895E-1,1.21554196E-1,9.984726E-2,2.1596912E-1],"split_indices":[15,5,15,5,8,5,15,15,15,10,5,5,31,5,2,15,15,7,1,5,1,15,0,31,10,1,17,2,17,0,31,0,0,0,0,0,0,0,0,0,0,0,0,0,0,0,0,0,0,0,0,0,0,0,0,0,0,0,0],"split_type":[0,0,0,0,0,0,0,0,0,0,0,0,0,0,0,0,0,0,0,0,0,0,0,0,0,0,0,0,0,0,0,0,0,0,0,0,0,0,0,0,0,0,0,0,0,0,0,0,0,0,0,0,0,0,0,0,0,0,0],"sum_hessian":[3.921E3,2.525E3,1.396E3,2.093E3,4.32E2,1.11E3,2.86E2,1.082E3,1.011E3,4E2,3.2E1,8.67E2,2.43E2,2.51E2,3.5E1,5.34E2,5.48E2,4.98E2,5.13E2,2.88E2,1.12E2,2.5E1,7E0,5.31E2,3.36E2,2.02E2,4.1E1,1.07E2,1.44E2,1E0,3.4E1,2.77E2,2.57E2,2.44E2,3.04E2,1E0,4.97E2,2.4E2,2.73E2,2.2E2,6.8E1,1.1E1,1.01E2,1.5E1,1E1,4.8E2,5.1E1,1.38E2,1.98E2,5.9E1,1.43E2,2.6E1,1.5E1,1E0,1.06E2,1.7E1,1.27E2,4E0,3E1],"tree_param":{"num_deleted":"0","num_feature":"36","num_nodes":"59","size_leaf_vector":"0"}},{"base_weights":[1.1527508E0,8.7875754E-1,1.6697838E0,7.243129E-1,1.754735E0,1.4795809E0,2.4574122E0,5.517178E-1,9.0460443E-1,1.579585E0,3.5804431E0,1.3076092E0,2.0604298E0,2.2649162E0,3.9391942E0,3.4984937E-1,6.786597E-1,3.3768268E0,8.9218336E-1,1.4724823E0,3.2945747E0,2.9747305E0,5.101454E0,1.2537755E0,1.8493278E0,1.8125428E0,2.947622E0,1.9549986E0,2.8024457E0,2.4845538E0,4.375031E0,3.375887E-1,9.6359694E-1,6.5812266E-1,1.27139E0,4.4140613E-1,4.0003304E0,6.1456394E-1,9.8212045E-1,1.3281877E0,2.5987427E0,4.726974E0,2.6410391E0,3.113363E0,8.740939E-1,5.7365675E0,2.1307414E0,1.084357E0,1.4083487E0,1.3248384E0,2.2088351E0,1.6016823E0,2.293901E0,2.4372725E0,4.4882092E0,1.7533201E0,2.3024426E0,2.3165398E0,3.8565226E0,4.8470836E0,2.7384849E0],"categories":[],"categories_nodes":[],"categories_segments":[],"categories_sizes":[],"default_left":[1,1,1,1,1,1,1,1,1,1,1,1,1,1,1,1,1,1,1,1,1,1,1,1,1,1,1,1,1,0,1,0,0,0,0,0,0,0,0,0,0,0,0,0,0,0,0,0,0,0,0,0,0,0,0,0,0,0,0,0,0],"id":11,"left_children":[1,3,5,7,9,11,13,15,17,19,21,23,25,27,29,31,33,35,37,39,41,43,45,47,49,51,53,55,57,-1,59,-1,-1,-1,-1,-1,-1,-1,-1,-1,-1,-1,-1,-1,-1,-1,-1,-1,-1,-1,-1,-1,-1,-1,-1,-1,-1,-1,-1,-1,-1],"loss_changes":[5.572539E2,3.4777747E2,2.0085376E2,6.780371E1,1.1777673E2,1.0738428E2,6.6380615E1,2.8565674E1,2.9905945E1,6.0171448E1,1.5227295E1,2.2557251E1,4.9638184E1,3.3836426E1,7.5155945E0,2.9555855E0,7.5504456E0,7.3854523E0,2.60625E1,5.0990356E1,6.238373E0,4.8502502E0,2.8707886E0,1.8872925E1,1.1215515E1,1.642279E1,3.0731567E1,6.684082E0,3.408954E1,0E0,2.9495544E0,0E0,0E0,0E0,0E0,0E0,0E0,0E0,0E0,0E0,0E0,0E0,0E0,0E0,0E0,0E0,0E0,0E0,0E0,0E0,0E0,0E0,0E0,0E0,0E0,0E0,0E0,0E0,0E0,0E0,0E0],"parents":[2147483647,0,0,1,1,2,2,3,3,4,4,5,5,6,6,7,7,8,8,9,9,10,10,11,11,12,12,13,13,14,14,15,15,16,16,17,17,18,18,19,19,20,20,21,21,22,22,23,23,24,24,25,25,26,26,27,27,28,28,30,30],"right_children":[2,4,6,8,10,12,14,16,18,20,22,24,26,28,30,32,34,36,38,40,42,44,46,48,50,52,54,56,58,-1,60,-1,-1,-1,-1,-1,-1,-1,-1,-1,-1,-1,-1,-1,-1,-1,-1,-1,-1,-1,-1,-1,-1,-1,-1,-1,-1,-1,-1,-1,-1],"split_conditions":[1.75E0,2.358333E0,2.75E0,1.3583333E0,5.2159246E-2,2.1916666E0,4.05E0,1.1500001E0,1.6260094E2,2.8543335E2,4.616667E0,1.0442307E0,2.4763333E2,4.688645E-3,1.3916667E0,2.0777512E0,1.3377193E0,5.2406277E1,1.05E0,3.6583333E0,7.16004E1,6.761508E0,2.4712936E2,1.3416667E0,1.1083333E0,1.806473E-2,3.2666667E0,1.7333333E0,2.5295E2,1.24227695E-1,6.87995E1,1.6879436E-2,4.8179846E-2,3.2906134E-2,6.35695E-2,2.2070307E-2,2.0001653E-1,3.0728197E-2,4.9106024E-2,6.640939E-2,1.2993714E-1,2.363487E-1,1.3205196E-1,1.5566815E-1,4.3704696E-2,2.8682837E-1,1.0653707E-1,5.4217853E-2,7.0417434E-2,6.624192E-2,1.1044176E-1,8.0084115E-2,1.1469505E-1,1.21863626E-1,2.2441046E-1,8.7666005E-2,1.1512213E-1,1.1582699E-1,1.9282614E-1,2.4235418E-1,1.3692425E-1],"split_indices":[15,5,15,5,8,5,15,15,7,10,5,31,10,8,5,31,31,0,15,5,1,28,7,5,5,8,5,5,10,0,0,0,0,0,0,0,0,0,0,0,0,0,0,0,0,0,0,0,0,0,0,0,0,0,0,0,0,0,0,0,0],"split_type":[0,0,0,0,0,0,0,0,0,0,0,0,0,0,0,0,0,0,0,0,0,0,0,0,0,0,0,0,0,0,0,0,0,0,0,0,0,0,0,0,0,0,0,0,0,0,0,0,0,0,0,0,0,0,0,0,0,0,0,0,0],"sum_hessian":[3.943E3,2.579E3,1.364E3,2.194E3,3.85E2,1.101E3,2.63E2,1.123E3,1.071E3,3.53E2,3.2E1,8.52E2,2.49E2,2.35E2,2.8E1,4.35E2,6.88E2,4E0,1.067E3,3.34E2,1.9E1,2.5E1,7E0,7.78E2,7.4E1,1.97E2,5.2E1,1.52E2,8.3E1,8E0,2E1,4.28E2,7E0,6.67E2,2.1E1,1E0,3E0,2.63E2,8.04E2,2.98E2,3.6E1,4E0,1.5E1,2.3E1,2E0,5E0,2E0,3.75E2,4.03E2,3.2E1,4.2E1,1.4E2,5.7E1,4.1E1,1.1E1,1E2,5.2E1,5.9E1,2.4E1,1.4E1,6E0],"tree_param":{"num_deleted":"0","num_feature":"36","num_nodes":"61","size_leaf_vector":"0"}},{"base_weights":[1.1057352E0,8.534998E-1,1.6839558E0,7.215396E-1,1.7972809E0,1.4633956E0,2.4115398E0,5.6595206E-1,9.6349674E-1,1.587598E0,2.806807E0,1.323599E0,2.2278783E0,2.2071276E0,3.6498618E0,4.0821964E-1,7.132539E-1,7.531054E-1,1.0742645E0,1.9049178E0,1.1143451E0,3.4640174E0,2.2603407E0,1.1730127E0,1.5420015E0,3.0881407E0,1.7118176E0,1.8261989E0,2.5984938E0,3.0758625E-1,3.7318804E0,3.580814E0,3.9880067E-1,6.43259E-1,9.1595405E-1,6.449658E-1,1.039901E0,1.3383695E0,9.707003E-1,2.4160237E0,1.5589186E0,8.139563E-1,1.3907552E0,6.394091E-1,3.6917357E0,2.4711938E0,8.644944E-1,1.031516E0,1.2913253E0,1.7782279E0,1.2945912E0,5.6553187E0,2.75639E0,1.2940887E0,2.2603846E0,3.0283468E0,1.7514958E0,1.8875058E0,2.790818E0,5.146564E0,3.2920523E0],"categories":[],"categories_nodes":[],"categories_segments":[],"categories_sizes":[],"default_left":[1,1,1,1,1,1,1,1,1,1,1,1,1,1,1,1,1,1,1,1,1,1,1,1,1,1,1,1,1,0,1,0,0,0,0,0,0,0,0,0,0,0,0,0,0,0,0,0,0,0,0,0,0,0,0,0,0,0,0,0,0],"id":12,"left_children":[1,3,5,7,9,11,13,15,17,19,21,23,25,27,29,31,33,35,37,39,41,43,45,47,49,51,53,55,57,-1,59,-1,-1,-1,-1,-1,-1,-1,-1,-1,-1,-1,-1,-1,-1,-1,-1,-1,-1,-1,-1,-1,-1,-1,-1,-1,-1,-1,-1,-1,-1],"loss_changes":[5.7816113E2,3.4355872E2,1.9000513E2,9.097095E1,6.730359E1,9.6228516E1,6.256714E1,3.4142E1,2.1330322E1,4.03761E1,1.2641327E1,2.407434E1,5.775421E1,3.1332642E1,9.269012E0,2.002768E1,1.0264618E1,9.594925E0,1.5658936E1,2.5943115E1,8.499527E0,1.307663E1,7.8704987E0,6.536133E0,1.6283386E1,2.8698242E1,1.7927704E1,6.0112E0,1.0730957E1,0E0,6.0792847E0,0E0,0E0,0E0,0E0,0E0,0E0,0E0,0E0,0E0,0E0,0E0,0E0,0E0,0E0,0E0,0E0,0E0,0E0,0E0,0E0,0E0,0E0,0E0,0E0,0E0,0E0,0E0,0E0,0E0,0E0],"parents":[2147483647,0,0,1,1,2,2,3,3,4,4,5,5,6,6,7,7,8,8,9,9,10,10,11,11,12,12,13,13,14,14,15,15,16,16,17,17,18,18,19,19,20,20,21,21,22,22,23,23,24,24,25,25,26,26,27,27,28,28,30,30],"right_children":[2,4,6,8,10,12,14,16,18,20,22,24,26,28,30,32,34,36,38,40,42,44,46,48,50,52,54,56,58,-1,60,-1,-1,-1,-1,-1,-1,-1,-1,-1,-1,-1,-1,-1,-1,-1,-1,-1,-1,-1,-1,-1,-1,-1,-1,-1,-1,-1,-1,-1,-1],"split_conditions":[1.8499999E0,2.5083332E0,2.75E0,1.5916667E0,3.6583333E0,2.5583334E0,4.05E0,1.25E0,1.1500001E0,8.534597E1,6.8461426E1,1.5916667E0,6.834691E1,1.725E0,1.6774624E1,1.591439E2,1.6500001E0,2.11125E2,7.68741E1,6.8851135E1,1.3499999E0,9.5E0,9.82E1,2.15E0,8.4135284E1,6.520524E1,2.1182144E2,5.6733093E1,1.8365E2,1.5379312E-2,5.9242256E1,1.790407E-1,1.9940034E-2,3.216295E-2,4.5797702E-2,3.2248292E-2,5.199505E-2,6.691848E-2,4.8535015E-2,1.2080119E-1,7.794593E-2,4.0697817E-2,6.953776E-2,3.1970456E-2,1.845868E-1,1.2355969E-1,4.322472E-2,5.15758E-2,6.456627E-2,8.89114E-2,6.4729564E-2,2.8276595E-1,1.3781951E-1,6.470444E-2,1.1301923E-1,1.5141734E-1,8.7574795E-2,9.437529E-2,1.395409E-1,2.573282E-1,1.6460262E-1],"split_indices":[15,5,15,5,5,5,15,15,15,1,17,5,17,5,2,7,15,10,1,17,15,4,18,15,1,25,10,1,10,0,17,0,0,0,0,0,0,0,0,0,0,0,0,0,0,0,0,0,0,0,0,0,0,0,0,0,0,0,0,0,0],"split_type":[0,0,0,0,0,0,0,0,0,0,0,0,0,0,0,0,0,0,0,0,0,0,0,0,0,0,0,0,0,0,0,0,0,0,0,0,0,0,0,0,0,0,0,0,0,0,0,0,0,0,0,0,0,0,0,0,0,0,0,0,0],"sum_hessian":[3.973E3,2.768E3,1.205E3,2.43E3,3.38E2,9.27E2,2.78E2,1.481E3,9.49E2,2.82E2,5.6E1,7.86E2,1.41E2,2.41E2,3.7E1,7.17E2,7.64E2,3.3E2,6.19E2,1.67E2,1.15E2,2.3E1,3.3E1,4.69E2,3.17E2,5.1E1,9E1,1.25E2,1.16E2,1E0,3.6E1,1E0,7.16E2,5.71E2,1.93E2,2.42E2,8.8E1,1.71E2,4.48E2,6.5E1,1.02E2,5.7E1,5.8E1,2E0,2.1E1,2.8E1,5E0,2.18E2,2.51E2,1.59E2,1.58E2,4E0,4.7E1,5.3E1,3.7E1,5E0,1.2E2,2.7E1,8.9E1,6E0,3E1],"tree_param":{"num_deleted":"0","num_feature":"36","num_nodes":"61","size_leaf_vector":"0"}},{"base_weights":[1.0421859E0,8.033209E-1,1.5868765E0,7.6571107E-1,1.8167286E0,1.5221739E0,3.5389788E0,6.121135E-1,9.737297E-1,2.6308408E0,1.4007835E0,1.3660616E0,2.0163891E0,4.9605446E0,3.0579624E0,4.3944356E-1,7.655055E-1,9.4384485E-1,2.158517E0,3.4642801E0,1.7901502E0,1.0959737E0,2.1131463E0,1.2546203E0,1.7410679E0,1.8037235E0,2.9317632E0,1.8437917E0,3.4001179E0,8.5015935E-1,4.02399E-1,1.1637871E0,7.059196E-1,8.6344457E-1,1.181626E0,9.397765E-1,2.820142E0,1.0422965E0,3.7567163E0,6.9211745E-1,2.054437E0,1.4712124E0,7.8645694E-1,2.5037558E0,5.18689E-1,1.5378766E0,1.1586996E0,1.5990715E0,2.2761767E0,3.7041018E0,1.7447681E0,3.2242973E0,1.5748848E0,2.998966E-1,1.9992915E0,3.6361332E0,1.823236E0],"categories":[],"categories_nodes":[],"categories_segments":[],"categories_sizes":[],"default_left":[1,1,1,1,1,1,1,1,1,1,1,1,1,0,1,1,1,1,1,1,1,1,1,1,1,1,1,1,1,0,0,0,0,0,0,0,0,0,0,0,0,0,0,0,0,0,0,0,0,0,0,0,0,0,0,0,0],"id":13,"left_children":[1,3,5,7,9,11,13,15,17,19,21,23,25,-1,27,29,31,33,35,37,39,41,43,45,47,49,51,53,55,-1,-1,-1,-1,-1,-1,-1,-1,-1,-1,-1,-1,-1,-1,-1,-1,-1,-1,-1,-1,-1,-1,-1,-1,-1,-1,-1,-1],"loss_changes":[5.1473193E2,1.037655E2,1.4719092E2,8.4457886E1,2.9500122E1,8.75918E1,1.08151245E1,4.0293457E1,3.7937378E1,1.621968E1,1.2232101E1,3.513513E1,4.9024536E1,0E0,6.609375E0,1.0673401E1,1.842511E1,2.0066528E1,1.912114E1,6.7085114E0,3.801609E0,4.533943E0,1.0534721E1,1.7019775E1,1.1708862E1,1.9193726E1,1.516568E1,1.5610981E0,1.9303589E0,0E0,0E0,0E0,0E0,0E0,0E0,0E0,0E0,0E0,0E0,0E0,0E0,0E0,0E0,0E0,0E0,0E0,0E0,0E0,0E0,0E0,0E0,0E0,0E0,0E0,0E0,0E0,0E0],"parents":[2147483647,0,0,1,1,2,2,3,3,4,4,5,5,6,6,7,7,8,8,9,9,10,10,11,11,12,12,14,14,15,15,16,16,17,17,18,18,19,19,20,20,21,21,22,22,23,23,24,24,25,25,26,26,27,27,28,28],"right_children":[2,4,6,8,10,12,14,16,18,20,22,24,26,-1,28,30,32,34,36,38,40,42,44,46,48,50,52,54,56,-1,-1,-1,-1,-1,-1,-1,-1,-1,-1,-1,-1,-1,-1,-1,-1,-1,-1,-1,-1,-1,-1,-1,-1,-1,-1,-1,-1],"split_conditions":[1.8499999E0,5.4905206E-2,4.05E0,1.3499999E0,2.3234512E2,2.37625E2,5.9242256E1,1.7616666E2,1.4833872E0,6.2225403E1,2.115E2,2.65E0,2.9039811E-2,2.4802724E-1,6.29E0,6.0281693E1,1.055E1,4.1571427E-3,7.60851E1,6.397517E-2,4E0,7.89079E1,8.506395E-2,7.492331E1,7.7293104E-1,5.8653847E1,8.279753E1,3.251812E1,2.2991028E0,4.250797E-2,2.011995E-2,5.818936E-2,3.5295982E-2,4.317223E-2,5.9081297E-2,4.6988826E-2,1.4100711E-1,5.2114826E-2,1.8783581E-1,3.4605872E-2,1.0272185E-1,7.356062E-2,3.932285E-2,1.251878E-1,2.5934448E-2,7.689383E-2,5.793498E-2,7.995357E-2,1.1380883E-1,1.8520509E-1,8.723841E-2,1.6121487E-1,7.874424E-2,1.499483E-2,9.996458E-2,1.8180667E-1,9.11618E-2],"split_indices":[15,8,15,15,7,10,17,10,31,1,10,15,8,0,35,1,11,8,32,8,22,32,8,1,31,1,25,0,3,0,0,0,0,0,0,0,0,0,0,0,0,0,0,0,0,0,0,0,0,0,0,0,0,0,0,0,0],"split_type":[0,0,0,0,0,0,0,0,0,0,0,0,0,0,0,0,0,0,0,0,0,0,0,0,0,0,0,0,0,0,0,0,0,0,0,0,0,0,0,0,0,0,0,0,0,0,0,0,0,0,0,0,0,0,0,0,0],"sum_hessian":[3.965E3,2.758E3,1.207E3,2.661E3,9.7E1,1.17E3,3.7E1,1.533E3,1.128E3,3.1E1,6.6E1,8.92E2,2.78E2,7E0,3E1,7.23E2,8.1E2,1.102E3,2.6E1,1.4E1,1.7E1,4.8E1,1.8E1,6.91E2,2.01E2,2.28E2,5E1,8E0,2.2E1,5.8E1,6.65E2,1.03E2,7.07E2,8.27E2,2.75E2,1E1,1.6E1,2E0,1.2E1,4E0,1.3E1,2E1,2.8E1,1.4E1,4E0,1.71E2,5.2E2,1.62E2,3.9E1,5E0,2.23E2,4E1,1E1,1E0,7E0,1.8E1,4E0],"tree_param":{"num_deleted":"0","num_feature":"36","num_nodes":"57","size_leaf_vector":"0"}},{"base_weights":[9.850867E-1,8.27011E-1,1.7559445E0,6.439114E-1,1.3884145E0,1.5330961E0,2.8970113E0,4.983699E-1,8.60629E-1,1.3214338E0,2.8318899E0,2.3873591E0,1.383433E0,4.217664E0,2.3421094E0,3.5039085E-1,6.209818E-1,6.934646E-1,1.0301167E0,1.1912196E0,1.6507809E0,1.256004E0,3.0526707E0,2.1902013E0,5.024978E0,1.2829666E0,2.2298222E0,4.4375353E0,6.8634886E-1,1.5496632E0,2.6597285E0,3.462199E0,3.4066597E-1,5.616755E-1,7.4638224E-1,6.12976E-1,9.233153E-1,9.904057E-1,1.9686755E0,1.1327823E0,1.5897913E0,1.5975317E0,4.0869155E0,2.9239917E-1,1.3902451E0,1.9434466E0,3.3676863E0,1.5772021E0,2.7484455E0,1.2036769E0,2.3515153E0,3.4349797E0,1.8426582E0,4.716481E0,1.5150031E0,8.177859E-1,1.9102324E0,4.4445124E0,2.3923597E0],"categories":[],"categories_nodes":[],"categories_segments":[],"categories_sizes":[],"default_left":[1,1,1,1,1,1,1,1,1,1,1,1,1,1,1,1,1,1,1,1,1,1,1,1,0,1,1,1,0,1,1,0,0,0,0,0,0,0,0,0,0,0,0,0,0,0,0,0,0,0,0,0,0,0,0,0,0,0,0],"id":14,"left_children":[1,3,5,7,9,11,13,15,17,19,21,23,25,27,29,31,33,35,37,39,41,43,45,47,-1,49,51,53,-1,55,57,-1,-1,-1,-1,-1,-1,-1,-1,-1,-1,-1,-1,-1,-1,-1,-1,-1,-1,-1,-1,-1,-1,-1,-1,-1,-1,-1,-1],"loss_changes":[4.818203E2,3.3760254E2,1.6694653E2,7.795154E1,7.4476074E1,6.906128E1,7.000055E1,2.6798798E1,2.7532959E1,3.1269897E1,8.343201E0,3.2156525E1,3.8295532E1,2.1023804E1,1.5762299E1,1.9307854E1,5.627075E0,8.776703E0,1.6424866E1,1.1219055E1,2.1620667E1,3.69627E-1,3.9377747E0,2.2699219E1,0E0,3.402484E1,1.7000168E1,1.6496094E1,0E0,5.0351524E0,1.56128845E1,0E0,0E0,0E0,0E0,0E0,0E0,0E0,0E0,0E0,0E0,0E0,0E0,0E0,0E0,0E0,0E0,0E0,0E0,0E0,0E0,0E0,0E0,0E0,0E0,0E0,0E0,0E0,0E0],"parents":[2147483647,0,0,1,1,2,2,3,3,4,4,5,5,6,6,7,7,8,8,9,9,10,10,11,11,12,12,13,13,14,14,15,15,16,16,17,17,18,18,19,19,20,20,21,21,22,22,23,23,25,25,26,26,27,27,29,29,30,30],"right_children":[2,4,6,8,10,12,14,16,18,20,22,24,26,28,30,32,34,36,38,40,42,44,46,48,-1,50,52,54,-1,56,58,-1,-1,-1,-1,-1,-1,-1,-1,-1,-1,-1,-1,-1,-1,-1,-1,-1,-1,-1,-1,-1,-1,-1,-1,-1,-1,-1,-1],"split_conditions":[2.358333E0,1.95E0,2.5275555E2,1.525E0,3.85E0,2.1711691E2,7.571E1,1.25E0,3.2506478E-1,2.65E0,3.7339342E-1,1.2664402E0,3.6916666E0,7.2161646E0,1.3499999E0,1.591439E2,1.6500001E0,1.55E0,1.4748801E0,2.025E0,3.4735947E0,3.7664017E1,2.1591666E2,1.55E0,2.5124893E-1,2.75E0,6.112209E1,4.6499996E0,3.4317445E-2,3.0798775E-1,6.969998E1,1.7310995E-1,1.70333E-2,2.8083775E-2,3.7319113E-2,3.0648801E-2,4.6165764E-2,4.9520284E-2,9.843378E-2,5.6639116E-2,7.948957E-2,7.987659E-2,2.0434578E-1,1.4619959E-2,6.9512255E-2,9.7172335E-2,1.6838431E-1,7.8860104E-2,1.3742228E-1,6.018385E-2,1.17575765E-1,1.7174898E-1,9.213291E-2,2.3582406E-1,7.575016E-2,4.0889297E-2,9.551162E-2,2.2222562E-1,1.1961799E-1],"split_indices":[5,15,10,5,15,7,1,15,31,15,31,31,5,28,15,7,15,15,31,5,31,0,10,15,0,15,1,22,0,31,25,0,0,0,0,0,0,0,0,0,0,0,0,0,0,0,0,0,0,0,0,0,0,0,0,0,0,0,0],"split_type":[0,0,0,0,0,0,0,0,0,0,0,0,0,0,0,0,0,0,0,0,0,0,0,0,0,0,0,0,0,0,0,0,0,0,0,0,0,0,0,0,0,0,0,0,0,0,0,0,0,0,0,0,0,0,0,0,0,0,0],"sum_hessian":[3.965E3,3.292E3,6.73E2,2.484E3,8.08E2,5.65E2,1.08E2,1.488E3,9.96E2,7.74E2,3.4E1,8.2E1,4.83E2,3E1,7.8E1,6.76E2,8.12E2,5.04E2,4.92E2,5.58E2,2.16E2,5E0,2.9E1,7.8E1,4E0,4.34E2,4.9E1,2.8E1,2E0,2.4E1,5.4E1,1E0,6.75E2,5.55E2,2.57E2,3.76E2,1.28E2,4.74E2,1.8E1,4.9E2,6.8E1,2.13E2,3E0,1E0,4E0,8E0,2.1E1,3.9E1,3.9E1,4.06E2,2.8E1,1E1,3.9E1,2.5E1,3E0,9E0,1.5E1,5E0,4.9E1],"tree_param":{"num_deleted":"0","num_feature":"36","num_nodes":"59","size_leaf_vector":"0"}},{"base_weights":[9.5099175E-1,7.7252954E-1,1.5593293E0,6.2575126E-1,1.4092698E0,1.4870884E0,3.2457838E0,5.1875573E-1,8.8769764E-1,1.2752074E0,2.4742954E0,1.2098963E0,1.8027384E0,4.5882263E0,2.7635314E0,3.7975153E-1,6.7877424E-1,7.221639E-1,1.099959E0,8.8843817E-1,1.5645572E0,1.9767944E0,3.5223613E0,1.1218165E0,1.6871173E0,2.7082415E0,1.6448258E0,1.3907831E0,2.9915712E0,2.1988478E-1,4.531979E-1,8.306204E-1,5.550761E-1,1.3340219E0,6.986495E-1,1.0310881E0,1.854864E0,8.4366083E-1,2.136823E0,1.2954404E0,1.9593846E0,3.7125747E0,1.7644154E0,2.5628142E0,5.174244E0,2.0708747E0,1.1017513E0,1.7348996E0,8.8828963E-1,4.1373405E0,2.2857428E0,1.5023664E0,2.1809902E0,2.850892E-1,1.5549041E0,1.2135872E0,3.0980432E0],"categories":[],"categories_nodes":[],"categories_segments":[],"categories_sizes":[],"default_left":[1,1,1,1,1,1,1,1,1,1,1,1,1,0,1,1,1,1,1,1,1,1,1,1,1,1,1,1,1,0,0,0,0,0,0,0,0,0,0,0,0,0,0,0,0,0,0,0,0,0,0,0,0,0,0,0,0],"id":15,"left_children":[1,3,5,7,9,11,13,15,17,19,21,23,25,-1,27,29,31,33,35,37,39,41,43,45,47,49,51,53,55,-1,-1,-1,-1,-1,-1,-1,-1,-1,-1,-1,-1,-1,-1,-1,-1,-1,-1,-1,-1,-1,-1,-1,-1,-1,-1,-1,-1],"loss_changes":[4.2860547E2,2.853849E2,1.0445557E2,6.935504E1,7.8657715E1,7.3240234E1,1.0626587E1,3.913498E1,2.453894E1,5.5796814E1,2.5886078E1,1.7526855E1,5.288452E1,0E0,4.917572E0,1.1054901E1,1.4978638E1,4.9380646E0,1.4412689E1,1.0550995E1,2.8381836E1,1.0038422E1,1.68555E1,5.2023315E0,1.1307983E0,2.556305E1,2.2998596E1,6.4551926E-1,7.835846E-1,0E0,0E0,0E0,0E0,0E0,0E0,0E0,0E0,0E0,0E0,0E0,0E0,0E0,0E0,0E0,0E0,0E0,0E0,0E0,0E0,0E0,0E0,0E0,0E0,0E0,0E0,0E0,0E0],"parents":[2147483647,0,0,1,1,2,2,3,3,4,4,5,5,6,6,7,7,8,8,9,9,10,10,11,11,12,12,14,14,15,15,16,16,17,17,18,18,19,19,20,20,21,21,22,22,23,23,24,24,25,25,26,26,27,27,28,28],"right_children":[2,4,6,8,10,12,14,16,18,20,22,24,26,-1,28,30,32,34,36,38,40,42,44,46,48,50,52,54,56,-1,-1,-1,-1,-1,-1,-1,-1,-1,-1,-1,-1,-1,-1,-1,-1,-1,-1,-1,-1,-1,-1,-1,-1,-1,-1,-1,-1],"split_conditions":[2.05E0,2.225E0,4.05E0,1.55E0,3.641667E0,1.6583333E0,5.9242256E1,1.3583333E0,1.4416666E0,1.8979166E2,2.313E2,3.05E0,6.412619E1,2.2941132E-1,5.5200005E0,1.05E0,8.104054E1,6.8370926E1,1.715E0,6.546429E-2,7.125E0,1.7489897E0,4.508333E0,6.791597E1,3.82949E1,3.4E1,2.4879999E2,3.251812E1,6.288759E1,1.099424E-2,2.2659896E-2,4.1531023E-2,2.7753806E-2,6.67011E-2,3.4932476E-2,5.1554408E-2,9.27432E-2,4.218304E-2,1.0684115E-1,6.4772025E-2,9.796923E-2,1.8562874E-1,8.822077E-2,1.2814072E-1,2.587122E-1,1.03543736E-1,5.5087566E-2,8.674499E-2,4.4414483E-2,2.0686702E-1,1.1428714E-1,7.5118326E-2,1.09049514E-1,1.425446E-2,7.774521E-2,6.0679357E-2,1.5490216E-1],"split_indices":[15,5,15,15,5,5,17,5,5,10,10,15,17,0,35,15,1,25,6,8,35,3,5,25,2,16,10,0,17,0,0,0,0,0,0,0,0,0,0,0,0,0,0,0,0,0,0,0,0,0,0,0,0,0,0,0,0],"split_type":[0,0,0,0,0,0,0,0,0,0,0,0,0,0,0,0,0,0,0,0,0,0,0,0,0,0,0,0,0,0,0,0,0,0,0,0,0,0,0,0,0,0,0,0,0,0,0,0,0,0,0,0,0,0,0,0,0],"sum_hessian":[3.958E3,3.062E3,8.96E2,2.49E3,5.72E2,8.61E2,3.5E1,1.77E3,7.2E2,5.1E2,6.2E1,4.61E2,4E2,7E0,2.8E1,9.49E2,8.21E2,4.07E2,3.13E2,2.2E2,2.9E2,4.4E1,1.8E1,3.92E2,6.9E1,5.7E1,3.43E2,5E0,2.3E1,3E2,6.49E2,3.66E2,4.55E2,1.3E1,3.94E2,2.89E2,2.4E1,2.14E2,6E0,1.75E2,1.15E2,3E0,4.1E1,1.3E1,5E0,6E0,3.86E2,6.4E1,5E0,1.1E1,4.6E1,2.74E2,6.9E1,1E0,4E0,2E0,2.1E1],"tree_param":{"num_deleted":"0","num_feature":"36","num_nodes":"57","size_leaf_vector":"0"}},{"base_weights":[8.976942E-1,7.3836315E-1,1.528129E0,5.787349E-1,1.3081887E0,2.7245293E0,1.4187669E0,3.969916E-1,7.110612E-1,1.1260188E0,1.6981645E0,1.556332E0,3.3131852E0,9.8657775E-1,1.662707E0,2.728071E-1,5.411388E-1,5.935444E-1,8.930863E-1,9.991722E-1,1.3547398E0,1.5599396E0,2.5169828E0,9.8445314E-1,2.4000797E0,2.5530393E0,4.0597014E0,8.5425895E-1,1.5752418E0,1.5559776E0,2.5663965E0,1.3250412E-1,3.3035082E-1,3.3548784E0,5.2836734E-1,5.135634E-1,7.2536165E-1,8.434576E-1,1.5019519E0,9.401485E-1,1.3094509E0,1.6884141E0,1.1847998E0,1.5034994E0,3.8085365E0,1.3326142E0,2.700552E0,1.35498E0,4.4455373E-1,8.593085E-1,2.7175417E0,4.3772125E0,2.0840044E0,9.332515E-1,4.3552375E0,2.5275018E0,8.117683E-1,2.2173595E0,1.2161773E0,1.2650898E0,1.8074539E0,3.2730136E0,1.9905779E0],"categories":[],"categories_nodes":[],"categories_segments":[],"categories_sizes":[],"default_left":[1,1,1,1,1,1,1,1,1,1,1,1,1,1,1,1,1,1,1,1,1,1,1,1,1,1,1,1,1,1,1,0,0,0,0,0,0,0,0,0,0,0,0,0,0,0,0,0,0,0,0,0,0,0,0,0,0,0,0,0,0,0,0],"id":16,"left_children":[1,3,5,7,9,11,13,15,17,19,21,23,25,27,29,31,33,35,37,39,41,43,45,47,49,51,53,55,57,59,61,-1,-1,-1,-1,-1,-1,-1,-1,-1,-1,-1,-1,-1,-1,-1,-1,-1,-1,-1,-1,-1,-1,-1,-1,-1,-1,-1,-1,-1,-1,-1,-1],"loss_changes":[3.981516E2,2.8804175E2,1.0093823E2,5.9408386E1,4.739087E1,4.0229584E1,7.5954834E1,1.8612442E1,3.0166016E1,1.2456238E1,2.0860352E1,9.217751E0,1.4036224E1,1.9529205E1,4.1241943E1,4.517784E0,1.5620224E1,8.852509E0,1.5685028E1,4.446228E0,7.4692383E0,1.8386993E1,2.9235992E0,2.5983934E0,2.0670166E0,1.1412277E1,1.441507E1,1.3660736E1,8.3702545E0,2.8583313E1,1.3015198E1,0E0,0E0,0E0,0E0,0E0,0E0,0E0,0E0,0E0,0E0,0E0,0E0,0E0,0E0,0E0,0E0,0E0,0E0,0E0,0E0,0E0,0E0,0E0,0E0,0E0,0E0,0E0,0E0,0E0,0E0,0E0,0E0],"parents":[2147483647,0,0,1,1,2,2,3,3,4,4,5,5,6,6,7,7,8,8,9,9,10,10,11,11,12,12,13,13,14,14,15,15,16,16,17,17,18,18,19,19,20,20,21,21,22,22,23,23,24,24,25,25,26,26,27,27,28,28,29,29,30,30],"right_children":[2,4,6,8,10,12,14,16,18,20,22,24,26,28,30,32,34,36,38,40,42,44,46,48,50,52,54,56,58,60,62,-1,-1,-1,-1,-1,-1,-1,-1,-1,-1,-1,-1,-1,-1,-1,-1,-1,-1,-1,-1,-1,-1,-1,-1,-1,-1,-1,-1,-1,-1,-1,-1],"split_conditions":[2.225E0,2.05E0,5.8033237E1,1.25E0,2.75E0,4.5160194E1,2.56231E-1,1.3583333E0,1.525E0,1.6083333E0,3.85E0,5.854158E-1,8.55122E-2,2.15E0,3.641667E0,9.5E-1,1.6189264E2,1.6500001E0,9.232179E-1,9.084773E-1,6.878395E1,3.370521E0,4.0028465E-1,3.5026543E1,2.1553775E2,2.0168884E2,2.2916665E0,1.8620998E2,7.95249E1,1.55E0,1.9997871E0,6.625206E-3,1.651754E-2,1.6774392E-1,2.6418367E-2,2.567817E-2,3.626808E-2,4.217288E-2,7.50976E-2,4.7007423E-2,6.547254E-2,8.44207E-2,5.923999E-2,7.517497E-2,1.9042683E-1,6.663071E-2,1.350276E-1,6.7749E-2,2.2227688E-2,4.2965423E-2,1.3587709E-1,2.1886063E-1,1.0420022E-1,4.6662576E-2,2.1776187E-1,1.263751E-1,4.0588416E-2,1.1086798E-1,6.0808867E-2,6.325449E-2,9.03727E-2,1.6365068E-1,9.95289E-2],"split_indices":[5,15,1,15,15,1,31,5,5,5,15,31,26,15,5,15,7,15,31,31,17,31,31,34,7,7,5,7,1,15,3,0,0,0,0,0,0,0,0,0,0,0,0,0,0,0,0,0,0,0,0,0,0,0,0,0,0,0,0,0,0,0,0],"split_type":[0,0,0,0,0,0,0,0,0,0,0,0,0,0,0,0,0,0,0,0,0,0,0,0,0,0,0,0,0,0,0,0,0,0,0,0,0,0,0,0,0,0,0,0,0,0,0,0,0,0,0,0,0,0,0,0,0,0,0,0,0,0,0],"sum_hessian":[3.974E3,3.174E3,8E2,2.481E3,6.93E2,6.5E1,7.35E2,1.047E3,1.434E3,4.75E2,2.18E2,2.3E1,4.2E1,2.67E2,4.68E2,5.64E2,4.83E2,8.74E2,5.6E2,3.09E2,1.66E2,1.89E2,2.9E1,1.5E1,8E0,2.3E1,1.9E1,2.2E2,4.7E1,4.21E2,4.7E1,1.65E2,3.99E2,1E0,4.82E2,5.47E2,3.27E2,5.2E2,4E1,2.63E2,4.6E1,5.3E1,1.13E2,1.86E2,3E0,5E0,2.4E1,8E0,7E0,2E0,6E0,3E0,2E1,2E0,1.7E1,4E0,2.16E2,1.5E1,3.2E1,1.98E2,2.23E2,1.9E1,2.8E1],"tree_param":{"num_deleted":"0","num_feature":"36","num_nodes":"63","size_leaf_vector":"0"}},{"base_weights":[8.582377E-1,7.126127E-1,1.4722395E0,5.945742E-1,1.3513445E0,1.2306821E0,2.0276139E0,4.266723E-1,7.548391E-1,1.2871531E0,2.81474E0,2.00567E0,1.0979453E0,3.718841E0,1.7903466E0,2.6635855E-1,5.297417E-1,5.982366E-1,8.9897925E-1,1.1084015E0,1.6215485E0,1.8395411E0,3.445399E0,2.9747853E0,1.5815573E0,1.021833E0,2.308644E0,2.515706E0,5.5126004E0,1.6803123E0,3.5381835E0,5.746302E-1,2.3646726E-1,7.453988E-1,4.221319E-1,5.523975E-1,7.8335196E-1,1.1004369E0,7.297432E-1,9.690357E-1,1.2982036E0,1.4929198E0,2.4263575E0,1.9352207E0,4.892125E-1,3.8138103E0,1.1916987E0,3.7229118E0,1.4805013E0,2.240149E0,9.580593E-1,8.6744106E-1,1.5195638E0,-1.6659772E-1,2.4143176E0,3.210543E0,1.2458419E0,1.3256261E0,5.830528E0,2.007243E0,1.3753705E0,4.323322E0,1.7313534E0],"categories":[],"categories_nodes":[],"categories_segments":[],"categories_sizes":[],"default_left":[1,1,1,1,1,1,1,1,1,1,1,1,1,1,1,1,1,1,1,1,1,1,1,1,1,1,1,1,1,1,1,0,0,0,0,0,0,0,0,0,0,0,0,0,0,0,0,0,0,0,0,0,0,0,0,0,0,0,0,0,0,0,0],"id":17,"left_children":[1,3,5,7,9,11,13,15,17,19,21,23,25,27,29,31,33,35,37,39,41,43,45,47,49,51,53,55,57,59,61,-1,-1,-1,-1,-1,-1,-1,-1,-1,-1,-1,-1,-1,-1,-1,-1,-1,-1,-1,-1,-1,-1,-1,-1,-1,-1,-1,-1,-1,-1,-1,-1],"loss_changes":[3.5106323E2,2.3932935E2,9.865747E1,7.206256E1,4.296985E1,5.2112976E1,8.443097E1,2.160376E1,3.0499634E1,2.6714783E1,5.962387E0,2.6532288E1,3.938452E1,4.440155E1,3.2711487E1,4.62809E0,1.8250809E1,5.1847076E0,2.3539978E1,7.0479126E0,1.3355194E1,3.45253E-1,4.588272E0,1.9082321E1,2.0438477E1,3.1571777E1,7.2029877E0,1.1882439E1,5.5823975E0,1.6281006E1,8.119537E0,0E0,0E0,0E0,0E0,0E0,0E0,0E0,0E0,0E0,0E0,0E0,0E0,0E0,0E0,0E0,0E0,0E0,0E0,0E0,0E0,0E0,0E0,0E0,0E0,0E0,0E0,0E0,0E0,0E0,0E0,0E0,0E0],"parents":[2147483647,0,0,1,1,2,2,3,3,4,4,5,5,6,6,7,7,8,8,9,9,10,10,11,11,12,12,13,13,14,14,15,15,16,16,17,17,18,18,19,19,20,20,21,21,22,22,23,23,24,24,25,25,26,26,27,27,28,28,29,29,30,30],"right_children":[2,4,6,8,10,12,14,16,18,20,22,24,26,28,30,32,34,36,38,40,42,44,46,48,50,52,54,56,58,60,62,-1,-1,-1,-1,-1,-1,-1,-1,-1,-1,-1,-1,-1,-1,-1,-1,-1,-1,-1,-1,-1,-1,-1,-1,-1,-1,-1,-1,-1,-1,-1,-1],"split_conditions":[2.275E0,2.25E0,2.2963333E2,1.3499999E0,4.05E0,2.1634235E2,6.822926E1,1.175E0,1.3083334E0,2.25125E2,1.3916667E0,6.782843E1,2.75E0,8.025E0,4.208333E0,6.691542E1,7.707881E1,1.95E0,8.284648E1,5E-1,2.781004E-2,8.8413925E1,1.9916666E0,2.2174983E0,5E-1,3.2083335E0,3.35E1,2.3180186E2,2.8182959E1,8.54262E1,7.3042015E1,2.873151E-2,1.1823363E-2,3.7269942E-2,2.1106595E-2,2.7619874E-2,3.9167598E-2,5.502185E-2,3.648716E-2,4.8451785E-2,6.491018E-2,7.464599E-2,1.2131788E-1,9.676104E-2,2.4460627E-2,1.9069052E-1,5.9584934E-2,1.8614559E-1,7.4025065E-2,1.12007454E-1,4.7902968E-2,4.3372054E-2,7.597819E-2,-8.329886E-3,1.2071588E-1,1.6052715E-1,6.2292095E-2,6.628131E-2,2.915264E-1,1.00362144E-1,6.876852E-2,2.161661E-1,8.656767E-2],"split_indices":[5,15,10,15,15,7,1,5,5,10,5,17,15,35,5,1,1,15,1,30,8,1,5,3,30,5,16,7,1,1,25,0,0,0,0,0,0,0,0,0,0,0,0,0,0,0,0,0,0,0,0,0,0,0,0,0,0,0,0,0,0,0,0],"split_type":[0,0,0,0,0,0,0,0,0,0,0,0,0,0,0,0,0,0,0,0,0,0,0,0,0,0,0,0,0,0,0,0,0,0,0,0,0,0,0,0,0,0,0,0,0,0,0,0,0,0,0,0,0,0,0,0,0,0,0,0,0,0,0],"sum_hessian":[3.937E3,3.184E3,7.53E2,2.689E3,4.95E2,5.27E2,2.26E2,1.315E3,1.374E3,4.76E2,1.9E1,7.5E1,4.52E2,2.6E1,2E2,5.16E2,7.99E2,6.61E2,7.13E2,3.13E2,1.63E2,9E0,1E1,2.1E1,5.4E1,4.27E2,2.5E1,1.7E1,9E0,1.9E2,1E1,4.4E1,4.72E2,2.64E2,5.35E2,5.33E2,1.28E2,3.23E2,3.9E2,1.84E2,1.29E2,1.43E2,2E1,8E0,1E0,8E0,2E0,1.3E1,8E0,2.5E1,2.9E1,3.28E2,9.9E1,1E0,2.4E1,1E1,7E0,1E0,8E0,8.9E1,1.01E2,6E0,4E0],"tree_param":{"num_deleted":"0","num_feature":"36","num_nodes":"63","size_leaf_vector":"0"}},{"base_weights":[8.089628E-1,5.441422E-1,1.1194745E0,5.101357E-1,1.353495E0,1.0014691E0,1.7764773E0,3.262716E-1,5.887612E-1,1.1029577E0,2.290764E0,9.409904E-1,1.6478668E0,1.443418E0,2.359896E0,3.2523715E0,3.1617606E-1,5.585617E-1,1.0772952E0,7.808731E-1,1.5750569E0,2.9099529E0,6.705926E-1,8.196688E-1,1.149297E0,1.2793412E0,2.445066E0,1.3643371E0,2.2666936E0,2.0430067E0,3.36174E0,1.7217614E-1,4.3394926E-1,5.36659E-1,1.1658841E0,9.7367024E-1,2.2276E0,5.790145E-1,1.3891053E0,1.1751682E0,3.0995333E0,9.395659E-1,8.843076E-2,2.0870776E0,7.9265964E-1,2.65437E0,1.1081135E0,1.8410772E0,8.9537984E-1,3.2250319E0,1.5858096E0,1.7022989E0,1.2055334E0,4.6010366E-1,2.5294497E0,1.7180071E0,2.5812278E0,3.477851E0,4.6170795E-1],"categories":[],"categories_nodes":[],"categories_segments":[],"categories_sizes":[],"default_left":[1,1,1,1,1,1,1,1,1,1,1,1,1,1,1,0,1,1,1,1,1,0,1,1,1,1,1,1,1,1,1,0,0,0,0,0,0,0,0,0,0,0,0,0,0,0,0,0,0,0,0,0,0,0,0,0,0,0,0],"id":18,"left_children":[1,3,5,7,9,11,13,15,17,19,21,23,25,27,29,-1,31,33,35,37,39,-1,41,43,45,47,49,51,53,55,57,-1,-1,-1,-1,-1,-1,-1,-1,-1,-1,-1,-1,-1,-1,-1,-1,-1,-1,-1,-1,-1,-1,-1,-1,-1,-1,-1,-1],"loss_changes":[3.2255444E2,5.7741272E1,1.3839502E2,2.9284546E1,1.7433167E1,5.8457764E1,4.983545E1,1.708004E1,2.0451477E1,9.261932E0,1.5102875E1,3.4590576E1,3.5064423E1,8.431122E0,2.4244385E1,0E0,1.0304394E1,1.727884E1,7.6054764E0,4.4750977E0,1.2817291E1,0E0,8.564291E-1,2.888031E1,2.8980408E1,1.7978867E1,2.169336E1,6.749634E0,5.4818954E0,9.034424E0,5.802185E0,0E0,0E0,0E0,0E0,0E0,0E0,0E0,0E0,0E0,0E0,0E0,0E0,0E0,0E0,0E0,0E0,0E0,0E0,0E0,0E0,0E0,0E0,0E0,0E0,0E0,0E0,0E0,0E0],"parents":[2147483647,0,0,1,1,2,2,3,3,4,4,5,5,6,6,7,7,8,8,9,9,10,10,11,11,12,12,13,13,14,14,16,16,17,17,18,18,19,19,20,20,22,22,23,23,24,24,25,25,26,26,27,27,28,28,29,29,30,30],"right_children":[2,4,6,8,10,12,14,16,18,20,22,24,26,28,30,-1,32,34,36,38,40,-1,42,44,46,48,50,52,54,56,58,-1,-1,-1,-1,-1,-1,-1,-1,-1,-1,-1,-1,-1,-1,-1,-1,-1,-1,-1,-1,-1,-1,-1,-1,-1,-1,-1,-1],"split_conditions":[1.55E0,5.2287735E-2,2.75E0,1.05E0,6.369797E-1,3.113368E-2,4.945055E-3,1.6235631E2,2.649583E2,1.36E1,2.6452118E2,2.1226785E2,6.0044646E-1,4E0,2.8916666E2,1.6261858E-1,1.68875E2,1.2548729E0,3.58675E2,6.15E1,2.2542064E2,1.4549765E-1,2.7219856E1,1.7959546E2,5.786401E1,2.4753539E2,4.2735043E-1,3.482855E1,1.6507026E0,6.99577E-1,8.754311E0,8.608807E-3,2.1697463E-2,2.6832951E-2,5.8294207E-2,4.8683513E-2,1.1138E-1,2.8950725E-2,6.9455266E-2,5.8758408E-2,1.5497667E-1,4.6978295E-2,4.421538E-3,1.0435388E-1,3.9632984E-2,1.327185E-1,5.5405676E-2,9.205386E-2,4.4768993E-2,1.6125159E-1,7.929048E-2,8.511495E-2,6.027667E-2,2.3005184E-2,1.2647249E-1,8.590036E-2,1.2906139E-1,1.7389254E-1,2.3085399E-2],"split_indices":[15,8,15,15,31,8,8,7,10,11,7,10,31,15,10,0,10,31,10,16,10,0,2,7,1,7,28,34,3,31,28,0,0,0,0,0,0,0,0,0,0,0,0,0,0,0,0,0,0,0,0,0,0,0,0,0,0,0,0],"split_type":[0,0,0,0,0,0,0,0,0,0,0,0,0,0,0,0,0,0,0,0,0,0,0,0,0,0,0,0,0,0,0,0,0,0,0,0,0,0,0,0,0,0,0,0,0,0,0,0,0,0,0,0,0,0,0,0,0,0,0],"sum_hessian":[3.929E3,2.122E3,1.807E3,2.038E3,8.4E1,1.534E3,2.73E2,6.12E2,1.426E3,6.8E1,1.6E1,1.405E3,1.29E2,1.76E2,9.7E1,1E0,6.11E2,1.345E3,8.1E1,4.2E1,2.6E1,1.1E1,5E0,8.91E2,5.14E2,9E1,3.9E1,1.63E2,1.3E1,7.6E1,2.1E1,2.76E2,3.35E2,1.3E3,4.5E1,7.6E1,5E0,3.3E1,9E0,2.2E1,4E0,3E0,2E0,1.7E1,8.74E2,1.2E1,5.02E2,3.5E1,5.5E1,1.9E1,2E1,4.9E1,1.14E2,2E0,1.1E1,5E1,2.6E1,2E1,1E0],"tree_param":{"num_deleted":"0","num_feature":"36","num_nodes":"59","size_leaf_vector":"0"}},{"base_weights":[7.8135145E-1,6.288844E-1,1.3075315E0,4.8440716E-1,1.0596052E0,1.1537368E0,2.354568E0,3.437676E-1,5.9834146E-1,9.927565E-1,2.1867218E0,1.0063992E0,1.7723243E0,3.9299498E0,1.9693769E0,1.3653682E-1,4.0626365E-1,5.5019647E-1,1.0393072E0,9.2834944E-1,1.6104743E0,1.7254257E0,2.705926E0,6.702251E-1,1.1785711E0,1.4927065E0,2.7305536E0,4.317665E0,1.6443579E-1,3.2092175E0,1.7613835E0,1.6603486E-1,-5.263378E-2,3.737483E-1,6.850548E-1,4.319076E-1,6.9679743E-1,1.9517078E0,9.137352E-1,8.25472E-1,1.158148E0,1.4225601E0,2.6634152E0,3.69426E-1,1.766533E0,2.8786883E0,8.825515E-1,5.758902E-1,1.1206617E0,9.0365976E-1,1.454443E0,9.543226E-1,1.9304847E0,3.5411766E0,1.4353832E0,4.5020323E0,4.9952805E-1,4.4671297E-3,2.4218655E-1,3.8403091E0,9.8695713E-1,4.455868E0,1.6720041E0],"categories":[],"categories_nodes":[],"categories_segments":[],"categories_sizes":[],"default_left":[1,1,1,1,1,1,1,1,1,1,1,1,1,1,1,1,1,1,1,1,1,1,1,1,1,1,1,1,1,1,1,0,0,0,0,0,0,0,0,0,0,0,0,0,0,0,0,0,0,0,0,0,0,0,0,0,0,0,0,0,0,0,0],"id":19,"left_children":[1,3,5,7,9,11,13,15,17,19,21,23,25,27,29,31,33,35,37,39,41,43,45,47,49,51,53,55,57,59,61,-1,-1,-1,-1,-1,-1,-1,-1,-1,-1,-1,-1,-1,-1,-1,-1,-1,-1,-1,-1,-1,-1,-1,-1,-1,-1,-1,-1,-1,-1,-1,-1],"loss_changes":[3.144624E2,1.89224E2,1.3931079E2,3.6408447E1,5.5469116E1,6.8486206E1,6.022467E1,1.3219414E1,2.6199585E1,2.730957E1,5.3904266E0,3.5384888E1,3.5310974E1,2.9948883E1,1.8072205E1,1.3423972E0,6.8780975E0,1.9450745E1,1.23089905E1,1.45997925E1,9.467941E0,7.409363E-1,3.129593E0,8.447884E0,2.9931946E1,2.5498047E1,2.8513702E1,1.1125946E1,3.6231175E-2,1.3039169E1,1.2057098E1,0E0,0E0,0E0,0E0,0E0,0E0,0E0,0E0,0E0,0E0,0E0,0E0,0E0,0E0,0E0,0E0,0E0,0E0,0E0,0E0,0E0,0E0,0E0,0E0,0E0,0E0,0E0,0E0,0E0,0E0,0E0,0E0],"parents":[2147483647,0,0,1,1,2,2,3,3,4,4,5,5,6,6,7,7,8,8,9,9,10,10,11,11,12,12,13,13,14,14,15,15,16,16,17,17,18,18,19,19,20,20,21,21,22,22,23,23,24,24,25,25,26,26,27,27,28,28,29,29,30,30],"right_children":[2,4,6,8,10,12,14,16,18,20,22,24,26,28,30,32,34,36,38,40,42,44,46,48,50,52,54,56,58,60,62,-1,-1,-1,-1,-1,-1,-1,-1,-1,-1,-1,-1,-1,-1,-1,-1,-1,-1,-1,-1,-1,-1,-1,-1,-1,-1,-1,-1,-1,-1,-1,-1],"split_conditions":[2.141667E0,1.95E0,2.622976E2,1.225E0,3.65E0,2.9105589E-2,6.914364E1,1.05E0,7.836344E-1,1.1141984E0,2.5816666E2,1.7863333E2,6.999147E-1,4.8500004E0,2.2789774E1,3.4057973E-3,9.451128E-1,1.3499999E0,3.865508E1,2.55E0,8.222008E1,6.944364E1,4.9E0,2.15E0,1.55E0,2.6166668E0,1.6110716E0,6.8752384E0,5.6210396E1,2.02875E2,7.215E1,8.301743E-3,-2.6316892E-3,1.8687416E-2,3.425274E-2,2.159538E-2,3.4839872E-2,9.7585395E-2,4.5686763E-2,4.12736E-2,5.7907403E-2,7.1128E-2,1.3317077E-1,1.84713E-2,8.8326655E-2,1.4393441E-1,4.4127576E-2,2.879451E-2,5.6033086E-2,4.5182988E-2,7.272215E-2,4.771613E-2,9.652423E-2,1.7705883E-1,7.176916E-2,2.2510162E-1,2.4976403E-2,2.2335649E-4,1.2109327E-2,1.9201545E-1,4.934786E-2,2.2279339E-1,8.360021E-2],"split_indices":[5,15,10,5,15,8,1,15,31,31,10,10,31,22,2,8,31,15,9,15,32,32,22,15,15,5,26,28,1,27,18,0,0,0,0,0,0,0,0,0,0,0,0,0,0,0,0,0,0,0,0,0,0,0,0,0,0,0,0,0,0,0,0],"split_type":[0,0,0,0,0,0,0,0,0,0,0,0,0,0,0,0,0,0,0,0,0,0,0,0,0,0,0,0,0,0,0,0,0,0,0,0,0,0,0,0,0,0,0,0,0,0,0,0,0,0,0,0,0,0,0,0,0,0,0,0,0,0,0],"sum_hessian":[3.929E3,3.048E3,8.81E2,2.284E3,7.64E2,7.7E2,1.11E2,1.024E3,1.26E3,7.23E2,4.1E1,6.24E2,1.46E2,2E1,9.1E1,2.38E2,7.86E2,1.138E3,1.22E2,6.57E2,6.6E1,2.4E1,1.7E1,2.13E2,4.11E2,1.15E2,3.1E1,1.8E1,2E0,1.1E1,8E1,2.06E2,3.2E1,7.06E2,8E1,6.32E2,5.06E2,1.3E1,1.09E2,4.57E2,2E2,5.8E1,8E0,1E0,2.3E1,1.5E1,2E0,1.78E2,3.5E1,2.08E2,2.03E2,5.3E1,6.2E1,1.8E1,1.3E1,1.7E1,1E0,1E0,1E0,8E0,3E0,1E0,7.9E1],"tree_param":{"num_deleted":"0","num_feature":"36","num_nodes":"63","size_leaf_vector":"0"}},{"base_weights":[7.418435E-1,6.1182034E-1,1.3024894E0,5.1115155E-1,1.1632594E0,1.0420779E0,1.7872537E0,4.154703E-1,6.9570315E-1,1.0841504E0,2.178782E0,1.8891804E0,9.031086E-1,2.960642E0,1.5540594E0,3.0893117E-1,5.6985784E-1,6.5361255E-1,1.0919629E0,1.0618163E0,3.3871198E0,1.5997406E0,2.76641E0,2.4814737E0,1.2937676E0,8.3148044E-1,2.3012605E0,1.8920522E0,4.5788474E0,1.4149269E0,2.6255553E0,1.0018512E0,2.9341438E-1,4.5634204E-1,7.869308E-1,5.016768E-1,7.312711E-1,7.461767E-1,1.4529152E0,1.0371618E0,2.7585852E0,2.898369E0,3.9351237E-1,9.688286E-1,2.926767E0,1.7020911E0,8.388418E-1,6.5411407E-1,1.2074308E0,2.523053E0,2.0341873E-1,2.051197E0,-6.483921E-2,5.41952E0,2.2744737E0,1.3443723E0,2.7315223E0,2.8979433E0,1.0108929E0],"categories":[],"categories_nodes":[],"categories_segments":[],"categories_sizes":[],"default_left":[1,1,1,1,1,1,1,1,1,1,1,1,1,1,1,1,1,1,1,1,0,0,1,1,1,1,1,1,1,1,1,0,0,0,0,0,0,0,0,0,0,0,0,0,0,0,0,0,0,0,0,0,0,0,0,0,0,0,0],"id":20,"left_children":[1,3,5,7,9,11,13,15,17,19,21,23,25,27,29,31,33,35,37,39,-1,-1,41,43,45,47,49,51,53,55,57,-1,-1,-1,-1,-1,-1,-1,-1,-1,-1,-1,-1,-1,-1,-1,-1,-1,-1,-1,-1,-1,-1,-1,-1,-1,-1,-1,-1],"loss_changes":[2.8918726E2,1.7876685E2,9.256372E1,4.798828E1,3.764569E1,5.585956E1,6.6542114E1,2.9480286E1,1.4830933E1,2.0269226E1,7.483612E0,2.077037E1,4.0348602E1,6.396292E1,2.8933533E1,1.1199829E1,1.7752182E1,9.603394E0,9.899353E0,1.642389E1,0E0,0E0,3.8694687E0,1.9392303E1,5.2594604E0,2.6082611E1,8.792473E0,8.541588E0,1.8669006E1,1.4534637E1,7.6260376E0,0E0,0E0,0E0,0E0,0E0,0E0,0E0,0E0,0E0,0E0,0E0,0E0,0E0,0E0,0E0,0E0,0E0,0E0,0E0,0E0,0E0,0E0,0E0,0E0,0E0,0E0,0E0,0E0],"parents":[2147483647,0,0,1,1,2,2,3,3,4,4,5,5,6,6,7,7,8,8,9,9,10,10,11,11,12,12,13,13,14,14,15,15,16,16,17,17,18,18,19,19,22,22,23,23,24,24,25,25,26,26,27,27,28,28,29,29,30,30],"right_children":[2,4,6,8,10,12,14,16,18,20,22,24,26,28,30,32,34,36,38,40,-1,-1,42,44,46,48,50,52,54,56,58,-1,-1,-1,-1,-1,-1,-1,-1,-1,-1,-1,-1,-1,-1,-1,-1,-1,-1,-1,-1,-1,-1,-1,-1,-1,-1,-1,-1],"split_conditions":[2.2916665E0,2.25E0,2.2108334E2,1.55E0,3.65E0,2.1634235E2,6.914364E1,1.475E0,9.25456E-1,3.4735947E0,2.6659998E2,1.095E1,2.75E0,7.965E0,8.6402626E1,5.0531914E1,4.5799845E-1,1.175E0,1.2416667E0,2.0157154E1,1.6935599E-1,7.9987034E-2,3.2375E2,1.2525E2,7.585616E1,3.0416665E0,3.45E1,1.475E1,2.6E1,4.208333E0,1.64375E2,5.009256E-2,1.4670719E-2,2.2817103E-2,3.9346542E-2,2.508384E-2,3.6563557E-2,3.730884E-2,7.264576E-2,5.1858094E-2,1.3792926E-1,1.4491846E-1,1.9675618E-2,4.8441432E-2,1.4633836E-1,8.5104555E-2,4.194209E-2,3.2705706E-2,6.0371544E-2,1.2615265E-1,1.0170937E-2,1.0255986E-1,-3.2419604E-3,2.70976E-1,1.1372369E-1,6.721862E-2,1.3657612E-1,1.4489716E-1,5.0544646E-2],"split_indices":[5,15,10,15,15,7,1,5,31,31,10,11,15,35,32,1,31,5,5,28,0,0,24,27,1,5,4,11,4,5,24,0,0,0,0,0,0,0,0,0,0,0,0,0,0,0,0,0,0,0,0,0,0,0,0,0,0,0,0],"split_type":[0,0,0,0,0,0,0,0,0,0,0,0,0,0,0,0,0,0,0,0,0,0,0,0,0,0,0,0,0,0,0,0,0,0,0,0,0,0,0,0,0,0,0,0,0,0,0,0,0,0,0,0,0,0,0,0,0,0,0],"sum_hessian":[3.977E3,3.23E3,7.47E2,2.733E3,4.97E2,4.88E2,2.59E2,1.802E3,9.31E2,4.63E2,3.4E1,6.7E1,4.21E2,4.1E1,2.18E2,1.068E3,7.34E2,8.44E2,8.7E1,4.6E2,3E0,1.9E1,1.5E1,3.2E1,3.5E1,4.02E2,1.9E1,2.6E1,1.5E1,1.95E2,2.3E1,2.2E1,1.046E3,4.84E2,2.5E2,2.88E2,5.56E2,4.6E1,4.1E1,4.55E2,5E0,1.4E1,1E0,8E0,2.4E1,1.7E1,1.8E1,2.75E2,1.27E2,1.7E1,2E0,2.4E1,2E0,1E1,5E0,1.87E2,8E0,1.9E1,4E0],"tree_param":{"num_deleted":"0","num_feature":"36","num_nodes":"59","size_leaf_vector":"0"}},{"base_weights":[6.934847E-1,5.47426E-1,1.1033039E0,3.4188992E-1,6.475458E-1,9.57158E-1,1.4821848E0,1.917462E-1,4.5135662E-1,5.6886363E-1,8.898227E-1,1.5392438E0,8.995925E-1,2.9052634E0,1.392696E0,3.706108E-1,1.15762E-1,9.6828514E-1,4.012298E-1,2.0587423E0,5.583271E-1,3.1565864E0,8.245372E-1,2.6414554E0,1.1916974E0,8.283077E-1,1.1436402E0,2.6079345E-1,3.2644167E0,1.2824627E0,1.9972321E0,1.7831006E0,3.437571E-1,4.6577892E-1,1.02660805E-1,2.1796105E0,8.390943E-1,3.7876514E-1,1.1604381E0,8.0384403E-1,3.1528716E0,7.357078E-1,4.796974E-1,4.100222E-1,3.351298E0,1.2078166E0,7.614665E-1,1.1384121E0,3.279136E0,1.4060838E0,1.506656E-1,8.095835E-1,1.3490182E0,8.1427217E-1,1.3438385E0,3.396436E-1,5.1546574E-2,7.964282E-1,3.3929982E0,1.1883157E0,2.335748E0,2.1879337E0,9.609333E-1],"categories":[],"categories_nodes":[],"categories_segments":[],"categories_sizes":[],"default_left":[1,1,1,1,1,1,1,1,1,1,1,1,1,1,1,1,1,1,1,1,1,1,1,1,1,1,1,1,1,1,1,0,0,0,0,0,0,0,0,0,0,0,0,0,0,0,0,0,0,0,0,0,0,0,0,0,0,0,0,0,0,0,0],"id":21,"left_children":[1,3,5,7,9,11,13,15,17,19,21,23,25,27,29,31,33,35,37,39,41,43,45,47,49,51,53,55,57,59,61,-1,-1,-1,-1,-1,-1,-1,-1,-1,-1,-1,-1,-1,-1,-1,-1,-1,-1,-1,-1,-1,-1,-1,-1,-1,-1,-1,-1,-1,-1,-1,-1],"loss_changes":[2.351753E2,5.957898E1,5.5835938E1,1.5593147E1,3.672357E1,2.371289E1,3.2375732E1,5.447814E0,1.3889008E1,2.2036713E1,6.798697E1,2.2134796E1,1.0952148E1,1.4344986E1,1.5498108E1,3.938717E0,1.25909E0,5.682728E0,8.156357E0,1.1195793E1,2.0121887E1,5.5781555E0,1.0321075E1,1.0643913E1,1.1393684E1,4.104553E0,8.928452E0,3.198996E-2,1.740448E0,2.0230347E1,5.8025055E0,0E0,0E0,0E0,0E0,0E0,0E0,0E0,0E0,0E0,0E0,0E0,0E0,0E0,0E0,0E0,0E0,0E0,0E0,0E0,0E0,0E0,0E0,0E0,0E0,0E0,0E0,0E0,0E0,0E0,0E0,0E0,0E0],"parents":[2147483647,0,0,1,1,2,2,3,3,4,4,5,5,6,6,7,7,8,8,9,9,10,10,11,11,12,12,13,13,14,14,15,15,16,16,17,17,18,18,19,19,20,20,21,21,22,22,23,23,24,24,25,25,26,26,27,27,28,28,29,29,30,30],"right_children":[2,4,6,8,10,12,14,16,18,20,22,24,26,28,30,32,34,36,38,40,42,44,46,48,50,52,54,56,58,60,62,-1,-1,-1,-1,-1,-1,-1,-1,-1,-1,-1,-1,-1,-1,-1,-1,-1,-1,-1,-1,-1,-1,-1,-1,-1,-1,-1,-1,-1,-1,-1,-1],"split_conditions":[1.95E0,1.1500001E0,2.75E0,1.68775E2,2.2141666E2,7.10465E1,5.7944435E1,7.4308525E1,6.6969696E1,2.9011112E1,5.7659714E1,6.390858E1,6.662842E-1,6.707645E1,5.7124586E0,8.65E0,6.902155E1,9.6E0,5E-1,1.55E0,7.7218704E1,1.8141794E0,1.075E1,5.5E-1,1.8483333E2,9.96E1,1.9173334E2,5.951799E1,2.8669994E1,7.776333E-3,3.5715996E1,8.915503E-2,1.7187854E-2,2.3288947E-2,5.1330402E-3,1.0898053E-1,4.1954715E-2,1.8938256E-2,5.8021903E-2,4.01922E-2,1.5764359E-1,3.678539E-2,2.398487E-2,2.050111E-2,1.6756491E-1,6.039083E-2,3.8073327E-2,5.6920607E-2,1.639568E-1,7.030419E-2,7.5332797E-3,4.0479176E-2,6.745091E-2,4.071361E-2,6.719192E-2,1.6982181E-2,2.5773288E-3,3.9821412E-2,1.6964991E-1,5.9415787E-2,1.167874E-1,1.0939669E-1,4.8046667E-2],"split_indices":[15,15,15,10,10,25,17,1,1,34,1,1,31,32,28,11,25,11,12,15,1,3,11,33,24,18,10,0,0,19,34,0,0,0,0,0,0,0,0,0,0,0,0,0,0,0,0,0,0,0,0,0,0,0,0,0,0,0,0,0,0,0,0],"split_type":[0,0,0,0,0,0,0,0,0,0,0,0,0,0,0,0,0,0,0,0,0,0,0,0,0,0,0,0,0,0,0,0,0,0,0,0,0,0,0,0,0,0,0,0,0,0,0,0,0,0,0,0,0,0,0,0,0,0,0,0,0,0,0],"sum_hessian":[3.938E3,2.905E3,1.033E3,9.53E2,1.952E3,7.48E2,2.85E2,4.03E2,5.5E2,1.476E3,4.76E2,6.5E1,6.83E2,1.5E1,2.7E2,1.19E2,2.84E2,4.7E1,5.03E2,9E0,1.467E3,1.2E1,4.64E2,1.4E1,5.1E1,5.32E2,1.51E2,2E0,1.3E1,2.31E2,3.9E1,1E0,1.18E2,9E0,2.75E2,3E0,4.4E1,4.9E2,1.3E1,5E0,4E0,4.48E2,1.019E3,1E0,1.1E1,6.3E1,4.01E2,5E0,9E0,4.2E1,9E0,5.16E2,1.6E1,5.9E1,9.2E1,1E0,1E0,1E0,1.2E1,2.14E2,1.7E1,3.2E1,7E0],"tree_param":{"num_deleted":"0","num_feature":"36","num_nodes":"63","size_leaf_vector":"0"}},{"base_weights":[6.6934323E-1,5.3749794E-1,1.1283985E0,3.9937788E-1,8.8281524E-1,9.669301E-1,1.824192E0,2.8788045E-1,5.3083175E-1,7.5825244E-1,1.285475E0,8.674225E-1,1.717772E0,1.6650096E0,3.7150176E0,1.7589404E-1,3.9266136E-1,2.8704238E0,5.209918E-1,7.127227E-1,1.1284007E0,1.1137248E0,1.9296014E0,1.1198406E0,6.7327225E-1,2.9052677E0,1.4130999E0,1.3605627E0,2.3952048E0,1.1576084E0,4.1107388E0,7.2282046E-1,1.6400865E-1,3.809113E-1,8.3727103E-1,2.0049763E-1,3.6935666E0,4.386862E-1,6.887726E-1,5.8974636E-1,8.313319E-1,8.07312E-1,1.5766592E0,1.0346606E0,1.7411863E0,2.7974136E0,1.4441197E0,1.6972708E0,9.473149E-1,6.168176E-1,1.3002579E0,3.9406679E0,1.3772838E0,1.8689082E0,1.104632E0,1.00399E0,1.745828E0,2.775059E0,1.0033643E0,2.803098E-1,1.4561028E0,4.36989E0,8.891876E-1],"categories":[],"categories_nodes":[],"categories_segments":[],"categories_sizes":[],"default_left":[1,1,1,1,1,1,1,1,1,1,1,1,1,1,1,1,1,1,1,1,1,1,1,1,1,1,1,1,1,1,1,0,0,0,0,0,0,0,0,0,0,0,0,0,0,0,0,0,0,0,0,0,0,0,0,0,0,0,0,0,0,0,0],"id":22,"left_children":[1,3,5,7,9,11,13,15,17,19,21,23,25,27,29,31,33,35,37,39,41,43,45,47,49,51,53,55,57,59,61,-1,-1,-1,-1,-1,-1,-1,-1,-1,-1,-1,-1,-1,-1,-1,-1,-1,-1,-1,-1,-1,-1,-1,-1,-1,-1,-1,-1,-1,-1,-1,-1],"loss_changes":[2.3888794E2,1.4635797E2,9.732764E1,3.2077423E1,4.3062683E1,5.215497E1,4.3477234E1,1.3917915E1,2.1710297E1,1.0537628E1,2.0640472E1,3.041455E1,2.5923706E1,3.0976257E1,7.38562E0,3.6387005E0,2.893959E0,8.050369E0,1.3576172E1,8.290588E0,9.090157E0,6.3840637E0,1.3655106E1,2.5788055E1,1.2011429E1,1.9885773E1,7.4964905E0,1.3495834E1,2.0478226E1,3.7744665E-1,4.4630585E0,0E0,0E0,0E0,0E0,0E0,0E0,0E0,0E0,0E0,0E0,0E0,0E0,0E0,0E0,0E0,0E0,0E0,0E0,0E0,0E0,0E0,0E0,0E0,0E0,0E0,0E0,0E0,0E0,0E0,0E0,0E0,0E0],"parents":[2147483647,0,0,1,1,2,2,3,3,4,4,5,5,6,6,7,7,8,8,9,9,10,10,11,11,12,12,13,13,14,14,15,15,16,16,17,17,18,18,19,19,20,20,21,21,22,22,23,23,24,24,25,25,26,26,27,27,28,28,29,29,30,30],"right_children":[2,4,6,8,10,12,14,16,18,20,22,24,26,28,30,32,34,36,38,40,42,44,46,48,50,52,54,56,58,60,62,-1,-1,-1,-1,-1,-1,-1,-1,-1,-1,-1,-1,-1,-1,-1,-1,-1,-1,-1,-1,-1,-1,-1,-1,-1,-1,-1,-1,-1,-1,-1,-1],"split_conditions":[2.141667E0,1.8499999E0,3.1030094E-2,1.3583333E0,2.75E0,2.55E0,4.5333333E0,1.25E0,1.6171442E2,9.782898E-1,2.61E2,2.6264E2,7.10126E1,7.2758865E-1,4E1,5.1502613E1,3.55E1,5.2406277E1,4.6424907E-1,1.325E0,1.2583333E0,6.542056E0,5E-1,7.434524E1,2.3748793E-2,9.746429E1,1.9912295E0,2.625E0,4.6499996E0,7.6024826E1,8.283537E1,3.6141023E-2,8.200432E-3,1.9045565E-2,4.1863553E-2,1.0024882E-2,1.8467833E-1,2.193431E-2,3.4438632E-2,2.9487317E-2,4.1566595E-2,4.0365603E-2,7.883296E-2,5.173303E-2,8.705931E-2,1.3987069E-1,7.220598E-2,8.4863536E-2,4.7365747E-2,3.084088E-2,6.5012895E-2,1.9703339E-1,6.886419E-2,9.344541E-2,5.52316E-2,5.0199505E-2,8.7291405E-2,1.3875295E-1,5.0168216E-2,1.401549E-2,7.2805144E-2,2.1849452E-1,4.445938E-2],"split_indices":[5,15,8,5,15,15,5,15,7,31,10,7,25,31,16,1,4,0,31,5,5,28,14,1,8,20,3,5,22,0,0,0,0,0,0,0,0,0,0,0,0,0,0,0,0,0,0,0,0,0,0,0,0,0,0,0,0,0,0,0,0,0,0],"split_type":[0,0,0,0,0,0,0,0,0,0,0,0,0,0,0,0,0,0,0,0,0,0,0,0,0,0,0,0,0,0,0,0,0,0,0,0,0,0,0,0,0,0,0,0,0,0,0,0,0,0,0,0,0,0,0,0,0,0,0,0,0,0,0],"sum_hessian":[3.956E3,3.075E3,8.81E2,2.198E3,8.77E2,7.17E2,1.64E2,1.191E3,1.007E3,6.72E2,2.05E2,6.35E2,8.2E1,1.53E2,1.1E1,5.77E2,6.14E2,3E0,1.004E3,6.01E2,7.1E1,1.64E2,4.1E1,2.74E2,3.61E2,1.5E1,6.7E1,1.1E2,4.3E1,2E0,9E0,1.1E1,5.66E2,6E2,1.4E1,1E0,2E0,6.76E2,3.28E2,2.98E2,3.03E2,4.3E1,2.8E1,1.48E2,1.6E1,1.3E1,2.8E1,6.1E1,2.13E2,3.33E2,2.8E1,8E0,7E0,2.5E1,4.2E1,5.9E1,5.1E1,3.3E1,1E1,1E0,1E0,8E0,1E0],"tree_param":{"num_deleted":"0","num_feature":"36","num_nodes":"63","size_leaf_vector":"0"}},{"base_weights":[6.3042927E-1,5.1549184E-1,1.1342852E0,3.957863E-1,6.610656E-1,8.5226333E-1,1.5124104E0,3.315367E-1,4.9969843E-1,4.6976435E-1,7.914676E-1,7.405956E-1,1.7922214E0,2.2770777E0,1.2466545E0,2.183281E0,3.2614097E-1,3.793638E-1,6.415316E-1,4.2555973E-1,1.0353445E0,6.6355497E-1,1.11485E0,2.9721832E0,7.027132E-1,2.3219206E0,1.1569804E0,2.1141741E0,4.2652187E0,1.1192564E0,2.3611913E0,2.770177E-1,4.1372657E-1,3.1866452E-1,6.030447E-1,7.655865E-1,4.2775664E-1,5.1563054E-1,3.602585E-1,3.2461992E-1,1.2473015E0,5.543552E-1,8.391683E-1,2.228624E0,1.0207933E0,2.4887657E-1,3.4670691E0,4.3243766E-1,9.0817386E-1,2.559263E0,5.547282E-1,1.3011129E0,1.8310621E-1,1.8354403E0,3.1975539E0,5.85569E-1,1.264493E0,3.516696E0,1.3671744E0],"categories":[],"categories_nodes":[],"categories_segments":[],"categories_sizes":[],"default_left":[1,1,1,1,1,1,1,1,1,1,1,1,1,1,1,0,1,1,1,1,1,1,1,1,1,1,1,1,0,1,1,0,0,0,0,0,0,0,0,0,0,0,0,0,0,0,0,0,0,0,0,0,0,0,0,0,0,0,0],"id":23,"left_children":[1,3,5,7,9,11,13,15,17,19,21,23,25,27,29,-1,31,33,35,37,39,41,43,45,47,49,51,53,-1,55,57,-1,-1,-1,-1,-1,-1,-1,-1,-1,-1,-1,-1,-1,-1,-1,-1,-1,-1,-1,-1,-1,-1,-1,-1,-1,-1,-1,-1],"loss_changes":[2.2758813E2,5.567578E1,7.666461E1,1.1611359E1,3.572516E1,4.2862152E1,6.0361084E1,1.020871E1,1.1225967E1,1.4285141E1,3.479254E1,2.9866684E1,1.2118988E1,1.6568756E1,3.0440887E1,0E0,4.5794144E0,4.777111E0,7.8140945E0,3.0374298E0,5.9221115E0,1.1386139E1,2.3076477E1,7.223484E0,2.0320343E1,8.227188E0,2.8498325E0,1.6779144E1,0E0,1.561438E1,2.160965E1,0E0,0E0,0E0,0E0,0E0,0E0,0E0,0E0,0E0,0E0,0E0,0E0,0E0,0E0,0E0,0E0,0E0,0E0,0E0,0E0,0E0,0E0,0E0,0E0,0E0,0E0,0E0,0E0],"parents":[2147483647,0,0,1,1,2,2,3,3,4,4,5,5,6,6,7,7,8,8,9,9,10,10,11,11,12,12,13,13,14,14,16,16,17,17,18,18,19,19,20,20,21,21,22,22,23,23,24,24,25,25,26,26,27,27,29,29,30,30],"right_children":[2,4,6,8,10,12,14,16,18,20,22,24,26,28,30,-1,32,34,36,38,40,42,44,46,48,50,52,54,-1,56,58,-1,-1,-1,-1,-1,-1,-1,-1,-1,-1,-1,-1,-1,-1,-1,-1,-1,-1,-1,-1,-1,-1,-1,-1,-1,-1,-1,-1],"split_conditions":[2.275E0,1.92125E2,2.1194287E2,4.382622E-1,1.3083334E0,4.5419488E-2,7.638058E1,1.623912E2,1.175E0,1.1199305E0,5.707143E-1,2.8961895E1,6.46246E1,5.4416666E0,8.71E1,1.0916405E-1,1.5416666E0,1.0179086E0,8.4420906E1,7.6254654E1,1.55E1,1.875E0,5.8107143E1,5.4318184E1,2.655081E-1,1.3446331E-1,3.0906012E2,9.6649994E1,2.1326093E-1,1.9739938E-1,2.659526E1,1.3850885E-2,2.0686328E-2,1.5933227E-2,3.0152235E-2,3.8279325E-2,2.1387832E-2,2.5781527E-2,1.8012924E-2,1.6230997E-2,6.2365074E-2,2.771776E-2,4.1958418E-2,1.11431204E-1,5.1039666E-2,1.2443828E-2,1.7335346E-1,2.1621883E-2,4.5408692E-2,1.2796316E-1,2.773641E-2,6.5055646E-2,9.155311E-3,9.177201E-2,1.598777E-1,2.9278452E-2,6.322465E-2,1.758348E-1,6.835872E-2],"split_indices":[5,10,10,31,5,8,1,7,5,31,31,34,1,5,32,0,5,31,1,32,4,5,17,1,31,8,7,18,0,31,2,0,0,0,0,0,0,0,0,0,0,0,0,0,0,0,0,0,0,0,0,0,0,0,0,0,0,0,0],"split_type":[0,0,0,0,0,0,0,0,0,0,0,0,0,0,0,0,0,0,0,0,0,0,0,0,0,0,0,0,0,0,0,0,0,0,0,0,0,0,0,0,0,0,0,0,0,0,0,0,0,0,0,0,0,0,0,0,0,0,0],"sum_hessian":[3.939E3,3.209E3,7.3E2,1.763E3,1.446E3,4.2E2,3.1E2,1.092E3,6.71E2,5.88E2,8.58E2,3.77E2,4.3E1,7.8E1,2.32E2,2E0,1.09E3,3.65E2,3.06E2,5.47E2,4.1E1,6.17E2,2.41E2,5E0,3.72E2,2.2E1,2.1E1,7.4E1,4E0,2.1E2,2.2E1,7.01E2,3.89E2,2.89E2,7.6E1,1.92E2,1.14E2,2.27E2,3.2E2,1E1,3.1E1,3.83E2,2.34E2,1.7E1,2.24E2,1E0,4E0,1.62E2,2.1E2,1.9E1,3E0,1.8E1,3E0,6.1E1,1.3E1,4.6E1,1.64E2,9E0,1.3E1],"tree_param":{"num_deleted":"0","num_feature":"36","num_nodes":"59","size_leaf_vector":"0"}},{"base_weights":[6.0598284E-1,4.8425442E-1,1.0272793E0,4.0348366E-1,6.976861E-1,8.982867E-1,1.6940762E0,1.1646203E0,3.911295E-1,6.7935336E-1,2.149535E0,8.2068163E-1,1.7827538E0,2.5792785E0,1.345836E0,7.692884E-1,2.2212133E0,3.4909588E-1,5.1884127E-1,4.9358276E-1,7.8140295E-1,4.7804976E-1,2.50765E0,2.7037582E-1,8.8902515E-1,1.4534508E0,2.6518126E0,3.5185044E0,1.8456578E0,1.6770293E0,7.960263E-1,5.6436086E-1,1.8065315E0,4.0392128E-1,2.8096342E-1,6.215242E-1,3.4666976E-1,7.0723784E-1,3.7987664E-1,1.6235942E0,7.471792E-1,1.1081938E-1,7.195707E-1,1.200782E0,7.377992E-1,8.6990494E-1,1.8102627E0,2.9945116E0,2.8284654E-1,3.5213432E-1,3.9456906E0,1.2866921E0,3.019333E0,1.4629164E0,2.822951E0,-1.0472952E-1,9.534339E-1],"categories":[],"categories_nodes":[],"categories_segments":[],"categories_sizes":[],"default_left":[1,1,1,1,1,1,1,1,1,1,1,1,1,1,1,1,0,1,1,1,1,0,0,1,1,1,1,1,1,1,1,0,0,0,0,0,0,0,0,0,0,0,0,0,0,0,0,0,0,0,0,0,0,0,0,0,0],"id":24,"left_children":[1,3,5,7,9,11,13,15,17,19,21,23,25,27,29,31,-1,33,35,37,39,-1,-1,41,43,45,47,49,51,53,55,-1,-1,-1,-1,-1,-1,-1,-1,-1,-1,-1,-1,-1,-1,-1,-1,-1,-1,-1,-1,-1,-1,-1,-1,-1,-1],"loss_changes":[2.0171436E2,5.2487244E1,7.44267E1,2.0447845E1,2.087082E1,4.9467163E1,4.0302063E1,1.2910919E1,1.1569824E1,1.5349304E1,4.78706E0,2.5484741E1,1.3030563E1,2.0378418E1,1.7602753E1,4.719577E0,0E0,6.0498962E0,9.331253E0,6.9466248E0,1.4178345E1,0E0,0E0,5.4389973E0,2.7778656E1,7.7949677E0,1.1330643E1,2.025264E1,1.18601E1,1.157309E1,5.9130707E0,0E0,0E0,0E0,0E0,0E0,0E0,0E0,0E0,0E0,0E0,0E0,0E0,0E0,0E0,0E0,0E0,0E0,0E0,0E0,0E0,0E0,0E0,0E0,0E0,0E0,0E0],"parents":[2147483647,0,0,1,1,2,2,3,3,4,4,5,5,6,6,7,7,8,8,9,9,10,10,11,11,12,12,13,13,14,14,15,15,17,17,18,18,19,19,20,20,23,23,24,24,25,25,26,26,27,27,28,28,29,29,30,30],"right_children":[2,4,6,8,10,12,14,16,18,20,22,24,26,28,30,32,-1,34,36,38,40,-1,-1,42,44,46,48,50,52,54,56,-1,-1,-1,-1,-1,-1,-1,-1,-1,-1,-1,-1,-1,-1,-1,-1,-1,-1,-1,-1,-1,-1,-1,-1,-1,-1],"split_conditions":[2.141667E0,2.14125E2,2.5295557E2,5.6636444E1,9.902617E-2,5.3367518E-2,7.550214E1,7.7393425E1,1.675E0,1.2583333E0,1.5166667E0,1.5192857E2,2.1025E2,6.331273E1,1.7025E2,5.6228996E1,1.1106067E-1,5.5E-1,8.514011E1,7.417018E1,5.949035E1,2.3902489E-2,1.253825E-1,2.875E0,1.9588201E0,2.4666667E0,4.75E0,1.713702E0,1.914375E2,8.588166E1,7.160033E1,2.8218044E-2,9.032658E-2,2.0196063E-2,1.4048171E-2,3.1076211E-2,1.7333489E-2,3.5361893E-2,1.8993832E-2,8.117971E-2,3.7358962E-2,5.540969E-3,3.5978537E-2,6.00391E-2,3.6889963E-2,4.349525E-2,9.051313E-2,1.4972559E-1,1.4142327E-2,1.7606717E-2,1.9728453E-1,6.433461E-2,1.5096664E-1,7.314582E-2,1.4114755E-1,-5.236476E-3,4.7671694E-2],"split_indices":[5,10,10,17,8,8,1,32,5,5,5,10,27,0,24,17,0,33,1,32,17,0,0,5,3,5,22,3,27,32,25,0,0,0,0,0,0,0,0,0,0,0,0,0,0,0,0,0,0,0,0,0,0,0,0,0,0],"split_type":[0,0,0,0,0,0,0,0,0,0,0,0,0,0,0,0,0,0,0,0,0,0,0,0,0,0,0,0,0,0,0,0,0,0,0,0,0,0,0,0,0,0,0,0,0,0,0,0,0,0,0,0,0,0,0,0,0],"sum_hessian":[3.942E3,3.06E3,8.82E2,2.222E3,8.38E2,7.41E2,1.41E2,3.4E1,2.188E3,8.29E2,9E0,6.83E2,5.8E1,3.8E1,1.03E2,2.6E1,8E0,1.649E3,5.39E2,2.96E2,5.33E2,2E0,7E0,7.6E1,6.07E2,4.4E1,1.4E1,1.5E1,2.3E1,6.3E1,4E1,2.3E1,3E0,9.11E2,7.38E2,3.36E2,2.03E2,1.01E2,1.95E2,1.9E1,5.14E2,5.7E1,1.9E1,1.96E2,4.11E2,1.8E1,2.6E1,1.2E1,2E0,2E0,1.3E1,1.7E1,6E0,5.5E1,8E0,6E0,3.4E1],"tree_param":{"num_deleted":"0","num_feature":"36","num_nodes":"57","size_leaf_vector":"0"}},{"base_weights":[5.6174034E-1,4.5439717E-1,1.0045676E0,3.3649287E-1,7.664691E-1,9.0117687E-1,1.7971723E0,2.4336748E-1,4.7307545E-1,7.036125E-1,1.5874639E0,7.4797845E-1,1.217913E0,1.3532051E0,2.4132018E0,1.4342456E-1,3.223153E-1,3.830244E-1,5.74865E-1,2.8914317E-1,7.7267253E-1,2.2073572E0,1.0120412E0,7.345979E-1,2.1198163E0,1.1274194E0,2.084577E0,1.931167E0,7.8837E-1,5.166647E-1,2.5095668E0,4.85645E-2,1.9851345E-1,7.622406E-1,2.897556E-1,5.971153E-1,3.352713E-1,4.2249846E-1,6.6464955E-1,2.3541848E-1,1.4669824E0,9.832894E-1,6.5234137E-1,1.2146624E-1,2.3573687E0,2.071825E0,6.6054815E-1,5.935539E-1,8.1971E-1,1.0854162E0,2.9667227E0,2.635516E0,1.1183722E0,5.8062786E-1,2.3981748E0,1.5008354E0,4.454863E-1,2.7194266E0,1.3116175E0],"categories":[],"categories_nodes":[],"categories_segments":[],"categories_sizes":[],"default_left":[1,1,1,1,1,1,1,1,1,1,1,1,1,1,1,1,1,1,1,1,1,1,1,1,0,1,1,1,1,0,1,0,0,0,0,0,0,0,0,0,0,0,0,0,0,0,0,0,0,0,0,0,0,0,0,0,0,0,0],"id":25,"left_children":[1,3,5,7,9,11,13,15,17,19,21,23,25,27,29,31,33,35,37,39,41,43,45,47,-1,49,51,53,55,-1,57,-1,-1,-1,-1,-1,-1,-1,-1,-1,-1,-1,-1,-1,-1,-1,-1,-1,-1,-1,-1,-1,-1,-1,-1,-1,-1,-1,-1],"loss_changes":[1.8977649E2,1.1833118E2,6.2299866E1,2.9660767E1,4.4450256E1,3.2667297E1,2.1075684E1,1.0952812E1,8.469406E0,2.3304901E1,1.98815E1,7.051697E0,1.521759E1,1.6105995E1,5.2827606E0,3.2146387E0,1.0923088E1,4.9729004E0,5.7794952E0,7.1848516E0,1.7200592E1,8.787994E0,1.1296684E1,5.1075897E0,0E0,1.2617462E1,7.6989136E0,1.5006065E1,6.4158897E0,0E0,4.9808044E0,0E0,0E0,0E0,0E0,0E0,0E0,0E0,0E0,0E0,0E0,0E0,0E0,0E0,0E0,0E0,0E0,0E0,0E0,0E0,0E0,0E0,0E0,0E0,0E0,0E0,0E0,0E0,0E0],"parents":[2147483647,0,0,1,1,2,2,3,3,4,4,5,5,6,6,7,7,8,8,9,9,10,10,11,11,12,12,13,13,14,14,15,15,16,16,17,17,18,18,19,19,20,20,21,21,22,22,23,23,25,25,26,26,27,27,28,28,30,30],"right_children":[2,4,6,8,10,12,14,16,18,20,22,24,26,28,30,32,34,36,38,40,42,44,46,48,-1,50,52,54,56,-1,58,-1,-1,-1,-1,-1,-1,-1,-1,-1,-1,-1,-1,-1,-1,-1,-1,-1,-1,-1,-1,-1,-1,-1,-1,-1,-1,-1,-1],"split_conditions":[2.15E0,1.975E0,3.1094164E-2,1.45E0,3.641667E0,2.75E0,1.24E0,1.175E0,1.91875E2,1.57675E2,6.790474E1,5E-1,4.05E0,9.741667E1,3.1654413E1,1.05E0,1.025E1,6.473009E1,1.2083334E0,1.0455E1,6.8776276E1,3.704251E1,1.8359433E0,1.275E0,1.0599082E-1,8.324196E1,6.962053E1,1.8132143E2,1.22E1,2.5833234E-2,3.548184E1,2.428225E-3,9.925673E-3,3.811203E-2,1.4487781E-2,2.9855764E-2,1.6763566E-2,2.1124924E-2,3.3232477E-2,1.1770925E-2,7.334912E-2,4.916447E-2,3.261707E-2,6.0733124E-3,1.1786844E-1,1.03591256E-1,3.3027407E-2,2.9677695E-2,4.0985502E-2,5.427081E-2,1.4833614E-1,1.317758E-1,5.591861E-2,2.9031394E-2,1.1990874E-1,7.504177E-2,2.2274315E-2,1.3597134E-1,6.5580875E-2],"split_indices":[15,5,8,15,5,15,6,5,10,10,17,29,15,20,34,15,11,17,5,35,17,0,3,5,0,0,17,10,11,0,34,0,0,0,0,0,0,0,0,0,0,0,0,0,0,0,0,0,0,0,0,0,0,0,0,0,0,0,0],"split_type":[0,0,0,0,0,0,0,0,0,0,0,0,0,0,0,0,0,0,0,0,0,0,0,0,0,0,0,0,0,0,0,0,0,0,0,0,0,0,0,0,0,0,0,0,0,0,0,0,0,0,0,0,0,0,0,0,0,0,0],"sum_hessian":[4.001E3,3.222E3,7.79E2,2.34E3,8.82E2,6.91E2,8.8E1,1.393E3,9.47E2,8.21E2,6.1E1,4.68E2,2.23E2,5.3E1,3.5E1,6.16E2,7.77E2,5.05E2,4.42E2,1.18E2,7.03E2,2.8E1,3.3E1,4.65E2,3E0,2.04E2,1.9E1,2.5E1,2.8E1,2E0,3.3E1,2.27E2,3.89E2,5.2E1,7.25E2,9E1,4.15E2,1.66E2,2.76E2,1.14E2,4E0,2.53E2,4.5E2,2E0,2.6E1,7E0,2.6E1,1.78E2,2.87E2,2.01E2,3E0,1.1E1,8E0,7E0,1.8E1,8E0,2E1,2.7E1,6E0],"tree_param":{"num_deleted":"0","num_feature":"36","num_nodes":"59","size_leaf_vector":"0"}},{"base_weights":[5.408403E-1,3.5201764E-1,7.664419E-1,3.395761E-1,3.00419E0,6.7241997E-1,1.4171103E0,2.5290152E-1,5.959551E-1,2.15639E-1,3.290069E0,5.753455E-1,1.0472984E0,2.1732292E0,1.1869674E0,7.701473E-1,2.328067E-1,7.1971196E-1,3.0906603E-1,2.068869E0,4.2993517E0,4.2266038E-1,6.797005E-1,1.8388424E0,9.484966E-1,3.8113039E0,1.6924663E0,1.9800689E0,1.0246391E0,2.2890468E0,5.2634835E-1,1.0552529E-1,2.8977796E-1,6.5756553E-1,1.167745E0,4.1946796E-1,6.5766305E-2,1.5540065E0,4.152204E-1,1.6825675E0,6.6106325E-1,2.7669687E0,1.1646328E0,8.996202E-1,1.8512921E0,3.314464E-1,4.126145E0,1.3654183E0,2.396301E0,2.3407576E0,7.406664E-1,1.5297755E0,8.052935E-1],"categories":[],"categories_nodes":[],"categories_segments":[],"categories_sizes":[],"default_left":[1,1,1,1,1,1,1,1,1,0,1,1,1,1,1,1,1,1,1,0,0,1,1,1,1,1,1,1,1,0,0,0,0,0,0,0,0,0,0,0,0,0,0,0,0,0,0,0,0,0,0,0,0],"id":26,"left_children":[1,3,5,7,9,11,13,15,17,-1,19,21,23,25,27,29,31,33,35,-1,-1,37,39,41,43,45,47,49,51,-1,-1,-1,-1,-1,-1,-1,-1,-1,-1,-1,-1,-1,-1,-1,-1,-1,-1,-1,-1,-1,-1,-1,-1],"loss_changes":[1.6931555E2,7.05506E1,1.099613E2,4.784781E1,7.2624207E0,5.711371E1,3.7095978E1,1.6617355E1,1.9127502E1,0E0,2.1980286E0,1.982074E1,2.3672821E1,3.450084E1,2.0758636E1,2.101353E1,1.1259819E1,9.812714E0,4.431299E0,0E0,0E0,3.6895752E0,1.2868317E1,1.8678795E1,1.1175018E1,1.0684021E1,6.3959274E0,1.1230392E1,1.5277206E1,0E0,0E0,0E0,0E0,0E0,0E0,0E0,0E0,0E0,0E0,0E0,0E0,0E0,0E0,0E0,0E0,0E0,0E0,0E0,0E0,0E0,0E0,0E0,0E0],"parents":[2147483647,0,0,1,1,2,2,3,3,4,4,5,5,6,6,7,7,8,8,10,10,11,11,12,12,13,13,14,14,15,15,16,16,17,17,18,18,21,21,22,22,23,23,24,24,25,25,26,26,27,27,28,28],"right_children":[2,4,6,8,10,12,14,16,18,-1,20,22,24,26,28,30,32,34,36,-1,-1,38,40,42,44,46,48,50,52,-1,-1,-1,-1,-1,-1,-1,-1,-1,-1,-1,-1,-1,-1,-1,-1,-1,-1,-1,-1,-1,-1,-1,-1],"split_conditions":[1.55E0,4.925E0,2.5749998E0,1.975E0,8.755E1,2.55E0,1.095E1,5.660806E1,8.753882E1,1.078195E-2,5.6583333E0,1.2583333E0,6.18615E1,2.0221692E2,8.58E1,1.035E1,1.05E0,5.3496353E-2,4.1336666E1,1.0344346E-1,2.149676E-1,6.320168E1,1.7958981E2,1.24E1,4.7173705E0,1.7285704E2,3.130633E-2,3.5396423E1,7.422571E1,1.1445234E-1,2.6317418E-2,5.2762646E-3,1.4488898E-2,3.2878276E-2,5.838725E-2,2.0973397E-2,3.2883154E-3,7.7700324E-2,2.076102E-2,8.412837E-2,3.3053163E-2,1.3834845E-1,5.823164E-2,4.498101E-2,9.2564605E-2,1.657232E-2,2.0630725E-1,6.8270914E-2,1.1981505E-1,1.17037885E-1,3.703332E-2,7.648878E-2,4.0264677E-2],"split_indices":[15,5,5,5,18,15,11,1,1,0,5,5,17,7,18,11,15,8,21,0,0,25,7,11,26,7,8,34,1,0,0,0,0,0,0,0,0,0,0,0,0,0,0,0,0,0,0,0,0,0,0,0,0],"split_type":[0,0,0,0,0,0,0,0,0,0,0,0,0,0,0,0,0,0,0,0,0,0,0,0,0,0,0,0,0,0,0,0,0,0,0,0,0,0,0,0,0,0,0,0,0,0,0,0,0,0,0,0,0],"sum_hessian":[3.98E3,2.168E3,1.812E3,2.159E3,9E0,1.585E3,2.27E2,1.615E3,5.44E2,1E0,8E0,1.261E3,3.24E2,5.1E1,1.76E2,5.9E1,1.556E3,3.79E2,1.65E2,5E0,3E0,5.14E2,7.47E2,3.4E1,2.9E2,1E1,4.1E1,2.8E1,1.48E2,7E0,5.2E1,4.82E2,1.074E3,3.35E2,4.4E1,1.13E2,5.2E1,2E0,5.12E2,1.2E1,7.35E2,1.3E1,2.1E1,2.77E2,1.3E1,1E0,9E0,3E1,1.1E1,2.1E1,7E0,4.3E1,1.05E2],"tree_param":{"num_deleted":"0","num_feature":"36","num_nodes":"53","size_leaf_vector":"0"}},{"base_weights":[5.188856E-1,4.1951972E-1,9.460367E-1,3.001748E-1,7.097459E-1,7.741708E-1,1.5011786E0,1.6909117E-1,3.7263682E-1,1.6340026E0,6.7533547E-1,7.4693763E-1,3.7239208E0,2.5255594E0,1.3384387E0,2.9100018E0,1.6215752E-1,2.898648E-1,5.01257E-1,3.0460577E0,1.1366777E0,5.7774246E-1,8.9986384E-1,1.0965358E0,6.113845E-1,4.1381264E0,1.0335495E0,3.0209992E0,1.4192085E0,1.1821434E0,2.2720163E0,1.5601055E-1,1.3694531E0,5.0205797E-1,2.599141E-1,1.0480448E0,4.595168E-1,1.6136663E0,5.355611E-1,5.0677377E-1,8.320171E-1,8.639335E-1,2.354775E0,1.0017465E0,2.399243E0,4.66742E-1,8.901035E-1,3.1814544E0,3.873136E-1,5.981422E-1,1.7300513E0,1.3212955E0,4.8930922E-1,8.898526E-1,2.8995373E0],"categories":[],"categories_nodes":[],"categories_segments":[],"categories_sizes":[],"default_left":[1,1,1,1,1,1,1,1,1,1,1,1,1,1,1,0,1,1,1,0,1,1,1,1,1,0,0,1,1,1,1,0,0,0,0,0,0,0,0,0,0,0,0,0,0,0,0,0,0,0,0,0,0,0,0],"id":27,"left_children":[1,3,5,7,9,11,13,15,17,19,21,23,25,27,29,-1,31,33,35,-1,37,39,41,43,45,-1,-1,47,49,51,53,-1,-1,-1,-1,-1,-1,-1,-1,-1,-1,-1,-1,-1,-1,-1,-1,-1,-1,-1,-1,-1,-1,-1,-1],"loss_changes":[1.6823413E2,1.1149133E2,7.029993E1,2.1660263E1,2.8760468E1,4.332849E1,2.5960205E1,1.503577E1,1.5525833E1,1.9711868E1,1.9354675E1,2.634143E1,1.2948761E0,8.319565E0,1.9784882E1,0E0,5.8346386E0,5.5766068E0,1.2641663E1,0E0,6.5906525E0,1.1037277E1,1.2236832E1,1.7106827E1,1.6234497E1,0E0,0E0,5.106613E0,1.262186E0,1.2272324E1,1.5633911E1,0E0,0E0,0E0,0E0,0E0,0E0,0E0,0E0,0E0,0E0,0E0,0E0,0E0,0E0,0E0,0E0,0E0,0E0,0E0,0E0,0E0,0E0,0E0,0E0],"parents":[2147483647,0,0,1,1,2,2,3,3,4,4,5,5,6,6,7,7,8,8,9,9,10,10,11,11,12,12,13,13,14,14,16,16,17,17,18,18,20,20,21,21,22,22,23,23,24,24,27,27,28,28,29,29,30,30],"right_children":[2,4,6,8,10,12,14,16,18,20,22,24,26,28,30,-1,32,34,36,-1,38,40,42,44,46,-1,-1,48,50,52,54,-1,-1,-1,-1,-1,-1,-1,-1,-1,-1,-1,-1,-1,-1,-1,-1,-1,-1,-1,-1,-1,-1,-1,-1],"split_conditions":[2.275E0,1.8499999E0,5.918402E-1,1.1500001E0,5.7941963E1,5.6916666E0,2.1075555E2,1.6189264E2,1.575E0,5.3E1,2.55E0,7.624831E1,6.616667E0,6.975244E1,8.703322E1,1.455001E-1,8.55E1,2.1594293E2,2.118517E2,1.5230289E-1,8.253066E1,1.825E0,1.8077646E1,2.881786E2,2.2226666E2,2.0690632E-1,5.1677477E-2,6.55E1,2.0175452E2,8.977319E1,2.0714285E2,7.800528E-3,6.847265E-2,2.5102898E-2,1.2995705E-2,5.240224E-2,2.297584E-2,8.068331E-2,2.6778055E-2,2.5338689E-2,4.1600857E-2,4.3196674E-2,1.17738746E-1,5.008733E-2,1.19962156E-1,2.3337102E-2,4.4505175E-2,1.5907273E-1,1.9365681E-2,2.9907111E-2,8.650257E-2,6.6064775E-2,2.4465462E-2,4.449263E-2,1.4497687E-1],"split_indices":[5,15,31,15,17,5,7,7,5,16,15,1,5,17,32,0,4,7,7,0,1,5,28,10,10,0,0,4,7,1,10,0,0,0,0,0,0,0,0,0,0,0,0,0,0,0,0,0,0,0,0,0,0,0,0],"split_type":[0,0,0,0,0,0,0,0,0,0,0,0,0,0,0,0,0,0,0,0,0,0,0,0,0,0,0,0,0,0,0,0,0,0,0,0,0,0,0,0,0,0,0,0,0,0,0,0,0,0,0,0,0,0,0],"sum_hessian":[3.972E3,3.224E3,7.48E2,2.286E3,9.38E2,5.73E2,1.75E2,8.15E2,1.471E3,3.2E1,9.06E2,5.69E2,4E0,2.2E1,1.53E2,1E0,8.14E2,8.97E2,5.74E2,7E0,2.5E1,6.34E2,2.72E2,1.57E2,4.12E2,3E0,1E0,1.4E1,8E0,1.33E2,2E1,8.11E2,3E0,1.09E2,7.88E2,3.9E1,5.35E2,1.3E1,1.2E1,4.98E2,1.36E2,2.67E2,5E0,1.48E2,9E0,2.73E2,1.39E2,1.3E1,1E0,3E0,5E0,1.1E2,2.3E1,7E0,1.3E1],"tree_param":{"num_deleted":"0","num_feature":"36","num_nodes":"55","size_leaf_vector":"0"}},{"base_weights":[4.8852658E-1,3.911972E-1,8.77599E-1,2.7621478E-1,5.303004E-1,8.261255E-1,1.6193728E0,1.4521234E0,2.6527452E-1,4.6570835E-1,1.0601158E0,2.031343E0,7.9716516E-1,9.871225E-1,1.8553905E0,2.2423022E0,5.883953E-1,3.986625E-1,1.9359595E-1,3.6375156E-1,6.4233977E-1,9.838872E-1,3.729887E0,3.6487105E0,1.0533807E0,6.02259E-1,9.204075E-1,1.1461532E0,2.2349179E-1,1.9691783E0,4.527936E-1,1.0078509E0,2.1069229E-1,1.7439911E-1,4.9610198E-1,8.350767E-2,2.4896647E-1,3.33E-1,8.233194E-1,6.1496216E-1,1.7362938E0,9.2809355E-1,3.4828036E0,7.397872E-1,4.0825377E0,4.8138514E-1,2.608906E0,5.845679E-1,1.7121863E0,1.6296448E0,8.657374E-1,2.049911E-1,1.2075008E0,-7.906449E-2,3.506987E-1,1.6029317E0,2.4765322E0],"categories":[],"categories_nodes":[],"categories_segments":[],"categories_sizes":[],"default_left":[1,1,1,1,1,1,1,1,1,1,1,1,1,1,1,0,1,1,1,1,1,1,0,1,1,1,1,1,1,1,0,0,0,0,0,0,0,0,0,0,0,0,0,0,0,0,0,0,0,0,0,0,0,0,0,0,0],"id":28,"left_children":[1,3,5,7,9,11,13,15,17,19,21,23,25,27,29,-1,31,33,35,37,39,41,-1,43,45,47,49,51,53,55,-1,-1,-1,-1,-1,-1,-1,-1,-1,-1,-1,-1,-1,-1,-1,-1,-1,-1,-1,-1,-1,-1,-1,-1,-1,-1,-1],"loss_changes":[1.515838E2,5.121161E1,2.9283875E1,2.225673E1,4.919641E1,2.4628113E1,5.778839E0,9.600632E0,1.660688E1,2.3105713E1,2.8281738E1,2.304583E1,1.7124939E1,1.6868973E0,4.8539124E0,0E0,1.2135205E0,1.3221413E1,6.909958E0,1.1370956E1,1.3098526E1,1.8238876E1,0E0,4.551613E0,9.421155E0,4.654228E0,1.5998688E1,5.03067E-1,1.816768E-1,2.1622314E0,0E0,0E0,0E0,0E0,0E0,0E0,0E0,0E0,0E0,0E0,0E0,0E0,0E0,0E0,0E0,0E0,0E0,0E0,0E0,0E0,0E0,0E0,0E0,0E0,0E0,0E0,0E0],"parents":[2147483647,0,0,1,1,2,2,3,3,4,4,5,5,6,6,7,7,8,8,9,9,10,10,11,11,12,12,13,13,14,14,16,16,17,17,18,18,19,19,20,20,21,21,23,23,24,24,25,25,26,26,27,27,28,28,29,29],