{"learner":{"attributes":{"best_iteration":"134","best_msg":"[135]\ttrain-rmse:0.521419\teval-rmse:0.936460","best_ntreelimit":"135","best_score":"0.93645994503788887","niter":"154"},"feature_names":[],"feature_types":[],"gradient_booster":{"model":{"gbtree_model_param":{"num_parallel_tree":"1","num_trees":"155","size_leaf_vector":"0"},"tree_info":[0,0,0,0,0,0,0,0,0,0,0,0,0,0,0,0,0,0,0,0,0,0,0,0,0,0,0,0,0,0,0,0,0,0,0,0,0,0,0,0,0,0,0,0,0,0,0,0,0,0,0,0,0,0,0,0,0,0,0,0,0,0,0,0,0,0,0,0,0,0,0,0,0,0,0,0,0,0,0,0,0,0,0,0,0,0,0,0,0,0,0,0,0,0,0,0,0,0,0,0,0,0,0,0,0,0,0,0,0,0,0,0,0,0,0,0,0,0,0,0,0,0,0,0,0,0,0,0,0,0,0,0,0,0,0,0,0,0,0,0,0,0,0,0,0,0,0,0,0,0,0,0,0,0,0],"trees":[{"base_weights":[2.020324E0,1.7366077E0,3.16056E0,1.4761868E0,2.7641628E0,3.0009358E0,6.1410255E0,1.1751193E0,1.7730134E0,2.374359E0,3.543602E0,2.5358536E0,3.5545723E0,1.8E0,6.207895E0,9.214184E-1,1.4958484E0,1.5367177E0,2.0770342E0,2.1958904E0,3.34E0,3.3232803E0,5.2E0,2.3568048E0,3.330137E0,3.2131672E0,5.120339E0,7.46831E-1,1.0367298E0,1.3076087E0,1.8582888E0,1.3894068E0,1.8108871E0,1.8630058E0,2.4230769E0,1.862E0,2.4175925E0,2.0235293E0,3.7285714E0,3.9615386E0,2.9648001E0,1.975E0,5.585E0,2.2065217E0,2.6522937E0,2.886842E0,3.7055554E0,2.9336493E0,3.9985914E0,3.7318182E0,5.7894735E0],"categories":[],"categories_nodes":[],"categories_segments":[],"categories_sizes":[],"default_left":[1,1,1,1,1,1,1,1,1,1,1,1,1,0,0,1,1,1,1,1,1,1,1,1,1,1,1,0,0,0,0,0,0,0,0,0,0,0,0,0,0,0,0,0,0,0,0,0,0,0,0],"id":0,"left_children":[1,3,5,7,9,11,13,15,17,19,21,23,25,-1,-1,27,29,31,33,35,37,39,41,43,45,47,49,-1,-1,-1,-1,-1,-1,-1,-1,-1,-1,-1,-1,-1,-1,-1,-1,-1,-1,-1,-1,-1,-1,-1,-1],"loss_changes":[1.2726738E3,8.4313086E2,3.5551416E2,2.2383057E2,1.8573242E2,1.8358643E2,1.4672852E-1,1.0098401E2,8.811572E1,6.6598145E1,5.972119E1,5.0459717E1,1.6476318E2,0E0,0E0,1.3418762E1,3.5367188E1,2.6523071E1,3.6442627E1,2.2517456E1,2.5705383E1,3.1498535E1,1.7526978E1,9.157227E0,1.451416E0,4.996045E1,3.321216E1,0E0,0E0,0E0,0E0,0E0,0E0,0E0,0E0,0E0,0E0,0E0,0E0,0E0,0E0,0E0,0E0,0E0,0E0,0E0,0E0,0E0,0E0,0E0,0E0],"parents":[2147483647,0,0,1,1,2,2,3,3,4,4,5,5,6,6,7,7,8,8,9,9,10,10,11,11,12,12,15,15,16,16,17,17,18,18,19,19,20,20,21,21,22,22,23,23,24,24,25,25,26,26],"right_children":[2,4,6,8,10,12,14,16,18,20,22,24,26,-1,-1,28,30,32,34,36,38,40,42,44,46,48,50,-1,-1,-1,-1,-1,-1,-1,-1,-1,-1,-1,-1,-1,-1,-1,-1,-1,-1,-1,-1,-1,-1,-1,-1],"split_conditions":[2.15E0,2.1916666E0,4.05E0,1.3499999E0,2.2108334E2,1.6583333E0,1.9E1,1.3583333E0,1.4416666E0,3.1654965E-2,3.6583333E0,3.05E0,8.213775E-1,8.9999996E-2,3.1039473E-1,1.05E0,4.396957E-1,1.75E0,4.4871038E-1,1.7535E2,2.4252892E-1,2.3447098E2,1.304329E-1,5.7706046E-1,2.2029166E2,2.3727084E2,8.8526716E-4,3.734155E-2,5.183649E-2,6.538044E-2,9.291444E-2,6.947034E-2,9.054436E-2,9.315029E-2,1.2115385E-1,9.3100004E-2,1.2087963E-1,1.0117646E-1,1.8642858E-1,1.9807693E-1,1.4824001E-1,9.875E-2,2.7925E-1,1.1032609E-1,1.3261469E-1,1.4434211E-1,1.8527777E-1,1.4668247E-1,1.9992958E-1,1.8659091E-1,2.8947368E-1],"split_indices":[15,5,15,15,10,5,16,5,5,8,5,15,31,0,0,15,31,15,31,10,31,7,31,31,10,10,8,0,0,0,0,0,0,0,0,0,0,0,0,0,0,0,0,0,0,0,0,0,0,0,0],"split_type":[0,0,0,0,0,0,0,0,0,0,0,0,0,0,0,0,0,0,0,0,0,0,0,0,0,0,0,0,0,0,0,0,0,0,0,0,0,0,0,0,0,0,0,0,0,0,0,0,0,0,0],"sum_hessian":[3.95E3,3.165E3,7.85E2,2.527E3,6.38E2,7.47E2,3.8E1,1.257E3,1.27E3,4.28E2,2.1E2,4.09E2,3.38E2,1E0,3.7E1,7.04E2,5.53E2,7.18E2,5.52E2,3.64E2,6.4E1,1.88E2,2.2E1,3.37E2,7.2E1,2.8E2,5.8E1,2.83E2,4.21E2,3.67E2,1.86E2,4.71E2,2.47E2,3.45E2,2.07E2,1.49E2,2.15E2,1.6E1,4.8E1,6.4E1,1.24E2,3E0,1.9E1,2.29E2,1.08E2,3.7E1,3.5E1,2.1E2,7E1,2.1E1,3.7E1],"tree_param":{"num_deleted":"0","num_feature":"36","num_nodes":"51","size_leaf_vector":"0"}},{"base_weights":[1.8918579E0,1.5320021E0,2.7206757E0,1.3235643E0,2.6819167E0,2.622886E0,5.7314825E0,1.0852076E0,1.6515334E0,2.5016186E0,4.505E0,2.230864E0,3.135951E0,2.7316842E0,6.012316E0,8.421515E-1,1.3024149E0,1.4483047E0,1.8942591E0,2.1352746E0,2.9808922E0,2.1161652E0,4.7304296E0,2.0482697E0,2.8038201E0,2.7958543E0,3.956356E0,7.2126997E-1,9.6726704E-1,1.1375749E0,1.4086659E0,1.3016468E0,1.6965301E0,1.7256926E0,2.2630904E0,1.9608501E0,2.8444269E0,3.4075704E0,2.430779E0,5.567857E-1,2.3668137E0,4.8219457E0,9.009615E-1,1.9714122E0,2.8982174E0,2.5497193E0,3.025646E0,2.5865297E0,3.4205644E0,3.4688494E0,5.336061E0],"categories":[],"categories_nodes":[],"categories_segments":[],"categories_sizes":[],"default_left":[1,1,1,1,1,1,1,1,1,1,1,1,1,0,0,1,1,1,1,1,1,1,1,1,1,1,1,0,0,0,0,0,0,0,0,0,0,0,0,0,0,0,0,0,0,0,0,0,0,0,0],"id":1,"left_children":[1,3,5,7,9,11,13,15,17,19,21,23,25,-1,-1,27,29,31,33,35,37,39,41,43,45,47,49,-1,-1,-1,-1,-1,-1,-1,-1,-1,-1,-1,-1,-1,-1,-1,-1,-1,-1,-1,-1,-1,-1,-1,-1],"loss_changes":[1.1822891E3,6.6181836E2,3.391621E2,1.8207178E2,1.2842725E2,2.2772559E2,1.4746826E1,7.096631E1,4.5993164E1,6.1935303E1,9.914612E0,6.382837E1,1.2928418E2,0E0,0E0,9.087677E0,1.09904785E1,1.7522827E1,2.3885742E1,2.2129883E1,3.0680664E1,6.364708E-1,7.220703E0,2.7471191E1,1.1914062E0,3.80979E1,7.901929E1,0E0,0E0,0E0,0E0,0E0,0E0,0E0,0E0,0E0,0E0,0E0,0E0,0E0,0E0,0E0,0E0,0E0,0E0,0E0,0E0,0E0,0E0,0E0,0E0],"parents":[2147483647,0,0,1,1,2,2,3,3,4,4,5,5,6,6,7,7,8,8,9,9,10,10,11,11,12,12,15,15,16,16,17,17,18,18,19,19,20,20,21,21,22,22,23,23,24,24,25,25,26,26],"right_children":[2,4,6,8,10,12,14,16,18,20,22,24,26,-1,-1,28,30,32,34,36,38,40,42,44,46,48,50,-1,-1,-1,-1,-1,-1,-1,-1,-1,-1,-1,-1,-1,-1,-1,-1,-1,-1,-1,-1,-1,-1,-1,-1],"split_conditions":[1.8499999E0,2.358333E0,3.95E0,1.475E0,5.5497184E-2,1.725E0,1.8219744E-1,1.25E0,1.3499999E0,2.0916666E2,8.57E1,2.65E0,2.374375E2,1.365842E-1,3.0061582E-1,1.6841666E2,1.45E0,4.0509334E-1,4.7762376E-1,3.225E0,8.54262E1,6.563858E1,1.3825679E1,1.144958E0,2.0125E2,2.65E0,2.7083335E0,3.60635E-2,4.8363354E-2,5.6878746E-2,7.0433296E-2,6.508234E-2,8.482651E-2,8.628463E-2,1.1315452E-1,9.804251E-2,1.4222135E-1,1.7037852E-1,1.2153895E-1,2.7839286E-2,1.18340686E-1,2.4109729E-1,4.5048077E-2,9.857061E-2,1.4491087E-1,1.2748598E-1,1.512823E-1,1.2932649E-1,1.7102823E-1,1.7344247E-1,2.6680306E-1],"split_indices":[15,5,15,5,8,5,31,15,15,10,18,15,10,0,0,10,15,31,31,5,1,0,26,31,10,15,5,0,0,0,0,0,0,0,0,0,0,0,0,0,0,0,0,0,0,0,0,0,0,0,0],"split_type":[0,0,0,0,0,0,0,0,0,0,0,0,0,0,0,0,0,0,0,0,0,0,0,0,0,0,0,0,0,0,0,0,0,0,0,0,0,0,0,0,0,0,0,0,0,0,0,0,0,0,0],"sum_hessian":[3.977E3,2.775E3,1.202E3,2.351E3,4.24E2,1.166E3,3.6E1,1.364E3,9.87E2,3.88E2,3.6E1,6.64E2,5.02E2,4E0,3.2E1,6.46E2,7.18E2,5.41E2,4.46E2,2.23E2,1.65E2,4E0,3.2E1,5.07E2,1.57E2,3.58E2,1.44E2,3.32E2,3.14E2,2.86E2,4.32E2,3.44E2,1.97E2,3.1E2,1.36E2,1.82E2,4.1E1,9E1,7.5E1,1E0,3E0,3.1E1,1E0,4.68E2,3.9E1,7.9E1,7.8E1,2.72E2,8.6E1,1.09E2,3.5E1],"tree_param":{"num_deleted":"0","num_feature":"36","num_nodes":"51","size_leaf_vector":"0"}},{"base_weights":[1.7975844E0,1.4486643E0,2.6153398E0,1.241299E0,2.4361448E0,2.5159292E0,5.6989746E0,1.045167E0,1.5307472E0,2.1320825E0,3.1951473E0,2.1229088E0,2.9827154E0,4.064666E0,6.44599E0,8.007423E-1,1.2573556E0,1.2231803E0,1.680063E0,1.9350548E0,2.878476E0,5.5460534E0,2.9207008E0,1.909353E0,2.6472712E0,2.699671E0,4.1161747E0,1.1265105E0,4.204023E0,1.8131275E0,7.8008944E-1,1.1445458E0,1.4265132E0,1.1592919E0,1.9923228E0,1.4503925E0,1.8894112E0,1.8371698E0,2.981674E0,1.8624618E0,3.1943564E0,2.1379104E0,6.3547053E0,2.580502E0,3.58727E0,1.8339363E0,2.8301017E0,2.3639922E0,3.050559E0,2.5457582E0,3.3943017E0,5.1439714E0,3.451983E0],"categories":[],"categories_nodes":[],"categories_segments":[],"categories_sizes":[],"default_left":[1,1,1,1,1,1,1,1,1,1,1,1,1,1,0,1,1,1,1,1,1,1,1,1,1,1,1,0,0,0,0,0,0,0,0,0,0,0,0,0,0,0,0,0,0,0,0,0,0,0,0,0,0],"id":2,"left_children":[1,3,5,7,9,11,13,15,17,19,21,23,25,27,-1,29,31,33,35,37,39,41,43,45,47,49,51,-1,-1,-1,-1,-1,-1,-1,-1,-1,-1,-1,-1,-1,-1,-1,-1,-1,-1,-1,-1,-1,-1,-1,-1,-1,-1],"loss_changes":[1.1212734E3,5.633672E2,3.4677295E2,1.2829028E2,1.037334E2,2.0335938E2,1.7749878E1,6.989148E1,4.0287354E1,4.5165894E1,7.090344E1,6.482129E1,1.5571338E2,9.9645996E-1,0E0,1.19253845E1,1.2297607E1,1.2677856E1,2.6973633E1,2.2797852E1,1.6516296E1,2.2242218E1,1.8635254E1,2.5849487E1,1.3123657E1,3.615503E1,5.187378E1,0E0,0E0,0E0,0E0,0E0,0E0,0E0,0E0,0E0,0E0,0E0,0E0,0E0,0E0,0E0,0E0,0E0,0E0,0E0,0E0,0E0,0E0,0E0,0E0,0E0,0E0],"parents":[2147483647,0,0,1,1,2,2,3,3,4,4,5,5,6,6,7,7,8,8,9,9,10,10,11,11,12,12,13,13,15,15,16,16,17,17,18,18,19,19,20,20,21,21,22,22,23,23,24,24,25,25,26,26],"right_children":[2,4,6,8,10,12,14,16,18,20,22,24,26,28,-1,30,32,34,36,38,40,42,44,46,48,50,52,-1,-1,-1,-1,-1,-1,-1,-1,-1,-1,-1,-1,-1,-1,-1,-1,-1,-1,-1,-1,-1,-1,-1,-1,-1,-1],"split_conditions":[1.8499999E0,2.275E0,4.05E0,1.475E0,2.2226666E2,1.675E0,1.3916667E0,1.25E0,1.1500001E0,3.225E0,5.9624275E1,2.55E0,7.0285714E-1,1.685316E0,3.222995E-1,5.0609756E1,1.55E0,3.5844825E-2,1.909E2,3.8757775E-2,1.679461E-1,2.4583335E0,6.199123E-1,1.1379044E0,3.05E0,2.5E2,6.422691E1,5.6325525E-2,2.1020114E-1,9.065638E-2,3.900447E-2,5.722729E-2,7.132566E-2,5.7964593E-2,9.961614E-2,7.251962E-2,9.447056E-2,9.185849E-2,1.490837E-1,9.312309E-2,1.5971783E-1,1.0689552E-1,3.1773528E-1,1.290251E-1,1.793635E-1,9.169682E-2,1.4150509E-1,1.1819961E-1,1.5252796E-1,1.2728791E-1,1.6971509E-1,2.5719857E-1,1.7259915E-1],"split_indices":[15,5,15,5,10,5,5,15,15,5,1,15,31,3,0,1,15,8,10,8,31,5,31,31,15,10,17,0,0,0,0,0,0,0,0,0,0,0,0,0,0,0,0,0,0,0,0,0,0,0,0,0,0],"split_type":[0,0,0,0,0,0,0,0,0,0,0,0,0,0,0,0,0,0,0,0,0,0,0,0,0,0,0,0,0,0,0,0,0,0,0,0,0,0,0,0,0,0,0,0,0,0,0,0,0,0,0,0,0],"sum_hessian":[3.942E3,2.765E3,1.177E3,2.287E3,4.78E2,1.142E3,3.5E1,1.366E3,9.21E2,3.44E2,1.34E2,6.23E2,5.19E2,1.3E1,2.2E1,6.37E2,7.29E2,3.04E2,6.17E2,2.75E2,6.9E1,1.2E1,1.22E2,4.46E2,1.77E2,4.18E2,1.01E2,1E0,1.2E1,1.1E1,6.26E2,4.42E2,2.87E2,2.83E2,2.1E1,2.98E2,3.19E2,2.54E2,2.1E1,1.8E1,5.1E1,3E0,9E0,8.4E1,3.8E1,4.15E2,3.1E1,1.08E2,6.9E1,3.46E2,7.2E1,3.7E1,6.4E1],"tree_param":{"num_deleted":"0","num_feature":"36","num_nodes":"53","size_leaf_vector":"0"}},{"base_weights":[1.7328559E0,1.4893675E0,2.6848874E0,1.3125569E0,1.9396191E0,2.2744365E0,3.4616976E0,1.1262741E0,1.5537094E0,1.8060175E0,2.6539311E0,2.0947666E0,3.5192478E0,3.2330563E0,5.363174E0,1.0873173E0,1.7448907E0,1.403452E0,1.8852968E0,1.5627111E0,2.036888E0,2.4189851E0,4.899703E0,1.9697655E0,2.8714705E0,2.9066217E0,4.383185E0,3.0188296E0,4.7467403E0,5.864084E0,3.022719E0,8.9528877E-1,1.1627767E0,1.4111017E0,2.423679E0,1.2588695E0,1.5349739E0,1.4353701E0,1.9859514E0,1.5014026E0,2.1031203E0,1.9924012E0,3.348082E0,2.2072282E0,3.4953406E0,2.0538423E0,5.263491E0,1.801408E0,2.5416138E0,3.198101E0,1.8187364E0,2.1187472E0,3.3261116E0,4.3688335E0,2.8915312E0,2.114392E0,5.08334E0,1.404845E0,6.009531E0],"categories":[],"categories_nodes":[],"categories_segments":[],"categories_sizes":[],"default_left":[1,1,1,1,1,1,1,1,1,1,1,1,1,1,1,1,1,1,1,1,1,1,1,1,1,1,0,1,1,1,0,0,0,0,0,0,0,0,0,0,0,0,0,0,0,0,0,0,0,0,0,0,0,0,0,0,0,0,0],"id":3,"left_children":[1,3,5,7,9,11,13,15,17,19,21,23,25,27,29,31,33,35,37,39,41,43,45,47,49,51,-1,53,55,57,-1,-1,-1,-1,-1,-1,-1,-1,-1,-1,-1,-1,-1,-1,-1,-1,-1,-1,-1,-1,-1,-1,-1,-1,-1,-1,-1,-1,-1],"loss_changes":[9.090957E2,2.4734814E2,2.4751953E2,9.964014E1,7.9474365E1,1.10494385E2,1.0221826E2,2.8877563E1,4.6230957E1,3.8777588E1,6.0433716E1,3.92959E1,2.1662354E1,6.608984E1,1.5100464E1,1.6405396E1,1.3346298E1,1.0979248E1,1.087146E1,9.03479E0,1.5494751E1,2.100354E1,1.6130981E0,3.4124023E1,1.5502563E1,6.5035095E0,0E0,2.5175049E1,1.4947266E1,5.826477E0,0E0,0E0,0E0,0E0,0E0,0E0,0E0,0E0,0E0,0E0,0E0,0E0,0E0,0E0,0E0,0E0,0E0,0E0,0E0,0E0,0E0,0E0,0E0,0E0,0E0,0E0,0E0,0E0,0E0],"parents":[2147483647,0,0,1,1,2,2,3,3,4,4,5,5,6,6,7,7,8,8,9,9,10,10,11,11,12,12,13,13,14,14,15,15,16,16,17,17,18,18,19,19,20,20,21,21,22,22,23,23,24,24,25,25,27,27,28,28,29,29],"right_children":[2,4,6,8,10,12,14,16,18,20,22,24,26,28,30,32,34,36,38,40,42,44,46,48,50,52,-1,54,56,58,-1,-1,-1,-1,-1,-1,-1,-1,-1,-1,-1,-1,-1,-1,-1,-1,-1,-1,-1,-1,-1,-1,-1,-1,-1,-1,-1,-1,-1],"split_conditions":[2.225E0,2.13875E2,2.2108334E2,1.3583333E0,8.6020696E-1,4.0520214E-2,3.8249998E0,1.1314286E0,4.4929904E-1,1.4583334E0,5.5490196E-2,3.3249998E0,6.253743E-1,3.0025E2,2.0416666E2,1.4358334E2,1.1083333E0,1.7616666E2,1.035E2,2.09375E2,3.275417E2,2.861E2,1.4E0,4.5318878E-1,4.139E1,2.7083335E0,2.1915925E-1,6.84479E1,1.4E1,4.3956045E-4,1.5113595E-1,4.476444E-2,5.8138836E-2,7.055508E-2,1.21183954E-1,6.294348E-2,7.674869E-2,7.176851E-2,9.9297576E-2,7.5070135E-2,1.0515602E-1,9.962007E-2,1.674041E-1,1.1036141E-1,1.7476703E-1,1.0269212E-1,2.6317456E-1,9.0070404E-2,1.270807E-1,1.5990506E-1,9.0936825E-2,1.0593736E-1,1.6630559E-1,2.1844168E-1,1.4457656E-1,1.057196E-1,2.5416702E-1,7.024225E-2,3.0047655E-1],"split_indices":[5,10,10,5,31,8,5,31,31,5,8,5,31,10,24,10,5,10,24,24,10,10,5,31,21,5,0,25,4,8,0,0,0,0,0,0,0,0,0,0,0,0,0,0,0,0,0,0,0,0,0,0,0,0,0,0,0,0,0],"split_type":[0,0,0,0,0,0,0,0,0,0,0,0,0,0,0,0,0,0,0,0,0,0,0,0,0,0,0,0,0,0,0,0,0,0,0,0,0,0,0,0,0,0,0,0,0,0,0,0,0,0,0,0,0,0,0,0,0,0,0],"sum_hessian":[3.938E3,3.138E3,8E2,2.256E3,8.82E2,5.26E2,2.74E2,1.276E3,9.8E2,7.46E2,1.36E2,4.62E2,6.4E1,2.47E2,2.7E1,1.203E3,7.3E1,6.78E2,3.02E2,3.67E2,3.79E2,1.25E2,1.1E1,4.01E2,6.1E1,4E1,2.4E1,2.19E2,2.8E1,2.1E1,6E0,3.43E2,8.6E2,5.1E1,2.2E1,3.28E2,3.5E2,5.8E1,2.44E2,3.33E2,3.4E1,3.69E2,1E1,1.07E2,1.8E1,2E0,9E0,3.13E2,8.8E1,4.5E1,1.6E1,1.6E1,2.4E1,1.6E1,2.03E2,4E0,2.4E1,1E0,2E1],"tree_param":{"num_deleted":"0","num_feature":"36","num_nodes":"59","size_leaf_vector":"0"}},{"base_weights":[1.6469299E0,1.3222239E0,2.4113278E0,1.1308917E0,2.330635E0,2.1153815E0,3.3716595E0,9.0413254E-1,1.3730642E0,2.6944346E0,1.787134E0,1.9402921E0,3.1286697E0,3.07386E0,5.0592756E0,6.762256E-1,1.1064914E0,1.15417E0,1.5568664E0,1.5967951E0,2.9625773E0,1.5709678E0,2.2184696E0,1.7334656E0,2.2406983E0,4.9411373E0,2.7412558E0,2.4221482E0,3.5050223E0,2.376844E0,5.2913003E0,5.6607383E-1,7.990145E-1,9.681998E-1,1.1939454E0,1.0811342E0,1.6872087E0,1.4459406E0,1.9017736E0,2.7570324E0,1.4221376E0,2.453464E0,3.4825761E0,1.4571447E0,2.1603067E0,2.0300343E0,3.301351E0,1.6704023E0,2.3273304E0,1.9863013E0,2.5530167E0,5.687623E0,2.9238348E0,2.311139E0,3.5731337E0,2.4363444E0,5.2256095E-1,3.1480432E0,4.3276935E0,1.4470134E0,5.3597937E0],"categories":[],"categories_nodes":[],"categories_segments":[],"categories_sizes":[],"default_left":[1,1,1,1,1,1,1,1,1,1,1,1,1,1,1,1,1,1,1,1,1,1,1,1,1,1,1,1,1,0,1,0,0,0,0,0,0,0,0,0,0,0,0,0,0,0,0,0,0,0,0,0,0,0,0,0,0,0,0,0,0],"id":4,"left_children":[1,3,5,7,9,11,13,15,17,19,21,23,25,27,29,31,33,35,37,39,41,43,45,47,49,51,53,55,57,-1,59,-1,-1,-1,-1,-1,-1,-1,-1,-1,-1,-1,-1,-1,-1,-1,-1,-1,-1,-1,-1,-1,-1,-1,-1,-1,-1,-1,-1,-1,-1],"loss_changes":[9.826797E2,5.356714E2,3.2908447E2,1.276438E2,8.297461E1,1.548457E2,1.2366089E2,5.5286316E1,4.3787354E1,7.2970825E1,1.3391357E1,4.433008E1,7.914221E1,5.838672E1,1.2319031E1,7.3112793E0,6.6084595E0,1.8458862E1,2.0703003E1,7.0219116E0,4.731555E1,5.170105E0,5.133209E0,1.3489746E1,1.979773E1,1.6499878E1,3.1458252E1,1.3696289E0,2.7784546E1,0E0,1.7233276E0,0E0,0E0,0E0,0E0,0E0,0E0,0E0,0E0,0E0,0E0,0E0,0E0,0E0,0E0,0E0,0E0,0E0,0E0,0E0,0E0,0E0,0E0,0E0,0E0,0E0,0E0,0E0,0E0,0E0,0E0],"parents":[2147483647,0,0,1,1,2,2,3,3,4,4,5,5,6,6,7,7,8,8,9,9,10,10,11,11,12,12,13,13,14,14,15,15,16,16,17,17,18,18,19,19,20,20,21,21,22,22,23,23,24,24,25,25,26,26,27,27,28,28,30,30],"right_children":[2,4,6,8,10,12,14,16,18,20,22,24,26,28,30,32,34,36,38,40,42,44,46,48,50,52,54,56,58,-1,60,-1,-1,-1,-1,-1,-1,-1,-1,-1,-1,-1,-1,-1,-1,-1,-1,-1,-1,-1,-1,-1,-1,-1,-1,-1,-1,-1,-1,-1,-1],"split_conditions":[1.8499999E0,2.358333E0,2.75E0,1.3583333E0,8.510611E1,2.5583334E0,4.05E0,1.25E0,1.25E0,1.6889118E-1,2.2141666E2,1.6083333E0,6.8081055E1,1.4E0,1.8219744E-1,1.05E0,1.45E0,7.135377E-1,5.2844214E-1,1.0255E2,2.891667E0,3.225E0,8.978897E-1,1.144958E0,2.13075E2,4.2419806E0,4.2010424E-1,1.4358453E2,7.225168E-1,1.188422E-1,1.9E1,2.8303692E-2,3.9950725E-2,4.840999E-2,5.969727E-2,5.405671E-2,8.4360436E-2,7.229703E-2,9.508868E-2,1.3785163E-1,7.110688E-2,1.22673206E-1,1.7412882E-1,7.285724E-2,1.08015336E-1,1.0150172E-1,1.6506755E-1,8.3520114E-2,1.1636652E-1,9.931507E-2,1.2765084E-1,2.8438115E-1,1.4619175E-1,1.15556955E-1,1.7865668E-1,1.21817224E-1,2.6128048E-2,1.5740216E-1,2.1638468E-1,7.235067E-2,2.679897E-1],"split_indices":[15,5,15,5,1,5,15,15,15,31,10,5,1,5,31,15,15,31,31,27,5,5,31,31,10,28,31,9,31,0,16,0,0,0,0,0,0,0,0,0,0,0,0,0,0,0,0,0,0,0,0,0,0,0,0,0,0,0,0,0,0],"split_type":[0,0,0,0,0,0,0,0,0,0,0,0,0,0,0,0,0,0,0,0,0,0,0,0,0,0,0,0,0,0,0,0,0,0,0,0,0,0,0,0,0,0,0,0,0,0,0,0,0,0,0,0,0,0,0,0,0,0,0,0,0],"sum_hessian":[3.971E3,2.789E3,1.182E3,2.346E3,4.43E2,9.06E2,2.76E2,1.214E3,1.132E3,2.63E2,1.8E2,7.75E2,1.31E2,2.37E2,3.9E1,5.73E2,6.41E2,5.2E2,6.12E2,5.3E1,2.1E2,1.23E2,5.7E1,4.63E2,3.12E2,2.1E1,1.1E2,9.7E1,1.4E2,4E0,3.5E1,3.05E2,2.68E2,2.53E2,3.88E2,4.6E2,6E1,4.67E2,1.45E2,5E0,4.8E1,1.09E2,1.01E2,1.06E2,1.7E1,5.1E1,6E0,4.22E2,4.1E1,1.76E2,1.36E2,1.4E1,7E0,7.5E1,3.5E1,9.6E1,1E0,1.01E2,3.9E1,1E0,3.4E1],"tree_param":{"num_deleted":"0","num_feature":"36","num_nodes":"61","size_leaf_vector":"0"}},{"base_weights":[1.5519483E0,1.2529062E0,2.2515938E0,1.0574365E0,2.1193829E0,1.9838823E0,3.1258507E0,8.7895346E-1,1.3034021E0,1.7783746E0,2.7890055E0,1.8756081E0,3.5476544E0,2.854794E0,4.706791E0,6.5708727E-1,1.0681125E0,1.0904864E0,1.4764482E0,1.3103563E0,2.038576E0,1.7280763E0,3.0690527E0,1.6202409E0,2.1156156E0,2.8633885E0,5.4936767E0,2.7236776E0,4.229632E0,3.099607E0,5.227484E0,5.879449E-1,8.155844E-1,9.95613E-1,1.2425597E0,9.765854E-1,1.3853027E0,1.3251351E0,1.7582625E0,3.7836236E-1,1.3794044E0,1.6184688E0,2.2898486E0,2.3740919E0,1.2035404E0,3.370479E0,1.8614573E0,1.4174515E0,1.7598749E0,1.8868511E0,2.4755456E0,3.3982868E0,2.203995E0,6.8568363E0,3.1509693E0,2.4038007E0,3.0541723E0,4.4043927E0,5.419693E-1,5.3748674E0,2.2076712E0],"categories":[],"categories_nodes":[],"categories_segments":[],"categories_sizes":[],"default_left":[1,1,1,1,1,1,1,1,1,1,1,1,1,1,1,1,1,1,1,1,1,1,1,1,1,1,1,1,1,0,1,0,0,0,0,0,0,0,0,0,0,0,0,0,0,0,0,0,0,0,0,0,0,0,0,0,0,0,0,0,0],"id":5,"left_children":[1,3,5,7,9,11,13,15,17,19,21,23,25,27,29,31,33,35,37,39,41,43,45,47,49,51,53,55,57,-1,59,-1,-1,-1,-1,-1,-1,-1,-1,-1,-1,-1,-1,-1,-1,-1,-1,-1,-1,-1,-1,-1,-1,-1,-1,-1,-1,-1,-1,-1,-1],"loss_changes":[8.288428E2,4.6979297E2,2.7208252E2,9.877222E1,1.1195361E2,1.479314E2,1.05264404E2,5.4779846E1,3.3576294E1,3.8977173E1,4.550232E1,4.9036377E1,6.1502075E1,3.1562866E1,1.643396E1,6.2163086E0,7.767761E0,1.31536255E1,2.0014648E1,7.5221405E0,1.9306396E1,1.001931E1,4.2502197E1,9.369995E0,3.1393677E1,8.382111E0,2.3103058E1,1.6021973E1,9.857666E0,0E0,5.960083E-1,0E0,0E0,0E0,0E0,0E0,0E0,0E0,0E0,0E0,0E0,0E0,0E0,0E0,0E0,0E0,0E0,0E0,0E0,0E0,0E0,0E0,0E0,0E0,0E0,0E0,0E0,0E0,0E0,0E0,0E0],"parents":[2147483647,0,0,1,1,2,2,3,3,4,4,5,5,6,6,7,7,8,8,9,9,10,10,11,11,12,12,13,13,14,14,15,15,16,16,17,17,18,18,19,19,20,20,21,21,22,22,23,23,24,24,25,25,26,26,27,27,28,28,30,30],"right_children":[2,4,6,8,10,12,14,16,18,20,22,24,26,28,30,32,34,36,38,40,42,44,46,48,50,52,54,56,58,-1,60,-1,-1,-1,-1,-1,-1,-1,-1,-1,-1,-1,-1,-1,-1,-1,-1,-1,-1,-1,-1,-1,-1,-1,-1,-1,-1,-1,-1,-1,-1],"split_conditions":[1.8499999E0,2.275E0,2.75E0,1.4583334E0,2.891667E0,3.0333333E0,4.05E0,1.25E0,1.25E0,2.4934319E-1,1.6829719E-1,1.475E0,2.551E2,3.025417E2,4.9503767E-1,1.1916666E0,1.2083334E0,2.11125E2,4.3771908E-1,1.4125E2,1.87625E2,2.0032098E0,8.739812E1,2.15E0,2.1836667E2,7.993501E1,7.673759E1,1.6916666E0,3.9508934E1,1.5498035E-1,4.49E1,2.9397247E-2,4.077922E-2,4.978065E-2,6.2127985E-2,4.882927E-2,6.9265135E-2,6.6256754E-2,8.7913126E-2,1.8918118E-2,6.8970226E-2,8.092344E-2,1.1449243E-1,1.18704595E-1,6.0177024E-2,1.6852395E-1,9.307287E-2,7.0872575E-2,8.799375E-2,9.434255E-2,1.23777285E-1,1.6991435E-1,1.1019975E-1,3.4284183E-1,1.5754847E-1,1.2019004E-1,1.5270862E-1,2.2021964E-1,2.7098466E-2,2.6874337E-1,1.1038356E-1],"split_indices":[15,5,15,5,5,5,15,15,15,31,31,5,10,10,31,5,5,10,31,10,10,3,1,15,10,1,25,5,2,0,21,0,0,0,0,0,0,0,0,0,0,0,0,0,0,0,0,0,0,0,0,0,0,0,0,0,0,0,0,0,0],"split_type":[0,0,0,0,0,0,0,0,0,0,0,0,0,0,0,0,0,0,0,0,0,0,0,0,0,0,0,0,0,0,0,0,0,0,0,0,0,0,0,0,0,0,0,0,0,0,0,0,0,0,0,0,0,0,0,0,0,0,0,0,0],"sum_hessian":[3.974E3,2.786E3,1.188E3,2.275E3,5.11E2,9.12E2,2.76E2,1.321E3,9.54E2,3.41E2,1.7E2,8.55E2,5.7E1,2.38E2,3.8E1,6.1E2,7.11E2,4.31E2,5.23E2,1.24E2,2.17E2,3.7E1,1.33E2,4.18E2,4.37E2,4.4E1,1.3E1,2.2E2,1.8E1,1.1E1,2.7E1,4.28E2,1.82E2,5.07E2,2.04E2,3.14E2,1.17E2,3.44E2,1.79E2,9E0,1.15E2,8.4E1,1.33E2,1.5E1,2.2E1,1.05E2,2.8E1,1.75E2,2.43E2,2.71E2,1.66E2,2.2E1,2.2E1,7E0,6E0,1.16E2,1.04E2,1.7E1,1E0,2.5E1,2E0],"tree_param":{"num_deleted":"0","num_feature":"36","num_nodes":"61","size_leaf_vector":"0"}},{"base_weights":[1.4781619E0,1.2576265E0,2.392222E0,1.1010109E0,2.240575E0,2.2701235E0,4.6194425E0,9.3942887E-1,1.4474773E0,3.129525E0,1.9751438E0,2.0497215E0,2.9095278E0,2.5190055E0,4.9250064E0,7.5107825E-1,1.177994E0,1.1794305E0,1.6343263E0,2.6164145E0,3.8518379E0,1.8074628E0,3.0075514E0,1.8621747E0,2.4801252E0,2.5511987E0,3.9368436E0,3.574618E0,5.356714E0,5.1663524E-1,8.5428333E-1,1.0325135E0,1.4061722E0,1.1007093E0,1.487682E0,1.5557989E0,2.4164383E0,2.860381E0,1.4955865E0,4.371558E0,2.4761236E0,1.5438708E0,2.16859E0,2.4981503E0,4.2426753E0,1.7592436E0,2.4236164E0,2.144535E0,2.8847697E0,2.4524517E0,5.295486E0,5.4341016E0,3.0370705E0],"categories":[],"categories_nodes":[],"categories_segments":[],"categories_sizes":[],"default_left":[1,1,1,1,1,1,1,1,1,1,1,1,1,0,1,1,1,1,1,1,1,1,1,1,1,1,1,0,0,0,0,0,0,0,0,0,0,0,0,0,0,0,0,0,0,0,0,0,0,0,0,0,0],"id":6,"left_children":[1,3,5,7,9,11,13,15,17,19,21,23,25,-1,27,29,31,33,35,37,39,41,43,45,47,49,51,-1,-1,-1,-1,-1,-1,-1,-1,-1,-1,-1,-1,-1,-1,-1,-1,-1,-1,-1,-1,-1,-1,-1,-1,-1,-1],"loss_changes":[7.9566113E2,4.892334E2,1.9863477E2,1.5298462E2,9.716724E1,9.705322E1,1.2624817E1,8.372595E1,4.189612E1,2.6614014E1,5.3422974E1,3.953589E1,5.8057983E1,0E0,8.984375E-2,2.5085144E1,2.6067017E1,7.1710205E0,2.7747559E1,1.2402161E1,1.7059937E1,2.4733154E1,1.834314E1,1.7985352E1,1.5947998E1,2.4951782E1,4.546704E1,0E0,0E0,0E0,0E0,0E0,0E0,0E0,0E0,0E0,0E0,0E0,0E0,0E0,0E0,0E0,0E0,0E0,0E0,0E0,0E0,0E0,0E0,0E0,0E0,0E0,0E0],"parents":[2147483647,0,0,1,1,2,2,3,3,4,4,5,5,6,6,7,7,8,8,9,9,10,10,11,11,12,12,14,14,15,15,16,16,17,17,18,18,19,19,20,20,21,21,22,22,23,23,24,24,25,25,26,26],"right_children":[2,4,6,8,10,12,14,16,18,20,22,24,26,-1,28,30,32,34,36,38,40,42,44,46,48,50,52,-1,-1,-1,-1,-1,-1,-1,-1,-1,-1,-1,-1,-1,-1,-1,-1,-1,-1,-1,-1,-1,-1,-1,-1,-1,-1],"split_conditions":[2.15E0,2.4583335E0,3.95E0,1.55E0,2.2201532E2,2.3770834E2,3.3655772E-1,1.475E0,1.2583333E0,5.1987773E-1,3.641667E0,2.75E0,2.35E0,1.2595028E-1,1.3875E2,1.05E0,4.0028778E-1,7.327068E-1,8.489786E-1,1.615E0,6.659544E0,3.6763602E-1,2.1984921E2,2.5916667E0,1.6916666E0,3.370521E0,6.782158E1,1.787309E-1,2.678357E-1,2.5831763E-2,4.2714167E-2,5.1625676E-2,7.030861E-2,5.503547E-2,7.43841E-2,7.778995E-2,1.20821916E-1,1.4301905E-1,7.4779324E-2,2.185779E-1,1.2380618E-1,7.719354E-2,1.0842951E-1,1.24907516E-1,2.1213377E-1,8.796218E-2,1.21180825E-1,1.0722675E-1,1.4423849E-1,1.2262259E-1,2.647743E-1,2.717051E-1,1.5185353E-1],"split_indices":[15,5,15,15,7,10,31,5,5,31,5,15,5,0,24,15,31,31,31,6,28,31,10,5,5,31,17,0,0,0,0,0,0,0,0,0,0,0,0,0,0,0,0,0,0,0,0,0,0,0,0,0,0],"split_type":[0,0,0,0,0,0,0,0,0,0,0,0,0,0,0,0,0,0,0,0,0,0,0,0,0,0,0,0,0,0,0,0,0,0,0,0,0,0,0,0,0,0,0,0,0,0,0,0,0,0,0,0,0],"sum_hessian":[3.961E3,3.193E3,7.68E2,2.756E3,4.37E2,7.3E2,3.8E1,1.882E3,8.74E2,9.8E1,3.39E2,5.46E2,1.84E2,6E0,3.2E1,1.054E3,8.28E2,3.62E2,5.12E2,6E1,3.8E1,2.94E2,4.5E1,3.84E2,1.62E2,1.39E2,4.5E1,1E1,2.2E1,3.24E2,7.3E2,5.09E2,3.19E2,2.92E2,7E1,4.68E2,4.4E1,4.8E1,1.2E1,2.6E1,1.2E1,1.73E2,1.21E2,3.4E1,1.1E1,3.28E2,5.6E1,9.2E1,7E1,1.36E2,3E0,1.5E1,3E1],"tree_param":{"num_deleted":"0","num_feature":"36","num_nodes":"53","size_leaf_vector":"0"}},{"base_weights":[1.4052317E0,1.1898179E0,2.2955554E0,9.660454E-1,1.810411E0,2.1736E0,4.212092E0,7.395492E-1,1.1965866E0,1.6917608E0,3.1611488E0,1.9820621E0,2.9753551E0,4.7171774E0,2.605944E0,5.7930666E-1,9.071066E-1,1.0090712E0,1.3720466E0,1.582133E0,2.5786598E0,3.924531E0,2.436122E0,1.8802873E0,2.7875538E0,2.052646E0,3.399756E0,1.1966407E0,5.029343E0,2.9494436E0,1.0957086E0,4.4398317E-1,6.7230636E-1,8.109878E-1,1.1711569E0,9.1151685E-1,1.2013923E0,1.2507848E0,1.8065857E0,1.3355008E0,1.8401711E0,1.78761E0,2.8139682E0,8.8723195E-1,4.218269E0,1.207275E0,2.7334843E0,1.7051885E0,2.137709E0,2.9035337E0,1.7561738E0,1.7336895E0,3.0275197E0,4.1412916E0,2.812126E0,5.18693E0,1.882082E0,7.0282495E-1,3.1209762E0],"categories":[],"categories_nodes":[],"categories_segments":[],"categories_sizes":[],"default_left":[1,1,1,1,1,1,1,1,1,1,1,1,1,1,1,1,1,1,1,1,1,1,1,1,1,1,1,0,1,1,0,0,0,0,0,0,0,0,0,0,0,0,0,0,0,0,0,0,0,0,0,0,0,0,0,0,0,0,0],"id":7,"left_children":[1,3,5,7,9,11,13,15,17,19,21,23,25,27,29,31,33,35,37,39,41,43,45,47,49,51,53,-1,55,57,-1,-1,-1,-1,-1,-1,-1,-1,-1,-1,-1,-1,-1,-1,-1,-1,-1,-1,-1,-1,-1,-1,-1,-1,-1,-1,-1,-1,-1],"loss_changes":[7.5636523E2,4.4111328E2,1.7081836E2,1.2161548E2,1.2991577E2,1.055918E2,2.4213196E1,3.131836E1,3.6813965E1,7.156421E1,2.7521973E1,4.3043945E1,4.7062134E1,3.0248413E1,3.5122147E0,7.3657837E0,1.3720001E1,9.50531E0,2.919812E1,4.1772583E1,1.060553E1,2.3914703E1,1.0220215E1,2.0063965E1,2.5565186E0,9.054565E0,2.8878784E1,0E0,5.1168213E0,1.6601791E0,0E0,0E0,0E0,0E0,0E0,0E0,0E0,0E0,0E0,0E0,0E0,0E0,0E0,0E0,0E0,0E0,0E0,0E0,0E0,0E0,0E0,0E0,0E0,0E0,0E0,0E0,0E0,0E0,0E0],"parents":[2147483647,0,0,1,1,2,2,3,3,4,4,5,5,6,6,7,7,8,8,9,9,10,10,11,11,12,12,13,13,14,14,15,15,16,16,17,17,18,18,19,19,20,20,21,21,22,22,23,23,24,24,25,25,26,26,28,28,29,29],"right_children":[2,4,6,8,10,12,14,16,18,20,22,24,26,28,30,32,34,36,38,40,42,44,46,48,50,52,54,-1,56,58,-1,-1,-1,-1,-1,-1,-1,-1,-1,-1,-1,-1,-1,-1,-1,-1,-1,-1,-1,-1,-1,-1,-1,-1,-1,-1,-1,-1,-1],"split_conditions":[2.15E0,1.9916667E0,4.8084505E-2,1.3499999E0,3.641667E0,2.491E2,7.563347E1,1.2583333E0,1.2583333E0,2.631667E2,6.7764824E1,3.25E0,1.3916667E0,1.4558334E2,9.783333E1,1.05E0,5.140415E-1,1.75E0,6.0252106E-1,3.144009E-1,2.225E0,3.704251E1,1.7942857E2,1.7416667E0,7.554109E1,9.26E0,6.819736E1,5.9832036E-2,3.3984753E2,9E0,5.478543E-2,2.219916E-2,3.3615317E-2,4.054939E-2,5.8557846E-2,4.5575842E-2,6.0069617E-2,6.253924E-2,9.032928E-2,6.677505E-2,9.200855E-2,8.93805E-2,1.4069842E-1,4.43616E-2,2.1091345E-1,6.036375E-2,1.3667421E-1,8.525943E-2,1.0688545E-1,1.451767E-1,8.780869E-2,8.668448E-2,1.51376E-1,2.0706458E-1,1.406063E-1,2.5934651E-1,9.4104104E-2,3.514125E-2,1.5604882E-1],"split_indices":[15,5,8,15,5,10,9,5,5,10,17,15,5,10,20,15,31,15,31,31,5,0,10,5,17,35,17,0,7,4,0,0,0,0,0,0,0,0,0,0,0,0,0,0,0,0,0,0,0,0,0,0,0,0,0,0,0,0,0],"split_type":[0,0,0,0,0,0,0,0,0,0,0,0,0,0,0,0,0,0,0,0,0,0,0,0,0,0,0,0,0,0,0,0,0,0,0,0,0,0,0,0,0,0,0,0,0,0,0,0,0,0,0,0,0,0,0,0,0,0,0],"sum_hessian":[3.957E3,3.188E3,7.69E2,2.345E3,8.43E2,7.25E2,4.4E1,1.185E3,1.16E3,7.77E2,6.6E1,5.88E2,1.37E2,3.2E1,1.2E1,6.08E2,5.77E2,5.64E2,5.96E2,6.94E2,8.3E1,3E1,3.6E1,5.25E2,6.3E1,4.5E1,9.2E1,3E0,2.9E1,9E0,3E0,2.5E2,3.58E2,4.26E2,1.51E2,3.78E2,1.86E2,4.69E2,1.27E2,3.58E2,3.36E2,2.1E1,6.2E1,3E0,2.7E1,8E0,2.8E1,3.17E2,2.08E2,5.5E1,8E0,3.6E1,9E0,3.8E1,5.4E1,2.7E1,2E0,1E0,8E0],"tree_param":{"num_deleted":"0","num_feature":"36","num_nodes":"59","size_leaf_vector":"0"}},{"base_weights":[1.3350847E0,1.0430223E0,1.8915263E0,8.5652E-1,1.3577874E0,1.6843385E0,2.6862652E0,6.4860594E-1,9.811629E-1,2.1117716E0,1.2038131E0,1.6059787E0,2.5045927E0,2.4778826E0,4.554833E0,5.205266E-1,7.2111976E-1,8.609403E-1,1.0885884E0,4.0512495E0,1.9855323E0,9.9411196E-1,1.4200226E0,1.4680098E0,1.7698121E0,2.0564866E0,3.156969E0,2.329034E0,3.5575628E0,5.136334E0,3.052648E0,4.2926565E-1,6.1039925E-1,1.1310055E0,6.8648297E-1,7.856599E-1,9.9227583E-1,1.3895057E0,1.0367305E0,5.5656805E0,7.667904E-1,1.8682176E0,3.6810584E0,9.634586E-1,2.1330967E0,1.3693722E0,2.4047892E0,1.9754153E0,1.4140092E0,2.3166716E0,1.6781024E0,2.675868E0,1.5730113E0,3.4641125E0,1.6489524E0,3.2445195E0,2.2149599E0,1.3506213E0,3.671017E0,2.5677767E0,5.4788604E0],"categories":[],"categories_nodes":[],"categories_segments":[],"categories_sizes":[],"default_left":[1,1,1,1,1,1,1,1,1,1,1,1,1,1,1,1,1,1,1,1,1,1,1,1,1,1,1,1,1,1,0,0,0,0,0,0,0,0,0,0,0,0,0,0,0,0,0,0,0,0,0,0,0,0,0,0,0,0,0,0,0],"id":8,"left_children":[1,3,5,7,9,11,13,15,17,19,21,23,25,27,29,31,33,35,37,39,41,43,45,47,49,51,53,55,57,59,-1,-1,-1,-1,-1,-1,-1,-1,-1,-1,-1,-1,-1,-1,-1,-1,-1,-1,-1,-1,-1,-1,-1,-1,-1,-1,-1,-1,-1,-1,-1],"loss_changes":[6.4402734E2,1.5199683E2,2.2056543E2,4.189026E1,1.0995288E2,6.584448E1,9.812866E1,5.3643494E0,1.2287659E1,3.1864807E1,3.5177124E1,1.9892578E1,2.0694763E1,3.2694946E1,7.9057007E0,1.5998001E0,4.788849E0,4.045288E0,6.939331E0,4.049907E1,2.395404E1,1.2364227E1,1.6409058E1,1.2167236E1,1.868103E1,1.3159241E1,1.096225E1,1.6519897E1,2.30307E0,1.7678528E0,0E0,0E0,0E0,0E0,0E0,0E0,0E0,0E0,0E0,0E0,0E0,0E0,0E0,0E0,0E0,0E0,0E0,0E0,0E0,0E0,0E0,0E0,0E0,0E0,0E0,0E0,0E0,0E0,0E0,0E0,0E0],"parents":[2147483647,0,0,1,1,2,2,3,3,4,4,5,5,6,6,7,7,8,8,9,9,10,10,11,11,12,12,13,13,14,14,15,15,16,16,17,17,18,18,19,19,20,20,21,21,22,22,23,23,24,24,25,25,26,26,27,27,28,28,29,29],"right_children":[2,4,6,8,10,12,14,16,18,20,22,24,26,28,30,32,34,36,38,40,42,44,46,48,50,52,54,56,58,60,-1,-1,-1,-1,-1,-1,-1,-1,-1,-1,-1,-1,-1,-1,-1,-1,-1,-1,-1,-1,-1,-1,-1,-1,-1,-1,-1,-1,-1,-1,-1],"split_conditions":[1.75E0,3.8101606E-4,2.75E0,1.1500001E0,2.1938138E2,3.1192917E-2,4.5419488E-2,9.5E-1,3.478371E-1,1.7657101E2,3.44868E-1,5E-1,5.6160593E-1,3.85E0,6.802429E1,1.415E2,6.619634E1,5E-1,6.3217762E1,9.9E-1,1.3195918E0,7.870869E-2,1.5482211E0,6.3845238E1,7.451089E1,2.475926E2,3.2404552E0,6.1236023E1,1.6656857E0,5.7893612E1,1.526324E-1,2.1463282E-2,3.0519962E-2,5.6550276E-2,3.432415E-2,3.9282996E-2,4.9613792E-2,6.9475286E-2,5.1836528E-2,2.7828404E-1,3.833952E-2,9.341088E-2,1.8405293E-1,4.8172932E-2,1.0665484E-1,6.8468615E-2,1.2023946E-1,9.877077E-2,7.070046E-2,1.1583358E-1,8.390512E-2,1.337934E-1,7.8650564E-2,1.7320563E-1,8.244762E-2,1.6222598E-1,1.1074799E-1,6.753107E-2,1.8355085E-1,1.2838884E-1,2.7394304E-1],"split_indices":[15,8,15,15,7,8,8,15,31,7,31,30,31,15,17,27,1,30,17,6,31,8,31,1,1,7,26,17,3,1,0,0,0,0,0,0,0,0,0,0,0,0,0,0,0,0,0,0,0,0,0,0,0,0,0,0,0,0,0,0,0],"split_type":[0,0,0,0,0,0,0,0,0,0,0,0,0,0,0,0,0,0,0,0,0,0,0,0,0,0,0,0,0,0,0,0,0,0,0,0,0,0,0,0,0,0,0,0,0,0,0,0,0,0,0,0,0,0,0,0,0,0,0,0,0],"sum_hessian":[3.974E3,2.608E3,1.366E3,1.64E3,9.68E2,1.086E3,2.8E2,6.17E2,1.023E3,1.62E2,8.06E2,9.94E2,9.2E1,2.54E2,2.6E1,2.26E2,3.91E2,4.87E2,5.36E2,8E0,1.54E2,4.12E2,3.94E2,5.45E2,4.49E2,5.7E1,3.5E1,2.26E2,2.8E1,1.7E1,9E0,1.15E2,1.11E2,2.8E1,3.63E2,3.14E2,1.73E2,7.5E1,4.61E2,5E0,3E0,1.46E2,8E0,4.03E2,9E0,3.77E2,1.7E1,4.9E1,4.96E2,6.1E1,3.88E2,2.3E1,3.4E1,2.8E1,7E0,2.2E1,2.04E2,2E0,2.6E1,3E0,1.4E1],"tree_param":{"num_deleted":"0","num_feature":"36","num_nodes":"61","size_leaf_vector":"0"}},{"base_weights":[1.2704068E0,1.0172288E0,1.8727918E0,8.562723E-1,1.7702409E0,1.7989529E0,4.2652516E0,6.7883044E-1,1.0514214E0,1.6123863E0,2.8436148E0,1.5082816E0,2.234514E0,4.8104353E0,2.8648791E0,4.9416527E-1,8.371669E-1,4.139873E0,1.0390207E0,1.401129E0,2.1156006E0,2.0707846E0,3.4792802E0,1.385025E0,2.0945609E0,2.0065184E0,3.1216676E0,5.0264616E0,1.6947721E0,4.7722438E-1,1.1147214E0,8.15895E-1,1.3303723E0,6.787794E-1,1.1404682E0,1.2479284E0,1.9649425E0,4.174338E0,1.9940205E0,1.4968176E0,3.0690367E0,1.6911516E0,3.6743288E0,1.3324139E0,1.962198E0,2.0249157E0,4.0428905E0,1.7609757E0,2.454051E0,7.130165E0,2.9014876E0,5.1650643E0,1.1272026E0],"categories":[],"categories_nodes":[],"categories_segments":[],"categories_sizes":[],"default_left":[1,1,1,1,1,1,1,1,1,1,1,1,1,1,0,1,1,0,1,1,1,1,1,1,1,1,1,1,0,0,0,0,0,0,0,0,0,0,0,0,0,0,0,0,0,0,0,0,0,0,0,0,0],"id":9,"left_children":[1,3,5,7,9,11,13,15,17,19,21,23,25,27,-1,29,31,-1,33,35,37,39,41,43,45,47,49,51,-1,-1,-1,-1,-1,-1,-1,-1,-1,-1,-1,-1,-1,-1,-1,-1,-1,-1,-1,-1,-1,-1,-1,-1,-1],"loss_changes":[5.965469E2,3.336084E2,1.9724854E2,7.823718E1,7.776123E1,1.3931372E2,1.2176331E1,3.4585632E1,3.7214966E1,4.2322754E1,2.2762146E1,4.6165283E1,8.45542E1,6.961792E0,0E0,5.3026276E0,5.660492E0,0E0,3.873169E1,2.3720032E1,2.2713684E1,1.2595123E1,4.9468384E0,1.4511841E1,7.5537415E0,3.523828E1,5.8745117E1,5.5273438E0,0E0,0E0,0E0,0E0,0E0,0E0,0E0,0E0,0E0,0E0,0E0,0E0,0E0,0E0,0E0,0E0,0E0,0E0,0E0,0E0,0E0,0E0,0E0,0E0,0E0],"parents":[2147483647,0,0,1,1,2,2,3,3,4,4,5,5,6,6,7,7,8,8,9,9,10,10,11,11,12,12,13,13,15,15,16,16,18,18,19,19,20,20,21,21,22,22,23,23,24,24,25,25,26,26,27,27],"right_children":[2,4,6,8,10,12,14,16,18,20,22,24,26,28,-1,30,32,-1,34,36,38,40,42,44,46,48,50,52,-1,-1,-1,-1,-1,-1,-1,-1,-1,-1,-1,-1,-1,-1,-1,-1,-1,-1,-1,-1,-1,-1,-1,-1,-1],"split_conditions":[1.8499999E0,2.275E0,4.05E0,1.3583333E0,3.89008E-2,1.775E0,8.636487E1,1.25E0,1.6171442E2,2.2108334E2,1.3499999E0,2.85E0,7.0829237E-1,6.6E0,1.4324395E-1,1.4503663E0,1.3377193E0,2.0699365E-1,1.05E0,3.141667E0,5.7137547E1,7.1400003E0,8.655E1,1.1199305E0,5E-1,2.2655E2,6.5146416E1,3.581893E1,8.4738605E-2,2.386122E-2,5.5736072E-2,4.0794753E-2,6.651862E-2,3.393897E-2,5.7023413E-2,6.239642E-2,9.8247126E-2,2.087169E-1,9.9701025E-2,7.484088E-2,1.5345185E-1,8.4557585E-2,1.8371645E-1,6.66207E-2,9.81099E-2,1.0124578E-1,2.0214453E-1,8.8048786E-2,1.22702554E-1,3.5650826E-1,1.4507438E-1,2.5825322E-1,5.6360133E-2],"split_indices":[15,5,15,5,8,5,9,15,7,10,15,15,31,15,0,31,31,0,15,5,1,35,18,31,29,10,25,34,0,0,0,0,0,0,0,0,0,0,0,0,0,0,0,0,0,0,0,0,0,0,0,0,0],"split_type":[0,0,0,0,0,0,0,0,0,0,0,0,0,0,0,0,0,0,0,0,0,0,0,0,0,0,0,0,0,0,0,0,0,0,0,0,0,0,0,0,0,0,0,0,0,0,0,0,0,0,0,0,0],"sum_hessian":[3.923E3,2.764E3,1.159E3,2.279E3,4.85E2,1.126E3,3.3E1,1.196E3,1.083E3,4.25E2,6E1,6.78E2,4.48E2,2.2E1,1.1E1,5.54E2,6.42E2,3E0,1.08E3,3.02E2,1.23E2,2.9E1,3.1E1,5.63E2,1.15E2,3.59E2,8.9E1,2E1,2E0,5.41E2,1.3E1,6.18E2,2.4E1,2.39E2,8.41E2,2.4E2,6.2E1,5E0,1.18E2,2E1,9E0,4E0,2.7E1,5.19E2,4.4E1,1.13E2,2E0,2.35E2,1.24E2,3E0,8.6E1,1.9E1,1E0],"tree_param":{"num_deleted":"0","num_feature":"36","num_nodes":"53","size_leaf_vector":"0"}},{"base_weights":[1.2174172E0,9.413948E-1,1.7318404E0,8.053317E-1,1.7062153E0,1.5435983E0,2.4608984E0,6.5639395E-1,1.0504007E0,1.5214529E0,2.9722724E0,1.417467E0,2.337776E0,2.268568E0,3.8140254E0,5.0225365E-1,8.022049E-1,7.117616E-1,1.142235E0,1.2834079E0,2.0052123E0,1.6954461E0,3.297263E0,1.2405117E0,1.6348414E0,3.122556E0,1.8686967E0,1.7709383E0,2.5484965E0,4.2053733E0,2.6134455E0,1.4460472E0,4.800428E-1,7.359306E-1,9.3850195E-1,6.2052596E-1,1.3773416E0,8.8932806E-1,1.250417E0,3.759893E0,1.2239913E0,2.3630648E0,1.5142139E0,1.136256E0,2.2510612E0,4.4556665E0,2.5912433E0,1.083865E0,1.3423716E0,1.3290066E0,1.8190978E0,2.4556859E0,4.1667943E0,1.455618E0,2.2950313E0,9.778145E-1,1.8235135E0,3.8847172E0,2.3718235E0,1.0720546E0,4.2949934E0],"categories":[],"categories_nodes":[],"categories_segments":[],"categories_sizes":[],"default_left":[1,1,1,1,1,1,1,1,1,1,1,1,1,1,1,1,1,1,1,1,1,1,1,1,1,1,1,1,1,1,0,0,0,0,0,0,0,0,0,0,0,0,0,0,0,0,0,0,0,0,0,0,0,0,0,0,0,0,0,0,0],"id":10,"left_children":[1,3,5,7,9,11,13,15,17,19,21,23,25,27,29,31,33,35,37,39,41,43,45,47,49,51,53,55,57,59,-1,-1,-1,-1,-1,-1,-1,-1,-1,-1,-1,-1,-1,-1,-1,-1,-1,-1,-1,-1,-1,-1,-1,-1,-1,-1,-1,-1,-1,-1,-1],"loss_changes":[5.6690674E2,2.7002417E2,1.879248E2,8.019458E1,8.74082E1,1.0817627E2,6.551807E1,3.063556E1,2.5185547E1,3.7155457E1,1.4742554E1,3.5014404E1,4.9751587E1,3.0590576E1,4.9842224E0,1.3434525E1,5.7046814E0,1.0136475E1,1.683606E1,2.9829742E1,1.6100769E1,1.1705513E0,1.9532806E1,7.081543E0,2.1757446E1,2.8068054E1,1.3741943E1,2.1365967E0,2.8322021E1,2.1349487E0,0E0,0E0,0E0,0E0,0E0,0E0,0E0,0E0,0E0,0E0,0E0,0E0,0E0,0E0,0E0,0E0,0E0,0E0,0E0,0E0,0E0,0E0,0E0,0E0,0E0,0E0,0E0,0E0,0E0,0E0,0E0],"parents":[2147483647,0,0,1,1,2,2,3,3,4,4,5,5,6,6,7,7,8,8,9,9,10,10,11,11,12,12,13,13,14,14,15,15,16,16,17,17,18,18,19,19,20,20,21,21,22,22,23,23,24,24,25,25,26,26,27,27,28,28,29,29],"right_children":[2,4,6,8,10,12,14,16,18,20,22,24,26,28,30,32,34,36,38,40,42,44,46,48,50,52,54,56,58,60,-1,-1,-1,-1,-1,-1,-1,-1,-1,-1,-1,-1,-1,-1,-1,-1,-1,-1,-1,-1,-1,-1,-1,-1,-1,-1,-1,-1,-1,-1,-1],"split_conditions":[1.75E0,2.358333E0,2.75E0,1.5583334E0,3.89008E-2,2.6E0,4.05E0,1.25E0,1.05E0,2.2035E2,1.802E2,1.5416666E0,7.707881E1,1.4E0,1.45E1,5.054348E1,1.2083334E0,3.5844825E-2,1.7529166E2,5.572998E1,8.54262E1,6.41E0,6.482167E1,2.05E0,1.92E2,2.350893E2,2.1117142E2,1.3833333E2,6.1130524E1,6.682353E1,1.3067228E-1,7.2302364E-2,2.400214E-2,3.6796533E-2,4.6925098E-2,3.1026298E-2,6.886708E-2,4.4466402E-2,6.2520854E-2,1.8799464E-1,6.1199564E-2,1.1815324E-1,7.57107E-2,5.68128E-2,1.1255306E-1,2.2278333E-1,1.2956217E-1,5.4193255E-2,6.711858E-2,6.645033E-2,9.095489E-2,1.22784294E-1,2.0833972E-1,7.27809E-2,1.1475157E-1,4.8890725E-2,9.1175675E-2,1.9423586E-1,1.1859118E-1,5.3602733E-2,2.1474968E-1],"split_indices":[15,5,15,5,8,5,15,15,15,10,10,5,1,5,11,1,5,8,10,17,1,35,1,15,10,10,10,10,17,25,0,0,0,0,0,0,0,0,0,0,0,0,0,0,0,0,0,0,0,0,0,0,0,0,0,0,0,0,0,0,0],"split_type":[0,0,0,0,0,0,0,0,0,0,0,0,0,0,0,0,0,0,0,0,0,0,0,0,0,0,0,0,0,0,0,0,0,0,0,0,0,0,0,0,0,0,0,0,0,0,0,0,0,0,0,0,0,0,0,0,0,0,0,0,0],"sum_hessian":[4.003E3,2.607E3,1.396E3,2.215E3,3.92E2,1.112E3,2.84E2,1.38E3,8.35E2,3.44E2,4.8E1,9.62E2,1.5E2,2.51E2,3.3E1,6.73E2,7.07E2,1.8E2,6.55E2,2.33E2,1.11E2,1.1E1,3.7E1,5.34E2,4.28E2,5.4E1,9.6E1,9.3E1,1.58E2,2.3E1,1E1,1.4E1,6.59E2,4.8E2,2.27E2,1.6E2,2E1,1.99E2,4.56E2,4E0,2.29E2,6.2E1,4.9E1,7E0,4E0,1.2E1,2.5E1,2.15E2,3.19E2,1.64E2,2.64E2,3.5E1,1.9E1,5.1E1,4.5E1,7E0,8.6E1,1.6E1,1.42E2,1E0,2.2E1],"tree_param":{"num_deleted":"0","num_feature":"36","num_nodes":"61","size_leaf_vector":"0"}},{"base_weights":[1.1558148E0,9.875577E-1,1.8704338E0,8.4695137E-1,1.727179E0,1.761899E0,3.923109E0,7.200683E-1,1.1196349E0,1.5763035E0,2.8143547E0,1.5512758E0,2.2875593E0,5.2724795E0,3.4325066E0,5.891126E-1,9.414277E-1,9.265501E-1,1.3406104E0,2.2858095E0,1.3856056E0,3.496263E0,1.9413434E0,1.3674029E0,1.853482E0,3.988926E0,2.090196E0,2.2203722E0,3.7723565E0,1.423173E0,5.7023877E-1,8.075862E-1,1.145669E0,8.771198E-1,1.3222502E0,1.0162349E0,1.4571915E0,2.7281265E0,1.4622426E0,1.171719E0,1.747289E0,1.9747905E-1,3.7027175E0,9.125975E-1,2.2897897E0,1.2839054E0,2.0891957E0,1.5767143E0,2.1138256E0,2.689535E0,6.017862E0,1.8405005E0,2.7992709E0,1.477197E0,3.9280126E0],"categories":[],"categories_nodes":[],"categories_segments":[],"categories_sizes":[],"default_left":[1,1,1,1,1,1,1,1,1,1,1,1,1,0,1,1,1,1,1,1,1,1,1,1,1,1,1,0,1,0,0,0,0,0,0,0,0,0,0,0,0,0,0,0,0,0,0,0,0,0,0,0,0,0,0],"id":11,"left_children":[1,3,5,7,9,11,13,15,17,19,21,23,25,-1,27,29,31,33,35,37,39,41,43,45,47,49,51,-1,53,-1,-1,-1,-1,-1,-1,-1,-1,-1,-1,-1,-1,-1,-1,-1,-1,-1,-1,-1,-1,-1,-1,-1,-1,-1,-1],"loss_changes":[4.739414E2,3.3184253E2,1.6084619E2,9.243799E1,7.938208E1,7.583472E1,6.3963623E0,5.2841797E1,3.5195435E1,5.7853638E1,2.9526703E1,2.6082886E1,5.982727E1,0E0,3.9822998E0,1.7449036E1,1.7745178E1,7.818054E0,1.3494263E1,3.02529E1,2.5647278E1,2.1743408E1,8.305756E0,1.6844482E1,1.0501587E1,3.654236E1,2.742572E1,0E0,2.0571594E0,0E0,0E0,0E0,0E0,0E0,0E0,0E0,0E0,0E0,0E0,0E0,0E0,0E0,0E0,0E0,0E0,0E0,0E0,0E0,0E0,0E0,0E0,0E0,0E0,0E0,0E0],"parents":[2147483647,0,0,1,1,2,2,3,3,4,4,5,5,6,6,7,7,8,8,9,9,10,10,11,11,12,12,14,14,15,15,16,16,17,17,18,18,19,19,20,20,21,21,22,22,23,23,24,24,25,25,26,26,28,28],"right_children":[2,4,6,8,10,12,14,16,18,20,22,24,26,-1,28,30,32,34,36,38,40,42,44,46,48,50,52,-1,54,-1,-1,-1,-1,-1,-1,-1,-1,-1,-1,-1,-1,-1,-1,-1,-1,-1,-1,-1,-1,-1,-1,-1,-1,-1,-1],"split_conditions":[2.15E0,2.358333E0,4.05E0,1.55E0,3.6583333E0,2.3266666E2,5.9242256E1,1.5583334E0,1.4416666E0,2.2216809E2,6.8252914E1,2.65E0,6.804066E1,2.6362398E-1,6.46E0,5.0531914E1,4.0028778E-1,9.451128E-1,1.7245E2,8.303133E1,2.121E2,2.8070393E1,1.3875261E-1,2.3721088E-2,1.6083333E0,7.7E0,2.35E0,1.1101861E-1,6.1537605E1,7.115865E-2,2.851194E-2,4.0379312E-2,5.728345E-2,4.385599E-2,6.611251E-2,5.0811745E-2,7.285958E-2,1.3640633E-1,7.311213E-2,5.858595E-2,8.736445E-2,9.873953E-3,1.8513589E-1,4.5629874E-2,1.1448949E-1,6.419527E-2,1.04459785E-1,7.883572E-2,1.0569128E-1,1.3447675E-1,3.008931E-1,9.202503E-2,1.3996355E-1,7.3859856E-2,1.9640063E-1],"split_indices":[15,5,15,15,5,10,17,5,5,7,17,15,1,0,35,1,31,31,10,1,10,0,31,8,5,35,5,0,17,0,0,0,0,0,0,0,0,0,0,0,0,0,0,0,0,0,0,0,0,0,0,0,0,0,0],"split_type":[0,0,0,0,0,0,0,0,0,0,0,0,0,0,0,0,0,0,0,0,0,0,0,0,0,0,0,0,0,0,0,0,0,0,0,0,0,0,0,0,0,0,0,0,0,0,0,0,0,0,0,0,0,0,0],"sum_hessian":[3.956E3,3.204E3,7.52E2,2.694E3,5.1E2,7.16E2,3.6E1,1.841E3,8.53E2,4.5E2,6E1,5.14E2,2.02E2,7E0,2.9E1,1.159E3,6.82E2,4.58E2,3.95E2,9.3E1,3.57E2,3.2E1,2.8E1,3.23E2,1.91E2,1.9E1,1.83E2,8E0,2.1E1,2.4E1,1.135E3,4.15E2,2.67E2,4.1E2,4.8E1,1.07E2,2.88E2,5.9E1,3.4E1,2.27E2,1.3E2,2E0,3E1,8E0,2E1,2.92E2,3.1E1,9.6E1,9.5E1,1.3E1,6E0,1.38E2,4.5E1,2E0,1.9E1],"tree_param":{"num_deleted":"0","num_feature":"36","num_nodes":"55","size_leaf_vector":"0"}},{"base_weights":[1.0936928E0,9.2417294E-1,1.8167876E0,8.0985296E-1,1.6644583E0,1.7229733E0,3.7081735E0,6.748959E-1,1.0948786E0,1.5965824E0,3.9127207E0,1.5835238E0,2.6094773E0,2.9583805E0,4.510672E0,5.0870687E-1,8.214076E-1,8.98271E-1,1.2983656E0,2.4136987E0,1.4215937E0,4.420921E0,9.144802E-1,1.3536344E0,2.016814E0,1.9943255E0,3.5964196E0,3.2851577E0,1.8355175E0,3.8475165E-1,6.1067224E-1,7.2323626E-1,1.0605146E0,8.0669177E-1,1.0173665E0,1.0300204E0,1.4550575E0,2.7619557E0,1.419826E0,9.826785E-1,1.6213297E0,2.001357E0,5.1719685E0,1.12392E0,1.4491028E0,1.8538483E0,3.1877165E0,2.5111306E0,1.3196465E0,5.5635047E0,2.7346687E0,1.9749546E0,3.742764E0],"categories":[],"categories_nodes":[],"categories_segments":[],"categories_sizes":[],"default_left":[1,1,1,1,1,1,1,1,1,1,1,1,1,1,0,1,1,1,1,1,1,1,0,1,1,1,1,1,0,0,0,0,0,0,0,0,0,0,0,0,0,0,0,0,0,0,0,0,0,0,0,0,0],"id":12,"left_children":[1,3,5,7,9,11,13,15,17,19,21,23,25,27,-1,29,31,33,35,37,39,41,-1,43,45,47,49,51,-1,-1,-1,-1,-1,-1,-1,-1,-1,-1,-1,-1,-1,-1,-1,-1,-1,-1,-1,-1,-1,-1,-1,-1,-1],"loss_changes":[4.8888232E2,2.731897E2,1.2828711E2,1.0742798E2,5.983008E1,8.5494385E1,7.7154846E0,4.6112427E1,3.4920044E1,5.6908813E1,1.4241623E1,5.992395E1,5.171814E1,1.6754913E0,0E0,1.11150055E1,2.3035095E1,4.2182007E0,1.704419E1,2.1345459E1,2.9090271E1,7.821121E0,0E0,7.4505615E0,3.5306885E1,1.8304184E1,4.5810547E1,1.6015625E0,0E0,0E0,0E0,0E0,0E0,0E0,0E0,0E0,0E0,0E0,0E0,0E0,0E0,0E0,0E0,0E0,0E0,0E0,0E0,0E0,0E0,0E0,0E0,0E0,0E0],"parents":[2147483647,0,0,1,1,2,2,3,3,4,4,5,5,6,6,7,7,8,8,9,9,10,10,11,11,12,12,13,13,15,15,16,16,17,17,18,18,19,19,20,20,21,21,23,23,24,24,25,25,26,26,27,27],"right_children":[2,4,6,8,10,12,14,16,18,20,22,24,26,28,-1,30,32,34,36,38,40,42,-1,44,46,48,50,52,-1,-1,-1,-1,-1,-1,-1,-1,-1,-1,-1,-1,-1,-1,-1,-1,-1,-1,-1,-1,-1,-1,-1,-1,-1],"split_conditions":[2.15E0,2.4583335E0,4.05E0,1.55E0,4.6583333E0,2.6916666E0,7.925E0,1.2916666E0,1.4416666E0,2.148154E2,6.8406E1,2.75E0,2.3306667E2,5E-1,2.255336E-1,1.1500001E0,2.1129166E2,1.9425E2,1.858E2,8.405629E1,1.8163333E2,9.15E1,4.5724012E-2,1.1083333E0,2.8476666E2,8.454712E1,7.550214E1,5E-1,9.177588E-2,1.9237584E-2,3.0533612E-2,3.6161814E-2,5.302573E-2,4.033459E-2,5.086833E-2,5.1501017E-2,7.275288E-2,1.380978E-1,7.09913E-2,4.9133923E-2,8.106648E-2,1.00067854E-1,2.5859842E-1,5.6196E-2,7.245514E-2,9.269242E-2,1.5938583E-1,1.2555653E-1,6.598233E-2,2.7817523E-1,1.3673344E-1,9.874773E-2,1.871382E-1],"split_indices":[15,5,15,15,5,5,35,5,5,7,17,15,10,14,0,15,10,10,10,1,10,18,0,5,10,1,1,30,0,0,0,0,0,0,0,0,0,0,0,0,0,0,0,0,0,0,0,0,0,0,0,0,0],"split_type":[0,0,0,0,0,0,0,0,0,0,0,0,0,0,0,0,0,0,0,0,0,0,0,0,0,0,0,0,0,0,0,0,0,0,0,0,0,0,0,0,0,0,0,0,0,0,0,0,0,0,0,0,0],"sum_hessian":[4.001E3,3.243E3,7.58E2,2.811E3,4.32E2,7.24E2,3.4E1,1.91E3,9.01E2,4.21E2,1.1E1,6.28E2,9.6E1,2E1,1.4E1,8.97E2,1.013E3,4.61E2,4.4E2,7.2E1,3.49E2,9E0,2E0,4.13E2,2.15E2,6.1E1,3.5E1,1.4E1,6E0,4.07E2,4.9E2,7.21E2,2.92E2,2.65E2,1.96E2,1.65E2,2.75E2,5.2E1,2E1,1.11E2,2.38E2,3E0,6E0,1.25E2,2.88E2,1.91E2,2.4E1,3.3E1,2.8E1,9E0,2.6E1,5E0,9E0],"tree_param":{"num_deleted":"0","num_feature":"36","num_nodes":"53","size_leaf_vector":"0"}},{"base_weights":[1.0259718E0,9.215535E-1,2.0606592E0,7.78153E-1,1.4934727E0,3.9774737E0,1.8937986E0,6.128395E-1,1.0374244E0,1.2341517E0,2.0048115E0,1.2744879E0,4.6567206E0,1.6860496E0,2.5323262E0,4.5938239E-1,7.3570085E-1,8.869935E-1,1.1900679E0,1.1084883E0,1.9178618E0,3.5612698E0,1.8314016E0,1.5877682E0,6.4258546E-1,4.821829E0,5.947213E-1,1.587978E0,2.4887574E0,2.2919405E0,4.1740427E0,2.7681407E-1,5.3956574E-1,6.189633E-1,9.917906E-1,8.425722E-1,1.2764987E0,1.1718044E0,2.9500806E0,8.1869936E-1,1.3213835E0,1.4409276E0,2.7759383E0,4.097499E0,1.3590372E0,1.7009423E0,2.9742367E0,8.328738E-1,4.9796333E0,8.659633E-1,1.6718043E0,2.5538375E0,4.3087685E-1,1.0721489E0,2.4491782E0,4.7819734E0,1.36419E0],"categories":[],"categories_nodes":[],"categories_segments":[],"categories_sizes":[],"default_left":[1,1,1,1,1,1,1,1,1,1,1,1,1,1,1,1,1,1,1,1,1,1,1,0,0,1,0,1,1,1,1,0,0,0,0,0,0,0,0,0,0,0,0,0,0,0,0,0,0,0,0,0,0,0,0,0,0],"id":13,"left_children":[1,3,5,7,9,11,13,15,17,19,21,23,25,27,29,31,33,35,37,39,41,43,45,-1,-1,47,-1,49,51,53,55,-1,-1,-1,-1,-1,-1,-1,-1,-1,-1,-1,-1,-1,-1,-1,-1,-1,-1,-1,-1,-1,-1,-1,-1,-1,-1],"loss_changes":[4.2453613E2,2.9302026E2,1.0792993E2,1.2237549E2,9.2733154E1,4.547293E1,4.0036743E1,3.275067E1,2.4570435E1,3.9028442E1,5.8255188E1,3.654623E-1,1.18871155E1,1.6122192E1,2.2005005E1,1.1312927E1,2.8474243E1,8.71759E0,1.4254395E1,2.4027893E1,2.5875061E1,2.1592041E1,2.744336E1,0E0,0E0,9.071533E0,0E0,1.2472717E1,2.3817139E0,1.1183533E1,8.850235E0,0E0,0E0,0E0,0E0,0E0,0E0,0E0,0E0,0E0,0E0,0E0,0E0,0E0,0E0,0E0,0E0,0E0,0E0,0E0,0E0,0E0,0E0,0E0,0E0,0E0,0E0],"parents":[2147483647,0,0,1,1,2,2,3,3,4,4,5,5,6,6,7,7,8,8,9,9,10,10,11,11,12,12,13,13,14,14,15,15,16,16,17,17,18,18,19,19,20,20,21,21,22,22,25,25,27,27,28,28,29,29,30,30],"right_children":[2,4,6,8,10,12,14,16,18,20,22,24,26,28,30,32,34,36,38,40,42,44,46,-1,-1,48,-1,50,52,54,56,-1,-1,-1,-1,-1,-1,-1,-1,-1,-1,-1,-1,-1,-1,-1,-1,-1,-1,-1,-1,-1,-1,-1,-1,-1,-1],"split_conditions":[2.55E0,2.1916666E0,5.939769E1,1.55E0,2.2073334E2,1.3166666E0,2.3249998E0,1.2083334E0,1.3416667E0,3.1030094E-2,5.9624275E1,6.485691E1,9.2853195E1,3.85E0,8.1942296E-1,1.05E0,4.6355993E-1,9.5451087E-1,1.0425666E-1,1.3499999E0,5.352124E-1,2.5654865E2,3.6583333E0,7.938841E-2,3.2129273E-2,1.76625E2,2.9736066E-2,1.5258334E2,3.2375E2,1.5601389E2,2.646297E2,1.3840704E-2,2.6978288E-2,3.0948166E-2,4.958953E-2,4.212861E-2,6.382494E-2,5.8590222E-2,1.4750403E-1,4.093497E-2,6.606918E-2,7.2046384E-2,1.3879691E-1,2.0487495E-1,6.795186E-2,8.504712E-2,1.4871185E-1,4.164369E-2,2.4898167E-1,4.3298166E-2,8.359022E-2,1.2769188E-1,2.1543844E-2,5.3607445E-2,1.2245891E-1,2.3909867E-1,6.82095E-2],"split_indices":[15,5,17,15,10,5,5,5,5,8,1,0,1,15,31,15,31,31,8,15,31,7,5,0,0,10,0,10,24,10,7,0,0,0,0,0,0,0,0,0,0,0,0,0,0,0,0,0,0,0,0,0,0,0,0,0,0],"split_type":[0,0,0,0,0,0,0,0,0,0,0,0,0,0,0,0,0,0,0,0,0,0,0,0,0,0,0,0,0,0,0,0,0,0,0,0,0,0,0,0,0,0,0,0,0,0,0,0,0,0,0,0,0,0,0,0,0],"sum_hessian":[3.946E3,3.586E3,3.6E2,2.869E3,7.17E2,2.7E1,3.33E2,1.754E3,1.115E3,4.78E2,2.39E2,6E0,2.1E1,2.54E2,7.9E1,7.82E2,9.72E2,5.65E2,5.5E2,4.06E2,7.2E1,2.2E1,2.17E2,3E0,3E0,2E1,1E0,2.29E2,2.5E1,7.1E1,8E0,2.4E2,5.42E2,6.7E2,3.02E2,5.1E2,5.5E1,5.46E2,4E0,1.74E2,2.32E2,4.8E1,2.4E1,1.7E1,5E0,1.97E2,2E1,1E0,1.9E1,2.5E1,2.04E2,2.4E1,1E0,9E0,6.2E1,6E0,2E0],"tree_param":{"num_deleted":"0","num_feature":"36","num_nodes":"57","size_leaf_vector":"0"}},{"base_weights":[9.846035E-1,7.647068E-1,1.4058872E0,6.504786E-1,1.388655E0,1.3553399E0,3.22726E0,4.889025E-1,7.947146E-1,1.2753836E0,2.7067695E0,1.2057335E0,1.8027718E0,2.0475311E0,3.6644394E0,3.639273E-1,6.1656845E-1,3.7770476E0,7.8376454E-1,1.0841619E0,1.8235465E0,2.2840614E0,4.448039E0,1.1053761E0,1.6485113E0,1.5907934E0,2.7494729E0,6.933685E-1,2.249027E0,1.2284535E0,3.8228533E0,3.4569576E-1,9.2800945E-1,5.6003773E-1,8.345885E-1,5.042456E-1,8.70269E-1,8.176343E-1,1.4059826E0,2.6467156E0,1.582929E0,1.1038164E0,2.6419563E0,1.0336764E0,1.4821262E0,3.007708E0,1.5604161E0,1.4241278E0,2.2372558E0,6.210493E0,2.4531593E0,4.079375E0,1.5845329E0],"categories":[],"categories_nodes":[],"categories_segments":[],"categories_sizes":[],"default_left":[1,1,1,1,1,1,1,1,1,1,1,1,1,1,1,1,1,0,1,1,1,1,0,1,1,1,1,0,0,0,1,0,0,0,0,0,0,0,0,0,0,0,0,0,0,0,0,0,0,0,0,0,0],"id":14,"left_children":[1,3,5,7,9,11,13,15,17,19,21,23,25,27,29,31,33,-1,35,37,39,41,-1,43,45,47,49,-1,-1,-1,51,-1,-1,-1,-1,-1,-1,-1,-1,-1,-1,-1,-1,-1,-1,-1,-1,-1,-1,-1,-1,-1,-1],"loss_changes":[3.666089E2,1.851178E2,1.20835205E2,5.106909E1,5.671759E1,8.652002E1,1.1064026E1,1.6432724E1,3.5085022E1,3.7121094E1,1.2657928E1,4.2436157E1,6.1850586E1,1.7148895E0,4.951172E0,5.129753E0,5.879883E0,0E0,2.7657898E1,2.2781403E1,1.4627014E1,8.488663E0,0E0,2.048346E1,1.7099152E1,2.6119995E1,4.5271942E1,0E0,0E0,0E0,6.742157E0,0E0,0E0,0E0,0E0,0E0,0E0,0E0,0E0,0E0,0E0,0E0,0E0,0E0,0E0,0E0,0E0,0E0,0E0,0E0,0E0,0E0,0E0],"parents":[2147483647,0,0,1,1,2,2,3,3,4,4,5,5,6,6,7,7,8,8,9,9,10,10,11,11,12,12,13,13,14,14,15,15,16,16,18,18,19,19,20,20,21,21,23,23,24,24,25,25,26,26,30,30],"right_children":[2,4,6,8,10,12,14,16,18,20,22,24,26,28,30,32,34,-1,36,38,40,42,-1,44,46,48,50,-1,-1,-1,52,-1,-1,-1,-1,-1,-1,-1,-1,-1,-1,-1,-1,-1,-1,-1,-1,-1,-1,-1,-1,-1,-1],"split_conditions":[1.75E0,2.358333E0,4.05E0,1.3083334E0,5.5601485E-2,2.125E0,1.3916667E0,1.25E0,1.6171442E2,2.2673334E2,4.866667E0,2.75E0,7.3916227E-1,2.6011927E1,1.459786E-1,1.4503663E0,6.8826234E-1,1.8885238E-1,1.05E0,3.4549242E-1,2.5E-1,5.69E0,2.2240196E-1,8.286867E-1,5.7794117E1,2.5108334E2,6.5146416E1,3.4668427E-2,1.1245135E-1,6.1422676E-2,4.4075E1,1.7284788E-2,4.6400473E-2,2.8001888E-2,4.1729428E-2,2.5212279E-2,4.351345E-2,4.0881716E-2,7.029913E-2,1.3233578E-1,7.914645E-2,5.519082E-2,1.3209783E-1,5.168382E-2,7.410631E-2,1.5038541E-1,7.80208E-2,7.120639E-2,1.1186279E-1,3.1052467E-1,1.2265797E-1,2.0396875E-1,7.922664E-2],"split_indices":[15,5,15,5,8,5,5,15,7,10,5,15,31,2,31,31,31,0,15,31,33,35,0,31,17,10,25,0,0,0,21,0,0,0,0,0,0,0,0,0,0,0,0,0,0,0,0,0,0,0,0,0,0],"split_type":[0,0,0,0,0,0,0,0,0,0,0,0,0,0,0,0,0,0,0,0,0,0,0,0,0,0,0,0,0,0,0,0,0,0,0,0,0,0,0,0,0,0,0,0,0,0,0,0,0,0,0,0,0],"sum_hessian":[3.968E3,2.609E3,1.359E3,2.207E3,4.02E2,1.324E3,3.5E1,1.043E3,1.164E3,3.72E2,3E1,9.95E2,3.29E2,1.1E1,2.4E1,5.29E2,5.14E2,3E0,1.161E3,2.78E2,9.4E1,2.6E1,4E0,8.14E2,1.81E2,2.71E2,5.8E1,2E0,9E0,2E0,2.2E1,5.14E2,1.5E1,4.11E2,1.03E2,2.76E2,8.85E2,1.54E2,1.24E2,1.9E1,7.5E1,7E0,1.9E1,6.87E2,1.27E2,9E0,1.72E2,2.18E2,5.3E1,3E0,5.5E1,1.9E1,3E0],"tree_param":{"num_deleted":"0","num_feature":"36","num_nodes":"53","size_leaf_vector":"0"}},{"base_weights":[9.3766946E-1,7.2600186E-1,1.3410985E0,5.8054364E-1,1.1421578E0,1.2779263E0,2.8994727E0,4.6470654E-1,7.050388E-1,1.0546118E0,2.3617396E0,1.2351459E0,3.0534954E0,2.4394174E0,3.782134E0,3.6920825E-1,6.1364794E-1,6.0262805E-1,9.1674995E-1,7.176236E-1,1.2471879E0,3.6305542E0,1.931743E0,9.88553E-1,1.4324871E0,2.449134E0,4.689378E0,1.7340591E0,2.8415225E0,8.167808E-1,3.9253721E0,3.174805E-1,5.1149565E-1,5.7161206E-1,8.630623E-1,5.026397E-1,7.7693206E-1,1.2645395E0,7.535997E-1,-4.6812914E-2,7.8274935E-1,1.1026682E0,1.7013029E0,4.316237E0,1.5229707E0,1.3653178E0,2.4511745E0,8.811545E-1,1.3215632E0,1.2749485E0,1.9068296E0,2.6699963E0,1.0758588E0,5.2018614E0,8.0723655E-1,1.7959603E0,4.0277076E-1,2.1947336E0,3.6990612E0,1.165059E0,4.039319E0],"categories":[],"categories_nodes":[],"categories_segments":[],"categories_sizes":[],"default_left":[1,1,1,1,1,1,1,1,1,1,1,1,1,1,1,1,1,1,1,1,1,1,1,1,1,1,1,1,1,0,1,0,0,0,0,0,0,0,0,0,0,0,0,0,0,0,0,0,0,0,0,0,0,0,0,0,0,0,0,0,0],"id":15,"left_children":[1,3,5,7,9,11,13,15,17,19,21,23,25,27,29,31,33,35,37,39,41,43,45,47,49,51,53,55,57,-1,59,-1,-1,-1,-1,-1,-1,-1,-1,-1,-1,-1,-1,-1,-1,-1,-1,-1,-1,-1,-1,-1,-1,-1,-1,-1,-1,-1,-1,-1,-1],"loss_changes":[3.355598E2,1.5593665E2,1.2968872E2,2.7346497E1,6.893805E1,9.5279785E1,1.1889587E1,1.3954407E1,1.9459595E1,3.9729797E1,1.6992493E1,6.062915E1,1.8175018E1,5.566864E0,3.589859E0,4.327339E0,3.5746002E0,1.0502228E1,1.6012878E1,1.1487099E1,2.4178528E1,7.877838E0,6.9510345E0,1.9221497E1,5.0326294E1,4.406769E0,9.727615E0,5.9516907E-1,4.0837708E0,0E0,1.1886597E-2,0E0,0E0,0E0,0E0,0E0,0E0,0E0,0E0,0E0,0E0,0E0,0E0,0E0,0E0,0E0,0E0,0E0,0E0,0E0,0E0,0E0,0E0,0E0,0E0,0E0,0E0,0E0,0E0,0E0,0E0],"parents":[2147483647,0,0,1,1,2,2,3,3,4,4,5,5,6,6,7,7,8,8,9,9,10,10,11,11,12,12,13,13,14,14,15,15,16,16,17,17,18,18,19,19,20,20,21,21,22,22,23,23,24,24,25,25,26,26,27,27,28,28,30,30],"right_children":[2,4,6,8,10,12,14,16,18,20,22,24,26,28,30,32,34,36,38,40,42,44,46,48,50,52,54,56,58,-1,60,-1,-1,-1,-1,-1,-1,-1,-1,-1,-1,-1,-1,-1,-1,-1,-1,-1,-1,-1,-1,-1,-1,-1,-1,-1,-1,-1,-1,-1,-1],"split_conditions":[1.75E0,1.9916667E0,3.85E0,1.2583333E0,5.687345E-2,3.6583333E0,7.925E0,1.3499999E0,4.6358973E-1,2.4945946E-1,2.1058215E2,1.475E0,2.676875E2,1.4333334E0,5.6E-1,1.9583334E2,7.9473686E-1,1.9946667E2,7.718345E1,1.38975E2,2.8416667E0,5.9E1,2.75E0,2.55E0,6.130456E-1,2.952824E2,8.580255E1,3.4813988E0,8.161491E1,4.0839043E-2,2.9058775E1,1.5874026E-2,2.5574783E-2,2.8580604E-2,4.315312E-2,2.5131986E-2,3.8846605E-2,6.3226976E-2,3.7679985E-2,-2.3406458E-3,3.9137468E-2,5.513341E-2,8.506515E-2,2.1581185E-1,7.614853E-2,6.826589E-2,1.2255873E-1,4.4057723E-2,6.607816E-2,6.374743E-2,9.534148E-2,1.3349982E-1,5.3792942E-2,2.6009306E-1,4.036183E-2,8.979802E-2,2.0138538E-2,1.0973668E-1,1.8495306E-1,5.825295E-2,2.0196596E-1],"split_indices":[15,5,15,5,8,5,35,15,31,31,7,5,10,5,6,10,31,10,1,10,5,16,5,15,31,7,1,28,32,0,0,0,0,0,0,0,0,0,0,0,0,0,0,0,0,0,0,0,0,0,0,0,0,0,0,0,0,0,0,0,0],"split_type":[0,0,0,0,0,0,0,0,0,0,0,0,0,0,0,0,0,0,0,0,0,0,0,0,0,0,0,0,0,0,0,0,0,0,0,0,0,0,0,0,0,0,0,0,0,0,0,0,0,0,0,0,0,0,0,0,0,0,0,0,0],"sum_hessian":[3.94E3,2.586E3,1.354E3,1.918E3,6.68E2,1.303E3,5.1E1,9.96E2,9.22E2,6.25E2,4.3E1,1.274E3,2.9E1,3.6E1,1.5E1,6.09E2,3.87E2,6.24E2,2.98E2,2.29E2,3.96E2,9E0,3.4E1,5.69E2,7.05E2,2.3E1,6E0,1.5E1,2.1E1,1E0,1.4E1,4.49E2,1.6E2,3.34E2,5.3E1,3.99E2,2.25E2,9.3E1,2.05E2,1.8E1,2.11E2,3.03E2,9.3E1,6E0,3E0,1.8E1,1.6E1,4.33E2,1.36E2,5.32E2,1.73E2,1.9E1,4E0,5E0,1E0,1.4E1,1E0,1.4E1,7E0,1E0,1.3E1],"tree_param":{"num_deleted":"0","num_feature":"36","num_nodes":"61","size_leaf_vector":"0"}},{"base_weights":[8.941574E-1,7.327881E-1,1.3583652E0,6.888618E-1,1.3234706E0,1.16581E0,2.0849388E0,5.6096965E-1,8.21783E-1,2.3247342E0,1.1689152E0,1.5679715E0,1.0057089E0,1.9631836E0,3.5531118E0,5.0910914E-1,7.4480784E-1,7.0492184E-1,1.0382308E0,3.2372959E0,1.3113031E0,6.6202E-1,1.326635E0,1.37547E0,2.341717E0,9.495764E-1,1.8275567E0,3.6135375E0,1.8372816E0,1.9490467E0,5.6343684E0,4.71986E-1,6.8856174E-1,1.050074E0,6.8793464E-1,6.274753E-1,7.972873E-1,2.4787014E0,1.0077243E0,3.6061122E0,1.5059307E0,2.2286844E0,8.5850066E-1,1.0782046E0,4.527102E-1,2.0411847E0,1.1908296E0,8.474082E-1,1.5647713E0,-1.2596448E-4,2.4532363E0,1.1617005E0,8.3552915E-1,4.0447273E0,1.5034282E0,3.9221036E0,-4.4627786E-2,2.473766E0,1.5850904E0,8.3946747E-1,2.1215081E0],"categories":[],"categories_nodes":[],"categories_segments":[],"categories_sizes":[],"default_left":[1,1,1,1,1,1,1,1,1,1,1,1,1,1,1,1,1,1,1,1,1,1,1,1,1,1,1,1,1,1,0,0,0,0,0,0,0,0,0,0,0,0,0,0,0,0,0,0,0,0,0,0,0,0,0,0,0,0,0,0,0],"id":16,"left_children":[1,3,5,7,9,11,13,15,17,19,21,23,25,27,29,31,33,35,37,39,41,43,45,47,49,51,53,55,57,59,-1,-1,-1,-1,-1,-1,-1,-1,-1,-1,-1,-1,-1,-1,-1,-1,-1,-1,-1,-1,-1,-1,-1,-1,-1,-1,-1,-1,-1,-1,-1],"loss_changes":[2.9496948E2,7.521521E1,1.3999316E2,4.59989E1,2.8542236E1,5.0383057E1,3.0921143E1,1.2930176E1,3.311194E1,1.9800201E1,1.3272446E1,3.0739014E1,2.5021362E1,3.4502014E1,3.909543E1,6.9497375E0,4.5728607E0,5.7374268E0,1.8023865E1,2.8706512E0,3.9021702E0,3.3447914E0,1.0572601E1,1.7167145E1,1.1491364E1,1.221405E1,1.9790367E1,1.4849258E1,2.5934753E1,1.326561E-1,0E0,0E0,0E0,0E0,0E0,0E0,0E0,0E0,0E0,0E0,0E0,0E0,0E0,0E0,0E0,0E0,0E0,0E0,0E0,0E0,0E0,0E0,0E0,0E0,0E0,0E0,0E0,0E0,0E0,0E0,0E0],"parents":[2147483647,0,0,1,1,2,2,3,3,4,4,5,5,6,6,7,7,8,8,9,9,10,10,11,11,12,12,13,13,14,14,15,15,16,16,17,17,18,18,19,19,20,20,21,21,22,22,23,23,24,24,25,25,26,26,27,27,28,28,29,29],"right_children":[2,4,6,8,10,12,14,16,18,20,22,24,26,28,30,32,34,36,38,40,42,44,46,48,50,52,54,56,58,60,-1,-1,-1,-1,-1,-1,-1,-1,-1,-1,-1,-1,-1,-1,-1,-1,-1,-1,-1,-1,-1,-1,-1,-1,-1,-1,-1,-1,-1,-1,-1],"split_conditions":[2.025E0,1.0751705E0,6.073115E-1,1.275E0,3.8E1,7.624831E1,4.1916666E0,1.3575E2,4.245106E-1,9.79E1,9.25E-1,3.141667E0,3.641667E0,2.55E1,3.2E1,6.8826234E-1,7.3127655E1,5E-1,1.8467188E2,2.940541E2,4.6228893E1,5.9E1,6.487364E1,1.8253094E-1,2.7269554E1,1.970634E0,2.2822891E1,8.5433975E1,3.4435097E1,5.25E1,2.8171843E-1,2.35993E-2,3.4428086E-2,5.25037E-2,3.4396734E-2,3.1373765E-2,3.9864365E-2,1.23935066E-1,5.0386216E-2,1.8030562E-1,7.5296536E-2,1.1143422E-1,4.2925034E-2,5.3910233E-2,2.263551E-2,1.0205924E-1,5.9541482E-2,4.237041E-2,7.823857E-2,-6.298224E-6,1.2266182E-1,5.8085024E-2,4.177646E-2,2.0223637E-1,7.517141E-2,1.9610518E-1,-2.2313893E-3,1.236883E-1,7.925452E-2,4.1973375E-2,1.06075406E-1],"split_indices":[5,31,31,5,16,1,5,24,31,20,5,5,5,16,4,31,1,30,7,7,9,16,1,31,0,3,2,9,34,16,0,0,0,0,0,0,0,0,0,0,0,0,0,0,0,0,0,0,0,0,0,0,0,0,0,0,0,0,0,0,0],"split_type":[0,0,0,0,0,0,0,0,0,0,0,0,0,0,0,0,0,0,0,0,0,0,0,0,0,0,0,0,0,0,0,0,0,0,0,0,0,0,0,0,0,0,0,0,0,0,0,0,0,0,0,0,0,0,0,0,0,0,0,0,0],"sum_hessian":[3.95E3,2.933E3,1.017E3,2.732E3,2.01E2,8.06E2,2.11E2,1.395E3,1.337E3,2.5E1,1.76E2,2.27E2,5.79E2,1.97E2,1.4E1,1.091E3,3.04E2,8.71E2,4.66E2,1.2E1,1.3E1,4.3E1,1.33E2,1.84E2,4.3E1,5.44E2,3.5E1,1.2E1,1.85E2,9E0,5E0,9.07E2,1.84E2,4.5E1,2.59E2,4.78E2,3.93E2,8E0,4.58E2,9E0,3E0,3E0,1E1,1.3E1,3E1,1.9E1,1.14E2,5E1,1.34E2,2E0,4.1E1,1.87E2,3.57E2,3E0,3.2E1,1.1E1,1E0,5E1,1.35E2,2E0,7E0],"tree_param":{"num_deleted":"0","num_feature":"36","num_nodes":"61","size_leaf_vector":"0"}},{"base_weights":[8.4996915E-1,7.663896E-1,1.7604907E0,5.4028434E-1,9.385076E-1,1.5973263E0,2.9453583E0,3.8080528E-1,7.3744047E-1,8.37917E-1,1.2519283E0,1.4807327E0,2.3217018E0,1.7061129E0,3.371272E0,2.6113787E-1,4.7614723E-1,1.2170014E0,6.666112E-1,2.5146735E0,8.24395E-1,1.0850446E0,1.6751385E0,1.8515314E0,1.3227007E0,1.9697082E0,3.9293823E0,6.088571E-1,1.8646784E0,3.8848195E0,2.2244427E0,1.5781882E-1,3.5451818E-1,6.312163E-1,4.1479918E-1,2.9472969E0,1.0789207E0,5.8683825E-1,8.661098E-1,3.6681306E0,1.1667566E0,7.849243E-1,1.2719781E0,9.535569E-1,1.3187698E0,1.5561581E0,3.4289222E0,9.178792E-1,2.017434E0,1.502305E0,1.0500696E0,7.16877E-1,2.1128564E0,8.6425626E-1,4.369556E0,4.022692E0,7.704917E-1,2.514773E0,1.087672E0],"categories":[],"categories_nodes":[],"categories_segments":[],"categories_sizes":[],"default_left":[1,1,1,1,1,1,1,1,1,1,1,1,1,1,1,1,1,1,1,1,1,1,1,1,1,1,1,0,0,1,1,0,0,0,0,0,0,0,0,0,0,0,0,0,0,0,0,0,0,0,0,0,0,0,0,0,0,0,0],"id":17,"left_children":[1,3,5,7,9,11,13,15,17,19,21,23,25,27,29,31,33,35,37,39,41,43,45,47,49,51,53,-1,-1,55,57,-1,-1,-1,-1,-1,-1,-1,-1,-1,-1,-1,-1,-1,-1,-1,-1,-1,-1,-1,-1,-1,-1,-1,-1,-1,-1,-1,-1],"loss_changes":[2.9985864E2,1.4064429E2,5.9480225E1,4.9083527E1,6.3833862E1,2.1392761E1,1.4832916E1,9.801773E0,2.2999573E1,3.3319458E1,3.3354614E1,1.2552063E1,1.4330078E1,9.525223E-1,7.84906E0,3.6874619E0,4.333046E0,1.8084015E1,9.2473755E0,1.43773575E1,2.6384521E1,9.806E0,2.366858E1,9.610489E0,7.383209E0,4.5829315E0,4.318718E0,0E0,0E0,4.629425E0,8.9517593E-1,0E0,0E0,0E0,0E0,0E0,0E0,0E0,0E0,0E0,0E0,0E0,0E0,0E0,0E0,0E0,0E0,0E0,0E0,0E0,0E0,0E0,0E0,0E0,0E0,0E0,0E0,0E0,0E0],"parents":[2147483647,0,0,1,1,2,2,3,3,4,4,5,5,6,6,7,7,8,8,9,9,10,10,11,11,12,12,13,13,14,14,15,15,16,16,17,17,18,18,19,19,20,20,21,21,22,22,23,23,24,24,25,25,26,26,29,29,30,30],"right_children":[2,4,6,8,10,12,14,16,18,20,22,24,26,28,30,32,34,36,38,40,42,44,46,48,50,52,54,-1,-1,56,58,-1,-1,-1,-1,-1,-1,-1,-1,-1,-1,-1,-1,-1,-1,-1,-1,-1,-1,-1,-1,-1,-1,-1,-1,-1,-1,-1,-1],"split_conditions":[2.65E0,1.3499999E0,4.05E0,1.8575E2,2.2638095E2,1.0745237E0,4.9503767E-1,1.5129166E2,1.035E1,1.7843903E2,5E-1,3.4853348E1,7.631916E1,6.122962E1,9.15E1,1.05E0,5.8306465E1,7.5E0,5E-1,1.35E1,9.283616E-1,5.719738E-1,1.3499999E0,5.3050003E0,9.155E1,1.7316667E2,2.0973568E1,3.0442854E-2,9.323392E-2,1.5849999E1,3.359069E1,7.890942E-3,1.772591E-2,3.1560816E-2,2.073996E-2,1.4736484E-1,5.3946037E-2,2.9341912E-2,4.330549E-2,1.8340653E-1,5.8337834E-2,3.9246216E-2,6.359891E-2,4.7677845E-2,6.5938495E-2,7.78079E-2,1.7144611E-1,4.5893963E-2,1.008717E-1,7.5115256E-2,5.2503478E-2,3.584385E-2,1.0564282E-1,4.3212812E-2,2.184778E-1,2.011346E-1,3.8524587E-2,1.2573865E-1,5.4383602E-2],"split_indices":[15,15,15,10,10,31,31,10,11,7,13,34,0,9,18,15,0,4,13,4,31,31,33,35,18,10,2,0,0,11,2,0,0,0,0,0,0,0,0,0,0,0,0,0,0,0,0,0,0,0,0,0,0,0,0,0,0,0,0],"split_type":[0,0,0,0,0,0,0,0,0,0,0,0,0,0,0,0,0,0,0,0,0,0,0,0,0,0,0,0,0,0,0,0,0,0,0,0,0,0,0,0,0,0,0,0,0,0,0,0,0,0,0,0,0,0,0,0,0,0,0],"sum_hessian":[3.957E3,3.626E3,3.31E2,1.569E3,2.057E3,2.93E2,3.8E1,8.69E2,7E2,1.56E3,4.97E2,2.55E2,3.8E1,1.1E1,2.7E1,3.87E2,4.82E2,8.8E1,6.12E2,1.1E1,1.549E3,3.59E2,1.38E2,7.3E1,1.82E2,3.3E1,5E0,2E0,9E0,1.7E1,1E1,1.85E2,2.02E2,1.34E2,3.48E2,5E0,8.3E1,4.4E2,1.72E2,5E0,6E0,1.426E3,1.23E2,2.33E2,1.26E2,1.31E2,7E0,1.2E1,6.1E1,1.07E2,7.5E1,4E0,2.9E1,1E0,4E0,1.6E1,1E0,7E0,3E0],"tree_param":{"num_deleted":"0","num_feature":"36","num_nodes":"59","size_leaf_vector":"0"}},{"base_weights":[8.069248E-1,6.9830537E-1,1.4861577E0,6.2908447E-1,1.5499412E0,1.3265829E0,2.6490567E0,4.4601923E-1,7.82779E-1,2.1839504E0,1.2010676E0,1.2547401E0,2.5410986E0,3.553139E0,2.0693655E0,4.3736666E-1,2.455507E0,6.721393E-1,1.0219736E0,1.5919291E0,2.9173133E0,9.764097E-1,1.6448845E0,1.1845055E0,2.1839557E0,1.3057845E0,2.8464036E0,1.2013055E0,3.8319101E0,1.4454683E0,2.5708416E0,2.4151269E-1,5.075216E-1,2.8858025E0,1.0632774E0,5.605355E-1,8.1292695E-1,1.6650437E0,9.2950463E-1,3.279086E0,1.256614E0,4.3492455E0,2.3427587E0,1.431016E0,8.5836935E-1,5.4669166E-1,1.7936481E0,1.0433635E0,1.405348E0,1.4466089E0,3.8256245E0,1.4042326E0,3.5754788E-1,5.6775236E-1,2.936451E0,1.1571739E0,4.0525575E0,9.472737E-1,2.3065329E0,1.5511702E0,2.9432766E0],"categories":[],"categories_nodes":[],"categories_segments":[],"categories_sizes":[],"default_left":[1,1,1,1,1,1,1,1,1,1,1,1,1,1,1,1,1,1,1,1,1,1,1,1,1,1,1,0,1,1,1,0,0,0,0,0,0,0,0,0,0,0,0,0,0,0,0,0,0,0,0,0,0,0,0,0,0,0,0,0,0],"id":18,"left_children":[1,3,5,7,9,11,13,15,17,19,21,23,25,27,29,31,33,35,37,39,41,43,45,47,49,51,53,-1,55,57,59,-1,-1,-1,-1,-1,-1,-1,-1,-1,-1,-1,-1,-1,-1,-1,-1,-1,-1,-1,-1,-1,-1,-1,-1,-1,-1,-1,-1,-1,-1],"loss_changes":[2.9215552E2,2.0110889E2,9.799219E1,8.889868E1,5.4222534E1,3.8955322E1,2.6713013E1,2.4137482E1,4.4911255E1,3.4430817E1,1.5144669E1,2.7303589E1,6.089035E0,1.1131714E1,9.424438E0,1.9731903E1,5.260124E-1,1.8100647E1,3.0741272E1,2.5297379E1,2.1896973E1,4.8891144E0,8.004837E0,1.1874512E1,3.1990677E1,1.5138435E-1,2.4365692E0,0E0,7.7041016E0,6.823616E0,3.7892456E0,0E0,0E0,0E0,0E0,0E0,0E0,0E0,0E0,0E0,0E0,0E0,0E0,0E0,0E0,0E0,0E0,0E0,0E0,0E0,0E0,0E0,0E0,0E0,0E0,0E0,0E0,0E0,0E0,0E0,0E0],"parents":[2147483647,0,0,1,1,2,2,3,3,4,4,5,5,6,6,7,7,8,8,9,9,10,10,11,11,12,12,13,13,14,14,15,15,16,16,17,17,18,18,19,19,20,20,21,21,22,22,23,23,24,24,25,25,26,26,28,28,29,29,30,30],"right_children":[2,4,6,8,10,12,14,16,18,20,22,24,26,28,30,32,34,36,38,40,42,44,46,48,50,52,54,-1,56,58,60,-1,-1,-1,-1,-1,-1,-1,-1,-1,-1,-1,-1,-1,-1,-1,-1,-1,-1,-1,-1,-1,-1,-1,-1,-1,-1,-1,-1,-1,-1],"split_conditions":[2.35E0,2.8249998E0,3.096154E-2,1.3499999E0,6.762891E1,4.05E0,5.359726E1,3.3125E2,1.8083334E0,2.2133334E2,2.5415804E-2,2.9833333E0,4.0609092E-1,1.12E2,7.815587E1,1.5129166E2,8.08692E1,1.75E0,6.4877045E1,2.1227412E2,6.406872E1,3.391633E1,9.90423E-2,2.85E0,2.296354E2,2.9E1,6.5999997E-1,6.0065277E-2,8.09E1,1.1001146E0,1.7666667E0,1.2075635E-2,2.5376081E-2,1.4429013E-1,5.3163867E-2,2.8026775E-2,4.064635E-2,8.3252184E-2,4.647523E-2,1.639543E-1,6.28307E-2,2.1746229E-1,1.1713793E-1,7.15508E-2,4.291847E-2,2.7334584E-2,8.968241E-2,5.216817E-2,7.02674E-2,7.2330445E-2,1.9128123E-1,7.0211634E-2,1.7877394E-2,2.838762E-2,1.4682256E-1,5.7858694E-2,2.0262788E-1,4.7363684E-2,1.1532664E-1,7.755851E-2,1.4716384E-1],"split_indices":[15,5,8,15,17,15,9,10,5,10,8,5,31,24,32,10,1,15,1,7,1,34,31,15,10,4,6,0,18,31,5,0,0,0,0,0,0,0,0,0,0,0,0,0,0,0,0,0,0,0,0,0,0,0,0,0,0,0,0,0,0],"split_type":[0,0,0,0,0,0,0,0,0,0,0,0,0,0,0,0,0,0,0,0,0,0,0,0,0,0,0,0,0,0,0,0,0,0,0,0,0,0,0,0,0,0,0,0,0,0,0,0,0,0,0,0,0,0,0,0,0,0,0,0,0],"sum_hessian":[3.973E3,3.427E3,5.46E2,3.171E3,2.56E2,4.82E2,6.4E1,1.449E3,1.722E3,8.9E1,1.67E2,4.57E2,2.5E1,2.3E1,4.1E1,1.444E3,5E0,1.18E3,5.42E2,5.1E1,3.8E1,1.13E2,5.4E1,4.27E2,3E1,6E0,1.9E1,3E0,2E1,2E1,2.1E1,3.82E2,1.062E3,3E0,2E0,6.61E2,5.19E2,6.6E1,4.76E2,7E0,4.4E1,9E0,2.9E1,2.1E1,9.2E1,7E0,4.7E1,2.64E2,1.63E2,2.2E1,8E0,5E0,1E0,1E0,1.8E1,2E0,1.8E1,1.4E1,6E0,7E0,1.4E1],"tree_param":{"num_deleted":"0","num_feature":"36","num_nodes":"61","size_leaf_vector":"0"}},{"base_weights":[7.69682E-1,6.043835E-1,1.149737E0,5.6965727E-1,1.4704418E0,1.0042961E0,1.8009483E0,4.7261795E-1,8.256987E-1,2.2954173E0,1.1736321E0,9.87939E-1,4.0094266E0,1.5473078E0,2.400424E0,1.7256744E0,4.6059307E-1,6.8301356E-1,1.2029991E0,2.4284527E0,4.2164955E-1,9.673291E-1,1.9383861E0,9.5200795E-1,1.8085183E0,4.2138624E0,1.4494126E0,2.9901032E0,1.93379E0,4.318564E0,9.191922E-1,3.6527374E-1,5.9733903E-1,6.7116886E-1,2.5479093E0,9.431054E-1,1.5858363E0,3.879079E0,1.9674248E0,1.1682447E0,5.991343E-1,3.071297E0,9.515099E-1,8.7261796E-1,1.214439E0,7.808076E-1,2.2744231E0,3.550982E-1,5.089779E0,1.2486272E0,2.1356196E0,8.9746207E-1,3.127096E0,1.5312788E0,2.5900593E0],"categories":[],"categories_nodes":[],"categories_segments":[],"categories_sizes":[],"default_left":[1,1,1,1,1,1,1,1,1,1,1,1,0,1,1,1,1,1,1,1,0,1,1,1,1,1,1,1,1,0,0,0,0,0,0,0,0,0,0,0,0,0,0,0,0,0,0,0,0,0,0,0,0,0,0],"id":19,"left_children":[1,3,5,7,9,11,13,15,17,19,21,23,-1,25,27,29,31,33,35,37,-1,39,41,43,45,47,49,51,53,-1,-1,-1,-1,-1,-1,-1,-1,-1,-1,-1,-1,-1,-1,-1,-1,-1,-1,-1,-1,-1,-1,-1,-1,-1,-1],"loss_changes":[2.4845923E2,8.234961E1,1.1194141E2,6.572516E1,2.3261261E1,4.4407593E1,2.9432983E1,2.8316223E1,3.8477997E1,5.706543E0,1.0746628E1,2.7172852E1,0E0,3.4615112E1,1.1553131E1,3.3670555E1,2.474295E1,1.0041351E1,1.830429E1,9.087692E0,0E0,4.1085052E0,1.4966312E1,1.854541E1,1.7376724E1,1.5092407E1,1.8276001E1,4.647156E0,6.071808E0,0E0,0E0,0E0,0E0,0E0,0E0,0E0,0E0,0E0,0E0,0E0,0E0,0E0,0E0,0E0,0E0,0E0,0E0,0E0,0E0,0E0,0E0,0E0,0E0,0E0,0E0],"parents":[2147483647,0,0,1,1,2,2,3,3,4,4,5,5,6,6,7,7,8,8,9,9,10,10,11,11,13,13,14,14,15,15,16,16,17,17,18,18,19,19,21,21,22,22,23,23,24,24,25,25,26,26,27,27,28,28],"right_children":[2,4,6,8,10,12,14,16,18,20,22,24,-1,26,28,30,32,34,36,38,-1,40,42,44,46,48,50,52,54,-1,-1,-1,-1,-1,-1,-1,-1,-1,-1,-1,-1,-1,-1,-1,-1,-1,-1,-1,-1,-1,-1,-1,-1,-1,-1],"split_conditions":[1.8499999E0,5.2207947E-2,2.4853333E2,2.11775E2,2.1485345E2,4.75E0,2.95E0,1.8162454E2,5E-1,1.5013136E1,2.2542064E2,4.5419488E-2,2.0047133E-1,6.520524E1,5E-1,1.15E1,1.3499999E0,4.160833E2,8.153433E-3,7.363547E1,2.1082478E-2,1.2358333E2,2.707143E2,2.65E0,1.015E0,1.661073E0,9.620001E0,1.05E1,6.5E-1,2.159282E-1,4.595961E-2,1.8263688E-2,2.9866952E-2,3.3558443E-2,1.2739547E-1,4.7155272E-2,7.929181E-2,1.9395396E-1,9.837124E-2,5.8412235E-2,2.9956717E-2,1.5356486E-1,4.7575496E-2,4.3630898E-2,6.0721952E-2,3.9040383E-2,1.13721155E-1,1.775491E-2,2.5448895E-1,6.243136E-2,1.0678098E-1,4.4873103E-2,1.563548E-1,7.656395E-2,1.2950297E-1],"split_indices":[15,8,10,10,7,15,15,7,13,28,10,8,0,25,14,4,15,10,8,25,0,24,10,15,6,3,35,4,33,0,0,0,0,0,0,0,0,0,0,0,0,0,0,0,0,0,0,0,0,0,0,0,0,0,0],"split_type":[0,0,0,0,0,0,0,0,0,0,0,0,0,0,0,0,0,0,0,0,0,0,0,0,0,0,0,0,0,0,0,0,0,0,0,0,0,0,0,0,0,0,0,0,0,0,0,0,0,0,0,0,0,0,0],"sum_hessian":[3.965E3,2.765E3,1.2E3,2.66E3,1.05E2,9.83E2,2.17E2,1.931E3,7.29E2,2.6E1,7.9E1,9.79E2,4E0,1.55E2,6.2E1,1.7E1,1.914E3,5.31E2,1.98E2,2.4E1,2E0,6.4E1,1.5E1,9.4E2,3.9E1,4E0,1.51E2,2.5E1,3.7E1,3E0,1.4E1,1.13E3,7.84E2,5.29E2,2E0,1.2E2,7.8E1,4E0,2E1,4E1,2.4E1,6E0,9E0,7.25E2,2.15E2,1.3E1,2.6E1,1E0,3E0,1.19E2,3.2E1,2E0,2.3E1,2.5E1,1.2E1],"tree_param":{"num_deleted":"0","num_feature":"36","num_nodes":"55","size_leaf_vector":"0"}},{"base_weights":[7.315154E-1,6.008414E-1,1.1899711E0,5.0353557E-1,1.0951753E0,1.0516038E0,1.9894978E0,3.340776E-1,6.082194E-1,9.975389E-1,1.7243947E0,9.521248E-1,1.9528689E0,1.0874915E0,2.3008738E0,3.1900325E0,3.279767E-1,4.8336393E-1,7.1631974E-1,8.5668135E-1,1.261571E0,1.5127668E0,2.4870977E0,2.58763E0,9.1892046E-1,1.6753191E0,4.0332403E0,7.87848E-1,1.6696367E0,3.7778566E0,2.0418177E0,2.3367934E-1,4.2868984E-1,5.8617586E-1,4.07278E-1,5.605152E-1,8.29903E-1,7.399164E-1,9.764799E-1,2.9693367E0,1.1832843E0,6.120492E-1,1.5714104E0,2.578392E0,6.957829E-1,8.26166E-1,3.0334527E0,6.231993E-1,1.1065676E0,1.0704056E0,2.1978E0,-1.5005773E-1,9.2256504E-1,3.212334E-1,2.1351337E0,2.637663E-1,4.048717E0,2.4531329E0,1.2727364E0],"categories":[],"categories_nodes":[],"categories_segments":[],"categories_sizes":[],"default_left":[1,1,1,1,1,1,1,1,1,1,1,1,1,1,1,0,1,1,1,1,1,1,1,1,1,1,0,1,1,1,1,0,0,0,0,0,0,0,0,0,0,0,0,0,0,0,0,0,0,0,0,0,0,0,0,0,0,0,0],"id":20,"left_children":[1,3,5,7,9,11,13,15,17,19,21,23,25,27,29,-1,31,33,35,37,39,41,43,45,47,49,-1,51,53,55,57,-1,-1,-1,-1,-1,-1,-1,-1,-1,-1,-1,-1,-1,-1,-1,-1,-1,-1,-1,-1,-1,-1,-1,-1,-1,-1,-1,-1],"loss_changes":[2.3777954E2,1.4856348E2,9.5482056E1,4.5777588E1,2.955011E1,6.5742004E1,3.3729126E1,1.6238235E1,2.126233E1,1.5394775E1,7.0520325E0,3.460443E1,3.597116E1,4.7898407E0,2.8635345E1,0E0,9.311333E0,5.596863E0,1.4683289E1,3.3620758E0,1.6808167E1,1.9433823E0,3.3198547E-1,7.702774E0,3.643402E1,1.8823181E1,0E0,3.2972336E0,6.2185764E0,1.1305847E1,2.3133606E1,0E0,0E0,0E0,0E0,0E0,0E0,0E0,0E0,0E0,0E0,0E0,0E0,0E0,0E0,0E0,0E0,0E0,0E0,0E0,0E0,0E0,0E0,0E0,0E0,0E0,0E0,0E0,0E0],"parents":[2147483647,0,0,1,1,2,2,3,3,4,4,5,5,6,6,7,7,8,8,9,9,10,10,11,11,12,12,13,13,14,14,16,16,17,17,18,18,19,19,20,20,21,21,22,22,23,23,24,24,25,25,27,27,28,28,29,29,30,30],"right_children":[2,4,6,8,10,12,14,16,18,20,22,24,26,28,30,-1,32,34,36,38,40,42,44,46,48,50,-1,52,54,56,58,-1,-1,-1,-1,-1,-1,-1,-1,-1,-1,-1,-1,-1,-1,-1,-1,-1,-1,-1,-1,-1,-1,-1,-1,-1,-1,-1,-1],"split_conditions":[2.141667E0,2.25E0,2.5295557E2,1.25E0,3.35E0,4.5419488E-2,1.3499999E0,1.591439E2,1.2583333E0,1.5916667E0,2.8916666E2,2.9011112E1,4.9083333E0,2.937083E2,6.8821144E1,1.5950163E-1,1.05E0,6.86899E1,1.9041666E2,1.975E2,5.793212E1,6.944364E1,4.497917E2,1.5E0,1.8270834E2,6.63E0,2.0166202E-1,8E-1,7.2731094E1,6.998722E-4,2.607969E2,1.1683967E-2,2.1434492E-2,2.9308794E-2,2.03639E-2,2.8025761E-2,4.149515E-2,3.699582E-2,4.8823994E-2,1.4846684E-1,5.9164215E-2,3.060246E-2,7.857052E-2,1.289196E-1,3.4789145E-2,4.13083E-2,1.5167265E-1,3.1159965E-2,5.532838E-2,5.352028E-2,1.0989E-1,-7.502887E-3,4.6128254E-2,1.606167E-2,1.0675669E-1,1.3188315E-2,2.0243585E-1,1.2265664E-1,6.3636824E-2],"split_indices":[5,15,10,15,15,8,15,7,5,5,10,34,5,10,25,0,15,17,10,10,17,32,10,15,10,35,0,6,25,8,7,0,0,0,0,0,0,0,0,0,0,0,0,0,0,0,0,0,0,0,0,0,0,0,0,0,0,0,0],"split_type":[0,0,0,0,0,0,0,0,0,0,0,0,0,0,0,0,0,0,0,0,0,0,0,0,0,0,0,0,0,0,0,0,0,0,0,0,0,0,0,0,0,0,0,0,0,0,0,0,0,0,0,0,0,0,0,0,0,0,0],"sum_hessian":[3.98E3,3.099E3,8.81E2,2.591E3,5.08E2,7.53E2,1.28E2,9.91E2,1.6E3,4.42E2,6.6E1,6.8E2,7.3E1,3.4E1,9.4E1,1E0,9.9E2,7.45E2,8.55E2,2.91E2,1.51E2,5.4E1,1.2E1,1.2E1,6.68E2,6.6E1,7E0,2.4E1,1E1,1.2E1,8.2E1,5.13E2,4.77E2,3.14E2,4.31E2,3.63E2,4.92E2,1.51E2,1.4E2,5E0,1.46E2,4E0,5E1,1.1E1,1E0,3E0,9E0,2.61E2,4.07E2,3.2E1,3.4E1,3E0,2.1E1,3E0,7E0,1E0,1.1E1,5.2E1,3E1],"tree_param":{"num_deleted":"0","num_feature":"36","num_nodes":"59","size_leaf_vector":"0"}},{"base_weights":[6.979169E-1,5.775615E-1,1.1753118E0,4.5556274E-1,9.217485E-1,1.0141456E0,1.72177E0,3.5279733E-1,6.021274E-1,8.1516355E-1,1.5180715E0,8.9173836E-1,1.5024955E0,1.3770566E0,2.4290578E0,6.8832856E-1,3.154126E-1,4.8313475E-1,7.3633945E-1,5.176679E-1,9.9627674E-1,2.3674467E0,1.3136667E0,7.6837224E-1,1.134585E0,1.2823505E0,2.5721252E0,1.634076E0,8.89532E-1,3.8591359E0,1.7419733E0,4.7963786E-1,1.2450346E0,2.3622869E-1,4.1322204E-1,3.943064E-1,5.8685356E-1,1.504684E0,7.0293E-1,-1.0818457E-1,5.848005E-1,1.2928476E0,8.1644374E-1,3.2584133E0,1.4314404E0,1.0899186E0,2.0047576E0,2.6294234E-1,8.014428E-1,2.1076102E0,1.0653822E0,1.035866E0,1.8293667E0,1.5850116E0,2.8819587E0,1.191245E0,2.0063698E0,9.944296E-1,-1.4853437E-1,4.147644E0,1.0340459E0,2.2129138E0,8.6782175E-1],"categories":[],"categories_nodes":[],"categories_segments":[],"categories_sizes":[],"default_left":[1,1,1,1,1,1,1,1,1,1,1,1,1,1,1,1,1,1,1,1,1,1,1,1,1,1,1,1,1,1,1,0,0,0,0,0,0,0,0,0,0,0,0,0,0,0,0,0,0,0,0,0,0,0,0,0,0,0,0,0,0,0,0],"id":21,"left_children":[1,3,5,7,9,11,13,15,17,19,21,23,25,27,29,31,33,35,37,39,41,43,45,47,49,51,53,55,57,59,61,-1,-1,-1,-1,-1,-1,-1,-1,-1,-1,-1,-1,-1,-1,-1,-1,-1,-1,-1,-1,-1,-1,-1,-1,-1,-1,-1,-1,-1,-1,-1,-1],"loss_changes":[2.2817249E2,1.3323547E2,6.879846E1,3.521286E1,5.1643677E1,3.5782043E1,4.0784912E1,1.715596E1,1.5103455E1,3.763153E1,1.859201E1,1.407782E1,2.5664886E1,1.4084061E1,5.0267365E1,1.5435593E1,9.568069E0,4.5225983E0,1.0570801E1,1.1407333E1,2.2357758E1,1.4516647E1,1.3741882E1,5.3720245E0,8.932373E0,1.2127472E1,1.5488892E0,1.0798981E1,5.0477867E0,1.0382294E1,1.4958191E1,0E0,0E0,0E0,0E0,0E0,0E0,0E0,0E0,0E0,0E0,0E0,0E0,0E0,0E0,0E0,0E0,0E0,0E0,0E0,0E0,0E0,0E0,0E0,0E0,0E0,0E0,0E0,0E0,0E0,0E0,0E0,0E0],"parents":[2147483647,0,0,1,1,2,2,3,3,4,4,5,5,6,6,7,7,8,8,9,9,10,10,11,11,12,12,13,13,14,14,15,15,16,16,17,17,18,18,19,19,20,20,21,21,22,22,23,23,24,24,25,25,26,26,27,27,28,28,29,29,30,30],"right_children":[2,4,6,8,10,12,14,16,18,20,22,24,26,28,30,32,34,36,38,40,42,44,46,48,50,52,54,56,58,60,62,-1,-1,-1,-1,-1,-1,-1,-1,-1,-1,-1,-1,-1,-1,-1,-1,-1,-1,-1,-1,-1,-1,-1,-1,-1,-1,-1,-1,-1,-1,-1,-1],"split_conditions":[2.15E0,1.9916667E0,2.2916665E0,1.45E0,3.4712434E-2,7.785796E-1,2.3727084E2,6.730983E1,1.92125E2,2.5662023E-1,2.1024503E2,2.75E0,3.4077905E-2,8.557237E1,7.550214E1,6.8046916E-1,1.275E0,3.925474E-1,3.2087936E1,1.4435E2,1.245E1,6.34028E1,3.6416667E0,8.475352E-2,5.053596E1,2.5E2,1.4E0,1.6175E2,3.55E1,6.3500004E0,1.8316666E2,2.3981893E-2,6.2251728E-2,1.1811434E-2,2.0661103E-2,1.971532E-2,2.934268E-2,7.52342E-2,3.51465E-2,-5.4092286E-3,2.9240025E-2,6.4642385E-2,4.082219E-2,1.6292067E-1,7.157202E-2,5.449593E-2,1.0023788E-1,1.3147118E-2,4.007214E-2,1.0538051E-1,5.3269114E-2,5.1793303E-2,9.1468334E-2,7.925058E-2,1.4409794E-1,5.9562247E-2,1.0031849E-1,4.972148E-2,-7.4267187E-3,2.073822E-1,5.17023E-2,1.1064569E-1,4.339109E-2],"split_indices":[15,5,5,15,8,31,10,1,10,31,7,15,8,1,1,31,5,31,9,10,11,1,5,31,9,10,5,27,4,15,24,0,0,0,0,0,0,0,0,0,0,0,0,0,0,0,0,0,0,0,0,0,0,0,0,0,0,0,0,0,0,0,0],"split_type":[0,0,0,0,0,0,0,0,0,0,0,0,0,0,0,0,0,0,0,0,0,0,0,0,0,0,0,0,0,0,0,0,0,0,0,0,0,0,0,0,0,0,0,0,0,0,0,0,0,0,0,0,0,0,0,0,0,0,0,0,0,0,0],"sum_hessian":[3.982E3,3.182E3,8E2,2.351E3,8.31E2,6.2E2,1.8E2,1.384E3,9.67E2,7.07E2,1.24E2,4.98E2,1.22E2,1.23E2,5.7E1,1.37E2,1.247E3,5.15E2,4.52E2,2.69E2,4.38E2,2.2E1,1.02E2,3.33E2,1.65E2,1.03E2,1.9E1,7.9E1,4.4E1,1.7E1,4E1,1.01E2,3.6E1,6.91E2,5.56E2,2.8E2,2.35E2,1.7E1,4.35E2,2.6E1,2.43E2,1.63E2,2.75E2,1E1,1.2E1,7.9E1,2.3E1,2.1E1,3.12E2,9E0,1.56E2,7.3E1,3E1,6E0,1.3E1,3.8E1,4.1E1,4E1,4E0,1.5E1,2E0,2.5E1,1.5E1],"tree_param":{"num_deleted":"0","num_feature":"36","num_nodes":"63","size_leaf_vector":"0"}},{"base_weights":[6.4004344E-1,4.4537377E-1,8.769256E-1,2.7560416E-1,5.689791E-1,8.385538E-1,2.3118188E0,6.4738864E-1,2.2896482E-1,5.3339684E-1,1.3537709E0,6.435539E-1,9.950992E-1,3.5522108E0,1.998102E0,4.6950305E-1,1.2059541E0,1.02578424E-1,2.9622614E-1,4.3356863E-1,6.795914E-1,1.8689123E0,8.7936056E-1,2.0985146E0,6.161218E-1,8.197461E-1,1.2226074E0,1.5741731E0,2.7248695E0,9.054609E-1,3.531776E-1,1.8591117E0,8.276474E-1,7.798552E-2,3.3559978E-1,5.472511E-1,2.6026905E-1,4.0251625E-1,7.87695E-1,9.8570883E-1,5.691686E-1,1.3847845E0,2.575719E0,9.658454E-1,-2.2095132E-1,2.8310134E0,9.6158516E-1,2.4632809E-1,6.564957E-1,7.6704603E-1,1.3781892E0,1.0498341E0,1.9072963E0,8.230917E-1,1.70746E0,5.881636E-1,3.059892E0],"categories":[],"categories_nodes":[],"categories_segments":[],"categories_sizes":[],"default_left":[1,1,1,1,1,1,1,1,1,1,1,1,1,0,1,1,1,1,1,1,1,1,1,1,1,1,1,1,1,0,0,0,0,0,0,0,0,0,0,0,0,0,0,0,0,0,0,0,0,0,0,0,0,0,0,0,0],"id":22,"left_children":[1,3,5,7,9,11,13,15,17,19,21,23,25,-1,27,29,31,33,35,37,39,41,43,45,47,49,51,53,55,-1,-1,-1,-1,-1,-1,-1,-1,-1,-1,-1,-1,-1,-1,-1,-1,-1,-1,-1,-1,-1,-1,-1,-1,-1,-1,-1,-1],"loss_changes":[1.8249658E2,4.5568268E1,9.650757E1,1.5804367E1,3.446295E1,5.2567017E1,1.0802383E1,9.5686E0,6.9318657E0,1.732074E1,1.155352E1,2.9799011E1,3.7495728E1,0E0,7.72641E0,3.6865387E0,4.3915634E0,1.6128004E0,4.6775208E0,7.6003876E0,1.5934509E1,4.987808E0,3.0682144E0,8.936932E0,1.1274689E1,1.5070496E1,4.7445312E1,1.297554E0,7.5062637E0,0E0,0E0,0E0,0E0,0E0,0E0,0E0,0E0,0E0,0E0,0E0,0E0,0E0,0E0,0E0,0E0,0E0,0E0,0E0,0E0,0E0,0E0,0E0,0E0,0E0,0E0,0E0,0E0],"parents":[2147483647,0,0,1,1,2,2,3,3,4,4,5,5,6,6,7,7,8,8,9,9,10,10,11,11,12,12,14,14,15,15,16,16,17,17,18,18,19,19,20,20,21,21,22,22,23,23,24,24,25,25,26,26,27,27,28,28],"right_children":[2,4,6,8,10,12,14,16,18,20,22,24,26,-1,28,30,32,34,36,38,40,42,44,46,48,50,52,54,56,-1,-1,-1,-1,-1,-1,-1,-1,-1,-1,-1,-1,-1,-1,-1,-1,-1,-1,-1,-1,-1,-1,-1,-1,-1,-1,-1,-1],"split_conditions":[1.55E0,1.7441666E2,3.85E0,6.145105E1,5.1248856E-2,1.92125E2,5.9242256E1,6.739327E-1,1.05E0,3.8101606E-4,2.771708E1,1.791402E2,5.35693E-4,1.7761055E-1,4.55E0,2.2380667E2,1.2049999E1,1.692E2,6.342265E1,2.63625E2,7.625984E1,2.546901E1,2.869583E2,1.95E0,1.10162154E-1,3.05E0,7.3835254E-1,3.6047685E-1,6.310698E1,4.5273047E-2,1.765888E-2,9.295558E-2,4.138237E-2,3.899276E-3,1.6779989E-2,2.7362555E-2,1.3013452E-2,2.0125812E-2,3.938475E-2,4.928544E-2,2.8458431E-2,6.923922E-2,1.2878595E-1,4.829227E-2,-1.1047566E-2,1.4155068E-1,4.807926E-2,1.2316405E-2,3.2824785E-2,3.8352303E-2,6.890946E-2,5.2491706E-2,9.536482E-2,4.1154586E-2,8.537301E-2,2.9408181E-2,1.529946E-1],"split_indices":[15,10,15,1,8,10,17,31,15,8,2,7,8,0,22,7,11,10,17,10,1,2,10,15,31,15,31,31,17,0,0,0,0,0,0,0,0,0,0,0,0,0,0,0,0,0,0,0,0,0,0,0,0,0,0,0,0],"split_type":[0,0,0,0,0,0,0,0,0,0,0,0,0,0,0,0,0,0,0,0,0,0,0,0,0,0,0,0,0,0,0,0,0,0,0,0,0,0,0,0,0,0,0,0,0,0,0,0,0,0,0,0,0,0,0,0,0],"sum_hessian":[3.965E3,2.178E3,1.787E3,9.19E2,1.259E3,1.742E3,4.5E1,1.01E2,8.18E2,1.206E3,5.3E1,7.78E2,9.64E2,7E0,3.8E1,7.8E1,2.3E1,2.85E2,5.33E2,7.19E2,4.87E2,2.4E1,2.9E1,1.3E1,7.65E2,5.47E2,4.17E2,2.6E1,1.2E1,1.5E1,6.3E1,7E0,1.6E1,2.59E2,2.6E1,6.5E1,4.68E2,6.63E2,5.6E1,1.27E2,3.6E2,1.6E1,8E0,2.7E1,2E0,7E0,6E0,7.6E1,6.89E2,5.02E2,4.5E1,3.35E2,8.2E1,5E0,2.1E1,2E0,1E1],"tree_param":{"num_deleted":"0","num_feature":"36","num_nodes":"57","size_leaf_vector":"0"}},{"base_weights":[6.2743884E-1,5.420073E-1,1.1722085E0,4.4443062E-1,7.6625985E-1,1.0603751E0,2.5759141E0,3.0676523E-1,5.784414E-1,2.1198773E0,7.1984196E-1,2.4881227E0,1.0080361E0,3.1327293E0,1.6710519E0,6.343892E-1,2.5794312E-1,2.5356328E0,5.617191E-1,1.5395684E0,3.1932898E0,6.377998E-1,1.0837816E0,1.484922E0,3.709135E0,8.8369495E-1,1.3543094E0,1.3671476E0,3.329209E0,1.1384604E0,2.457726E0,3.6359873E0,5.7055354E-1,1.1058944E-1,3.272643E-1,3.319591E0,1.0877566E0,6.953312E-1,4.366145E-1,1.9268351E0,6.8003136E-1,5.552506E-1,3.7178261E0,5.8957577E-1,1.0561858E0,1.7117162E0,8.681789E-1,1.9590609E0,1.654138E-1,4.0834236E0,7.3170197E-1,6.192498E-1,1.0106049E0,3.2195706E0,1.2667634E0,3.4195094E0,8.067523E-1,1.2345808E0,4.0567875E-2],"categories":[],"categories_nodes":[],"categories_segments":[],"categories_sizes":[],"default_left":[1,1,1,1,1,1,1,1,1,1,1,1,1,1,1,1,1,1,1,1,1,1,1,1,1,1,1,0,1,1,0,0,0,0,0,0,0,0,0,0,0,0,0,0,0,0,0,0,0,0,0,0,0,0,0,0,0,0,0],"id":23,"left_children":[1,3,5,7,9,11,13,15,17,19,21,23,25,27,29,31,33,35,37,39,41,43,45,47,49,51,53,-1,55,57,-1,-1,-1,-1,-1,-1,-1,-1,-1,-1,-1,-1,-1,-1,-1,-1,-1,-1,-1,-1,-1,-1,-1,-1,-1,-1,-1,-1,-1],"loss_changes":[1.8436316E2,7.488922E1,8.172449E1,4.4062347E1,6.3882202E1,3.4855347E1,1.4414856E1,1.8790794E1,3.830838E1,1.626268E1,2.9406067E1,1.5315865E1,1.9642303E1,3.4272156E0,4.3245697E0,2.7241653E1,1.0515625E1,7.73983E0,1.9838531E1,6.67857E0,1.31568985E1,1.6022675E1,2.3424652E1,6.5578766E0,4.8130875E0,1.1422485E1,1.6496887E1,0E0,1.7968597E0,1.2162743E0,0E0,0E0,0E0,0E0,0E0,0E0,0E0,0E0,0E0,0E0,0E0,0E0,0E0,0E0,0E0,0E0,0E0,0E0,0E0,0E0,0E0,0E0,0E0,0E0,0E0,0E0,0E0,0E0,0E0],"parents":[2147483647,0,0,1,1,2,2,3,3,4,4,5,5,6,6,7,7,8,8,9,9,10,10,11,11,12,12,13,13,14,14,15,15,16,16,17,17,18,18,19,19,20,20,21,21,22,22,23,23,24,24,25,25,26,26,28,28,29,29],"right_children":[2,4,6,8,10,12,14,16,18,20,22,24,26,28,30,32,34,36,38,40,42,44,46,48,50,52,54,-1,56,58,-1,-1,-1,-1,-1,-1,-1,-1,-1,-1,-1,-1,-1,-1,-1,-1,-1,-1,-1,-1,-1,-1,-1,-1,-1,-1,-1,-1,-1],"split_conditions":[2.35E0,2.1181667E2,4.697924E-2,1.3499999E0,5.927544E1,6.822157E1,6.802429E1,6.714852E1,1.7813853E2,4.7449585E-2,7.329323E-1,2.5263333E2,3.05E0,6.3644326E-1,8.6111374E-2,8E0,1.5175E2,6.2E1,8.17693E1,1.9E0,6.936416E-4,2.7763013E-2,6.4392395E1,2.3475E2,3.65E1,1.795E2,5.855053E1,6.835738E-2,1.023E2,7.845905E1,1.228863E-1,1.8179937E-1,2.8527677E-2,5.529472E-3,1.6363217E-2,1.6597955E-1,5.4387834E-2,3.4766562E-2,2.1830726E-2,9.634175E-2,3.400157E-2,2.776253E-2,1.8589132E-1,2.9478788E-2,5.2809294E-2,8.558581E-2,4.3408945E-2,9.7953044E-2,8.27069E-3,2.0417118E-1,3.65851E-2,3.0962491E-2,5.0530244E-2,1.6097854E-1,6.3338175E-2,1.7097548E-1,4.033762E-2,6.172904E-2,2.0283938E-3],"split_indices":[15,10,8,15,1,25,17,1,7,26,31,10,15,31,8,4,10,16,1,15,8,8,17,10,4,10,17,0,18,17,0,0,0,0,0,0,0,0,0,0,0,0,0,0,0,0,0,0,0,0,0,0,0,0,0,0,0,0,0],"split_type":[0,0,0,0,0,0,0,0,0,0,0,0,0,0,0,0,0,0,0,0,0,0,0,0,0,0,0,0,0,0,0,0,0,0,0,0,0,0,0,0,0,0,0,0,0,0,0,0,0,0,0,0,0,0,0,0,0,0,0],"sum_hessian":[3.974E3,3.437E3,5.37E2,2.397E3,1.04E3,4.99E2,3.8E1,1.184E3,1.213E3,3.3E1,1.007E3,1.6E1,4.83E2,2.2E1,1.6E1,1.52E2,1.032E3,9E0,1.204E3,2.3E1,1E1,8.24E2,1.83E2,1E1,6E0,3.58E2,1.25E2,3E0,1.9E1,1.1E1,5E0,2E0,1.5E2,3.31E2,7.01E2,5E0,4E0,5.8E2,6.24E2,1.5E1,8E0,2E0,8E0,7.41E2,8.3E1,4.5E1,1.38E2,7E0,3E0,5E0,1E0,1.18E2,2.4E2,4E0,1.21E2,1.8E1,1E0,1E1,1E0],"tree_param":{"num_deleted":"0","num_feature":"36","num_nodes":"59","size_leaf_vector":"0"}},{"base_weights":[5.930547E-1,4.831969E-1,1.0262593E0,3.9815345E-1,6.8581873E-1,8.796663E-1,1.718093E0,2.2922184E0,3.928693E-1,6.454321E-1,1.5723244E0,7.959995E-1,1.6371549E0,1.995128E0,1.0950615E0,3.2965393E0,9.659232E-1,3.7078536E-1,7.489873E-1,6.215317E-1,1.3377148E0,1.0420886E0,2.2284029E0,7.485697E-1,1.640888E0,2.1555629E0,1.2362789E0,2.3899963E0,1.3924344E0,5.185601E-1,1.4601899E0,2.9003048E-1,1.0945439E0,2.949848E-1,4.5387828E-1,5.9116447E-1,1.2971638E0,6.065021E-1,1.4347785E0,2.4375772E0,1.007011E0,5.231552E-1,1.2688581E0,6.3897365E-1,2.3977284E0,5.86095E-1,9.610421E-1,4.5950815E-1,2.103293E0,8.161999E-1,2.4993713E0,2.9091647E0,9.61973E-1,2.572163E0,7.473762E-1,1.7454096E0,8.122084E-1,2.9255727E-1,1.6263895E0,1.7501657E0,5.5272686E-1],"categories":[],"categories_nodes":[],"categories_segments":[],"categories_sizes":[],"default_left":[1,1,1,1,1,1,1,1,1,1,1,1,1,1,1,0,1,1,1,1,1,1,1,1,1,1,1,1,1,1,1,0,0,0,0,0,0,0,0,0,0,0,0,0,0,0,0,0,0,0,0,0,0,0,0,0,0,0,0,0,0],"id":24,"left_children":[1,3,5,7,9,11,13,15,17,19,21,23,25,27,29,-1,31,33,35,37,39,41,43,45,47,49,51,53,55,57,59,-1,-1,-1,-1,-1,-1,-1,-1,-1,-1,-1,-1,-1,-1,-1,-1,-1,-1,-1,-1,-1,-1,-1,-1,-1,-1,-1,-1,-1,-1],"loss_changes":[1.8815442E2,5.4247986E1,7.972449E1,2.1428528E1,3.242514E1,4.0715515E1,2.1806824E1,4.807951E0,1.7228638E1,1.3977081E1,1.1592857E1,2.277533E1,1.0843246E1,1.928064E1,8.715172E0,0E0,3.0284166E-2,1.3080322E1,1.039357E1,9.726929E0,8.093464E0,2.160469E0,3.0431442E0,1.9079407E1,1.5968079E1,1.0393089E1,1.509787E1,1.4834564E1,6.7745743E0,4.281267E0,6.137478E0,0E0,0E0,0E0,0E0,0E0,0E0,0E0,0E0,0E0,0E0,0E0,0E0,0E0,0E0,0E0,0E0,0E0,0E0,0E0,0E0,0E0,0E0,0E0,0E0,0E0,0E0,0E0,0E0,0E0,0E0],"parents":[2147483647,0,0,1,1,2,2,3,3,4,4,5,5,6,6,7,7,8,8,9,9,10,10,11,11,12,12,13,13,14,14,16,16,17,17,18,18,19,19,20,20,21,21,22,22,23,23,24,24,25,25,26,26,27,27,28,28,29,29,30,30],"right_children":[2,4,6,8,10,12,14,16,18,20,22,24,26,28,30,-1,32,34,36,38,40,42,44,46,48,50,52,54,56,58,60,-1,-1,-1,-1,-1,-1,-1,-1,-1,-1,-1,-1,-1,-1,-1,-1,-1,-1,-1,-1,-1,-1,-1,-1,-1,-1,-1,-1,-1,-1],"split_conditions":[2.225E0,2.119E2,7.0275486E-1,1.6137096E2,5.03052E-2,3.641667E0,6.882567E1,5.4166664E1,1.0751705E0,1.5826659E0,7.471426E-1,2.8785E2,6.7762405E1,2.7100732E2,2.1351785E2,1.6482697E-1,6.995614E1,1.2916666E0,1.6416667E0,3.215833E2,2.2110418E1,1.2083334E0,2.1709525E2,3.305068E-1,9.05E-1,1.0983333E2,8.555E1,1.2294389E-1,1.32E1,2.605E2,3.363701E-2,1.4501524E-2,5.4727197E-2,1.4749239E-2,2.2693915E-2,2.9558225E-2,6.485819E-2,3.0325105E-2,7.173892E-2,1.2187886E-1,5.0350554E-2,2.6157761E-2,6.344291E-2,3.1948682E-2,1.1988642E-1,2.9304748E-2,4.8052106E-2,2.2975408E-2,1.0516465E-1,4.0809996E-2,1.24968566E-1,1.4545824E-1,4.809865E-2,1.2860815E-1,3.736881E-2,8.727048E-2,4.061042E-2,1.4627864E-2,8.131947E-2,8.750828E-2,2.7636344E-2],"split_indices":[5,10,31,7,8,5,17,1,31,31,31,10,17,7,10,0,1,5,5,10,2,5,10,31,6,24,18,8,11,27,8,0,0,0,0,0,0,0,0,0,0,0,0,0,0,0,0,0,0,0,0,0,0,0,0,0,0,0,0,0,0],"split_type":[0,0,0,0,0,0,0,0,0,0,0,0,0,0,0,0,0,0,0,0,0,0,0,0,0,0,0,0,0,0,0,0,0,0,0,0,0,0,0,0,0,0,0,0,0,0,0,0,0,0,0,0,0,0,0,0,0,0,0,0,0],"sum_hessian":[3.963E3,3.163E3,8E2,2.23E3,9.33E2,6.62E2,1.38E2,5E0,2.225E3,8.94E2,3.9E1,5.98E2,6.4E1,9.4E1,4.4E1,2E0,3E0,2.097E3,1.28E2,8.66E2,2.8E1,2.3E1,1.6E1,5.68E2,3E1,2.6E1,3.8E1,5.5E1,3.9E1,1.8E1,2.6E1,1E0,2E0,1.099E3,9.98E2,1.01E2,2.7E1,8.52E2,1.4E1,5E0,2.3E1,8E0,1.5E1,2E0,1.4E1,3.24E2,2.44E2,9E0,2.1E1,6E0,2E1,4E0,3.4E1,4.9E1,6E0,2.3E1,1.6E1,1.6E1,2E0,1.9E1,7E0],"tree_param":{"num_deleted":"0","num_feature":"36","num_nodes":"61","size_leaf_vector":"0"}},{"base_weights":[5.7150584E-1,3.8452786E-1,7.903019E-1,3.0613124E-1,7.4301875E-1,6.725679E-1,1.2055068E0,1.9968341E-1,3.8294825E-1,5.9667045E-1,1.191285E0,5.882159E-1,1.0662196E0,1.045566E0,1.996767E0,1.0129275E-1,2.8268573E-1,5.744351E-1,3.0050254E-1,1.1141255E0,5.056456E-1,1.4661542E0,5.560256E-1,4.714733E-1,7.081601E-1,9.1127723E-1,1.6739612E0,2.2952607E0,9.683393E-1,3.0149438E0,1.7198021E0,8.703506E-2,5.6594443E-1,2.599441E-1,5.670103E-1,4.3831465E-1,8.942135E-1,1.09911434E-1,3.7512553E-1,5.219182E-1,1.5196381E0,8.084383E-1,3.932523E-1,3.5009682E-2,1.5848328E0,1.162159E0,3.2102162E-1,3.6642945E-1,5.843361E-1,9.3876725E-1,6.034022E-1,5.8365965E-1,1.0173616E0,2.2973084E0,1.2832274E0,7.573697E-1,2.9467971E0,8.749399E-1,1.9529502E0,3.533708E0,9.642972E-1,1.9470308E0,8.3590746E-1],"categories":[],"categories_nodes":[],"categories_segments":[],"categories_sizes":[],"default_left":[1,1,1,1,1,1,1,1,1,1,1,1,1,1,1,1,1,1,1,1,1,1,1,1,1,1,1,1,1,1,1,0,0,0,0,0,0,0,0,0,0,0,0,0,0,0,0,0,0,0,0,0,0,0,0,0,0,0,0,0,0,0,0],"id":25,"left_children":[1,3,5,7,9,11,13,15,17,19,21,23,25,27,29,31,33,35,37,39,41,43,45,47,49,51,53,55,57,59,61,-1,-1,-1,-1,-1,-1,-1,-1,-1,-1,-1,-1,-1,-1,-1,-1,-1,-1,-1,-1,-1,-1,-1,-1,-1,-1,-1,-1,-1,-1,-1,-1],"loss_changes":[1.6304993E2,6.0337677E1,8.9086426E1,1.4396835E1,2.4611954E1,4.702246E1,4.9166992E1,6.0473537E0,1.6040909E1,1.323732E1,1.5598419E1,1.6245209E1,2.2204102E1,3.0494171E1,1.3708832E1,2.2164443E0,2.4584045E0,1.3014793E1,1.0198952E1,9.533215E0,8.224075E0,1.0984512E1,3.9002352E0,6.9347687E0,1.3493469E1,6.4615173E0,9.230164E0,1.680603E1,2.7811157E1,1.0421883E1,9.419006E0,0E0,0E0,0E0,0E0,0E0,0E0,0E0,0E0,0E0,0E0,0E0,0E0,0E0,0E0,0E0,0E0,0E0,0E0,0E0,0E0,0E0,0E0,0E0,0E0,0E0,0E0,0E0,0E0,0E0,0E0,0E0,0E0],"parents":[2147483647,0,0,1,1,2,2,3,3,4,4,5,5,6,6,7,7,8,8,9,9,10,10,11,11,12,12,13,13,14,14,15,15,16,16,17,17,18,18,19,19,20,20,21,21,22,22,23,23,24,24,25,25,26,26,27,27,28,28,29,29,30,30],"right_children":[2,4,6,8,10,12,14,16,18,20,22,24,26,28,30,32,34,36,38,40,42,44,46,48,50,52,54,56,58,60,62,-1,-1,-1,-1,-1,-1,-1,-1,-1,-1,-1,-1,-1,-1,-1,-1,-1,-1,-1,-1,-1,-1,-1,-1,-1,-1,-1,-1,-1,-1,-1,-1],"split_conditions":[1.55E0,2.275E0,2.225E0,1.1916666E0,2.624148E-2,2.65E0,7.3916227E-1,1.1500001E0,7.726739E1,1.7788801E0,2.1874862E0,1.3416667E0,2.68775E2,1.9735553E2,5.9377777E1,1.5217391E0,1.0867347E0,4.9614394E-1,1.70225E2,2.1945755E-1,3.431079E1,6.677434E-2,2.0968958E2,1.95E0,6.837123E1,3.069074E-1,5E-1,7.1099997E0,3.25E0,1.715625E2,3.0304926E2,4.3517533E-3,2.8297221E-2,1.2997205E-2,2.8350515E-2,2.1915732E-2,4.4710677E-2,5.495572E-3,1.8756276E-2,2.609591E-2,7.598191E-2,4.0421914E-2,1.9662617E-2,1.7504841E-3,7.924164E-2,5.810795E-2,1.6051082E-2,1.8321473E-2,2.9216805E-2,4.6938363E-2,3.0170111E-2,2.9182984E-2,5.0868083E-2,1.1486542E-1,6.4161375E-2,3.7868485E-2,1.4733987E-1,4.3746997E-2,9.764751E-2,1.7668541E-1,4.821486E-2,9.735154E-2,4.1795373E-2],"split_indices":[15,5,5,5,8,15,31,15,1,3,3,5,10,7,17,31,31,31,10,31,34,31,7,15,17,31,14,35,15,24,7,0,0,0,0,0,0,0,0,0,0,0,0,0,0,0,0,0,0,0,0,0,0,0,0,0,0,0,0,0,0,0,0],"split_type":[0,0,0,0,0,0,0,0,0,0,0,0,0,0,0,0,0,0,0,0,0,0,0,0,0,0,0,0,0,0,0,0,0,0,0,0,0,0,0,0,0,0,0,0,0,0,0,0,0,0,0,0,0,0,0,0,0,0,0,0,0,0,0],"sum_hessian":[3.992E3,2.154E3,1.838E3,1.769E3,3.85E2,1.434E3,4.04E2,7.43E2,1.026E3,2.92E2,9.3E1,1.183E3,2.51E2,3.38E2,6.6E1,3.41E2,4.02E2,3.07E2,7.19E2,4.2E1,2.5E2,6.4E1,2.9E1,6.02E2,5.81E2,2.02E2,4.9E1,1.8E1,3.2E2,1.2E1,5.4E1,3.32E2,9E0,3.74E2,2.8E1,2.17E2,9E1,2.03E2,5.16E2,1.8E1,2.4E1,6.6E1,1.84E2,5E0,5.9E1,7E0,2.2E1,3.14E2,2.88E2,1.79E2,4.02E2,5.1E1,1.51E2,1.7E1,3.2E1,6E0,1.2E1,2.94E2,2.6E1,9E0,3E0,4.2E1,1.2E1],"tree_param":{"num_deleted":"0","num_feature":"36","num_nodes":"63","size_leaf_vector":"0"}},{"base_weights":[5.303261E-1,3.912119E-1,7.987611E-1,7.226376E-1,3.4482375E-1,1.7657033E0,7.512507E-1,1.8958001E0,6.175034E-1,2.8683585E-1,5.241488E-1,9.949501E-1,2.4812782E0,7.131008E-1,1.4531553E0,7.993227E-1,2.7785435E0,5.6392246E-1,1.523273E0,1.2506387E-1,3.438792E-1,1.4608451E0,4.9584356E-1,1.8410742E0,6.843924E-1,-1.2624562E-2,2.7397034E0,9.7217983E-1,6.502163E-1,3.5744433E0,1.2206817E0,1.2235559E0,2.6090053E-1,5.3559834E-1,3.1077344E0,5.1954216E-1,1.376378E0,2.2674973E0,4.956115E-1,1.0760792E-1,5.9946775E-1,4.4679216E-1,2.501735E-1,5.614261E-1,2.2900858E0,4.715373E-1,1.4598682E0,2.816835E0,6.922507E-1,7.43989E-1,-3.72963E-1,-3.648584E-1,2.2640617E-1,3.4217231E0,1.6370852E0,6.728181E-1,1.1616086E0,6.021785E-1,9.99182E-1,3.9633243E0,8.1501937E-1,1.5431534E0,8.116387E-1],"categories":[],"categories_nodes":[],"categories_segments":[],"categories_sizes":[],"default_left":[1,1,1,1,1,1,1,1,1,1,1,1,1,1,1,1,1,1,1,1,1,1,1,1,1,1,1,1,1,1,1,0,0,0,0,0,0,0,0,0,0,0,0,0,0,0,0,0,0,0,0,0,0,0,0,0,0,0,0,0,0,0,0],"id":26,"left_children":[1,3,5,7,9,11,13,15,17,19,21,23,25,27,29,31,33,35,37,39,41,43,45,47,49,51,53,55,57,59,61,-1,-1,-1,-1,-1,-1,-1,-1,-1,-1,-1,-1,-1,-1,-1,-1,-1,-1,-1,-1,-1,-1,-1,-1,-1,-1,-1,-1,-1,-1,-1,-1],"loss_changes":[1.4868665E2,4.018506E1,6.1197693E1,3.8544647E1,2.3860199E1,3.227774E1,3.3747803E1,2.2944656E1,1.3554985E1,1.6078323E1,1.4202728E1,7.148636E0,2.0658188E1,1.947229E1,2.8184204E1,2.6501894E0,8.672501E0,9.452995E0,1.1113174E1,3.7199855E0,1.2338028E1,1.064764E1,1.2152283E1,7.0178585E0,1.8528509E0,4.1938502E-1,1.6206558E1,1.2771606E1,1.6094788E1,3.2083359E0,6.793709E0,0E0,0E0,0E0,0E0,0E0,0E0,0E0,0E0,0E0,0E0,0E0,0E0,0E0,0E0,0E0,0E0,0E0,0E0,0E0,0E0,0E0,0E0,0E0,0E0,0E0,0E0,0E0,0E0,0E0,0E0,0E0,0E0],"parents":[2147483647,0,0,1,1,2,2,3,3,4,4,5,5,6,6,7,7,8,8,9,9,10,10,11,11,12,12,13,13,14,14,15,15,16,16,17,17,18,18,19,19,20,20,21,21,22,22,23,23,24,24,25,25,26,26,27,27,28,28,29,29,30,30],"right_children":[2,4,6,8,10,12,14,16,18,20,22,24,26,28,30,32,34,36,38,40,42,44,46,48,50,52,54,56,58,60,62,-1,-1,-1,-1,-1,-1,-1,-1,-1,-1,-1,-1,-1,-1,-1,-1,-1,-1,-1,-1,-1,-1,-1,-1,-1,-1,-1,-1,-1,-1,-1,-1],"split_conditions":[1.75E0,2.1706413E2,5.9293697E1,5.8088234E1,2.1255E2,7.933658E1,2.878333E2,1.7291666E2,5E-1,1.05E0,5.9253906E1,7.0626495E1,4.1851372E-1,7.359801E1,6.212377E1,6.29E0,4.785E0,1.358506E0,8.9649994E1,7.962024E1,8.15587E1,6.15E1,3.106964E2,9.45E1,2.8673697E0,6.186438E1,2.8457346E2,9.15E-1,2.95E0,6.851338E1,3.500896E1,6.1177798E-2,1.3045027E-2,2.6779918E-2,1.5538673E-1,2.5977109E-2,6.8818904E-2,1.1337487E-1,2.4780575E-2,5.3803963E-3,2.9973388E-2,2.2339609E-2,1.2508675E-2,2.8071305E-2,1.1450429E-1,2.3576865E-2,7.299341E-2,1.4084175E-1,3.4612536E-2,3.719945E-2,-1.8648151E-2,-1.824292E-2,1.1320309E-2,1.7108616E-1,8.185426E-2,3.3640906E-2,5.808043E-2,3.0108927E-2,4.99591E-2,1.9816622E-1,4.075097E-2,7.715767E-2,4.0581938E-2],"split_indices":[15,7,17,1,10,32,10,10,12,15,1,25,31,1,1,35,35,31,18,17,1,16,10,18,3,0,7,6,15,0,34,0,0,0,0,0,0,0,0,0,0,0,0,0,0,0,0,0,0,0,0,0,0,0,0,0,0,0,0,0,0,0,0],"split_type":[0,0,0,0,0,0,0,0,0,0,0,0,0,0,0,0,0,0,0,0,0,0,0,0,0,0,0,0,0,0,0,0,0,0,0,0,0,0,0,0,0,0,0,0,0,0,0,0,0,0,0,0,0,0,0,0,0,0,0,0,0,0,0],"sum_hessian":[3.989E3,2.629E3,1.36E3,3.21E2,2.308E3,6.2E1,1.298E3,2.5E1,2.96E2,1.746E3,5.62E2,3.1E1,3.1E1,1.233E3,6.5E1,1.2E1,1.3E1,2.81E2,1.5E1,4.56E2,1.29E3,1.5E1,5.47E2,7E0,2.4E1,3E0,2.8E1,2.38E2,9.95E2,5E0,6E1,6E0,6E0,2E0,1.1E1,2.68E2,1.3E1,8E0,7E0,4.41E2,1.5E1,6.13E2,6.77E2,8E0,7E0,5.35E2,1.2E1,3E0,4E0,2.3E1,1E0,1E0,2E0,1.6E1,1.2E1,9.4E1,1.44E2,8.77E2,1.18E2,4E0,1E0,3.2E1,2.8E1],"tree_param":{"num_deleted":"0","num_feature":"36","num_nodes":"63","size_leaf_vector":"0"}},{"base_weights":[5.0984824E-1,4.3427178E-1,9.816468E-1,3.8903156E-1,1.0637462E0,1.2349429E0,5.7484186E-1,3.0594745E-1,5.484338E-1,2.027012E0,9.715281E-1,1.6034052E0,9.686931E-1,8.988576E-1,3.577156E-1,2.189736E-1,4.3760857E-1,3.8532114E-1,6.1762047E-1,4.7198504E-1,2.7084103E0,7.3264396E-1,1.1740103E0,1.0967573E0,1.9633487E0,8.1953466E-1,1.499646E0,2.8610492E-1,1.1391902E0,-6.0785428E-2,4.649883E-1,8.111035E-1,2.0587218E-1,3.3205304E-1,6.1337185E-1,3.527031E-1,7.6523876E-1,5.647443E-1,1.1023089E0,1.1055064E0,-2.524805E-3,1.2471067E0,3.219311E0,5.1932865E-1,1.09152E0,7.761439E-1,1.3842673E0,9.575095E-1,2.8068485E0,4.531398E-1,2.0796747E0,7.5272024E-1,1.827201E0,2.8517709E0,1.2822704E0,6.4695215E-1,-3.1986108E-1,1.2534205E0,3.5261658E-1,1.1205041E-1,-2.555356E-1,9.8456067E-1,3.7114087E-1],"categories":[],"categories_nodes":[],"categories_segments":[],"categories_sizes":[],"default_left":[1,1,1,1,1,1,1,1,1,1,1,1,1,1,1,1,1,1,1,1,1,1,1,1,1,1,1,1,1,1,1,0,0,0,0,0,0,0,0,0,0,0,0,0,0,0,0,0,0,0,0,0,0,0,0,0,0,0,0,0,0,0,0],"id":27,"left_children":[1,3,5,7,9,11,13,15,17,19,21,23,25,27,29,31,33,35,37,39,41,43,45,47,49,51,53,55,57,59,61,-1,-1,-1,-1,-1,-1,-1,-1,-1,-1,-1,-1,-1,-1,-1,-1,-1,-1,-1,-1,-1,-1,-1,-1,-1,-1,-1,-1,-1,-1,-1,-1],"loss_changes":[1.4052515E2,9.66662E1,5.544806E1,4.1973938E1,1.8284058E1,3.131134E1,1.4522797E1,2.3882736E1,1.2051636E1,1.8853928E1,9.297531E0,2.3195374E1,1.4372604E1,1.2044289E1,5.774664E0,9.631058E0,1.5232254E1,3.7823334E0,1.8932007E1,2.1070762E0,5.690727E0,7.011959E0,8.294876E0,1.1599998E1,1.3111694E1,9.127586E0,8.687843E0,5.673463E0,4.9490585E0,9.374477E-1,4.608162E0,0E0,0E0,0E0,0E0,0E0,0E0,0E0,0E0,0E0,0E0,0E0,0E0,0E0,0E0,0E0,0E0,0E0,0E0,0E0,0E0,0E0,0E0,0E0,0E0,0E0,0E0,0E0,0E0,0E0,0E0,0E0,0E0],"parents":[2147483647,0,0,1,1,2,2,3,3,4,4,5,5,6,6,7,7,8,8,9,9,10,10,11,11,12,12,13,13,14,14,15,15,16,16,17,17,18,18,19,19,20,20,21,21,22,22,23,23,24,24,25,25,26,26,27,27,28,28,29,29,30,30],"right_children":[2,4,6,8,10,12,14,16,18,20,22,24,26,28,30,32,34,36,38,40,42,44,46,48,50,52,54,56,58,60,62,-1,-1,-1,-1,-1,-1,-1,-1,-1,-1,-1,-1,-1,-1,-1,-1,-1,-1,-1,-1,-1,-1,-1,-1,-1,-1,-1,-1,-1,-1,-1,-1],"split_conditions":[2.4583335E0,2.75E0,8.5349594E1,1.6500001E0,5.9393074E1,6.827911E1,1.972403E0,1.5583334E0,1.1083333E0,1.3166666E0,4.225533E-1,1.45E0,7.482974E1,1.25E0,1.3463752E-1,5.0531914E1,4.0476924E-1,2.55E0,8.8341177E-1,9.733333E1,8.785E1,3.25E0,5E-1,4.9583335E0,4.070665E1,3.15E0,8.445E1,1.8379202E0,1.5925E2,8.343163E-2,2.2872253E2,4.0555175E-2,1.0293609E-2,1.6602652E-2,3.0668592E-2,1.7635155E-2,3.826194E-2,2.8237214E-2,5.5115443E-2,5.527532E-2,-1.2624025E-4,6.2355336E-2,1.6096555E-1,2.5966434E-2,5.4576E-2,3.8807195E-2,6.921337E-2,4.7875475E-2,1.4034243E-1,2.265699E-2,1.0398374E-1,3.763601E-2,9.1360055E-2,1.4258854E-1,6.411352E-2,3.234761E-2,-1.5993055E-2,6.267103E-2,1.7630829E-2,5.6025204E-3,-1.277678E-2,4.9228035E-2,1.8557044E-2],"split_indices":[5,15,1,15,17,17,3,5,5,5,31,15,0,15,31,1,31,15,31,20,18,15,30,5,1,15,18,3,24,31,7,0,0,0,0,0,0,0,0,0,0,0,0,0,0,0,0,0,0,0,0,0,0,0,0,0,0,0,0,0,0,0,0],"split_type":[0,0,0,0,0,0,0,0,0,0,0,0,0,0,0,0,0,0,0,0,0,0,0,0,0,0,0,0,0,0,0,0,0,0,0,0,0,0,0,0,0,0,0,0,0,0,0,0,0,0,0,0,0,0,0,0,0,0,0,0,0,0,0],"sum_hessian":[3.952E3,3.408E3,5.44E2,3.181E3,2.27E2,3.34E2,2.1E2,2.093E3,1.088E3,1.8E1,2.09E2,1.38E2,1.96E2,8.3E1,1.27E2,1.262E3,8.31E2,3.26E2,7.62E2,6E0,1.2E1,9.8E1,1.11E2,5.9E1,7.9E1,1.55E2,4.1E1,2.4E1,5.9E1,2.6E1,1.01E2,2.6E1,1.236E3,5.21E2,3.1E2,3.02E2,2.4E1,6.89E2,7.3E1,2E0,4E0,4E0,8E0,6.3E1,3.5E1,4E1,7.1E1,5.6E1,3E0,6E0,7.3E1,1.47E2,8E0,4E0,3.7E1,1.5E1,9E0,5.1E1,8E0,1.4E1,1.2E1,1.4E1,8.7E1],"tree_param":{"num_deleted":"0","num_feature":"36","num_nodes":"63","size_leaf_vector":"0"}},{"base_weights":[4.94506E-1,4.267241E-1,1.0697935E0,3.1549615E-1,5.739003E-1,1.2929137E0,5.599125E-1,2.8763124E-1,6.919084E-1,5.23087E-1,1.0703942E0,2.3705196E0,1.1912079E0,9.746037E-1,3.4851444E-1,1.8226053E0,2.8422323E-1,1.0129632E0,4.5638305E-1,6.531146E-1,4.037867E-1,8.83683E-1,1.8622441E0,1.115067E0,3.187624E0,8.561692E-1,1.5076336E0,7.093843E-1,2.0462656E0,2.869957E-1,1.553279E0,2.3684251E0,9.257275E-2,2.3941204E-1,3.8700306E-1,7.442181E-1,1.5254283E0,3.321293E-1,8.797224E-1,7.918071E-1,5.3701335E-1,3.767617E-1,8.4677166E-1,7.658998E-1,1.5719597E0,1.9765046E0,-4.9713337E-1,1.748068E0,-4.297016E-1,1.1270976E0,3.8991249E0,-3.2611686E-1,9.249862E-1,1.256576E0,1.9874038E0,1.0347515E0,3.2653093E-1,2.4196286E0,6.174509E-1,1.5280024E0,2.3809306E-1,2.9361308E-1,1.8752967E0],"categories":[],"categories_nodes":[],"categories_segments":[],"categories_sizes":[],"default_left":[1,1,1,1,1,1,1,1,1,1,1,1,1,1,1,1,1,1,1,1,1,1,1,1,1,1,1,1,1,1,1,0,0,0,0,0,0,0,0,0,0,0,0,0,0,0,0,0,0,0,0,0,0,0,0,0,0,0,0,0,0,0,0],"id":28,"left_children":[1,3,5,7,9,11,13,15,17,19,21,23,25,27,29,31,33,35,37,39,41,43,45,47,49,51,53,55,57,59,61,-1,-1,-1,-1,-1,-1,-1,-1,-1,-1,-1,-1,-1,-1,-1,-1,-1,-1,-1,-1,-1,-1,-1,-1,-1,-1,-1,-1,-1,-1,-1,-1],"loss_changes":[1.5442804E2,5.8014587E1,4.6829742E1,2.1061584E1,3.8014435E1,2.89599E1,1.0969112E1,9.36377E0,1.0048393E1,2.1282928E1,1.920082E1,2.1065643E1,2.7015137E1,1.0770107E1,6.0022717E0,3.5578928E0,8.593658E0,6.8526535E0,4.021141E0,1.0250671E1,8.384361E0,8.199867E0,7.991768E0,1.1507385E1,1.6130234E1,1.1041351E1,1.3883911E1,4.1465645E0,2.7737312E0,4.7340264E0,1.0719271E0,0E0,0E0,0E0,0E0,0E0,0E0,0E0,0E0,0E0,0E0,0E0,0E0,0E0,0E0,0E0,0E0,0E0,0E0,0E0,0E0,0E0,0E0,0E0,0E0,0E0,0E0,0E0,0E0,0E0,0E0,0E0,0E0],"parents":[2147483647,0,0,1,1,2,2,3,3,4,4,5,5,6,6,7,7,8,8,9,9,10,10,11,11,12,12,13,13,14,14,15,15,16,16,17,17,18,18,19,19,20,20,21,21,22,22,23,23,24,24,25,25,26,26,27,27,28,28,29,29,30,30],"right_children":[2,4,6,8,10,12,14,16,18,20,22,24,26,28,30,32,34,36,38,40,42,44,46,48,50,52,54,56,58,60,62,-1,-1,-1,-1,-1,-1,-1,-1,-1,-1,-1,-1,-1,-1,-1,-1,-1,-1,-1,-1,-1,-1,-1,-1,-1,-1,-1,-1,-1,-1,-1,-1],"split_conditions":[2.6916666E0,1.5416666E0,8.739812E1,1.0751705E0,8.5419106E-1,2.0150058E2,3.4679474E1,1.5874174E2,2.028451E0,8.267949E1,3.4087926E-2,6.58E0,1.8102381E-2,4.4795084E-1,3.8333335E0,3.4087444E1,5E-1,1.9736843E-4,1.4475E2,2.5415201E2,1.0113261E1,1.9962069E0,3.7708652E1,3.441794E1,1.0925E2,8.869159E-2,8.014999E0,2.624052E2,5.85E1,1.3179847E1,2.886578E1,1.1842126E-1,4.6286373E-3,1.1970602E-2,1.9350154E-2,3.7210908E-2,7.6271415E-2,1.6606465E-2,4.3986123E-2,3.9590355E-2,2.6850669E-2,1.8838085E-2,4.2338584E-2,3.829499E-2,7.8597985E-2,9.882523E-2,-2.485667E-2,8.74034E-2,-2.1485081E-2,5.635488E-2,1.9495624E-1,-1.6305843E-2,4.624931E-2,6.28288E-2,9.937019E-2,5.1737577E-2,1.6326547E-2,1.2098143E-1,3.0872544E-2,7.640012E-2,1.1904653E-2,1.4680654E-2,9.3764834E-2],"split_indices":[5,5,1,31,31,7,34,7,3,1,8,35,8,31,5,2,30,8,24,7,28,31,2,34,24,31,35,7,16,9,2,0,0,0,0,0,0,0,0,0,0,0,0,0,0,0,0,0,0,0,0,0,0,0,0,0,0,0,0,0,0,0,0],"split_type":[0,0,0,0,0,0,0,0,0,0,0,0,0,0,0,0,0,0,0,0,0,0,0,0,0,0,0,0,0,0,0,0,0,0,0,0,0,0,0,0,0,0,0,0,0,0,0,0,0,0,0,0,0,0,0,0,0,0,0,0,0,0,0],"sum_hessian":[3.971E3,3.554E3,4.17E2,2.026E3,1.528E3,2.89E2,1.28E2,1.888E3,1.38E2,1.388E3,1.4E2,2.3E1,2.66E2,4.2E1,8.6E1,3E0,1.885E3,5.7E1,8.1E1,6.62E2,7.26E2,1.15E2,2.5E1,1E1,1.3E1,1.31E2,1.35E2,3.5E1,7E0,8.3E1,3E0,2E0,1E0,1.315E3,5.7E2,3.9E1,1.8E1,6.4E1,1.7E1,2.99E2,3.63E2,6.86E2,4E1,1E2,1.5E1,2.4E1,1E0,7E0,3E0,4E0,9E0,7E0,1.24E2,9.1E1,4.4E1,1.8E1,1.7E1,5E0,2E0,2E0,8.1E1,1E0,2E0],"tree_param":{"num_deleted":"0","num_feature":"36","num_nodes":"63","size_leaf_vector":"0"}},{"base_weights":[4.6935192E-1,3.8215134E-1,8.328699E-1,2.685753E-1,5.217217E-1,7.7898914E-1,1.9482677E0,1.4776498E0,2.5886574E-1,1.5821592E0,4.8816484E-1,6.70905E-1,1.099615E0,1.2838268E0,2.4402268E0,2.6086898E0,3.0328342E-1,4.1169986E-1,2.0381573E-1,3.2098873E0,1.187457E0,4.1056773E-1,6.6935575E-1,6.543928E-1,1.8724487E0,2.7212493E0,9.714019E-1,2.6626832E0,9.224672E-1,2.8511508E0,1.0747E0,7.019628E-1,2.809484E0,-2.0564735E-1,4.05366E-1,