{"learner":{"attributes":{"best_iteration":"244","best_msg":"[245]\ttrain-rmse:0.457187\teval-rmse:0.817647","best_ntreelimit":"245","best_score":"0.81764660073328888","niter":"264"},"feature_names":[],"feature_types":[],"gradient_booster":{"model":{"gbtree_model_param":{"num_parallel_tree":"1","num_trees":"265","size_leaf_vector":"0"},"tree_info":[0,0,0,0,0,0,0,0,0,0,0,0,0,0,0,0,0,0,0,0,0,0,0,0,0,0,0,0,0,0,0,0,0,0,0,0,0,0,0,0,0,0,0,0,0,0,0,0,0,0,0,0,0,0,0,0,0,0,0,0,0,0,0,0,0,0,0,0,0,0,0,0,0,0,0,0,0,0,0,0,0,0,0,0,0,0,0,0,0,0,0,0,0,0,0,0,0,0,0,0,0,0,0,0,0,0,0,0,0,0,0,0,0,0,0,0,0,0,0,0,0,0,0,0,0,0,0,0,0,0,0,0,0,0,0,0,0,0,0,0,0,0,0,0,0,0,0,0,0,0,0,0,0,0,0,0,0,0,0,0,0,0,0,0,0,0,0,0,0,0,0,0,0,0,0,0,0,0,0,0,0,0,0,0,0,0,0,0,0,0,0,0,0,0,0,0,0,0,0,0,0,0,0,0,0,0,0,0,0,0,0,0,0,0,0,0,0,0,0,0,0,0,0,0,0,0,0,0,0,0,0,0,0,0,0,0,0,0,0,0,0,0,0,0,0,0,0,0,0,0,0,0,0,0,0,0,0,0,0,0,0,0,0,0,0],"trees":[{"base_weights":[2.0051243E0,1.7339872E0,2.628184E0,1.5226363E0,2.1096325E0,2.4185324E0,4.049032E0,1.2138686E0,1.6566746E0,1.9746622E0,3.0908334E0,2.344892E0,3.9956522E0,6.821429E0,3.747183E0,1.1456332E0,1.543956E0,1.5598592E0,1.85875E0,4.9555554E0,1.9419318E0,2.6010525E0,4.7615385E0,1.9406475E0,2.4933872E0,2.925E0,4.9391303E0,3.493077E0,6E0,8.6285716E-1,1.1935732E0,1.95E0,1.3421875E0,1.4012376E0,1.6991091E0,1.7158576E0,2.3184783E0,6.2E0,1.8499999E0,1.4850394E0,2.1239235E0,3.1021276E0,2.0673468E0,5.383333E0,2.9888887E0,1.7884792E0,2.4419355E0,2.6735966E0,2.151724E0,3.1E0,6.666667E-1,5.109091E0,6E-1,2.952E0,4.1553574E0,6.75E0,2.625E0],"categories":[],"categories_nodes":[],"categories_segments":[],"categories_sizes":[],"default_left":[1,1,1,1,1,1,1,1,1,1,1,1,1,0,1,1,1,1,1,1,1,1,1,1,1,1,1,1,1,0,0,0,0,0,0,0,0,0,0,0,0,0,0,0,0,0,0,0,0,0,0,0,0,0,0,0,0],"id":0,"left_children":[1,3,5,7,9,11,13,15,17,19,21,23,25,-1,27,29,31,33,35,37,39,41,43,45,47,49,51,53,55,-1,-1,-1,-1,-1,-1,-1,-1,-1,-1,-1,-1,-1,-1,-1,-1,-1,-1,-1,-1,-1,-1,-1,-1,-1,-1,-1,-1],"loss_changes":[6.745586E2,2.1940625E2,3.5273145E2,7.2401855E1,1.2725635E2,1.140874E2,1.041499E2,1.0574219E1,2.1575195E1,7.701514E1,8.580835E1,5.627002E1,3.201935E1,0E0,6.03302E1,5.178833E0,4.838089E0,1.6438232E1,2.2298462E1,2.331224E1,7.001807E1,1.899237E1,1.2567688E1,1.6838501E1,3.9871582E1,7.4183044E0,1.3896545E1,3.4318115E1,1.51875E1,0E0,0E0,0E0,0E0,0E0,0E0,0E0,0E0,0E0,0E0,0E0,0E0,0E0,0E0,0E0,0E0,0E0,0E0,0E0,0E0,0E0,0E0,0E0,0E0,0E0,0E0,0E0,0E0],"parents":[2147483647,0,0,1,1,2,2,3,3,4,4,5,5,6,6,7,7,8,8,9,9,10,10,11,11,12,12,14,14,15,15,16,16,17,17,18,18,19,19,20,20,21,21,22,22,23,23,24,24,25,25,26,26,27,27,28,28],"right_children":[2,4,6,8,10,12,14,16,18,20,22,24,26,-1,28,30,32,34,36,38,40,42,44,46,48,50,52,54,56,-1,-1,-1,-1,-1,-1,-1,-1,-1,-1,-1,-1,-1,-1,-1,-1,-1,-1,-1,-1,-1,-1,-1,-1,-1,-1,-1,-1],"split_conditions":[2.1441666E2,1.9736843E-4,2.883038E-2,1.5058334E2,8.135705E-1,1.4679036E0,6.0060837E1,1.2375E2,4.8010245E-1,1.763345E2,5.2612614E-2,2.4896693E-1,6.936416E-4,3.4107146E-1,1.4717501E-1,1.12775E2,3.6975E1,6.4849997E0,1.3475E2,1.45E1,1.58775E2,6.730824E1,6.807692E1,7.4205175E-3,9.791667E1,1.715E0,9.816667E1,7.15E0,2.3107753E0,4.314286E-2,5.9678663E-2,9.7500004E-2,6.7109376E-2,7.0061885E-2,8.4955454E-2,8.5792884E-2,1.1592392E-1,3.1E-1,9.2499994E-2,7.425197E-2,1.0619618E-1,1.5510638E-1,1.0336734E-1,2.6916668E-1,1.4944445E-1,8.942396E-2,1.2209678E-1,1.3367984E-1,1.07586205E-1,1.55E-1,3.3333335E-2,2.5545454E-1,3.0000001E-2,1.476E-1,2.0776787E-1,3.375E-1,1.3125001E-1],"split_indices":[10,8,8,10,31,31,17,24,31,7,8,31,8,0,8,10,21,35,24,4,10,17,17,8,20,6,20,35,3,0,0,0,0,0,0,0,0,0,0,0,0,0,0,0,0,0,0,0,0,0,0,0,0,0,0,0,0],"split_type":[0,0,0,0,0,0,0,0,0,0,0,0,0,0,0,0,0,0,0,0,0,0,0,0,0,0,0,0,0,0,0,0,0,0,0,0,0,0,0,0,0,0,0,0,0,0,0,0,0,0,0,0,0,0,0,0,0],"sum_hessian":[4.019E3,2.803E3,1.216E3,1.797E3,1.006E3,1.062E3,1.54E2,5.47E2,1.25E3,8.87E2,1.19E2,1.017E3,4.5E1,1.3E1,1.41E2,4.57E2,9E1,8.51E2,3.99E2,8E0,8.79E2,9.4E1,2.5E1,2.77E2,7.4E2,2.3E1,2.2E1,1.29E2,1.2E1,6.9E1,3.88E2,2.7E1,6.3E1,4.03E2,4.48E2,3.08E2,9.1E1,5E0,3E0,2.53E2,6.26E2,4.6E1,4.8E1,1.7E1,8E0,2.16E2,6.1E1,4.8E2,2.6E2,2.1E1,2E0,2.1E1,1E0,7.4E1,5.5E1,9E0,3E0],"tree_param":{"num_deleted":"0","num_feature":"36","num_nodes":"57","size_leaf_vector":"0"}},{"base_weights":[1.9140835E0,1.5411153E0,2.785241E0,1.2869748E0,2.7298374E0,2.469598E0,3.8227174E0,1.0609084E0,1.6250429E0,2.3980794E0,3.8030217E0,2.1368024E0,3.1629176E0,3.4907758E0,5.8725357E0,8.155335E-1,1.2770114E0,1.2668598E0,1.7856944E0,2.0988312E0,3.0700393E0,3.3223033E0,5.302287E0,2.0319703E0,2.541435E0,4.543413E0,2.9285522E0,2.9614403E0,3.978482E0,9.5528805E-1,5.98259E0,7.099142E-1,9.998161E-1,1.1467749E0,1.3721011E0,1.1938522E0,1.9566332E0,1.6060389E0,1.9974242E0,5.16E0,2.0557687E0,4.5819364E0,2.8968108E0,2.8104692E0,4.454422E0,7.0856533E0,4.1160326E0,1.9210033E0,2.200854E0,1.9733145E0,2.8083587E0,3.6218917E0,6.061926E0,2.5574038E0,3.3512435E0,2.9804776E0,3.5752225E-1,5.227324E0,3.6027257E0,2.1347933E0,6.146143E0],"categories":[],"categories_nodes":[],"categories_segments":[],"categories_sizes":[],"default_left":[1,1,1,1,1,1,1,1,1,1,1,1,1,1,1,1,1,1,1,1,1,1,1,1,1,1,1,1,1,0,1,0,0,0,0,0,0,0,0,0,0,0,0,0,0,0,0,0,0,0,0,0,0,0,0,0,0,0,0,0,0],"id":1,"left_children":[1,3,5,7,9,11,13,15,17,19,21,23,25,27,29,31,33,35,37,39,41,43,45,47,49,51,53,55,57,-1,59,-1,-1,-1,-1,-1,-1,-1,-1,-1,-1,-1,-1,-1,-1,-1,-1,-1,-1,-1,-1,-1,-1,-1,-1,-1,-1,-1,-1,-1,-1],"loss_changes":[1.2878906E3,8.384463E2,3.805791E2,1.7390234E2,1.6533838E2,2.0459326E2,1.6729614E2,7.2134766E1,5.061963E1,6.936499E1,6.454675E1,2.1220215E1,8.2138916E1,5.0176514E1,1.4308105E1,1.1922241E1,7.491577E0,1.2167389E1,2.0832275E1,2.4192993E1,1.6583984E1,3.9052673E1,2.5838928E1,5.123535E0,1.3262268E1,3.541742E1,3.1434326E1,4.833374E0,3.8417114E1,0E0,9.534668E0,0E0,0E0,0E0,0E0,0E0,0E0,0E0,0E0,0E0,0E0,0E0,0E0,0E0,0E0,0E0,0E0,0E0,0E0,0E0,0E0,0E0,0E0,0E0,0E0,0E0,0E0,0E0,0E0,0E0,0E0],"parents":[2147483647,0,0,1,1,2,2,3,3,4,4,5,5,6,6,7,7,8,8,9,9,10,10,11,11,12,12,13,13,14,14,15,15,16,16,17,17,18,18,19,19,20,20,21,21,22,22,23,23,24,24,25,25,26,26,27,27,28,28,30,30],"right_children":[2,4,6,8,10,12,14,16,18,20,22,24,26,28,30,32,34,36,38,40,42,44,46,48,50,52,54,56,58,-1,60,-1,-1,-1,-1,-1,-1,-1,-1,-1,-1,-1,-1,-1,-1,-1,-1,-1,-1,-1,-1,-1,-1,-1,-1,-1,-1,-1,-1,-1,-1],"split_conditions":[1.8499999E0,2.275E0,2.75E0,1.525E0,2.5943067E-2,1.9583334E0,4.05E0,1.25E0,1.1500001E0,2.1726666E2,7.965E0,2.34975E2,6.414952E1,1.6583333E0,1.4292097E0,1.1916666E0,1.45E0,3.5844825E-2,1.98075E2,5.3372993E1,7.163743E1,3.6333332E0,3.4534058E1,2.25E0,1.1916666E0,2.368125E2,2.1137857E2,9.5642944E1,6.402553E1,4.7764402E-2,5.0600004E0,3.549571E-2,4.9990807E-2,5.7338744E-2,6.860506E-2,5.969261E-2,9.783166E-2,8.030195E-2,9.987121E-2,2.58E-1,1.0278844E-1,2.2909681E-1,1.4484054E-1,1.4052346E-1,2.227211E-1,3.5428268E-1,2.0580164E-1,9.6050166E-2,1.10042706E-1,9.866573E-2,1.4041793E-1,1.8109459E-1,3.030963E-1,1.2787019E-1,1.6756217E-1,1.4902388E-1,1.7876113E-2,2.6136622E-1,1.801363E-1,1.0673966E-1,3.0730715E-1],"split_indices":[15,5,15,5,8,5,15,15,15,10,35,10,17,5,3,5,15,8,10,17,1,5,34,15,5,10,10,25,17,0,35,0,0,0,0,0,0,0,0,0,0,0,0,0,0,0,0,0,0,0,0,0,0,0,0,0,0,0,0,0,0],"split_type":[0,0,0,0,0,0,0,0,0,0,0,0,0,0,0,0,0,0,0,0,0,0,0,0,0,0,0,0,0,0,0,0,0,0,0,0,0,0,0,0,0,0,0,0,0,0,0,0,0,0,0,0,0,0,0,0,0,0,0,0,0],"sum_hessian":[3.976E3,2.786E3,1.19E3,2.297E3,4.89E2,9.15E2,2.75E2,1.379E3,9.18E2,3.76E2,1.13E2,6.21E2,2.94E2,2.39E2,3.6E1,6.48E2,7.31E2,2.87E2,6.31E2,2.63E2,1.13E2,8.8E1,2.5E1,4.98E2,1.23E2,4E1,2.54E2,1.18E2,1.21E2,1E0,3.5E1,4.15E2,2.33E2,3.14E2,4.17E2,2.62E2,2.5E1,3.46E2,2.85E2,2E0,2.61E2,9E0,1.04E2,6.3E1,2.5E1,8E0,1.7E1,3.08E2,1.9E2,4.2E1,8.1E1,2.7E1,1.3E1,1.39E2,1.15E2,1.17E2,1E0,2.5E1,9.6E1,2E0,3.3E1],"tree_param":{"num_deleted":"0","num_feature":"36","num_nodes":"61","size_leaf_vector":"0"}},{"base_weights":[1.8195473E0,1.5630683E0,2.3560755E0,1.3754219E0,1.9021802E0,2.104695E0,3.2409241E0,1.0989293E0,1.5023767E0,2.7177508E0,1.7972764E0,1.993198E0,2.7659216E0,6.279937E0,3.0345175E0,8.4393936E-1,1.1443715E0,1.9354126E0,1.4594449E0,4.0311737E0,2.3694792E0,1.6706445E0,2.3167813E0,1.6741859E0,2.1284208E0,2.5920863E0,4.801338E0,2.932278E0,6.787844E0,2.872074E0,5.1130714E0,1.5594391E0,7.086669E-1,1.2394179E0,1.024532E0,1.8592775E0,4.888668E0,1.5871881E0,1.3414674E0,5.812639E0,3.111176E0,2.14217E0,3.905543E0,1.2554792E0,1.864842E0,2.0718727E0,3.2262108E0,1.7847726E0,1.3469454E0,2.0188465E0,2.4847982E0,2.3948789E0,3.3482277E0,5.3942986E0,1.6196638E0,2.613534E0,3.5637321E0,5.706564E0,2.4286773E0],"categories":[],"categories_nodes":[],"categories_segments":[],"categories_sizes":[],"default_left":[1,1,1,1,1,1,1,1,1,1,1,1,1,1,1,1,1,1,1,1,1,1,1,1,1,1,1,0,0,1,1,0,0,0,0,0,0,0,0,0,0,0,0,0,0,0,0,0,0,0,0,0,0,0,0,0,0,0,0],"id":2,"left_children":[1,3,5,7,9,11,13,15,17,19,21,23,25,27,29,31,33,35,37,39,41,43,45,47,49,51,53,-1,-1,55,57,-1,-1,-1,-1,-1,-1,-1,-1,-1,-1,-1,-1,-1,-1,-1,-1,-1,-1,-1,-1,-1,-1,-1,-1,-1,-1,-1,-1],"loss_changes":[5.430342E2,1.686206E2,2.7856104E2,5.9286133E1,7.690723E1,6.8359375E1,1.5783398E2,5.4072266E0,1.924292E1,3.9392944E1,5.2047607E1,3.3578125E1,3.7797974E1,9.001221E0,7.5129395E1,7.31538E0,4.01532E0,1.4294708E1,1.4207764E1,1.633368E1,2.2010712E1,5.3047363E1,2.9842896E1,7.0411987E0,1.8452637E1,1.1813965E1,1.012912E1,0E0,0E0,3.5212402E1,1.4817657E1,0E0,0E0,0E0,0E0,0E0,0E0,0E0,0E0,0E0,0E0,0E0,0E0,0E0,0E0,0E0,0E0,0E0,0E0,0E0,0E0,0E0,0E0,0E0,0E0,0E0,0E0,0E0,0E0],"parents":[2147483647,0,0,1,1,2,2,3,3,4,4,5,5,6,6,7,7,8,8,9,9,10,10,11,11,12,12,13,13,14,14,15,15,16,16,17,17,18,18,19,19,20,20,21,21,22,22,23,23,24,24,25,25,26,26,29,29,30,30],"right_children":[2,4,6,8,10,12,14,16,18,20,22,24,26,28,30,32,34,36,38,40,42,44,46,48,50,52,54,-1,-1,56,58,-1,-1,-1,-1,-1,-1,-1,-1,-1,-1,-1,-1,-1,-1,-1,-1,-1,-1,-1,-1,-1,-1,-1,-1,-1,-1,-1,-1],"split_conditions":[2.11875E2,1.9736843E-4,1.5776092E-2,1.5058334E2,2.1675575E2,8.7273884E-1,6.0049107E1,1.1483333E2,6.6539444E1,1.35E1,6.164755E-1,2.528218E-1,3.0275E2,2.4963333E2,1.1634004E-1,3.4222694E1,6.3728893E1,1.2381916E1,6.3660446E1,1.794827E2,2.097671E0,1.5929999E2,4.0716343E-2,2.1524851E0,5E-1,5E-1,7.031795E1,1.466139E-1,3.3939222E-1,2.67E2,2.324606E0,7.797196E-2,3.543335E-2,6.1970897E-2,5.1226597E-2,9.2963874E-2,2.444334E-1,7.9359405E-2,6.707337E-2,2.9063198E-1,1.5555881E-1,1.07108496E-1,1.9527715E-1,6.2773965E-2,9.32421E-2,1.0359364E-1,1.6131054E-1,8.9238636E-2,6.734727E-2,1.0094233E-1,1.24239914E-1,1.1974394E-1,1.6741139E-1,2.6971492E-1,8.098319E-2,1.306767E-1,1.7818661E-1,2.853282E-1,1.2143387E-1],"split_indices":[10,8,8,10,7,31,17,10,1,4,31,31,10,10,8,34,0,28,0,7,26,10,8,3,13,13,17,0,0,10,3,0,0,0,0,0,0,0,0,0,0,0,0,0,0,0,0,0,0,0,0,0,0,0,0,0,0,0,0],"split_type":[0,0,0,0,0,0,0,0,0,0,0,0,0,0,0,0,0,0,0,0,0,0,0,0,0,0,0,0,0,0,0,0,0,0,0,0,0,0,0,0,0,0,0,0,0,0,0,0,0,0,0,0,0,0,0,0,0,0,0],"sum_hessian":[3.972E3,2.69E3,1.282E3,1.735E3,9.55E2,1.001E3,2.81E2,5.49E2,1.186E3,1.06E2,8.49E2,8.6E2,1.41E2,1.6E1,2.65E2,8.6E1,4.63E2,1.03E2,1.083E3,2E1,8.6E1,6.86E2,1.63E2,2.6E2,6E2,1.32E2,9E0,3E0,1.3E1,2.48E2,1.7E1,1.2E1,7.4E1,2.53E2,2.1E2,1.02E2,1E0,5.14E2,5.69E2,5E0,1.5E1,7.7E1,9E0,2.21E2,4.65E2,1.31E2,3.2E1,1.91E2,6.9E1,4.64E2,1.36E2,1.08E2,2.4E1,7E0,2E0,1.84E2,6.4E1,1.3E1,4E0],"tree_param":{"num_deleted":"0","num_feature":"36","num_nodes":"59","size_leaf_vector":"0"}},{"base_weights":[1.7259163E0,1.4730108E0,2.7444398E0,1.2442575E0,1.7889726E0,2.442969E0,3.95603E0,1.1213521E0,1.6083685E0,1.6664554E0,2.5269892E0,1.9875333E0,2.8805852E0,3.3537195E0,5.243077E0,9.875294E-1,1.260122E0,1.4463626E0,1.957562E0,1.3867463E0,1.8270892E0,5.042166E0,2.3697236E0,1.8759049E0,2.634446E0,4.498023E0,2.750198E0,4.7173176E0,3.0437362E0,4.3445344E0,6.449365E0,1.8303967E0,9.651044E-1,1.2836893E0,8.3685786E-1,1.7748985E0,1.3274738E0,1.870875E0,3.3621147E0,1.5843742E0,1.2102778E0,1.805928E0,3.706382E0,5.96605E0,8.977542E-1,2.7618463E0,2.0782707E0,1.2203026E0,1.9415703E0,2.812368E0,1.3176522E0,2.864947E0,5.620174E0,3.4857867E0,2.600307E0,6.389337E0,3.3488634E0,1.9701906E0,3.266751E0,6.311036E0,3.6987927E0,1.2536364E0,6.6812525E0],"categories":[],"categories_nodes":[],"categories_segments":[],"categories_sizes":[],"default_left":[1,1,1,1,1,1,1,1,1,1,1,1,1,1,1,1,1,1,1,1,1,1,1,1,1,1,1,1,1,1,1,0,0,0,0,0,0,0,0,0,0,0,0,0,0,0,0,0,0,0,0,0,0,0,0,0,0,0,0,0,0,0,0],"id":3,"left_children":[1,3,5,7,9,11,13,15,17,19,21,23,25,27,29,31,33,35,37,39,41,43,45,47,49,51,53,55,57,59,61,-1,-1,-1,-1,-1,-1,-1,-1,-1,-1,-1,-1,-1,-1,-1,-1,-1,-1,-1,-1,-1,-1,-1,-1,-1,-1,-1,-1,-1,-1,-1,-1],"loss_changes":[1.0023633E3,2.2414648E2,2.7377637E2,7.9643555E1,1.14510254E2,1.18641846E2,1.0102222E2,2.4085815E1,2.302185E1,4.8193115E1,6.1228394E1,1.737207E1,5.4271973E1,3.0869873E1,2.2923706E1,1.1445496E1,5.569336E0,9.986572E0,1.0999329E1,1.2590515E1,2.1700928E1,3.293347E1,1.4374329E1,9.125122E0,6.3685913E0,2.4214783E1,2.3461914E1,1.9788513E1,1.5111328E1,1.475238E1,1.3311035E1,0E0,0E0,0E0,0E0,0E0,0E0,0E0,0E0,0E0,0E0,0E0,0E0,0E0,0E0,0E0,0E0,0E0,0E0,0E0,0E0,0E0,0E0,0E0,0E0,0E0,0E0,0E0,0E0,0E0,0E0,0E0,0E0],"parents":[2147483647,0,0,1,1,2,2,3,3,4,4,5,5,6,6,7,7,8,8,9,9,10,10,11,11,12,12,13,13,14,14,15,15,16,16,17,17,18,18,19,19,20,20,21,21,22,22,23,23,24,24,25,25,26,26,27,27,28,28,29,29,30,30],"right_children":[2,4,6,8,10,12,14,16,18,20,22,24,26,28,30,32,34,36,38,40,42,44,46,48,50,52,54,56,58,60,62,-1,-1,-1,-1,-1,-1,-1,-1,-1,-1,-1,-1,-1,-1,-1,-1,-1,-1,-1,-1,-1,-1,-1,-1,-1,-1,-1,-1,-1,-1,-1,-1],"split_conditions":[2.225E0,1.4583334E0,2.9023983E-2,2.11875E2,2.4745E2,2.0007143E2,2.3007779E2,1.1225E2,7.725E0,1.7629166E2,5.9268425E1,3.2916665E0,6.109691E1,9.05E0,5.931198E-1,5.8269306E1,1.495E0,6.679138E1,3.221667E2,7.872575E1,1.0575422E-1,3.535533E1,6.902066E1,1.3905952E2,7.542122E1,2.58175E2,3.3599625E1,3.509114E1,5.035E0,4E0,2.9463775E-2,9.151983E-2,4.825522E-2,6.4184465E-2,4.1842893E-2,8.874493E-2,6.637369E-2,9.354375E-2,1.6810574E-1,7.921871E-2,6.051389E-2,9.02964E-2,1.8531911E-1,2.983025E-1,4.488771E-2,1.3809232E-1,1.0391354E-1,6.101513E-2,9.707852E-2,1.406184E-1,6.5882616E-2,1.4324735E-1,2.810087E-1,1.7428933E-1,1.3001536E-1,3.1946686E-1,1.6744317E-1,9.8509535E-2,1.6333756E-1,3.1555182E-1,1.8493964E-1,6.268182E-2,3.3406264E-1],"split_indices":[5,5,8,10,10,10,10,24,35,10,17,5,17,11,28,17,6,17,10,32,8,34,17,10,17,10,34,34,35,22,8,0,0,0,0,0,0,0,0,0,0,0,0,0,0,0,0,0,0,0,0,0,0,0,0,0,0,0,0,0,0,0,0],"split_type":[0,0,0,0,0,0,0,0,0,0,0,0,0,0,0,0,0,0,0,0,0,0,0,0,0,0,0,0,0,0,0,0,0,0,0,0,0,0,0,0,0,0,0,0,0,0,0,0,0,0,0,0,0,0,0,0,0,0,0,0,0,0,0],"sum_hessian":[3.906E3,3.131E3,7.75E2,1.819E3,1.312E3,6.23E2,1.52E2,1.363E3,4.56E2,1.128E3,1.84E2,3.08E2,3.15E2,1.06E2,4.6E1,6.98E2,6.65E2,3.15E2,1.41E2,4.15E2,7.13E2,9E0,1.75E2,2.66E2,4.2E1,2.1E1,2.94E2,1.7E1,8.9E1,2.9E1,1.7E1,1.6E1,6.82E2,6.28E2,3.7E1,8E1,2.35E2,1.35E2,6E0,1.92E2,2.23E2,7.07E2,6E0,7E0,2E0,7.1E1,1.04E2,2.6E1,2.4E2,3.6E1,6E0,1E1,1.1E1,4.6E1,2.48E2,6E0,1.1E1,1.7E1,7.2E1,5E0,2.4E1,1E0,1.6E1],"tree_param":{"num_deleted":"0","num_feature":"36","num_nodes":"63","size_leaf_vector":"0"}},{"base_weights":[1.6405611E0,1.2849165E0,2.458332E0,1.0813273E0,2.4151702E0,2.346889E0,4.9678984E0,8.6208445E-1,1.3727908E0,2.1478186E0,3.5598686E0,1.9723896E0,2.7768123E0,8.217788E-1,5.035742E0,6.47535E-1,1.0587492E0,1.1695993E0,1.6144966E0,1.8635027E0,2.8105996E0,4.4292693E0,2.9844184E0,1.7820344E0,2.446788E0,4.0108347E0,2.5903816E0,3.5564647E0,5.419387E0,5.729627E-1,8.118641E-1,9.95035E-1,1.2593644E0,1.0243216E0,1.4095563E0,2.5875206E0,1.5638115E0,4.6970816E0,1.8085119E0,3.4532468E0,2.2325213E0,1.4602677E0,4.845899E0,3.1916258E0,1.8364265E0,1.6893193E0,2.756244E0,2.2626827E0,2.758877E0,2.9652836E0,4.806694E0,2.3687384E0,3.125846E0,2.3919308E0,5.6161647E0],"categories":[],"categories_nodes":[],"categories_segments":[],"categories_sizes":[],"default_left":[1,1,1,1,1,1,1,1,1,1,1,1,1,0,1,1,1,1,1,1,1,1,1,1,1,1,1,0,1,0,0,0,0,0,0,0,0,0,0,0,0,0,0,0,0,0,0,0,0,0,0,0,0,0,0],"id":4,"left_children":[1,3,5,7,9,11,13,15,17,19,21,23,25,-1,27,29,31,33,35,37,39,41,43,45,47,49,51,-1,53,-1,-1,-1,-1,-1,-1,-1,-1,-1,-1,-1,-1,-1,-1,-1,-1,-1,-1,-1,-1,-1,-1,-1,-1,-1,-1],"loss_changes":[1.1465156E3,6.3179443E2,3.2310986E2,1.4821777E2,1.20889404E2,1.7935791E2,9.926147E0,5.572821E1,4.7322388E1,5.9397095E1,2.5804321E1,5.135742E1,1.1200244E2,0E0,8.534424E0,7.4021606E0,7.6431885E0,1.7659668E1,1.8393188E1,2.9369751E1,2.9812134E1,2.879596E1,6.032379E0,3.5447754E1,3.755127E0,4.2330444E1,4.7782715E1,0E0,8.608765E0,0E0,0E0,0E0,0E0,0E0,0E0,0E0,0E0,0E0,0E0,0E0,0E0,0E0,0E0,0E0,0E0,0E0,0E0,0E0,0E0,0E0,0E0,0E0,0E0,0E0,0E0],"parents":[2147483647,0,0,1,1,2,2,3,3,4,4,5,5,6,6,7,7,8,8,9,9,10,10,11,11,12,12,14,14,15,15,16,16,17,17,18,18,19,19,20,20,21,21,22,22,23,23,24,24,25,25,26,26,28,28],"right_children":[2,4,6,8,10,12,14,16,18,20,22,24,26,-1,28,30,32,34,36,38,40,42,44,46,48,50,52,-1,54,-1,-1,-1,-1,-1,-1,-1,-1,-1,-1,-1,-1,-1,-1,-1,-1,-1,-1,-1,-1,-1,-1,-1,-1,-1,-1],"split_conditions":[1.8499999E0,2.358333E0,3.85E0,1.475E0,3.3803828E-2,1.675E0,1.6774624E1,1.25E0,1.3499999E0,2.2108334E2,6.910149E1,2.55E0,6.412619E1,4.108894E-2,4.05E0,1.1916666E0,1.6500001E0,4.0509334E-1,2.0493054E2,1.8027762E2,8.54262E1,6.0324177E1,8.3739716E1,1.1260443E0,3.05E0,6.966871E-1,2.3329166E2,1.7782323E-1,1.8219744E-1,2.8648136E-2,4.0593203E-2,4.975175E-2,6.296822E-2,5.1216077E-2,7.047781E-2,1.2937604E-1,7.819058E-2,2.3485409E-1,9.0425596E-2,1.7266235E-1,1.11626066E-1,7.301339E-2,2.4229495E-1,1.5958129E-1,9.182133E-2,8.4465966E-2,1.378122E-1,1.1313414E-1,1.3794385E-1,1.4826418E-1,2.403347E-1,1.18436925E-1,1.562923E-1,1.1959654E-1,2.8080824E-1],"split_indices":[15,5,15,5,8,5,2,15,15,10,1,15,17,0,15,5,15,31,7,7,1,17,1,31,15,31,10,0,31,0,0,0,0,0,0,0,0,0,0,0,0,0,0,0,0,0,0,0,0,0,0,0,0,0,0],"split_type":[0,0,0,0,0,0,0,0,0,0,0,0,0,0,0,0,0,0,0,0,0,0,0,0,0,0,0,0,0,0,0,0,0,0,0,0,0,0,0,0,0,0,0,0,0,0,0,0,0,0,0,0,0,0,0],"sum_hessian":[3.952E3,2.756E3,1.196E3,2.337E3,4.19E2,1.147E3,4.9E1,1.336E3,1.001E3,3.42E2,7.7E1,6.16E2,5.31E2,1E0,4.8E1,6.41E2,6.95E2,5.47E2,4.54E2,2.42E2,1E2,2.8E1,4.9E1,4.43E2,1.73E2,6.7E1,4.64E2,1.2E1,3.6E1,4.44E2,1.97E2,5.32E2,1.63E2,3.44E2,2.03E2,2E1,4.34E2,3E0,2.39E2,4.5E1,5.5E1,4E0,2.4E1,4E1,9E0,4.07E2,3.6E1,1.14E2,5.9E1,3.1E1,3.6E1,3.32E2,1.32E2,3E0,3.3E1],"tree_param":{"num_deleted":"0","num_feature":"36","num_nodes":"55","size_leaf_vector":"0"}},{"base_weights":[1.5616136E0,1.3104165E0,2.5017347E0,1.0652239E0,1.5262531E0,2.186625E0,3.4548056E0,1.0135154E0,1.7640136E0,1.4378482E0,2.3488245E0,2.0698693E0,3.2632515E0,3.0241406E0,4.266066E0,9.102206E-1,1.2295178E0,1.4776499E0,2.3263602E0,1.3147428E0,1.6653755E0,2.1344235E0,3.9216316E0,2.6028237E0,1.8844762E0,4.4161906E0,2.8830128E0,2.2116241E0,3.3332124E0,4.663483E0,2.9747858E0,1.0321798E0,8.280906E-1,1.1805269E0,1.581007E0,1.8955381E0,1.1808909E0,3.1378214E0,1.4257872E0,1.7708493E0,1.265605E0,1.5826927E0,2.2362196E0,1.9697571E0,2.9079103E0,2.3747783E0,4.9216366E0,3.8789728E0,2.3796031E0,1.545278E0,2.0422728E0,3.6457086E-1,4.723445E0,4.4857683E0,2.5472436E0,1.5359454E0,2.7253492E0,4.7324862E0,3.0635295E0,4.868931E0,2.3111353E0,3.2461932E0,1.14546E0],"categories":[],"categories_nodes":[],"categories_segments":[],"categories_sizes":[],"default_left":[1,1,1,1,1,1,1,1,1,1,1,1,1,1,1,1,1,1,1,1,1,1,1,1,1,1,1,1,1,1,1,0,0,0,0,0,0,0,0,0,0,0,0,0,0,0,0,0,0,0,0,0,0,0,0,0,0,0,0,0,0,0,0],"id":5,"left_children":[1,3,5,7,9,11,13,15,17,19,21,23,25,27,29,31,33,35,37,39,41,43,45,47,49,51,53,55,57,59,61,-1,-1,-1,-1,-1,-1,-1,-1,-1,-1,-1,-1,-1,-1,-1,-1,-1,-1,-1,-1,-1,-1,-1,-1,-1,-1,-1,-1,-1,-1,-1,-1],"loss_changes":[9.3425977E2,1.6428369E2,2.4351416E2,5.136438E1,1.17700195E2,7.256348E1,5.9071777E1,2.9492676E1,1.2666016E1,3.9993164E1,4.5583496E1,5.1612305E1,1.3571594E1,2.728357E1,2.1536377E1,8.480652E0,5.727539E0,6.318405E0,1.8911102E1,1.9767456E1,2.1240234E1,1.2485657E1,1.61557E1,3.2074646E1,1.9752563E1,1.446138E1,1.4405151E1,1.0045639E1,2.2483276E1,1.3394653E1,5.714981E0,0E0,0E0,0E0,0E0,0E0,0E0,0E0,0E0,0E0,0E0,0E0,0E0,0E0,0E0,0E0,0E0,0E0,0E0,0E0,0E0,0E0,0E0,0E0,0E0,0E0,0E0,0E0,0E0,0E0,0E0,0E0,0E0],"parents":[2147483647,0,0,1,1,2,2,3,3,4,4,5,5,6,6,7,7,8,8,9,9,10,10,11,11,12,12,13,13,14,14,15,15,16,16,17,17,18,18,19,19,20,20,21,21,22,22,23,23,24,24,25,25,26,26,27,27,28,28,29,29,30,30],"right_children":[2,4,6,8,10,12,14,16,18,20,22,24,26,28,30,32,34,36,38,40,42,44,46,48,50,52,54,56,58,60,62,-1,-1,-1,-1,-1,-1,-1,-1,-1,-1,-1,-1,-1,-1,-1,-1,-1,-1,-1,-1,-1,-1,-1,-1,-1,-1,-1,-1,-1,-1,-1,-1],"split_conditions":[2.1916666E0,1.2583333E0,5.646856E-1,1.0751705E0,8.466064E-1,3.641667E0,3.0546557E-2,1.2425E2,5E-1,4.2419827E-1,4.8176102E-2,7.624831E1,6.6223465E1,2.4583335E0,2.2578545E0,5.9539894E1,1.9566666E2,7.4061584E1,3.5373444E1,2.1179248E2,1.7241666E2,8.643148E0,1.3688461E2,1.7513072E0,1.8494436E-1,3.5050686E1,8.555E1,7.3566124E1,6.0369804E1,9.822025E0,8.226979E1,5.160899E-2,4.140453E-2,5.9026342E-2,7.9050355E-2,9.4776906E-2,5.9044547E-2,1.5689108E-1,7.128936E-2,8.854247E-2,6.328025E-2,7.9134636E-2,1.1181098E-1,9.8487854E-2,1.4539552E-1,1.1873891E-1,2.4608183E-1,1.9394864E-1,1.1898016E-1,7.72639E-2,1.0211364E-1,1.8228544E-2,2.3617224E-1,2.2428842E-1,1.2736218E-1,7.679727E-2,1.3626747E-1,2.3662432E-1,1.5317647E-1,2.4344654E-1,1.1555677E-1,1.6230966E-1,5.7273E-2],"split_indices":[5,5,31,31,31,5,8,24,14,31,8,1,17,5,3,0,24,32,34,7,24,28,24,3,31,0,18,25,17,28,1,0,0,0,0,0,0,0,0,0,0,0,0,0,0,0,0,0,0,0,0,0,0,0,0,0,0,0,0,0,0,0,0],"split_type":[0,0,0,0,0,0,0,0,0,0,0,0,0,0,0,0,0,0,0,0,0,0,0,0,0,0,0,0,0,0,0,0,0,0,0,0,0,0,0,0,0,0,0,0,0,0,0,0,0,0,0,0,0,0,0,0,0,0,0,0,0,0,0],"sum_hessian":[3.969E3,3.134E3,8.35E2,1.47E3,1.664E3,6.3E2,2.05E2,1.371E3,9.9E1,1.505E3,1.59E2,5.71E2,5.9E1,1.37E2,6.8E1,9.31E2,4.4E2,6.8E1,3.1E1,9.81E2,5.24E2,1.42E2,1.7E1,1.44E2,4.27E2,1.2E1,4.7E1,4E1,9.7E1,5E1,1.8E1,3.7E2,5.61E2,3.9E2,5E1,2.6E1,4.2E1,1.5E1,1.6E1,9.2E1,8.89E2,4.61E2,6.3E1,1.2E2,2.2E1,8E0,9E0,1.9E1,1.25E2,1.39E2,2.88E2,1E0,1.1E1,6E0,4.1E1,1.9E1,2.1E1,1.3E1,8.4E1,4.5E1,5E0,1.5E1,3E0],"tree_param":{"num_deleted":"0","num_feature":"36","num_nodes":"63","size_leaf_vector":"0"}},{"base_weights":[1.4758983E0,1.1134858E0,2.1697986E0,9.164598E-1,2.058753E0,2.0776513E0,4.723363E0,7.519604E-1,1.1752648E0,1.9244745E0,3.765215E0,1.8781176E0,2.6990664E0,4.7934284E0,7.501775E-1,5.212123E-1,9.013452E-1,8.9081186E-1,1.3326421E0,1.7300963E0,2.7214231E0,3.0407407E0,5.918232E0,1.7026358E0,2.494525E0,2.4800472E0,3.732012E0,3.9981067E0,5.7131953E0,3.7827322E0,5.078201E-1,8.0711746E-1,1.0232296E0,8.3822614E-1,1.4441398E0,1.184358E0,1.5426639E0,1.1509765E0,1.8829765E0,2.4865742E0,4.323928E0,3.4016886E0,1.270633E0,1.5413566E0,1.9259742E0,2.4508686E0,4.84993E0,2.9962249E0,2.1727414E0,4.159974E0,2.0622869E0,2.187286E0,5.9993443E0],"categories":[],"categories_nodes":[],"categories_segments":[],"categories_sizes":[],"default_left":[1,1,1,1,1,1,1,1,1,1,1,1,1,1,0,1,1,1,1,1,1,1,0,1,1,1,1,0,1,0,0,0,0,0,0,0,0,0,0,0,0,0,0,0,0,0,0,0,0,0,0,0,0],"id":6,"left_children":[1,3,5,7,9,11,13,15,17,19,21,23,25,27,-1,29,31,33,35,37,39,41,-1,43,45,47,49,-1,51,-1,-1,-1,-1,-1,-1,-1,-1,-1,-1,-1,-1,-1,-1,-1,-1,-1,-1,-1,-1,-1,-1,-1,-1],"loss_changes":[1.003999E3,4.8811646E2,3.1302393E2,9.188342E1,9.655493E1,1.5934619E2,9.487915E0,4.5548035E1,3.6640503E1,6.0663452E1,3.1917969E1,1.0467822E2,6.313965E1,1.0807617E1,0E0,2.1097717E1,8.465393E0,7.6350403E0,1.5052368E1,2.811206E1,1.9732239E1,1.22895355E1,0E0,2.5378906E1,1.0838379E1,3.584265E1,3.0008179E1,0E0,6.0475464E0,0E0,0E0,0E0,0E0,0E0,0E0,0E0,0E0,0E0,0E0,0E0,0E0,0E0,0E0,0E0,0E0,0E0,0E0,0E0,0E0,0E0,0E0,0E0,0E0],"parents":[2147483647,0,0,1,1,2,2,3,3,4,4,5,5,6,6,7,7,8,8,9,9,10,10,11,11,12,12,13,13,15,15,16,16,17,17,18,18,19,19,20,20,21,21,23,23,24,24,25,25,26,26,28,28],"right_children":[2,4,6,8,10,12,14,16,18,20,22,24,26,28,-1,30,32,34,36,38,40,42,-1,44,46,48,50,-1,52,-1,-1,-1,-1,-1,-1,-1,-1,-1,-1,-1,-1,-1,-1,-1,-1,-1,-1,-1,-1,-1,-1,-1,-1],"split_conditions":[1.75E0,2.275E0,3.85E0,1.4916667E0,5.9950512E-2,2.141667E0,1.607463E2,1.1500001E0,1.1500001E0,6.019993E-1,4.8500004E0,2.65E0,7.3916227E-1,4.75E0,3.7508875E-2,1.640686E2,1.45E0,3.5844825E-2,4.0325963E-1,1.2880185E-1,1.6500001E0,3.5504146E0,2.959116E-1,1.475E0,3.6678777E0,7.871022E1,3.2831004E0,1.9990534E-1,1.3291666E2,1.8913661E-1,2.5391007E-2,4.0355872E-2,5.116148E-2,4.1911308E-2,7.2207E-2,5.92179E-2,7.71332E-2,5.754883E-2,9.414883E-2,1.2432871E-1,2.161964E-1,1.7008443E-1,6.353165E-2,7.706783E-2,9.629872E-2,1.2254343E-1,2.4249649E-1,1.4981125E-1,1.0863707E-1,2.0799871E-1,1.03114344E-1,1.0936429E-1,2.9996723E-1],"split_indices":[15,5,15,5,8,5,9,15,15,31,5,15,31,15,0,7,15,8,31,31,15,28,0,5,31,1,26,0,24,0,0,0,0,0,0,0,0,0,0,0,0,0,0,0,0,0,0,0,0,0,0,0,0],"split_type":[0,0,0,0,0,0,0,0,0,0,0,0,0,0,0,0,0,0,0,0,0,0,0,0,0,0,0,0,0,0,0,0,0,0,0,0,0,0,0,0,0,0,0,0,0,0,0,0,0,0,0,0,0],"sum_hessian":[4.001E3,2.63E3,1.371E3,2.178E3,4.52E2,1.325E3,4.6E1,1.334E3,8.44E2,4.21E2,3.1E1,1.006E3,3.19E2,4.5E1,1E0,5.26E2,8.08E2,3.03E2,5.41E2,3.41E2,8E1,2.5E1,6E0,7.86E2,2.2E2,2.66E2,5.3E1,2.7E1,1.8E1,1E0,5.25E2,4.6E2,3.48E2,2.79E2,2.4E1,3.21E2,2.2E2,7.3E1,2.68E2,7.2E1,8E0,2E1,5E0,4.61E2,3.25E2,2.18E2,2E0,9.6E1,1.7E2,4.1E1,1.2E1,2E0,1.6E1],"tree_param":{"num_deleted":"0","num_feature":"36","num_nodes":"53","size_leaf_vector":"0"}},{"base_weights":[1.41088E0,1.0621738E0,2.0892835E0,8.78636E-1,1.3637666E0,1.8486937E0,2.9975886E0,7.0370984E-1,1.141559E0,2.0892391E0,1.2382246E0,1.7373884E0,2.633303E0,2.713434E0,4.7827787E0,5.5948365E-1,8.075224E-1,1.3505207E0,1.0538661E0,3.2042618E0,1.8164014E0,1.2174835E0,3.9286892E0,1.6889607E0,2.3904786E0,5.5640335E0,2.4715614E0,3.3165166E0,2.4502413E0,3.0867233E0,5.3816204E0,2.8621864E-1,5.9046793E-1,1.4299175E0,7.797745E-1,1.1413212E0,1.6947732E0,9.6257555E-1,1.1702645E0,4.9191633E-1,3.5228086E0,1.6770598E0,3.1535847E0,9.486301E-1,1.34431E0,5.3512073E0,7.2243553E-1,1.5612295E0,1.8442717E0,3.253372E0,2.0710227E0,6.2288966E0,1.1198602E0,2.1454294E0,3.043594E0,2.5121784E0,3.9120717E0,2.1080377E0,2.6733167E0,7.314231E-1,3.2343485E0,5.472483E0,1.5550224E0],"categories":[],"categories_nodes":[],"categories_segments":[],"categories_sizes":[],"default_left":[1,1,1,1,1,1,1,1,1,1,1,1,1,1,1,1,1,1,1,1,1,1,1,1,1,1,1,1,1,1,1,0,0,0,0,0,0,0,0,0,0,0,0,0,0,0,0,0,0,0,0,0,0,0,0,0,0,0,0,0,0,0,0],"id":7,"left_children":[1,3,5,7,9,11,13,15,17,19,21,23,25,27,29,31,33,35,37,39,41,43,45,47,49,51,53,55,57,59,61,-1,-1,-1,-1,-1,-1,-1,-1,-1,-1,-1,-1,-1,-1,-1,-1,-1,-1,-1,-1,-1,-1,-1,-1,-1,-1,-1,-1,-1,-1,-1,-1],"loss_changes":[9.3220703E2,1.4333032E2,2.872876E2,7.397986E1,8.721509E1,8.817041E1,1.2855078E2,1.4206238E1,1.0450928E1,3.7987488E1,4.225891E1,2.5471191E1,4.787091E1,3.0444336E1,2.096814E1,3.3278198E0,8.677185E0,1.160498E1,3.7721558E0,2.1595306E1,1.6697662E1,2.7298706E1,2.3499825E1,1.4419434E1,1.0352905E1,1.0753098E1,1.6789978E1,2.4183105E1,7.570923E0,1.8067398E0,5.302124E-1,0E0,0E0,0E0,0E0,0E0,0E0,0E0,0E0,0E0,0E0,0E0,0E0,0E0,0E0,0E0,0E0,0E0,0E0,0E0,0E0,0E0,0E0,0E0,0E0,0E0,0E0,0E0,0E0,0E0,0E0,0E0,0E0],"parents":[2147483647,0,0,1,1,2,2,3,3,4,4,5,5,6,6,7,7,8,8,9,9,10,10,11,11,12,12,13,13,14,14,15,15,16,16,17,17,18,18,19,19,20,20,21,21,22,22,23,23,24,24,25,25,26,26,27,27,28,28,29,29,30,30],"right_children":[2,4,6,8,10,12,14,16,18,20,22,24,26,28,30,32,34,36,38,40,42,44,46,48,50,52,54,56,58,60,62,-1,-1,-1,-1,-1,-1,-1,-1,-1,-1,-1,-1,-1,-1,-1,-1,-1,-1,-1,-1,-1,-1,-1,-1,-1,-1,-1,-1,-1,-1,-1,-1],"split_conditions":[1.75E0,1.6042781E-4,2.75E0,1.3499999E0,2.1706413E2,2.5534235E-2,4.05E0,1.05E0,2.4610155E2,1.35E1,1.5821901E-1,1.044403E0,6.602888E1,1.255E1,4.170575E-1,7.5E-1,1.015E1,5E-1,1.55E0,6.2975794E-2,3.2423763E0,2.1352583E-1,7.337395E1,2.15E0,6.1723907E1,6.827245E1,4.998405E-1,4.5641027E-3,5E-1,1.6774624E1,2.49875E2,1.4310933E-2,2.9523397E-2,7.1495876E-2,3.8988724E-2,5.706606E-2,8.4738664E-2,4.812878E-2,5.8513224E-2,2.4595818E-2,1.7614043E-1,8.385299E-2,1.5767924E-1,4.7431506E-2,6.72155E-2,2.6756036E-1,3.612178E-2,7.806148E-2,9.2213586E-2,1.626686E-1,1.0355114E-1,3.1144485E-1,5.599301E-2,1.0727147E-1,1.521797E-1,1.2560892E-1,1.956036E-1,1.0540189E-1,1.3366584E-1,3.6571156E-2,1.6171743E-1,2.7362415E-1,7.775112E-2],"split_indices":[15,8,15,15,7,8,15,15,7,4,8,31,25,11,31,15,11,30,15,31,26,31,25,15,17,0,31,8,30,2,24,0,0,0,0,0,0,0,0,0,0,0,0,0,0,0,0,0,0,0,0,0,0,0,0,0,0,0,0,0,0,0,0],"split_type":[0,0,0,0,0,0,0,0,0,0,0,0,0,0,0,0,0,0,0,0,0,0,0,0,0,0,0,0,0,0,0,0,0,0,0,0,0,0,0,0,0,0,0,0,0,0,0,0,0,0,0,0,0,0,0,0,0,0,0,0,0,0,0],"sum_hessian":[3.949E3,2.61E3,1.339E3,1.625E3,9.85E2,1.061E3,2.78E2,9.78E2,6.47E2,1.43E2,8.42E2,9.32E2,1.29E2,2.42E2,3.6E1,4.12E2,5.66E2,1.87E2,4.6E2,2.6E1,1.17E2,8.37E2,5E0,8.71E2,6.1E1,5E0,1.24E2,7E1,1.72E2,1.1E1,2.5E1,4.3E1,3.69E2,2.2E1,5.44E2,1.19E2,6.8E1,2.63E2,1.97E2,3E0,2.3E1,1.08E2,9E0,2.71E2,5.66E2,3E0,2E0,4.84E2,3.87E2,1.4E1,4.7E1,4E0,1E0,8.2E1,4.2E1,3.2E1,3.8E1,7.2E1,1E2,1E0,1E1,2.4E1,1E0],"tree_param":{"num_deleted":"0","num_feature":"36","num_nodes":"63","size_leaf_vector":"0"}},{"base_weights":[1.340333E0,1.1224401E0,2.2715771E0,8.40136E-1,1.394017E0,2.1607242E0,4.607915E0,6.729733E-1,1.1243916E0,1.1905574E0,1.7104505E0,1.9243621E0,2.6044877E0,5.209227E0,3.2821093E0,5.0085294E-1,7.853516E-1,1.8137182E0,1.0058618E0,1.0095894E0,1.2972852E0,1.6523008E0,4.0076914E0,1.8143007E0,2.8352115E0,2.3473094E0,3.0812678E0,5.341343E0,1.2834588E0,1.0295229E0,4.772751E-1,1.4148303E0,7.577598E-1,3.1865435E0,1.5174749E0,1.3019193E0,9.319228E-1,1.17268E0,9.047121E-1,1.198643E0,1.4445837E0,2.3691251E0,1.5234009E0,4.911195E0,2.2735167E0,1.793509E0,4.1273007E0,4.6663733E0,2.5210712E0,2.065074E0,2.5915208E0,3.6407256E0,2.2873278E0],"categories":[],"categories_nodes":[],"categories_segments":[],"categories_sizes":[],"default_left":[1,1,1,1,1,1,1,1,1,1,1,1,1,1,0,1,1,1,1,1,1,1,1,1,1,1,1,0,0,0,0,0,0,0,0,0,0,0,0,0,0,0,0,0,0,0,0,0,0,0,0,0,0],"id":8,"left_children":[1,3,5,7,9,11,13,15,17,19,21,23,25,27,-1,29,31,33,35,37,39,41,43,45,47,49,51,-1,-1,-1,-1,-1,-1,-1,-1,-1,-1,-1,-1,-1,-1,-1,-1,-1,-1,-1,-1,-1,-1,-1,-1,-1,-1],"loss_changes":[7.989512E2,2.4439429E2,1.8376807E2,7.398743E1,1.0296973E2,7.008838E1,9.211121E0,1.8813812E1,4.5646667E1,1.7927246E1,7.833728E1,4.207361E1,2.2931152E1,4.036377E0,0E0,4.4322586E0,9.3315735E0,2.9326477E1,9.68808E0,5.3361206E0,7.3205566E0,5.3862915E1,1.2336807E1,1.2940308E1,1.6422607E1,5.9520264E0,2.8539062E1,0E0,0E0,0E0,0E0,0E0,0E0,0E0,0E0,0E0,0E0,0E0,0E0,0E0,0E0,0E0,0E0,0E0,0E0,0E0,0E0,0E0,0E0,0E0,0E0,0E0,0E0],"parents":[2147483647,0,0,1,1,2,2,3,3,4,4,5,5,6,6,7,7,8,8,9,9,10,10,11,11,12,12,13,13,15,15,16,16,17,17,18,18,19,19,20,20,21,21,22,22,23,23,24,24,25,25,26,26],"right_children":[2,4,6,8,10,12,14,16,18,20,22,24,26,28,-1,30,32,34,36,38,40,42,44,46,48,50,52,-1,-1,-1,-1,-1,-1,-1,-1,-1,-1,-1,-1,-1,-1,-1,-1,-1,-1,-1,-1,-1,-1,-1,-1,-1,-1],"split_conditions":[2.15E0,1.3499999E0,4.05E0,8.3920185E-4,1.9736843E-4,2.75E0,8.636487E1,1.05E0,2.195513E2,1.55E0,9.957678E-2,3.1192917E-2,4.688645E-3,2.9730615E2,1.6410546E-1,2.0404877E1,1.015E1,3.95E0,7.32159E1,2.5914536E2,5E-1,2.1626712E2,1.6500001E0,3.6435333E1,6.760141E1,3.05E0,7.533739E1,2.6706716E-1,6.4172946E-2,5.1476147E-2,2.3863755E-2,7.074152E-2,3.788799E-2,1.5932718E-1,7.587375E-2,6.509597E-2,4.659614E-2,5.8634E-2,4.5235604E-2,5.993215E-2,7.2229184E-2,1.1845626E-1,7.617005E-2,2.4555974E-1,1.1367583E-1,8.967545E-2,2.0636503E-1,2.3331867E-1,1.2605356E-1,1.032537E-1,1.2957604E-1,1.8203628E-1,1.1436639E-1],"split_indices":[15,15,15,8,8,15,9,15,7,15,8,8,8,7,0,2,11,22,25,7,30,7,15,34,25,15,9,0,0,0,0,0,0,0,0,0,0,0,0,0,0,0,0,0,0,0,0,0,0,0,0,0,0],"split_type":[0,0,0,0,0,0,0,0,0,0,0,0,0,0,0,0,0,0,0,0,0,0,0,0,0,0,0,0,0,0,0,0,0,0,0,0,0,0,0,0,0,0,0,0,0,0,0,0,0,0,0,0,0],"sum_hessian":[3.949E3,3.202E3,7.47E2,1.572E3,1.63E3,7.15E2,3.2E1,9.92E2,5.8E2,9.95E2,6.35E2,4.7E2,2.45E2,2E1,1.2E1,3.94E2,5.98E2,8.3E1,4.97E2,3.73E2,6.22E2,6.21E2,1.4E1,4.22E2,4.8E1,1.63E2,8.2E1,1.9E1,1E0,1.5E1,3.79E2,2.3E1,5.75E2,1.3E1,7E1,9.6E1,4.01E2,1.42E2,2.31E2,3.78E2,2.44E2,9.2E1,5.29E2,8E0,6E0,4.2E2,2E0,5E0,4.3E1,8E1,8.3E1,4.6E1,3.6E1],"tree_param":{"num_deleted":"0","num_feature":"36","num_nodes":"53","size_leaf_vector":"0"}},{"base_weights":[1.2679325E0,9.818977E-1,1.9300977E0,8.115E-1,1.91476E0,1.8576679E0,4.404457E0,6.4192206E-1,1.0619284E0,1.6445731E0,2.8853936E0,1.5153719E0,2.2387068E0,4.6613703E0,2.0334709E0,4.622594E-1,8.0607843E-1,8.407058E-1,1.2373778E0,1.4172266E0,2.177599E0,2.6480298E0,5.0170393E0,1.4046834E0,2.0603867E0,3.0218863E0,2.0377774E0,4.8589025E0,1.329788E0,3.562157E0,4.5224127E-1,6.975372E-1,8.8235915E-1,7.4839145E-1,1.0718017E0,1.6683502E0,1.1656724E0,3.4204004E0,1.3503891E0,3.7120857E0,2.0187695E0,3.3697877E0,2.2663834E0,1.3378463E0,5.3515177E0,1.2045393E0,1.4949677E0,2.0755353E0,2.7277213E-1,2.5091345E0,3.9138925E0,1.8750211E0,2.6099863E0,5.012611E0,1.9583681E0],"categories":[],"categories_nodes":[],"categories_segments":[],"categories_sizes":[],"default_left":[1,1,1,1,1,1,1,1,1,1,1,1,1,1,0,1,1,1,1,1,1,1,1,1,1,1,1,1,0,0,0,0,0,0,0,0,0,0,0,0,0,0,0,0,0,0,0,0,0,0,0,0,0,0,0],"id":9,"left_children":[1,3,5,7,9,11,13,15,17,19,21,23,25,27,-1,29,31,33,35,37,39,41,43,45,47,49,51,53,-1,-1,-1,-1,-1,-1,-1,-1,-1,-1,-1,-1,-1,-1,-1,-1,-1,-1,-1,-1,-1,-1,-1,-1,-1,-1,-1],"loss_changes":[7.434033E2,4.3557935E2,2.0437012E2,9.8139404E1,1.0644983E2,1.4712158E2,1.0622803E1,4.0622253E1,3.53667E1,3.738849E1,3.2758484E1,3.39657E1,7.9448E1,1.2623474E1,0E0,1.9071793E1,5.387268E0,8.115234E0,1.4155701E1,2.7112366E1,1.63909E1,1.5501099E1,2.6853638E0,7.4329224E0,2.1688843E0,4.003357E1,3.571118E1,2.2209473E0,0E0,0E0,0E0,0E0,0E0,0E0,0E0,0E0,0E0,0E0,0E0,0E0,0E0,0E0,0E0,0E0,0E0,0E0,0E0,0E0,0E0,0E0,0E0,0E0,0E0,0E0,0E0],"parents":[2147483647,0,0,1,1,2,2,3,3,4,4,5,5,6,6,7,7,8,8,9,9,10,10,11,11,12,12,13,13,15,15,16,16,17,17,18,18,19,19,20,20,21,21,22,22,23,23,24,24,25,25,26,26,27,27],"right_children":[2,4,6,8,10,12,14,16,18,20,22,24,26,28,-1,30,32,34,36,38,40,42,44,46,48,50,52,54,-1,-1,-1,-1,-1,-1,-1,-1,-1,-1,-1,-1,-1,-1,-1,-1,-1,-1,-1,-1,-1,-1,-1,-1,-1,-1,-1],"split_conditions":[1.8499999E0,2.358333E0,4.05E0,1.525E0,2.6043722E-2,1.675E0,1.495E1,1.25E0,1.25E0,2.2091667E2,4.8500004E0,2.85E0,6.564319E1,7.4089935E1,1.0167354E-1,1.591439E2,1.45E0,2.11125E2,1.7995853E0,1.9017316E2,7.153264E1,2.1552475E2,5.6335175E1,2.05E0,1.4812238E2,2.405893E2,2.75E0,6.9E0,6.64894E-2,1.7810784E-1,2.2612063E-2,3.487686E-2,4.4117957E-2,3.7419572E-2,5.3590085E-2,8.341751E-2,5.8283623E-2,1.7102002E-1,6.7519456E-2,1.8560429E-1,1.0093848E-1,1.6848938E-1,1.1331917E-1,6.689232E-2,2.675759E-1,6.0226966E-2,7.474839E-2,1.0377677E-1,1.3638607E-2,1.2545674E-1,1.9569463E-1,9.375106E-2,1.3049932E-1,2.5063056E-1,9.7918406E-2],"split_indices":[15,5,15,5,8,5,11,15,15,10,5,15,17,17,0,7,15,10,3,7,1,7,0,15,9,10,15,15,0,0,0,0,0,0,0,0,0,0,0,0,0,0,0,0,0,0,0,0,0,0,0,0,0,0,0],"split_type":[0,0,0,0,0,0,0,0,0,0,0,0,0,0,0,0,0,0,0,0,0,0,0,0,0,0,0,0,0,0,0,0,0,0,0,0,0,0,0,0,0,0,0,0,0,0,0,0,0,0,0,0,0,0,0],"sum_hessian":[3.934E3,2.749E3,1.185E3,2.326E3,4.23E2,1.153E3,3.2E1,1.389E3,9.37E2,3.33E2,9E1,6.1E2,5.43E2,2.8E1,4E0,6.65E2,7.24E2,4.17E2,5.2E2,2.36E2,9.7E1,8.3E1,7E0,5.1E2,1E2,1.08E2,4.35E2,2.6E1,2E0,1E0,6.64E2,3.03E2,4.21E2,3.01E2,1.16E2,7.1E1,4.49E2,6E0,2.3E2,7E0,9E1,2.6E1,5.7E1,1E0,6E0,1.63E2,3.47E2,9.9E1,1E0,7.1E1,3.7E1,3.42E2,9.3E1,2.4E1,2E0],"tree_param":{"num_deleted":"0","num_feature":"36","num_nodes":"55","size_leaf_vector":"0"}},{"base_weights":[1.208372E0,1.0382028E0,2.0599654E0,8.399375E-1,1.2944578E0,1.8033867E0,3.1122816E0,8.0475515E-1,1.3202403E0,1.2042364E0,2.1661391E0,1.2414937E0,2.0368202E0,2.7131891E0,3.7003453E0,7.240385E-1,9.9597204E-1,1.6398631E0,1.1025255E0,1.0291321E0,1.427356E0,3.2167544E0,1.8956608E0,1.0085248E0,1.775196E0,1.7347395E0,2.4685917E0,2.5390956E0,5.386193E0,2.900689E0,4.549892E0,2.6703565E0,7.171034E-1,9.8603433E-1,3.0519726E0,1.3234696E0,2.3363132E0,6.6842186E-1,1.26113E0,2.029805E0,1.013973E0,1.5752805E0,1.2340314E0,3.5529797E0,1.0940114E0,1.7106043E0,2.682212E0,9.288798E-1,1.7359802E0,4.3071333E-1,1.9614443E0,2.273125E0,1.5628853E0,2.9558806E0,1.9555714E0,1.3689348E0,2.6933146E0,3.5749502E0,1.8476988E0,4.7383943E0,2.956736E-1],"categories":[],"categories_nodes":[],"categories_segments":[],"categories_sizes":[],"default_left":[1,1,1,1,1,1,1,1,1,1,1,1,1,1,1,1,1,1,1,1,1,1,1,1,1,1,1,1,0,1,1,0,0,0,0,0,0,0,0,0,0,0,0,0,0,0,0,0,0,0,0,0,0,0,0,0,0,0,0,0,0],"id":10,"left_children":[1,3,5,7,9,11,13,15,17,19,21,23,25,27,29,31,33,35,37,39,41,43,45,47,49,51,53,55,-1,57,59,-1,-1,-1,-1,-1,-1,-1,-1,-1,-1,-1,-1,-1,-1,-1,-1,-1,-1,-1,-1,-1,-1,-1,-1,-1,-1,-1,-1,-1,-1],"loss_changes":[5.730288E2,1.6708228E2,1.7258862E2,3.0520264E1,1.1079663E2,6.738196E1,2.0000854E1,2.6196411E1,6.9599304E0,4.967273E1,3.1980713E1,1.7979095E1,4.4628906E1,2.3552185E1,2.0090088E1,1.4687378E1,7.513092E0,7.7052307E0,4.527397E0,9.121643E0,1.4442261E1,1.4669739E1,1.1277435E1,4.9344864E0,1.0924347E1,1.717273E1,3.2217834E1,1.0208496E1,0E0,1.3274292E1,1.6241394E1,0E0,0E0,0E0,0E0,0E0,0E0,0E0,0E0,0E0,0E0,0E0,0E0,0E0,0E0,0E0,0E0,0E0,0E0,0E0,0E0,0E0,0E0,0E0,0E0,0E0,0E0,0E0,0E0,0E0,0E0],"parents":[2147483647,0,0,1,1,2,2,3,3,4,4,5,5,6,6,7,7,8,8,9,9,10,10,11,11,12,12,13,13,14,14,15,15,16,16,17,17,18,18,19,19,20,20,21,21,22,22,23,23,24,24,25,25,26,26,27,27,29,29,30,30],"right_children":[2,4,6,8,10,12,14,16,18,20,22,24,26,28,30,32,34,36,38,40,42,44,46,48,50,52,54,56,-1,58,60,-1,-1,-1,-1,-1,-1,-1,-1,-1,-1,-1,-1,-1,-1,-1,-1,-1,-1,-1,-1,-1,-1,-1,-1,-1,-1,-1,-1,-1,-1],"split_conditions":[2.358333E0,1.475E0,3.1216439E-2,1.0751705E0,8.424065E-1,2.1671776E-1,1.9160416E2,5E-1,6.423895E1,3.4746677E-1,6.0023483E1,3.0916667E0,2.875E0,5.65E0,7.075E0,1.5874174E2,6.5239006E1,1.861805E-1,8.9166665E-1,6.700841E1,8.513132E1,9.829167E1,3.5499997E-2,2.3093555E-2,6.0408346E-2,2.3237161E2,6.86895E1,5.165E0,2.6930964E-1,6.34E0,2.30349E0,1.3351783E-1,3.585517E-2,4.9301717E-2,1.5259863E-1,6.617349E-2,1.16815664E-1,3.3421095E-2,6.30565E-2,1.0149025E-1,5.069865E-2,7.876403E-2,6.1701573E-2,1.7764899E-1,5.4700572E-2,8.5530214E-2,1.3411061E-1,4.644399E-2,8.679901E-2,2.1535667E-2,9.8072216E-2,1.13656245E-1,7.814427E-2,1.4779404E-1,9.777857E-2,6.844674E-2,1.3466573E-1,1.7874752E-1,9.238494E-2,2.3691972E-1,1.478368E-2],"split_indices":[5,5,8,31,31,31,27,30,17,31,17,5,5,5,35,7,28,26,5,25,1,20,8,8,31,7,17,35,0,35,3,0,0,0,0,0,0,0,0,0,0,0,0,0,0,0,0,0,0,0,0,0,0,0,0,0,0,0,0,0,0],"split_type":[0,0,0,0,0,0,0,0,0,0,0,0,0,0,0,0,0,0,0,0,0,0,0,0,0,0,0,0,0,0,0,0,0,0,0,0,0,0,0,0,0,0,0,0,0,0,0,0,0,0,0,0,0,0,0,0,0,0,0,0,0],"sum_hessian":[3.968E3,3.309E3,6.59E2,1.868E3,1.441E3,5.32E2,1.27E2,1.743E3,1.25E2,1.308E3,1.33E2,1.58E2,3.74E2,7.9E1,4.8E1,1.229E3,5.14E2,4.8E1,7.7E1,7.36E2,5.72E2,2.5E1,1.08E2,1.12E2,4.6E1,2.23E2,1.51E2,7.6E1,3E0,2.7E1,2.1E1,3E0,1.226E3,5.13E2,1E0,3.5E1,1.3E1,2.2E1,5.5E1,9E0,7.27E2,3.2E2,2.52E2,2.1E1,4E0,9E1,1.8E1,1.03E2,9E0,6E0,4E1,5.1E1,1.72E2,7.5E1,7.6E1,1E1,6.6E1,1.5E1,1.2E1,2E1,1E0],"tree_param":{"num_deleted":"0","num_feature":"36","num_nodes":"61","size_leaf_vector":"0"}},{"base_weights":[1.147148E0,9.670958E-1,1.9371371E0,8.0036056E-1,1.2140275E0,1.6520085E0,2.7211769E0,6.6086084E-1,9.416422E-1,1.1200982E0,1.8980706E0,1.4734504E0,2.3915617E0,4.4672217E0,2.3892338E0,6.4006835E-1,1.1450683E0,7.989557E-1,1.1163919E0,8.922786E-1,1.3277918E0,2.8740034E0,1.570478E0,1.334635E0,2.2004921E0,2.912816E0,1.9446251E0,3.2750273E0,5.7743206E0,2.1595204E0,3.2175477E0,5.4526234E-1,7.50291E-1,1.7811977E0,9.502526E-1,7.107967E-1,9.56487E-1,1.3556256E0,9.0933E-1,5.9344864E-1,9.410373E-1,1.150984E0,1.5172669E0,3.254375E0,1.7786674E0,2.0394146E0,1.2577541E0,1.0505773E0,1.5684927E0,2.5216763E0,1.2875074E0,3.1516037E0,1.1321996E0,2.1255908E0,9.617209E-1,8.298144E-1,3.5288155E0,1.7868892E0,6.3368635E0,1.9887826E0,3.207567E0,3.2975776E0,2.882818E-1],"categories":[],"categories_nodes":[],"categories_segments":[],"categories_sizes":[],"default_left":[1,1,1,1,1,1,1,1,1,1,1,1,1,1,1,1,1,1,1,1,1,1,1,1,1,1,1,1,1,1,1,0,0,0,0,0,0,0,0,0,0,0,0,0,0,0,0,0,0,0,0,0,0,0,0,0,0,0,0,0,0,0,0],"id":11,"left_children":[1,3,5,7,9,11,13,15,17,19,21,23,25,27,29,31,33,35,37,39,41,43,45,47,49,51,53,55,57,59,61,-1,-1,-1,-1,-1,-1,-1,-1,-1,-1,-1,-1,-1,-1,-1,-1,-1,-1,-1,-1,-1,-1,-1,-1,-1,-1,-1,-1,-1,-1,-1,-1],"loss_changes":[5.636699E2,1.3242627E2,1.602627E2,3.755359E1,8.16582E1,6.818103E1,1.0234631E2,9.113464E0,2.3045105E1,5.318213E1,4.5361023E1,4.146991E1,1.8564331E1,2.7838379E1,2.4637207E1,9.413666E0,3.140606E0,6.708435E0,2.001825E1,7.4699097E0,1.8320557E1,1.004364E1,1.4885986E1,2.3063843E1,1.6986603E1,1.59904785E1,8.450226E0,8.241928E0,1.7837067E1,1.7420044E1,7.0198975E0,0E0,0E0,0E0,0E0,0E0,0E0,0E0,0E0,0E0,0E0,0E0,0E0,0E0,0E0,0E0,0E0,0E0,0E0,0E0,0E0,0E0,0E0,0E0,0E0,0E0,0E0,0E0,0E0,0E0,0E0,0E0,0E0],"parents":[2147483647,0,0,1,1,2,2,3,3,4,4,5,5,6,6,7,7,8,8,9,9,10,10,11,11,12,12,13,13,14,14,15,15,16,16,17,17,18,18,19,19,20,20,21,21,22,22,23,23,24,24,25,25,26,26,27,27,28,28,29,29,30,30],"right_children":[2,4,6,8,10,12,14,16,18,20,22,24,26,28,30,32,34,36,38,40,42,44,46,48,50,52,54,56,58,60,62,-1,-1,-1,-1,-1,-1,-1,-1,-1,-1,-1,-1,-1,-1,-1,-1,-1,-1,-1,-1,-1,-1,-1,-1,-1,-1,-1,-1,-1,-1,-1,-1],"split_conditions":[2.2916665E0,1.98225E2,2.29875E2,1.2583333E0,9.1955376E-1,5.9224856E-1,6.934184E1,1.2619858E0,3.4549072E-1,1.4416666E0,7.476415E1,3.375E0,3.5079025E1,7.965E0,7.2758865E-1,1.1275E2,6.7028984E1,1.7673334E2,7.903488E1,1.045E2,3.735465E-1,6.88573E1,9.741667E1,2.5621206E-1,4.9376944E-3,2.409985E0,8.866617E1,2.4416666E0,3.259178E1,3.5E0,2.581667E2,2.7263118E-2,3.751455E-2,8.905988E-2,4.7512632E-2,3.5539836E-2,4.782435E-2,6.7781284E-2,4.54665E-2,2.9672433E-2,4.7051866E-2,5.7549205E-2,7.586335E-2,1.6271876E-1,8.893337E-2,1.0197073E-1,6.2887706E-2,5.2528866E-2,7.842463E-2,1.2608382E-1,6.437537E-2,1.5758018E-1,5.6609984E-2,1.06279545E-1,4.8086043E-2,4.149072E-2,1.7644078E-1,8.9344464E-2,3.1684318E-1,9.943914E-2,1.6037835E-1,1.6487889E-1,1.441409E-2],"split_indices":[5,10,10,5,31,31,1,31,31,5,1,5,34,35,31,24,1,10,1,24,31,17,20,31,19,3,1,5,34,5,24,0,0,0,0,0,0,0,0,0,0,0,0,0,0,0,0,0,0,0,0,0,0,0,0,0,0,0,0,0,0,0,0],"split_type":[0,0,0,0,0,0,0,0,0,0,0,0,0,0,0,0,0,0,0,0,0,0,0,0,0,0,0,0,0,0,0,0,0,0,0,0,0,0,0,0,0,0,0,0,0,0,0,0,0,0,0,0,0,0,0,0,0,0,0,0,0,0,0],"sum_hessian":[3.975E3,3.239E3,7.36E2,1.936E3,1.303E3,5.42E2,1.94E2,9.77E2,9.59E2,1.148E3,1.55E2,4.39E2,1.03E2,2.9E1,1.65E2,9.39E2,3.8E1,5.31E2,4.28E2,5.5E2,5.98E2,3.7E1,1.18E2,3.71E2,6.8E1,4.5E1,5.8E1,1.7E1,1.2E1,1.32E2,3.3E1,5.08E2,4.31E2,7E0,3.1E1,3.44E2,1.87E2,1.96E2,2.32E2,7.9E1,4.71E2,3.13E2,2.85E2,2.6E1,1.1E1,4.5E1,7.3E1,1.7E2,2.01E2,4.9E1,1.9E1,3.9E1,6E0,4.8E1,1E1,2E0,1.5E1,2E0,1E1,1.16E2,1.6E1,3.2E1,1E0],"tree_param":{"num_deleted":"0","num_feature":"36","num_nodes":"63","size_leaf_vector":"0"}},{"base_weights":[1.1009827E0,9.210996E-1,1.7723905E0,7.557871E-1,1.1470135E0,1.556737E0,2.7614555E0,6.515709E-1,9.406981E-1,1.0746543E0,1.9384158E0,1.2861713E0,2.1029518E0,2.36284E0,3.744115E0,5.6759274E-1,7.537106E-1,1.0661606E0,6.663264E-1,8.31439E-1,1.2383455E0,1.690489E0,3.0979075E0,1.0342396E0,1.4848576E0,3.3295841E0,1.9197928E0,1.8730676E0,3.25205E0,4.517965E0,2.101578E0,4.9996963E-1,6.5142775E-1,5.231913E-1,8.317829E-1,9.01234E-1,1.2515311E0,8.750947E-1,4.8676404E-1,7.150645E-1,9.5520157E-1,2.026724E0,1.1815323E0,1.2779324E0,1.8695014E0,3.3059065E0,9.559437E-1,2.809093E-1,1.1088799E0,1.6817101E0,1.1217536E0,3.6553738E0,1.8300195E0,1.7964574E0,2.9936824E0,8.8956803E-1,2.1381824E0,4.543518E0,2.4504044E0,3.1212819E0,5.2831044E0,2.2115374E0,2.8107476E-1],"categories":[],"categories_nodes":[],"categories_segments":[],"categories_sizes":[],"default_left":[1,1,1,1,1,1,1,1,1,1,1,1,1,1,1,1,1,1,1,1,1,1,1,1,1,1,1,1,1,1,1,0,0,0,0,0,0,0,0,0,0,0,0,0,0,0,0,0,0,0,0,0,0,0,0,0,0,0,0,0,0,0,0],"id":12,"left_children":[1,3,5,7,9,11,13,15,17,19,21,23,25,27,29,31,33,35,37,39,41,43,45,47,49,51,53,55,57,59,61,-1,-1,-1,-1,-1,-1,-1,-1,-1,-1,-1,-1,-1,-1,-1,-1,-1,-1,-1,-1,-1,-1,-1,-1,-1,-1,-1,-1,-1,-1,-1,-1],"loss_changes":[4.7566943E2,1.15616455E2,1.7358936E2,3.415149E1,7.3277954E1,9.882495E1,4.912549E1,9.496429E0,2.1595886E1,4.7063477E1,2.6097137E1,2.1589844E1,4.4383057E1,4.0943848E1,4.2619324E1,3.2969208E0,8.905334E0,1.241571E1,7.296341E0,6.359955E0,2.9854492E1,4.4053955E0,4.859207E0,1.1327866E1,1.6411865E1,6.989807E0,2.0979248E1,1.6871246E1,2.7172638E1,1.2363647E1,2.3811035E0,0E0,0E0,0E0,0E0,0E0,0E0,0E0,0E0,0E0,0E0,0E0,0E0,0E0,0E0,0E0,0E0,0E0,0E0,0E0,0E0,0E0,0E0,0E0,0E0,0E0,0E0,0E0,0E0,0E0,0E0,0E0,0E0],"parents":[2147483647,0,0,1,1,2,2,3,3,4,4,5,5,6,6,7,7,8,8,9,9,10,10,11,11,12,12,13,13,14,14,15,15,16,16,17,17,18,18,19,19,20,20,21,21,22,22,23,23,24,24,25,25,26,26,27,27,28,28,29,29,30,30],"right_children":[2,4,6,8,10,12,14,16,18,20,22,24,26,28,30,32,34,36,38,40,42,44,46,48,50,52,54,56,58,60,62,-1,-1,-1,-1,-1,-1,-1,-1,-1,-1,-1,-1,-1,-1,-1,-1,-1,-1,-1,-1,-1,-1,-1,-1,-1,-1,-1,-1,-1,-1,-1,-1],"split_conditions":[2.1916666E0,1.9570834E2,3.1216439E-2,1.4583334E0,1.0750401E0,2.2045E2,7.2758865E-1,4.193023E-1,8.535534E1,1.2916666E0,2.9466275E-2,2.655081E-1,7.071614E1,2.3047858E2,2.2226424E0,1.1275E2,1.3445834E2,3.0892488E-1,7.89673E1,6.725E0,6.6933334E1,1.1916666E0,5.3403473E0,1.44475E2,8.6378136E1,2.678982E2,8.71443E1,1.7940024E-1,6.852137E1,1.848625E2,2.697917E2,2.4998482E-2,3.2571387E-2,2.6159564E-2,4.1589145E-2,4.50617E-2,6.2576555E-2,4.3754738E-2,2.4338203E-2,3.5753228E-2,4.776008E-2,1.013362E-1,5.9076615E-2,6.389662E-2,9.3475066E-2,1.6529533E-1,4.7797184E-2,1.4045465E-2,5.5444E-2,8.408551E-2,5.608768E-2,1.8276869E-1,9.1500975E-2,8.982287E-2,1.4968412E-1,4.44784E-2,1.0690912E-1,2.271759E-1,1.2252022E-1,1.560641E-1,2.6415524E-1,1.1057687E-1,1.4053739E-2],"split_indices":[5,10,8,5,31,10,31,31,1,5,8,31,1,10,3,24,10,31,32,35,1,5,28,10,1,7,32,31,1,27,24,0,0,0,0,0,0,0,0,0,0,0,0,0,0,0,0,0,0,0,0,0,0,0,0,0,0,0,0,0,0,0,0],"split_type":[0,0,0,0,0,0,0,0,0,0,0,0,0,0,0,0,0,0,0,0,0,0,0,0,0,0,0,0,0,0,0,0,0,0,0,0,0,0,0,0,0,0,0,0,0,0,0,0,0,0,0,0,0,0,0,0,0,0,0,0,0,0,0],"sum_hessian":[3.951E3,3.118E3,8.33E2,1.803E3,1.315E3,6.86E2,1.47E2,1.156E3,6.47E2,1.207E3,1.08E2,4.61E2,2.25E2,1.07E2,4E1,6.38E2,5.18E2,4.42E2,2.05E2,4.88E2,7.19E2,9.1E1,1.7E1,2.06E2,2.55E2,2.7E1,1.98E2,7.1E1,3.6E1,2.6E1,1.4E1,3.57E2,2.81E2,1.33E2,3.85E2,2.37E2,2.05E2,9.3E1,1.12E2,2.55E2,2.33E2,4.6E1,6.73E2,3E1,6.1E1,1.5E1,2E0,1.9E1,1.87E2,1.63E2,9.2E1,2.1E1,6E0,1.8E2,1.8E1,1.6E1,5.5E1,1.2E1,2.4E1,1.1E1,1.5E1,1.3E1,1E0],"tree_param":{"num_deleted":"0","num_feature":"36","num_nodes":"63","size_leaf_vector":"0"}},{"base_weights":[1.046719E0,7.543022E-1,1.5868317E0,5.8940786E-1,1.002436E0,1.3866918E0,2.3063188E0,5.526155E-1,1.4766344E0,9.300739E-1,1.9616385E0,1.3208121E0,2.018714E0,2.1136146E0,3.710481E0,3.8130638E-1,6.949382E-1,2.119523E0,1.0596325E0,2.8600397E0,9.148581E-1,1.6236713E0,3.657489E0,1.1400927E0,1.4621437E0,1.7049068E0,2.9044912E0,1.87972E0,2.59231E0,2.1320853E0,4.0991874E0,2.4526094E-1,4.895628E-1,5.924764E-1,9.3768144E-1,2.3438272E0,-1.5711479E-1,1.2827088E0,5.148102E-1,1.2207685E0,3.7843013E0,8.466141E-1,1.2511513E0,2.185123E0,9.7066724E-1,1.5512633E0,5.154133E0,1.0167655E0,1.2920189E0,2.9052854E0,1.4355804E0,2.2362716E0,1.2773526E0,3.4778402E0,1.6966839E0,2.6862721E0,1.8074107E0,1.9280714E0,3.0187154E0,2.5655982E0,9.487943E-1,3.2346914E0,5.0625734E0],"categories":[],"categories_nodes":[],"categories_segments":[],"categories_sizes":[],"default_left":[1,1,1,1,1,1,1,1,1,1,1,1,1,1,1,1,1,1,1,1,1,1,1,1,1,1,1,1,1,1,1,0,0,0,0,0,0,0,0,0,0,0,0,0,0,0,0,0,0,0,0,0,0,0,0,0,0,0,0,0,0,0,0],"id":13,"left_children":[1,3,5,7,9,11,13,15,17,19,21,23,25,27,29,31,33,35,37,39,41,43,45,47,49,51,53,55,57,59,61,-1,-1,-1,-1,-1,-1,-1,-1,-1,-1,-1,-1,-1,-1,-1,-1,-1,-1,-1,-1,-1,-1,-1,-1,-1,-1,-1,-1,-1,-1,-1,-1],"loss_changes":[6.242373E2,1.0460376E2,1.9695898E2,4.9682922E1,6.932068E1,4.2718506E1,7.360437E1,3.5989838E1,1.4107315E1,2.54281E1,3.4754517E1,2.3618896E1,2.3122406E1,2.5021606E1,1.2733826E1,9.850639E0,1.961557E1,1.2113426E1,4.079586E0,5.9860535E0,2.0720276E1,2.0243408E1,2.667955E1,6.911743E0,1.698999E1,1.4636917E1,1.1411591E1,5.817627E0,1.82547E1,2.1825218E0,6.1109314E0,0E0,0E0,0E0,0E0,0E0,0E0,0E0,0E0,0E0,0E0,0E0,0E0,0E0,0E0,0E0,0E0,0E0,0E0,0E0,0E0,0E0,0E0,0E0,0E0,0E0,0E0,0E0,0E0,0E0,0E0,0E0,0E0],"parents":[2147483647,0,0,1,1,2,2,3,3,4,4,5,5,6,6,7,7,8,8,9,9,10,10,11,11,12,12,13,13,14,14,15,15,16,16,17,17,18,18,19,19,20,20,21,21,22,22,23,23,24,24,25,25,26,26,27,27,28,28,29,29,30,30],"right_children":[2,4,6,8,10,12,14,16,18,20,22,24,26,28,30,32,34,36,38,40,42,44,46,48,50,52,54,56,58,60,62,-1,-1,-1,-1,-1,-1,-1,-1,-1,-1,-1,-1,-1,-1,-1,-1,-1,-1,-1,-1,-1,-1,-1,-1,-1,-1,-1,-1,-1,-1,-1,-1],"split_conditions":[1.75E0,1.3499999E0,2.75E0,5.3496353E-2,3.4823738E-2,3.113368E-2,4.05E0,1.7441666E2,2.3192252E2,5.40963E1,2.75E2,1.9170834E2,8.3283246E-1,4.688645E-3,3.3655772E-1,1.05E0,5E-1,9.0806725E1,7.165E0,4.2603046E-2,2.3579166E2,1.275E2,7.7749996E0,2.15E0,2.9922585E1,2.4641937E2,3.9308334E1,7.113445E1,1.025E0,2.389E2,1.0699999E0,1.22630475E-2,2.4478141E-2,2.9623821E-2,4.688407E-2,1.1719137E-1,-7.855739E-3,6.413544E-2,2.574051E-2,6.1038423E-2,1.8921506E-1,4.233071E-2,6.255757E-2,1.0925615E-1,4.853336E-2,7.756317E-2,2.5770664E-1,5.0838273E-2,6.4600945E-2,1.4526427E-1,7.177902E-2,1.1181358E-1,6.386763E-2,1.73892E-1,8.4834196E-2,1.3431361E-1,9.0370536E-2,9.640357E-2,1.5093577E-1,1.2827991E-1,4.7439717E-2,1.6173457E-1,2.5312868E-1],"split_indices":[15,15,15,8,8,8,15,10,7,17,10,10,31,8,31,15,13,25,35,26,10,24,35,15,34,7,21,25,6,10,6,0,0,0,0,0,0,0,0,0,0,0,0,0,0,0,0,0,0,0,0,0,0,0,0,0,0,0,0,0,0,0,0],"split_type":[0,0,0,0,0,0,0,0,0,0,0,0,0,0,0,0,0,0,0,0,0,0,0,0,0,0,0,0,0,0,0,0,0,0,0,0,0,0,0,0,0,0,0,0,0,0,0,0,0,0,0,0,0,0,0,0,0,0,0,0,0,0,0],"sum_hessian":[3.959E3,2.57E3,1.389E3,1.546E3,1.024E3,1.089E3,3E2,1.486E3,6E1,9.54E2,7E1,9.89E2,1E2,2.66E2,3.4E1,6.76E2,8.1E2,2.2E1,3.8E1,6E0,9.48E2,6E1,1E1,4.38E2,5.51E2,7.6E1,2.4E1,1.82E2,8.4E1,8E0,2.6E1,3.01E2,3.75E2,5.72E2,2.38E2,2E1,2E0,2.6E1,1.2E1,3E0,3E0,7.91E2,1.57E2,3.1E1,2.9E1,5E0,5E0,2.46E2,1.92E2,8E0,5.43E2,3.2E1,4.4E1,1.5E1,9E0,1.2E1,1.7E2,3.5E1,4.9E1,5E0,3E0,1.6E1,1E1],"tree_param":{"num_deleted":"0","num_feature":"36","num_nodes":"63","size_leaf_vector":"0"}},{"base_weights":[9.9245334E-1,7.1685344E-1,1.5172842E0,5.2586234E-1,8.748602E-1,1.3455224E0,2.1870725E0,3.2824174E-1,6.61187E-1,7.535199E-1,1.1638153E0,1.2302636E0,1.780204E0,2.008353E0,3.4053223E0,2.798763E-1,5.607575E-1,2.3463356E0,6.481311E-1,5.237996E-1,8.538069E-1,1.0672326E0,2.132121E0,1.1814371E0,1.6939952E0,3.2647634E0,1.6515483E0,3.2055664E0,1.9159347E0,3.473143E0,5.836179E-1,1.3944137E0,2.6797172E-1,6.6140556E-1,2.3690332E-1,2.7575612E0,3.5071695E-1,8.745192E-1,5.9897023E-1,3.3069735E0,5.03962E-1,1.4289274E0,8.148069E-1,1.6869061E0,9.3050784E-1,3.9582481E0,1.6509918E0,2.259231E0,1.1660255E0,2.1216474E0,1.2565565E0,4.0613914E0,1.1273803E0,1.3652282E0,2.090685E0,6.4705074E-1,3.5248508E0,1.5598034E0,2.0475733E0,4.4776306E0,2.9098923E0],"categories":[],"categories_nodes":[],"categories_segments":[],"categories_sizes":[],"default_left":[1,1,1,1,1,1,1,1,1,1,1,1,1,1,1,1,1,1,1,1,1,1,1,1,1,1,1,1,1,1,0,0,0,0,0,0,0,0,0,0,0,0,0,0,0,0,0,0,0,0,0,0,0,0,0,0,0,0,0,0,0],"id":14,"left_children":[1,3,5,7,9,11,13,15,17,19,21,23,25,27,29,31,33,35,37,39,41,43,45,47,49,51,53,55,57,59,-1,-1,-1,-1,-1,-1,-1,-1,-1,-1,-1,-1,-1,-1,-1,-1,-1,-1,-1,-1,-1,-1,-1,-1,-1,-1,-1,-1,-1,-1,-1],"loss_changes":[5.727124E2,7.8092896E1,1.5409229E2,3.1366394E1,4.9016113E1,5.236975E1,5.3470703E1,5.2634964E0,1.3880096E1,2.2705933E1,3.6910034E1,1.7561523E1,3.7773438E1,2.085559E1,4.4795837E0,4.946846E0,2.5161247E0,3.1361237E0,7.22229E0,1.5338554E1,1.4491608E1,3.0879883E1,2.5973297E1,1.0405029E1,1.2299728E1,2.4367142E1,2.3549805E1,1.0789551E1,7.54187E0,5.6412964E0,0E0,0E0,0E0,0E0,0E0,0E0,0E0,0E0,0E0,0E0,0E0,0E0,0E0,0E0,0E0,0E0,0E0,0E0,0E0,0E0,0E0,0E0,0E0,0E0,0E0,0E0,0E0,0E0,0E0,0E0,0E0],"parents":[2147483647,0,0,1,1,2,2,3,3,4,4,5,5,6,6,7,7,8,8,9,9,10,10,11,11,12,12,13,13,14,14,15,15,16,16,17,17,18,18,19,19,20,20,21,21,22,22,23,23,24,24,25,25,26,26,27,27,28,28,29,29],"right_children":[2,4,6,8,10,12,14,16,18,20,22,24,26,28,30,32,34,36,38,40,42,44,46,48,50,52,54,56,58,60,-1,-1,-1,-1,-1,-1,-1,-1,-1,-1,-1,-1,-1,-1,-1,-1,-1,-1,-1,-1,-1,-1,-1,-1,-1,-1,-1,-1,-1,-1,-1],"split_conditions":[1.75E0,1.7841666E2,2.75E0,1.1500001E0,5E-1,2.3770834E2,4.05E0,1.68875E2,5.382338E1,1.1500001E0,2.692E2,9.342867E-1,6.098707E1,6.889916E1,3.2075E2,7.95E0,2.996543E2,1.7E1,3.438718E1,1.6189264E2,2.5E-1,2.1706413E2,9.6875E1,2.9465569E1,3.9308334E1,4.5E0,7.931361E1,1.10825E2,1.856E2,1.0799999E1,2.9180897E-2,6.9720685E-2,1.3398587E-2,3.3070277E-2,1.1845167E-2,1.3787806E-1,1.7535849E-2,4.3725964E-2,2.9948512E-2,1.6534868E-1,2.51981E-2,7.1446374E-2,4.0740345E-2,8.43453E-2,4.6525393E-2,1.9791241E-1,8.2549594E-2,1.1296155E-1,5.8301277E-2,1.0608237E-1,6.2827826E-2,2.0306957E-1,5.6369014E-2,6.826141E-2,1.04534246E-1,3.2352537E-2,1.7624255E-1,7.799017E-2,1.0237867E-1,2.2388153E-1,1.4549462E-1],"split_indices":[15,10,15,15,13,10,15,10,17,15,10,31,17,25,24,11,7,4,34,7,33,7,20,34,21,22,32,27,10,11,0,0,0,0,0,0,0,0,0,0,0,0,0,0,0,0,0,0,0,0,0,0,0,0,0,0,0,0,0,0,0],"split_type":[0,0,0,0,0,0,0,0,0,0,0,0,0,0,0,0,0,0,0,0,0,0,0,0,0,0,0,0,0,0,0,0,0,0,0,0,0,0,0,0,0,0,0,0,0,0,0,0,0,0,0,0,0,0,0,0,0,0,0,0,0],"sum_hessian":[3.966E3,2.602E3,1.364E3,1.18E3,1.422E3,1.088E3,2.76E2,4.81E2,6.99E2,1.004E3,4.18E2,8.63E2,2.25E2,2.43E2,3.3E1,4E2,8.1E1,4E0,6.95E2,3.07E2,6.97E2,3.82E2,3.6E1,7.84E2,7.9E1,1.6E1,2.09E2,1.5E1,2.28E2,3.2E1,1E0,3E0,3.97E2,6.1E1,2E1,3E0,1E0,1.21E2,5.74E2,1E0,3.06E2,4.2E1,6.55E2,6.7E1,3.15E2,6E0,3E1,9E0,7.75E2,3.8E1,4.1E1,1.1E1,5E0,1.29E2,8E1,2E0,1.3E1,6.5E1,1.63E2,9E0,2.3E1],"tree_param":{"num_deleted":"0","num_feature":"36","num_nodes":"61","size_leaf_vector":"0"}},{"base_weights":[9.33295E-1,7.7757084E-1,1.5625169E0,6.3184965E-1,9.798398E-1,1.3438122E0,2.3153775E0,5.9464157E-1,1.1515582E0,9.051152E-1,1.7081842E0,1.2560315E0,2.2292457E0,4.151477E0,1.9547993E0,4.492851E-1,6.77521E-1,1.5323136E0,9.633108E-1,8.352999E-1,1.2380923E0,1.37216E0,2.5474195E0,9.751283E-1,1.523657E0,2.5387566E0,1.2552664E0,1.3583553E0,4.560399E0,3.0304701E0,1.6808386E0,3.972695E-1,6.364504E-1,3.224299E0,6.7228407E-1,1.6967101E0,6.831883E-1,8.528369E-1,1.8014417E0,7.373312E-1,9.76844E-1,1.1684403E0,2.11981E0,1.7900567E0,1.0864717E0,3.9099786E0,2.0493495E0,7.990866E-1,1.2817979E0,1.9663601E0,1.2954869E0,-3.865564E-2,2.6058352E0,1.516736E0,4.289798E-1,1.5731875E0,2.4951327E-1,4.828991E0,1.0705928E0,3.9598176E0,2.0278864E0,1.3895417E0,2.235976E0],"categories":[],"categories_nodes":[],"categories_segments":[],"categories_sizes":[],"default_left":[1,1,1,1,1,1,1,1,1,1,1,1,1,1,1,1,1,1,1,1,1,1,1,1,1,1,1,1,1,1,1,0,0,0,0,0,0,0,0,0,0,0,0,0,0,0,0,0,0,0,0,0,0,0,0,0,0,0,0,0,0,0,0],"id":15,"left_children":[1,3,5,7,9,11,13,15,17,19,21,23,25,27,29,31,33,35,37,39,41,43,45,47,49,51,53,55,57,59,61,-1,-1,-1,-1,-1,-1,-1,-1,-1,-1,-1,-1,-1,-1,-1,-1,-1,-1,-1,-1,-1,-1,-1,-1,-1,-1,-1,-1,-1,-1,-1,-1],"loss_changes":[3.8847144E2,9.340564E1,1.2663611E2,3.522473E1,7.105725E1,4.4844727E1,1.084068E2,2.0597229E1,7.340088E0,2.7141052E1,3.1190979E1,4.061328E1,1.3091888E1,2.5786133E1,3.8815308E1,5.9097366E0,1.25433655E1,4.284958E0,6.333946E0,1.3216003E1,1.0297089E1,8.800079E0,1.50611725E1,1.3876038E1,2.6240906E1,7.0162964E0,2.5900822E0,7.9854393E-1,1.732611E1,1.8990662E1,1.64599E1,0E0,0E0,0E0,0E0,0E0,0E0,0E0,0E0,0E0,0E0,0E0,0E0,0E0,0E0,0E0,0E0,0E0,0E0,0E0,0E0,0E0,0E0,0E0,0E0,0E0,0E0,0E0,0E0,0E0,0E0,0E0,0E0],"parents":[2147483647,0,0,1,1,2,2,3,3,4,4,5,5,6,6,7,7,8,8,9,9,10,10,11,11,12,12,13,13,14,14,15,15,16,16,17,17,18,18,19,19,20,20,21,21,22,22,23,23,24,24,25,25,26,26,27,27,28,28,29,29,30,30],"right_children":[2,4,6,8,10,12,14,16,18,20,22,24,26,28,30,32,34,36,38,40,42,44,46,48,50,52,54,56,58,60,62,-1,-1,-1,-1,-1,-1,-1,-1,-1,-1,-1,-1,-1,-1,-1,-1,-1,-1,-1,-1,-1,-1,-1,-1,-1,-1,-1,-1,-1,-1,-1,-1],"split_conditions":[2.2416668E0,1.4583334E0,2.3716667E2,1.0735714E0,8.4881794E-1,3.7E0,6.914364E1,1.0925E2,6.3012638E1,2.3829166E2,2.52825E2,3.311828E-1,4.175714E1,2.3833332E0,6.4938416E1,7.6949997E0,1.5874174E2,6.7E1,1.77E2,3.467912E-1,3.2133334E2,7.4626785E1,5.9512054E1,1.972143E2,7.622473E1,2.5E-1,2.9146057E2,7.261203E1,5.1499996E0,2.8302807E1,7.4112404E1,1.9863475E-2,3.182252E-2,1.6121495E-1,3.3614203E-2,8.483551E-2,3.415942E-2,4.2641845E-2,9.007209E-2,3.686656E-2,4.8842203E-2,5.8422018E-2,1.0599051E-1,8.9502834E-2,5.4323584E-2,1.9549893E-1,1.0246748E-1,3.995433E-2,6.4089894E-2,9.8318E-2,6.477435E-2,-1.932782E-3,1.3029176E-1,7.58368E-2,2.144899E-2,7.865938E-2,1.2475664E-2,2.4144955E-1,5.352964E-2,1.9799088E-1,1.0139432E-1,6.947709E-2,1.117988E-1],"split_indices":[5,5,10,31,31,5,1,24,17,10,10,31,21,5,17,35,7,16,24,31,10,1,17,10,1,33,7,0,22,2,0,0,0,0,0,0,0,0,0,0,0,0,0,0,0,0,0,0,0,0,0,0,0,0,0,0,0,0,0,0,0,0,0],"split_type":[0,0,0,0,0,0,0,0,0,0,0,0,0,0,0,0,0,0,0,0,0,0,0,0,0,0,0,0,0,0,0,0,0,0,0,0,0,0,0,0,0,0,0,0,0,0,0,0,0,0,0,0,0,0,0,0,0,0,0,0,0,0,0],"sum_hessian":[3.976E3,3.189E3,7.87E2,1.856E3,1.333E3,6.12E2,1.75E2,1.734E3,1.22E2,1.211E3,1.22E2,5.59E2,5.3E1,2.7E1,1.48E2,6.32E2,1.102E3,3.8E1,8.4E1,1.004E3,2.07E2,8.9E1,3.3E1,2.75E2,2.84E2,3.9E1,1.4E1,4E0,2.3E1,2.8E1,1.2E2,4.97E2,1.35E2,1E0,1.101E3,3.1E1,7E0,7.6E1,8E0,5.97E2,4.07E2,1.94E2,1.3E1,3.4E1,5.5E1,7E0,2.6E1,1.77E2,9.8E1,9.4E1,1.9E2,1E0,3.8E1,1E1,4E0,3E0,1E0,2.1E1,2E0,1.3E1,1.5E1,8.1E1,3.9E1],"tree_param":{"num_deleted":"0","num_feature":"36","num_nodes":"63","size_leaf_vector":"0"}},{"base_weights":[8.9707446E-1,6.9849473E-1,1.564751E0,4.8914185E-1,9.147976E-1,1.4766525E0,3.2136388E0,3.4120947E-1,6.533596E-1,8.735381E-1,1.7428346E0,1.2887464E0,1.8453801E0,2.5917878E0,3.8613632E0,6.8081963E-1,2.9558098E-1,1.1163507E0,5.680595E-1,1.4762747E0,8.418259E-1,1.5874295E0,4.684403E0,1.686257E0,1.1659399E0,2.7092898E0,1.7456297E0,3.2906199E-1,2.6691344E0,4.116154E0,1.045498E0,5.13079E-1,1.3336065E0,2.2047706E-1,4.3225962E-1,3.970066E0,1.029166E0,4.571182E-1,7.319673E-1,1.1959797E0,3.4990635E0,1.1593056E0,7.794315E-1,2.030323E0,1.2266461E0,1.4105805E0,2.6696656E0,1.0028362E0,1.2911528E0,1.3390088E0,3.3961678E0,1.6645759E0,2.5505054E0,4.218383E0,1.1891332E0],"categories":[],"categories_nodes":[],"categories_segments":[],"categories_sizes":[],"default_left":[1,1,1,1,1,1,1,1,1,1,1,1,1,1,1,1,1,1,1,1,1,1,0,1,1,1,1,0,0,1,0,0,0,0,0,0,0,0,0,0,0,0,0,0,0,0,0,0,0,0,0,0,0,0,0],"id":16,"left_children":[1,3,5,7,9,11,13,15,17,19,21,23,25,27,29,31,33,35,37,39,41,43,-1,45,47,49,51,-1,-1,53,-1,-1,-1,-1,-1,-1,-1,-1,-1,-1,-1,-1,-1,-1,-1,-1,-1,-1,-1,-1,-1,-1,-1,-1,-1],"loss_changes":[5.222278E2,1.37396E2,1.2657373E2,3.7407104E1,4.9587402E1,5.7207886E1,8.117645E0,1.2458916E1,2.8314331E1,2.6033203E1,2.4563263E1,2.600592E1,2.0089111E1,3.6720734E0,1.0045685E1,9.827652E0,7.3160973E0,2.402858E1,1.0957764E1,3.5503616E1,2.5996948E1,8.375137E0,0E0,3.2290863E1,7.711609E0,2.1806534E1,1.2781677E1,0E0,0E0,3.6984253E-1,0E0,0E0,0E0,0E0,0E0,0E0,0E0,0E0,0E0,0E0,0E0,0E0,0E0,0E0,0E0,0E0,0E0,0E0,0E0,0E0,0E0,0E0,0E0,0E0,0E0],"parents":[2147483647,0,0,1,1,2,2,3,3,4,4,5,5,6,6,7,7,8,8,9,9,10,10,11,11,12,12,13,13,14,14,15,15,16,16,17,17,18,18,19,19,20,20,21,21,23,23,24,24,25,25,26,26,29,29],"right_children":[2,4,6,8,10,12,14,16,18,20,22,24,26,28,30,32,34,36,38,40,42,44,-1,46,48,50,52,-1,-1,54,-1,-1,-1,-1,-1,-1,-1,-1,-1,-1,-1,-1,-1,-1,-1,-1,-1,-1,-1,-1,-1,-1,-1,-1,-1],"split_conditions":[2.05E0,1.3499999E0,3.85E0,1.8245E2,4.4716578E-2,2.65E0,1.09E0,6.3714733E1,7.267316E1,5.9848267E1,2.9870245E-1,7.376025E1,6.1101234E1,1.6774624E1,7.376943E1,7.369877E-1,1.1500001E0,8E0,3.8101606E-4,2.270268E2,1.185E1,6.8244934E1,2.3422015E-1,2.3216666E2,1.9626785E2,7.3543304E1,1.02547655E1,1.64531E-2,1.3345672E-1,8.2142685E1,5.22749E-2,2.5653949E-2,6.668033E-2,1.1023853E-2,2.1612981E-2,1.985033E-1,5.14583E-2,2.2855911E-2,3.6598366E-2,5.9798986E-2,1.7495318E-1,5.796528E-2,3.8971577E-2,1.0151615E-1,6.1332304E-2,7.052903E-2,1.3348328E-1,5.014181E-2,6.455764E-2,6.695044E-2,1.6980839E-1,8.32288E-2,1.2752527E-1,2.1091914E-1,5.9456658E-2],"split_indices":[15,15,15,10,8,15,6,1,1,1,8,1,17,2,17,31,15,4,8,10,11,17,0,10,10,32,28,0,0,0,0,0,0,0,0,0,0,0,0,0,0,0,0,0,0,0,0,0,0,0,0,0,0,0,0],"split_type":[0,0,0,0,0,0,0,0,0,0,0,0,0,0,0,0,0,0,0,0,0,0,0,0,0,0,0,0,0,0,0,0,0,0,0,0,0,0,0,0,0,0,0,0,0,0,0,0,0,0,0,0,0,0,0],"sum_hessian":[3.946E3,3.043E3,9.03E2,1.548E3,1.495E3,8.59E2,4.4E1,8.16E2,7.32E2,1.426E3,6.9E1,5.72E2,2.87E2,2.5E1,1.9E1,9.5E1,7.21E2,1.12E2,6.2E2,6.9E1,1.357E3,6.7E1,2E0,1.32E2,4.4E2,2.7E1,2.6E2,1E0,2.4E1,1.7E1,2E0,7.7E1,1.8E1,4.67E2,2.54E2,2E0,1.1E2,3.72E2,2.48E2,6.2E1,7E0,2.2E2,1.137E3,2.8E1,3.9E1,1.05E2,2.7E1,1.95E2,2.45E2,1E1,1.7E1,2.39E2,2.1E1,1.6E1,1E0],"tree_param":{"num_deleted":"0","num_feature":"36","num_nodes":"55","size_leaf_vector":"0"}},{"base_weights":[8.498905E-1,6.586012E-1,1.3569227E0,6.0314226E-1,1.0582426E0,1.21289E0,2.1422713E0,4.780761E-1,7.192648E-1,2.6204357E0,9.853523E-1,1.1434443E0,2.2252824E0,1.4525654E0,2.5056052E0,4.4125316E-1,6.735095E-1,1.9244541E0,7.019577E-1,1.6030504E0,4.334596E0,7.6289636E-1,1.2252856E0,7.926545E-1,1.2992634E0,3.479049E0,1.7857711E0,1.2133527E0,2.308304E0,2.8397322E0,1.6233125E0,5.963306E-1,4.0845194E-1,5.8296114E-1,1.0496923E0,2.5805743E0,1.2723253E0,6.106714E-1,8.731828E-1,7.856898E-1,2.426745E0,9.068824E-1,5.0084513E-1,1.1094985E0,2.4492254E0,3.770349E-1,8.862506E-1,1.2394034E0,2.223323E0,4.0036983E0,1.166501E0,2.4749274E0,1.4284599E0,1.4695597E0,7.3146987E-1,1.1855187E0,2.9409337E0,5.5522764E-1,2.9573047E0,2.7222123E0,1.0000757E0],"categories":[],"categories_nodes":[],"categories_segments":[],"categories_sizes":[],"default_left":[1,1,1,1,1,1,1,1,1,1,1,1,1,1,1,1,1,1,1,1,0,1,1,1,1,1,1,1,1,1,1,0,0,0,0,0,0,0,0,0,0,0,0,0,0,0,0,0,0,0,0,0,0,0,0,0,0,0,0,0,0],"id":17,"left_children":[1,3,5,7,9,11,13,15,17,19,21,23,25,27,29,31,33,35,37,39,-1,41,43,45,47,49,51,53,55,57,59,-1,-1,-1,-1,-1,-1,-1,-1,-1,-1,-1,-1,-1,-1,-1,-1,-1,-1,-1,-1,-1,-1,-1,-1,-1,-1,-1,-1,-1,-1],"loss_changes":[3.8396167E2,6.3259644E1,1.2024548E2,3.645746E1,3.7271973E1,6.213745E1,3.8209656E1,8.504059E0,2.6015198E1,1.9210846E1,1.6999115E1,4.61416E1,2.5747803E1,9.48143E0,2.7228271E1,5.005951E0,5.928108E0,4.418419E0,1.970819E1,5.49914E0,0E0,6.224304E0,1.995726E1,1.0091156E1,3.021167E1,1.2315567E1,7.5456085E0,4.9746857E0,5.037155E0,1.9039856E1,1.919358E1,0E0,0E0,0E0,0E0,0E0,0E0,0E0,0E0,0E0,0E0,0E0,0E0,0E0,0E0,0E0,0E0,0E0,0E0,0E0,0E0,0E0,0E0,0E0,0E0,0E0,0E0,0E0,0E0,0E0,0E0],"parents":[2147483647,0,0,1,1,2,2,3,3,4,4,5,5,6,6,7,7,8,8,9,9,10,10,11,11,12,12,13,13,14,14,15,15,16,16,17,17,18,18,19,19,21,21,22,22,23,23,24,24,25,25,26,26,27,27,28,28,29,29,30,30],"right_children":[2,4,6,8,10,12,14,16,18,20,22,24,26,28,30,32,34,36,38,40,-1,42,44,46,48,50,52,54,56,58,60,-1,-1,-1,-1,-1,-1,-1,-1,-1,-1,-1,-1,-1,-1,-1,-1,-1,-1,-1,-1,-1,-1,-1,-1,-1,-1,-1,-1,-1,-1],"split_conditions":[1.9916667E0,2.4270834E2,7.300394E-1,1.225E0,5.819269E1,3.7E0,2.4250002E0,8.187063E-1,1.8557211E2,7.997936E1,4.9437308E-1,1.788E2,1.8825867E0,4.9858943E-2,6.871698E1,7.280431E1,4.9409566E0,1.9599228E0,4.5030612E-1,5.6821537E1,2.167298E-1,5.5E-1,3.3E2,1.43625E2,2.871E2,1.0719013E1,6.6223465E1,2.1750002E0,2.4900183E2,7.55E-1,9.55E-1,2.9816529E-2,2.0422598E-2,2.9148057E-2,5.2484613E-2,1.2902872E-1,6.361627E-2,3.053357E-2,4.365914E-2,3.928449E-2,1.2133725E-1,4.534412E-2,2.5042256E-2,5.5474926E-2,1.22461274E-1,1.8851746E-2,4.4312533E-2,6.197017E-2,1.1116616E-1,2.0018493E-1,5.8325052E-2,1.2374637E-1,7.1422994E-2,7.347798E-2,3.6573496E-2,5.9275936E-2,1.4704669E-1,2.7761383E-2,1.4786524E-1,1.3611062E-1,5.0003786E-2],"split_indices":[5,10,31,5,17,5,5,31,7,32,31,10,3,8,17,1,28,3,31,17,0,33,10,10,10,28,17,5,7,6,6,0,0,0,0,0,0,0,0,0,0,0,0,0,0,0,0,0,0,0,0,0,0,0,0,0,0,0,0,0,0],"split_type":[0,0,0,0,0,0,0,0,0,0,0,0,0,0,0,0,0,0,0,0,0,0,0,0,0,0,0,0,0,0,0,0,0,0,0,0,0,0,0,0,0,0,0,0,0,0,0,0,0,0,0,0,0,0,0,0,0,0,0,0,0],"sum_hessian":[3.967E3,2.882E3,1.085E3,2.533E3,3.49E2,9.19E2,1.66E2,1.222E3,1.311E3,1.4E1,3.35E2,8.62E2,5.7E1,5.9E1,1.07E2,1.031E3,1.91E2,1.7E1,1.294E3,1E1,4E0,1.76E2,1.59E2,2.67E2,5.95E2,1.3E1,4.4E1,4.8E1,1.1E1,7.6E1,3.1E1,1.77E2,8.54E2,1.56E2,3.5E1,7E0,1E1,8.47E2,4.47E2,6E0,4E0,1.12E2,6.4E1,1.47E2,1.2E1,5E1,2.17E2,5.61E2,3.4E1,1E1,3E0,1.3E1,3.1E1,3E1,1.8E1,5E0,6E0,4E0,7.2E1,1E1,2.1E1],"tree_param":{"num_deleted":"0","num_feature":"36","num_nodes":"61","size_leaf_vector":"0"}},{"base_weights":[8.011896E-1,5.6161404E-1,1.2640855E0,4.3318284E-1,7.520933E-1,1.1060811E0,1.8647261E0,2.907619E-1,5.55877E-1,7.168782E-1,1.8598762E0,3.2020833E0,1.0933536E0,1.7316765E0,2.545047E0,7.0789844E-1,2.3913354E-1,9.360214E-1,4.757956E-1,1.1372179E0,6.5583295E-1,1.3671857E0,4.246967E0,9.3021286E-1,1.2224174E0,1.9737747E0,1.4751477E0,2.8985035E-1,2.5907528E0,4.9575382E-1,1.3195447E0,1.3349083E-1,3.1979313E-1,4.16784E-1,1.148744E0,3.9384633E-1,7.0687175E-1,2.437302E0,1.0194007E0,5.869553E-1,9.378292E-1,1.8491944E0,3.1465057E-1,4.829029E0,9.5935917E-1,1.0863702E0,8.124145E-1,1.2087346E0,4.688652E0,1.7798349E0,2.9110422E0,1.5095022E0,3.830958E-1,2.6231503E0,6.150266E-1],"categories":[],"categories_nodes":[],"categories_segments":[],"categories_sizes":[],"default_left":[1,1,1,1,1,1,1,1,1,1,1,0,1,1,1,1,1,1,1,1,1,1,1,1,1,1,1,0,1,0,0,0,0,0,0,0,0,0,0,0,0,0,0,0,0,0,0,0,0,0,0,0,0,0,0],"id":18,"left_children":[1,3,5,7,9,11,13,15,17,19,21,-1,23,25,27,29,31,33,35,37,39,41,43,45,47,49,51,-1,53,-1,-1,-1,-1,-1,-1,-1,-1,-1,-1,-1,-1,-1,-1,-1,-1,-1,-1,-1,-1,-1,-1,-1,-1,-1,-1],"loss_changes":[4.421079E2,6.408655E1,1.2710156E2,2.736029E1,3.9979065E1,2.5310059E1,2.1118408E1,1.5573593E1,2.5278534E1,2.5632324E1,3.1828697E1,0E0,2.1497559E1,1.1931519E1,3.7843933E0,9.726429E0,5.5130653E0,1.5647438E1,1.2977158E1,1.7274628E1,1.693045E1,1.3623425E1,4.9351807E0,7.92865E0,2.264685E1,1.6631683E1,3.9237366E0,0E0,1.1390686E0,0E0,0E0,0E0,0E0,0E0,0E0,0E0,0E0,0E0,0E0,0E0,0E0,0E0,0E0,0E0,0E0,0E0,0E0,0E0,0E0,0E0,0E0,0E0,0E0,0E0,0E0],"parents":[2147483647,0,0,1,1,2,2,3,3,4,4,5,5,6,6,7,7,8,8,9,9,10,10,12,12,13,13,14,14,15,15,16,16,17,17,18,18,19,19,20,20,21,21,22,22,23,23,24,24,25,25,26,26,28,28],"right_children":[2,4,6,8,10,12,14,16,18,20,22,-1,24,26,28,30,32,34,36,38,40,42,44,46,48,50,52,-1,54,-1,-1,-1,-1,-1,-1,-1,-1,-1,-1,-1,-1,-1,-1,-1,-1,-1,-1,-1,-1,-1,-1,-1,-1,-1,-1],"split_conditions":[1.75E0,1.3499999E0,2.75E0,1.7616666E2,1.3072932E-2,6.2676468E1,3.85E0,6.126923E1,7.375394E1,2.1718915E2,2.5308334E2,1.6010417E-1,1.9170834E2,7.685763E1,1.6774624E1,6.739327E-1,1.05E0,2.7443847E-1,5E-1,5.756237E1,2.2608334E2,8.0769226E1,8.508145E1,7.9617744E1,3.6473324E1,8.5E-1,2.776667E2,1.4492518E-2,7.35E1,2.4787692E-2,6.597724E-2,6.6745416E-3,1.5989657E-2,2.08392E-2,5.74372E-2,1.9692317E-2,3.5343587E-2,1.2186511E-1,5.0970037E-2,2.9347766E-2,4.6891462E-2,9.245972E-2,1.5732529E-2,2.4145146E-1,4.796796E-2,5.4318514E-2,4.0620726E-2,6.0436733E-2,2.3443261E-1,8.899175E-2,1.4555211E-1,7.547511E-2,1.915479E-2,1.3115752E-1,3.075133E-2],"split_indices":[15,15,15,10,19,25,15,1,1,7,10,0,10,9,2,31,15,31,13,1,10,1,1,1,34,33,24,0,16,0,0,0,0,0,0,0,0,0,0,0,0,0,0,0,0,0,0,0,0,0,0,0,0,0,0],"split_type":[0,0,0,0,0,0,0,0,0,0,0,0,0,0,0,0,0,0,0,0,0,0,0,0,0,0,0,0,0,0,0,0,0,0,0,0,0,0,0,0,0,0,0,0,0,0,0,0,0,0,0,0,0,0,0],"sum_hessian":[3.992E3,2.632E3,1.36E3,1.574E3,1.058E3,1.079E3,2.81E2,7.3E2,8.44E2,1.027E3,3.1E1,5E0,1.074E3,2.38E2,4.3E1,7.9E1,6.51E2,1.45E2,6.99E2,1.28E2,8.99E2,2.7E1,4E0,4.78E2,5.96E2,1.19E2,1.19E2,1E0,4.2E1,6E1,1.9E1,2.83E2,3.68E2,4.3E1,1.02E2,5.18E2,1.81E2,9E0,1.19E2,7.25E2,1.74E2,1.8E1,9E0,3E0,1E0,2.02E2,2.76E2,5.95E2,1E0,1.01E2,1.8E1,1.15E2,4E0,4.1E1,1E0],"tree_param":{"num_deleted":"0","num_feature":"36","num_nodes":"55","size_leaf_vector":"0"}},{"base_weights":[7.6376736E-1,5.203348E-1,1.2211978E0,3.7161586E-1,1.0724677E0,1.1035724E0,2.0477717E0,1.9210836E-1,4.7911322E-1,8.447979E-1,1.5294292E0,1.0026047E0,1.7614937E0,1.760907E0,2.9979093E0,1.03163086E-1,3.1093058E-1,3.8369396E-1,6.3934886E-1,7.96386E-1,2.3435845E0,7.3750114E-1,1.7488592E0,8.801934E-1,1.2407727E0,1.5190294E0,2.9433672E0,2.1025326E0,1.5497566E0,1.7951851E0,3.3633401E0,-1.351134E-3,1.6489196E-1,2.9662898E-1,1.7566278E0,5.7155323E-1,3.4304065E-1,6.03979E-1,1.3066449E0,5.6273746E-1,9.9772936E-1,2.5728965E0,2.5232911E-2,3.5934353E-1,1.200739E0,9.745096E-1,1.9953471E0,6.5355027E-1,9.824044E-1,1.1451216E0,1.7382072E0,1.3150516E0,2.446268E0,3.586626E0,1.3298087E0,2.6247525E0,1.7314847E0,1.1749926E0,1.6925712E0,1.98696E0,6.2146515E-1,3.5256677E0,1.5079566E0],"categories":[],"categories_nodes":[],"categories_segments":[],"categories_sizes":[],"default_left":[1,1,1,1,1,1,1,1,1,1,1,1,1,1,1,1,1,1,1,1,1,1,1,1,1,1,1,1,1,1,1,0,0,0,0,0,0,0,0,0,0,0,0,0,0,0,0,0,0,0,0,0,0,0,0,0,0,0,0,0,0,0,0],"id":19,"left_children":[1,3,5,7,9,11,13,15,17,19,21,23,25,27,29,31,33,35,37,39,41,43,45,47,49,51,53,55,57,59,61,-1,-1,-1,-1,-1,-1,-1,-1,-1,-1,-1,-1,-1,-1,-1,-1,-1,-1,-1,-1,-1,-1,-1,-1,-1,-1,-1,-1,-1,-1,-1,-1],"loss_changes":[4.401018E2,2.1186261E2,1.3132861E2,3.9234375E1,5.571985E1,7.828064E1,4.1056335E1,8.052961E0,1.9233582E1,2.4835358E1,3.0163055E1,2.9432617E1,4.1092316E1,6.3354797E0,1.0663635E1,2.8324513E0,6.2399178E0,5.921257E0,1.0398224E1,1.6280136E1,5.782959E0,6.7507763E0,2.4967896E1,1.5457947E1,1.4805298E1,2.2127289E1,2.2216812E1,4.75618E0,2.6141205E0,1.2411652E0,3.1164856E0,0E0,0E0,0E0,0E0,0E0,0E0,0E0,0E0,0E0,0E0,0E0,0E0,0E0,0E0,0E0,0E0,0E0,0E0,0E0,0E0,0E0,0E0,0E0,0E0,0E0,0E0,0E0,0E0,0E0,0E0,0E0,0E0],"parents":[2147483647,0,0,1,1,2,2,3,3,4,4,5,5,6,6,7,7,8,8,9,9,10,10,11,11,12,12,13,13,14,14,15,15,16,16,17,17,18,18,19,19,20,20,21,21,22,22,23,23,24,24,25,25,26,26,27,27,28,28,29,29,30,30],"right_children":[2,4,6,8,10,12,14,16,18,20,22,24,26,28,30,32,34,36,38,40,42,44,46,48,50,52,54,56,58,60,62,-1,-1,-1,-1,-1,-1,-1,-1,-1,-1,-1,-1,-1,-1,-1,-1,-1,-1,-1,-1,-1,-1,-1,-1,-1,-1,-1,-1,-1,-1,-1,-1],"split_conditions":[1.75E0,2.141667E0,3.05E0,1.1500001E0,2.8249998E0,2.5583334E0,4.05E0,1.3583333E0,1.4916667E0,3.001667E2,1.7718396E-1,2.35E0,7.3916227E-1,3.484205E1,1.3916667E0,9.5E-1,8.55E1,7.267316E1,9.6406883E-1,1.25E0,3.2E1,1.3499999E0,1.7883334E2,1.1416667E0,8.32633E-1,2.49E2,6.927124E1,5.75E1,1.915E2,1.3E0,8.645779E0,-6.7556706E-5,8.244598E-3,1.4831449E-2,8.783139E-2,2.8577661E-2,1.7152032E-2,3.019895E-2,6.533225E-2,2.8136874E-2,4.988647E-2,1.2864482E-1,1.2616456E-3,1.7967178E-2,6.0036954E-2,4.8725482E-2,9.976736E-2,3.2677513E-2,4.912022E-2,5.725608E-2,8.691036E-2,6.575258E-2,1.223134E-1,1.793313E-1,6.6490434E-2,1.3123763E-1,8.6574234E-2,5.8749627E-2,8.462856E-2,9.9348E-2,3.1073257E-2,1.7628339E-1,7.5397834E-2],"split_indices":[15,5,15,15,5,5,15,5,5,10,31,15,31,34,5,15,4,1,31,15,4,15,10,5,31,10,17,16,10,5,23,0,0,0,0,0,0,0,0,0,0,0,0,0,0,0,0,0,0,0,0,0,0,0,0,0,0,0,0,0,0,0,0],"split_type":[0,0,0,0,0,0,0,0,0,0,0,0,0,0,0,0,0,0,0,0,0,0,0,0,0,0,0,0,0,0,0,0,0,0,0,0,0,0,0,0,0,0,0,0,0,0,0,0,0,0,0,0,0,0,0,0,0,0,0,0,0,0,0],"sum_hessian":[3.957E3,2.584E3,1.373E3,2.037E3,5.47E2,1.204E3,1.69E2,7.64E2,1.273E3,3.67E2,1.8E2,1.046E3,1.58E2,1.32E2,3.7E1,4.38E2,3.26E2,8E2,4.73E2,3.57E2,1E1,4E1,1.4E2,6.94E2,3.52E2,1.33E2,2.5E1,4.7E1,8.5E1,1E1,2.7E1,1.63E2,2.75E2,3.24E2,2E0,1.4E2,6.6E2,4.51E2,2.2E1,1.67E2,1.9E2,9E0,1E0,2.3E1,1.7E1,3.5E1,1.05E2,2.18E2,4.76E2,2.98E2,5.4E1,1.11E2,2.2E1,1.7E1,8E0,1.7E1,3E1,2.6E1,5.9E1,8E0,2E0,2.4E1,3E0],"tree_param":{"num_deleted":"0","num_feature":"36","num_nodes":"63","size_leaf_vector":"0"}},{"base_weights":[7.396508E-1,6.020183E-1,1.3255194E0,4.4452482E-1,7.6418185E-1,1.1340593E0,1.9911591E0,4.091287E-1,7.5678724E-1,6.4894086E-1,1.1162031E0,9.3964124E-1,1.5556489E0,2.3509073E0,1.3044306E0,3.6336926E-1,5.5010074E-1,1.9246495E0,6.7758083E-1,4.9526E-1,7.336997E-1,1.0520478E0,2.9007134E0,8.3752483E-1,1.6058997E0,2.2758615E0,1.2720453E0,3.3982477E0,2.0920436E0,9.4676113E-1,2.0264142E0,4.2955205E-1,3.065406E-1,6.3044775E-1,3.4626153E-1,6.7368805E-1,2.6463423E0,6.274549E-1,1.6620716E0,6.161099E-1,3.9792913E-1,9.09897E-1,6.292941E-1,1.3354254E0,8.842406E-1,6.9388455E-1,3.2388747E0,1.2082024E0,6.727236E-1,1.8740516E0,8.0164486E-1,2.7342296E0,1.3599664E0,1.4676237E0,8.8698405E-1,4.807967E0,2.2693245E0,2.2183862E0,8.5946655E-1,6.1933804E-1,1.4401151E0,2.6855826E0,9.9560666E-1],"categories":[],"categories_nodes":[],"categories_segments":[],"categories_sizes":[],"default_left":[1,1,1,1,1,1,1,1,1,1,1,1,1,1,1,1,1,1,1,1,1,1,1,1,1,1,1,1,1,1,1,0,0,0,0,0,0,0,0,0,0,0,0,0,0,0,0,0,0,0,0,0,0,0,0,0,0,0,0,0,0,0,0],"id":20,"left_children":[1,3,5,7,9,11,13,15,17,19,21,23,25,27,29,31,33,35,37,39,41,43,45,47,49,51,53,55,57,59,61,-1,-1,-1,-1,-1,-1,-1,-1,-1,-1,-1,-1,-1,-1,-1,-1,-1,-1,-1,-1,-1,-1,-1,-1,-1,-1,-1,-1,-1,-1,-1,-1],"loss_changes":[3.2085327E2,8.220459E1,9.4343994E1,1.7839233E1,6.3818115E1,4.697937E1,3.8437683E1,9.327927E0,1.4051254E1,1.528064E1,4.171225E1,2.6345673E1,3.489215E1,2.2442627E1,1.3575348E1,4.0732117E0,5.6777267E0,7.2452927E0,6.7048416E0,4.812683E0,1.3629089E1,1.6841644E1,7.454033E0,2.0873474E1,9.92778E0,1.76922E1,8.865051E0,2.0918457E1,1.2108795E1,5.8925705E0,1.0236259E1,0E0,0E0,0E0,0E0,0E0,0E0,0E0,0E0,0E0,0E0,0E0,0E0,0E0,0E0,0E0,0E0,0E0,0E0,0E0,0E0,0E0,0E0,0E0,0E0,0E0,0E0,0E0,0E0,0E0,0E0,0E0,0E0],"parents":[2147483647,0,0,1,1,2,2,3,3,4,4,5,5,6,6,7,7,8,8,9,9,10,10,11,11,12,12,13,13,14,14,15,15,16,16,17,17,18,18,19,19,20,20,21,21,22,22,23,23,24,24,25,25,26,26,27,27,28,28,29,29,30,30],"right_children":[2,4,6,8,10,12,14,16,18,20,22,24,26,28,30,32,34,36,38,40,42,44,46,48,50,52,54,56,58,60,62,-1,-1,-1,-1,-1,-1,-1,-1,-1,-1,-1,-1,-1,-1,-1,-1,-1,-1,-1,-1,-1,-1,-1,-1,-1,-1,-1,-1,-1,-1,-1,-1],"split_conditions":[2.275E0,1.3416667E0,5.926864E-1,9.3446326E-1,5.707143E-1,2.1730952E2,6.911342E1,1.3316666E2,2.0320844E2,1.7629166E2,3.1125E2,3.5416665E0,7.7300514E1,2.298591E1,2.383E2,6.2368153E1,6.5E-1,1.0833333E0,2.015E2,7.871936E1,8.1056625E1,7.868209E1,5.7650003E0,7.624831E1,4.1732143E1,2.4818567E2,1.59E2,3.9083336E1,3.2706866E2,6.5E-1,3.0325632E1,2.1477602E-2,1.5327031E-2,3.152239E-2,1.7313076E-2,3.3684403E-2,1.3231711E-1,3.1372745E-2,8.310358E-2,3.0805496E-2,1.9896457E-2,4.549485E-2,3.1464707E-2,6.677127E-2,4.4212032E-2,3.469423E-2,1.6194373E-1,6.041012E-2,3.363618E-2,9.370258E-2,4.0082242E-2,1.3671148E-1,6.799832E-2,7.3381186E-2,4.4349205E-2,2.4039836E-1,1.13466226E-1,1.1091931E-1,4.297333E-2,3.0966902E-2,7.2005756E-2,1.3427913E-1,4.9780335E-2],"split_indices":[5,5,31,31,31,10,17,24,7,10,10,5,1,2,10,0,33,5,24,32,1,1,35,1,21,7,24,21,7,33,2,0,0,0,0,0,0,0,0,0,0,0,0,0,0,0,0,0,0,0,0,0,0,0,0,0,0,0,0,0,0,0,0],"split_type":[0,0,0,0,0,0,0,0,0,0,0,0,0,0,0,0,0,0,0,0,0,0,0,0,0,0,0,0,0,0,0,0,0,0,0,0,0,0,0,0,0,0,0,0,0,0,0,0,0,0,0,0,0,0,0,0,0,0,0,0,0,0,0],"sum_hessian":[3.988E3,3.231E3,7.57E2,1.641E3,1.59E3,5.9E2,1.67E2,1.476E3,1.65E2,1.2E3,3.9E2,4.06E2,1.84E2,1.08E2,5.9E1,1.117E3,3.59E2,9E0,1.56E2,4.29E2,7.71E2,3.78E2,1.2E1,3.54E2,5.2E1,5E1,1.34E2,1.9E1,8.9E1,4.1E1,1.8E1,5.13E2,6.04E2,2.56E2,1.03E2,4E0,5E0,1.5E2,6E0,1.89E2,2.4E2,2.84E2,4.87E2,1.38E2,2.4E2,2E0,1E1,1.07E2,2.47E2,3.8E1,1.4E1,3.2E1,1.8E1,8.7E1,4.7E1,7E0,1.2E1,8E1,9E0,2.6E1,1.5E1,1E1,8E0],"tree_param":{"num_deleted":"0","num_feature":"36","num_nodes":"63","size_leaf_vector":"0"}},{"base_weights":[6.9226146E-1,5.440808E-1,1.2950283E0,4.483654E-1,1.2414433E0,1.216537E0,2.4041135E0,3.377556E-1,6.828115E-1,1.0881404E0,2.251684E0,9.720956E-1,1.5063175E0,3.203062E0,2.0368328E0,2.2608422E-1,5.1970583E-1,5.302099E-1,8.516295E-1,1.3761624E0,7.09187E-1,2.962221E0,1.563016E0,8.5395575E-1,1.126642E0,1.3433487E0,2.0901113E0,9.877953E-1,3.4899569E0,1.5777183E-1,2.0846465E0,8.630275E-1,2.056464E-1,5.018701E-1,2.0332055E0,4.6616054E-1,7.0607054E-1,1.0434188E0,6.910243E-1,2.0637956E0,1.2098662E0,1.4232244E0,5.902192E-1,4.244453E0,2.2599947E0,6.640095E-1,2.052784E0,1.6768202E0,8.2416296E-1,1.0905771E0,2.332655E0,1.3093239E0,3.8217006E0,1.8742328E0,3.3450396E0,3.723018E0,4.6314263E-1,2.1209755E0,4.0656292E-1],"categories":[],"categories_nodes":[],"categories_segments":[],"categories_sizes":[],"default_left":[1,1,1,1,1,1,1,1,1,1,1,1,1,1,1,1,1,1,1,1,1,1,1,1,1,1,1,0,1,0,1,0,0,0,0,0,0,0,0,0,0,0,0,0,0,0,0,0,0,0,0,0,0,0,0,0,0,0,0],"id":21,"left_children":[1,3,5,7,9,11,13,15,17,19,21,23,25,27,29,31,33,35,37,39,41,43,45,47,49,51,53,-1,55,-1,57,-1,-1,-1,-1,-1,-1,-1,-1,-1,-1,-1,-1,-1,-1,-1,-1,-1,-1,-1,-1,-1,-1,-1,-1,-1,-1,-1,-1],"loss_changes":[3.4906628E2,2.0936688E2,6.428064E1,7.1523254E1,5.6246643E1,4.9749023E1,8.147797E0,3.812216E1,2.2373535E1,3.5151703E1,1.9346863E1,6.2498474E0,2.8493408E1,5.4503174E0,2.9953613E0,1.5027229E1,1.8280594E1,4.9422913E0,1.218515E1,1.8886658E1,1.1477371E1,1.1117142E1,1.0525162E1,4.207535E0,4.7631683E0,1.6920776E1,1.2694458E1,0E0,6.740906E0,0E0,1.332367E0,0E0,0E0,0E0,0E0,0E0,0E0,0E0,0E0,0E0,0E0,0E0,0E0,0E0,0E0,0E0,0E0,0E0,0E0,0E0,0E0,0E0,0E0,0E0,0E0,0E0,0E0,0E0,0E0],"parents":[2147483647,0,0,1,1,2,2,3,3,4,4,5,5,6,6,7,7,8,8,9,9,10,10,11,11,12,12,13,13,14,14,15,15,16,16,17,17,18,18,19,19,20,20,21,21,22,22,23,23,24,24,25,25,26,26,28,28,30,30],"right_children":[2,4,6,8,10,12,14,16,18,20,22,24,26,28,30,32,34,36,38,40,42,44,46,48,50,52,54,-1,56,-1,58,-1,-1,-1,-1,-1,-1,-1,-1,-1,-1,-1,-1,-1,-1,-1,-1,-1,-1,-1,-1,-1,-1,-1,-1,-1,-1,-1,-1],"split_conditions":[2.15E0,2.525E0,3.85E0,1.55E0,3.9333334E0,1.725E0,7.0479965E1,1.5916667E0,1.475E0,8.510611E1,7.451681E1,2.55E0,7.2608113E-1,7.753779E1,1.6774624E1,5.6843338E1,3.13975E2,1.95E0,8.2554245E1,2.1280385E2,9.6775E1,9.696154E1,1.3225E2,1.9221495E2,3.1276237E1,3.6435333E1,7.81207E1,4.9389765E-2,2.9684012E2,7.888592E-3,3.17625E2,4.3151375E-2,1.028232E-2,2.5093505E-2,1.01660274E-1,2.3308028E-2,3.530353E-2,5.217094E-2,3.4551214E-2,1.0318978E-1,6.049331E-2,7.1161225E-2,2.951096E-2,2.1222265E-1,1.1299974E-1,3.3200476E-2,1.026392E-1,8.384101E-2,4.1208148E-2,5.452886E-2,1.1663275E-1,6.5466195E-2,1.9108503E-1,9.371164E-2,1.6725199E-1,1.861509E-1,2.3157133E-2,1.0604878E-1,2.0328147E-2],"split_indices":[15,5,15,15,5,5,1,5,5,1,25,15,31,32,2,1,10,15,1,7,20,20,24,7,28,34,0,0,7,0,24,0,0,0,0,0,0,0,0,0,0,0,0,0,0,0,0,0,0,0,0,0,0,0,0,0,0,0,0],"split_type":[0,0,0,0,0,0,0,0,0,0,0,0,0,0,0,0,0,0,0,0,0,0,0,0,0,0,0,0,0,0,0,0,0,0,0,0,0,0,0,0,0,0,0,0,0,0,0,0,0,0,0,0,0,0,0,0,0,0,0],"sum_hessian":[3.915E3,3.144E3,7.71E2,2.766E3,3.78E2,7.22E2,4.9E1,1.881E3,8.85E2,3.3E2,4.8E1,3.94E2,3.28E2,1.3E1,3.6E1,1.167E3,7.14E2,4.67E2,4.18E2,1.86E2,1.44E2,2.2E1,2.6E1,2.27E2,1.67E2,2.59E2,6.9E1,2E0,1.1E1,1E0,3.5E1,3.5E1,1.132E3,7.07E2,7E0,3.45E2,1.22E2,1.88E2,2.3E2,3.4E1,1.52E2,1.9E1,1.25E2,6E0,1.6E1,1E1,1.6E1,6E0,2.21E2,1.64E2,3E0,2.57E2,2E0,6.1E1,8E0,1E1,1E0,3.4E1,1E0],"tree_param":{"num_deleted":"0","num_feature":"36","num_nodes":"59","size_leaf_vector":"0"}},{"base_weights":[6.610813E-1,5.888896E-1,1.1714505E0,5.751144E-1,2.0401235E0,2.0790017E0,9.9815077E-1,4.453758E-1,6.831417E-1,4.302366E0,1.56329E0,1.0443192E0,2.473887E0,1.32515E0,8.768227E-1,7.771617E-1,4.0989822E-1,1.2132565E0,6.4394414E-1,3.903842E-1,2.012933E0,1.6925317E0,7.159775E-1,1.9175745E0,3.1125586E0,1.0875573E0,1.914559E0,8.24166E-1,1.7111158E0,5.9443325E-1,1.2773079E0,1.6450411E0,4.0342972E-1,9.6853465E-1,2.1729803E0,5.8934414E-1,8.241114E-1,7.5799964E-2,7.646645E-1,2.395767E0,1.1392113E0,3.6998367E-1,1.8512925E0,1.145517E0,2.0688485E-1,1.7108205E-1,2.0923467E0,3.9043114E0,1.3591578E0,9.7495216E-1,2.581644E0,5.6634903E-2,2.0452452E0,6.5409714E-1,9.6169716E-1,2.3707488E0,6.7268497E-1],"categories":[],"categories_nodes":[],"categories_segments":[],"categories_sizes":[],"default_left":[1,1,1,1,1,1,1,1,1,0,1,1,1,1,1,1,1,1,1,1,1,1,1,1,1,1,1,1,1,0,0,0,0,0,0,0,0,0,0,0,0,0,0,0,0,0,0,0,0,0,0,0,0,0,0,0,0],"id":22,"left_children":[1,3,5,7,9,11,13,15,17,-1,19,21,23,25,27,29,31,33,35,37,39,41,43,45,47,49,51,53,55,-1,-1,-1,-1,-1,-1,-1,-1,-1,-1,-1,-1,-1,-1,-1,-1,-1,-1,-1,-1,-1,-1,-1,-1,-1,-1,-1,-1],"loss_changes":[1.4410889E2,6.769556E1,7.436212E1,4.7544067E1,2.7792953E1,2.8877258E1,1.5104492E1,1.797351E1,3.7888794E1,0E0,1.3981071E1,3.6833954E0,1.3572968E1,1.3182083E1,1.1856949E1,1.2857986E1,1.0569595E1,2.7723282E1,1.6581787E1,1.0017225E0,3.9605255E0,7.84832E-1,3.4804916E0,9.409668E0,2.8011642E1,1.0942368E1,7.1683197E0,6.060425E0,1.0049946E1,0E0,0E0,0E0,0E0,0E0,0E0,0E0,0E0,0E0,0E0,0E0,0E0,0E0,0E0,0E0,0E0,0E0,0E0,0E0,0E0,0E0,0E0,0E0,0E0,0E0,0E0,0E0,0E0],"parents":[2147483647,0,0,1,1,2,2,3,3,4,4,5,5,6,6,7,7,8,8,10,10,11,11,12,12,13,13,14,14,15,15,16,16,17,17,18,18,19,19,20,20,21,21,22,22,23,23,24,24,25,25,26,26,27,27,28,28],"right_children":[2,4,6,8,10,12,14,16,18,-1,20,22,24,26,28,30,32,34,36,38,40,42,44,46,48,50,52,54,56,-1,-1,-1,-1,-1,-1,-1,-1,-1,-1,-1,-1,-1,-1,-1,-1,-1,-1,-1,-1,-1,-1,-1,-1,-1,-1,-1,-1],"split_conditions":[2.48775E2,1.0135604E-1,7.31456E1,1.781E2,6.966138E1,6.936416E-4,7.394537E1,6.1583923E1,6.514719E1,2.1511829E-1,1.797E2,4.5E-1,3.9154267E-1,8.1528694E1,3.211111E2,5.866189E-1,1.7744525E2,7.287569E-1,3.4990675E0,9.275E1,1.5240297E-1,2.6808558E1,6.3255234E1,2.1906662E-1,6.867598E1,2.7905E2,2.0375812E2,1.5425E2,2.18375E2,2.9721662E-2,6.386539E-2,8.2252055E-2,2.0171486E-2,4.8426732E-2,1.08649015E-1,2.9467208E-2,4.120557E-2,3.7899984E-3,3.8233224E-2,1.1978835E-1,5.6960564E-2,1.8499184E-2,9.256463E-2,5.727585E-2,1.0344243E-2,8.554103E-3,1.04617335E-1,1.9521557E-1,6.795789E-2,4.874761E-2,1.290822E-1,2.8317452E-3,1.0226226E-1,3.2704856E-2,4.808486E-2,1.1853744E-1,3.363425E-2],"split_indices":[10,8,1,10,25,8,25,1,1,0,10,33,28,32,10,31,7,31,28,18,8,2,0,31,1,27,7,27,24,0,0,0,0,0,0,0,0,0,0,0,0,0,0,0,0,0,0,0,0,0,0,0,0,0,0,0,0],"split_type":[0,0,0,0,0,0,0,0,0,0,0,0,0,0,0,0,0,0,0,0,0,0,0,0,0,0,0,0,0,0,0,0,0,0,0,0,0,0,0,0,0,0,0,0,0,0,0,0,0,0,0,0,0,0,0,0,0],"sum_hessian":[3.929E3,3.444E3,4.85E2,3.413E3,3.1E1,7.6E1,4.09E2,1.553E3,1.86E3,4E0,2.7E1,2.2E1,5.4E1,1.08E2,3.01E2,1.48E2,1.405E3,1.26E2,1.734E3,8E0,1.9E1,6E0,1.6E1,3.1E1,2.3E1,7.9E1,2.9E1,2.85E2,1.6E1,1.1E2,3.8E1,6E0,1.399E3,1.02E2,2.4E1,1.334E3,4E2,5E0,3E0,1.2E1,7E0,1E0,5E0,8E0,8E0,3E0,2.8E1,1.5E1,8E0,7.5E1,4E0,2E0,2.7E1,1.3E2,1.55E2,9E0,7E0],"tree_param":{"num_deleted":"0","num_feature":"36","num_nodes":"57","size_leaf_vector":"0"}},{"base_weights":[6.38758E-1,4.434407E-1,1.0865065E0,3.0700347E-1,6.191079E-1,9.272779E-1,1.6065258E0,2.9718795E-1,1.6505888E0,5.5120504E-1,1.2140274E0,1.4973267E0,8.725623E-1,1.4696892E0,2.5820434E0,2.6490545E-1,6.831538E-1,2.0120065E0,1.6139587E-2,1.7500772E0,5.4173523E-1,1.0638922E0,2.6323102E0,3.2450583E0,1.2262603E0,8.11139E-1,1.1246231E0,1.2703948E0,1.855216E0,2.6941302E0,5.631321E-1,1.4615329E-1,3.4436733E-1,5.419018E-1,1.3906295E0,3.9424577E-1,2.417903E0,1.8870878E-1,-1.644994E-1,2.219453E0,2.2796631E-1,4.9209514E-1,7.062107E-1,1.4822192E0,6.7663866E-1,3.2517564E0,7.3533976E-1,3.9012806E0,1.2854049E0,1.3936698E0,2.0163956E-1,1.8647672E0,8.0213267E-1,9.710059E-1,1.7424567E0,9.861527E-1,1.3949848E0,1.5369078E0,2.4466994E0,2.7839324E0,9.28E-1,1.3322473E-1,7.1147346E-1],"categories":[],"categories_nodes":[],"categories_segments":[],"categories_sizes":[],"default_left":[1,1,1,1,1,1,1,1,1,1,1,1,1,1,1,1,1,1,1,1,1,1,1,1,1,1,1,1,1,1,1,0,0,0,0,0,0,0,0,0,0,0,0,0,0,0,0,0,0,0,0,0,0,0,0,0,0,0,0,0,0,0,0],"id":23,"left_children":[1,3,5,7,9,11,13,15,17,19,21,23,25,27,29,31,33,35,37,39,41,43,45,47,49,51,53,55,57,59,61,-1,-1,-1,-1,-1,-1,-1,-1,-1,-1,-1,-1,-1,-1,-1,-1,-1,-1,-1,-1,-1,-1,-1,-1,-1,-1,-1,-1,-1,-1,-1,-1],"loss_changes":[3.4408313E2,6.560083E1,9.754138E1,1.9911255E1,4.776651E1,2.7326477E1,3.3447937E1,1.896997E1,6.465433E0,1.1290558E1,2.3177475E1,3.3447067E1,1.2092957E1,1.662091E1,5.9505157E0,1.3349167E1,1.1038422E1,4.956539E0,1.24560654E-1,5.2095776E0,8.3967285E0,1.7140915E1,1.0534637E1,7.844948E0,1.1726166E1,4.9474487E0,1.3683456E1,4.5030212E0,1.1678131E1,2.333191E0,9.653324E-2,0E0,0E0,0E0,0E0,0E0,0E0,0E0,0E0,0E0,0E0,0E0,0E0,0E0,0E0,0E0,0E0,0E0,0E0,0E0,0E0,0E0,0E0,0E0,0E0,0E0,0E0,0E0,0E0,0E0,0E0,0E0,0E0],"parents":[2147483647,0,0,1,1,2,2,3,3,4,4,5,5,6,6,7,7,8,8,9,9,10,10,11,11,12,12,13,13,14,14,15,15,16,16,17,17,18,18,19,19,20,20,21,21,22,22,23,23,24,24,25,25,26,26,27,27,28,28,29,29,30,30],"right_children":[2,4,6,8,10,12,14,16,18,20,22,24,26,28,30,32,34,36,38,40,42,44,46,48,50,52,54,56,58,60,62,-1,-1,-1,-1,-1,-1,-1,-1,-1,-1,-1,-1,-1,-1,-1,-1,-1,-1,-1,-1,-1,-1,-1,-1,-1,-1,-1,-1,-1,-1,-1,-1],"split_conditions":[1.8499999E0,1.3499999E0,2.75E0,3.141667E2,2.8447814E-2,7.029832E1,4.05E0,3.3798076E-2,4.95E0,5.40963E1,1.0135604E-1,3.75E0,2.375E2,4.807692E-3,9.841667E1,1.05E0,6.2604254E-1,1.5165831E0,6.935803E1,4.025E1,4.140476E-3,1.26E2,7.6403366E1,7.001734E1,1.95375E2,1.6E1,9.785E0,1.89875E2,7.237657E1,1.9822785E-1,4.0124027E1,7.3076645E-3,1.7218366E-2,2.7095092E-2,6.953148E-2,1.971229E-2,1.2089515E-1,9.4354395E-3,-8.224971E-3,1.1097266E-1,1.1398315E-2,2.4604758E-2,3.5310533E-2,7.411096E-2,3.3831935E-2,1.6258782E-1,3.6766987E-2,1.9506404E-1,6.427025E-2,6.968349E-2,1.00819785E-2,9.323836E-2,4.0106636E-2,4.8550297E-2,8.7122835E-2,4.9307637E-2,6.974924E-2,7.684539E-2,1.2233497E-1,1.3919662E-1,4.64E-2,6.6612363E-3,3.5573673E-2],"split_indices":[15,15,15,10,8,25,15,8,22,17,8,22,10,8,20,15,31,3,0,21,8,24,25,25,24,16,35,10,0,8,0,0,0,0,0,0,0,0,0,0,0,0,0,0,0,0,0,0,0,0,0,0,0,0,0,0,0,0,0,0,0,0,0],"split_type":[0,0,0,0,0,0,0,0,0,0,0,0,0,0,0,0,0,0,0,0,0,0,0,0,0,0,0,0,0,0,0,0,0,0,0,0,0,0,0,0,0,0,0,0,0,0,0,0,0,0,0,0,0,0,0,0,0,0,0,0,0,0,0],"sum_hessian":[3.939E3,2.744E3,1.195E3,1.546E3,1.198E3,9.17E2,2.78E2,1.536E3,1E1,1.077E3,1.21E2,7.8E1,8.39E2,2.46E2,3.2E1,1.419E3,1.17E2,8E0,2E0,7E0,1.07E3,1.11E2,1E1,9E0,6.9E1,6.78E2,1.61E2,1.65E2,8.1E1,3E1,2E0,5.7E2,8.49E2,9.9E1,1.8E1,2E0,6E0,1E0,1E0,5E0,2E0,8.25E2,2.45E2,5.2E1,5.9E1,7E0,3E0,6E0,3E0,5.9E1,1E1,4E0,6.74E2,1.31E2,3E1,5.3E1,1.12E2,5.5E1,2.6E1,2.8E1,2E0,1E0,1E0],"tree_param":{"num_deleted":"0","num_feature":"36","num_nodes":"63","size_leaf_vector":"0"}},{"base_weights":[6.037846E-1,4.4460937E-1,1.0560051E0,3.050713E-1,6.041651E-1,1.0018647E0,2.2390914E0,1.924979E-1,4.4425574E-1,5.49056E-1,1.1481618E0,9.426272E-1,1.5143199E0,2.7887335E0,1.5626888E0,3.6630583E-1,1.2367459E-1,9.4944865E-1,3.7792507E-1,9.552574E-1,5.1629317E-1,2.4453235E0,9.7421193E-1,8.53854E-1,1.2140592E0,2.668902E0,1.295331E0,3.2287123E0,1.5601846E0,3.0242682E-1,1.6083E0,2.275318E-1,6.0123545E-1,2.4056578E-2,1.9527738E-1,1.8087881E0,6.70789E-1,2.7566E-1,6.1652756E-1,4.8498845E-1,1.1565677E0,2.8724313E-1,5.5213195E-1,1.0380807E0,3.704269E0,1.4622291E0,6.318987E-1,1.1527458E0,8.08299E-1,1.1728793E0,2.7090366E0,1.6866858E0,3.5504794E0,-1.0824275E-1,1.365118E0,1.2578514E0,3.4204173E0,1.2989414E-1,1.7459555E0,1.2279694E0,2.072841E0],"categories":[],"categories_nodes":[],"categories_segments":[],"categories_sizes":[],"default_left":[1,1,1,1,1,1,1,1,1,1,1,1,1,1,1,1,1,1,1,1,1,1,1,1,1,1,1,1,1,0,1,0,0,0,0,0,0,0,0,0,0,0,0,0,0,0,0,0,0,0,0,0,0,0,0,0,0,0,0,0,0],"id":24,"left_children":[1,3,5,7,9,11,13,15,17,19,21,23,25,27,29,31,33,35,37,39,41,43,45,47,49,51,53,55,57,-1,59,-1,-1,-1,-1,-1,-1,-1,-1,-1,-1,-1,-1,-1,-1,-1,-1,-1,-1,-1,-1,-1,-1,-1,-1,-1,-1,-1,-1,-1,-1],"loss_changes":[2.8285303E2,6.467096E1,6.33468E1,2.4294617E1,4.008133E1,2.8352356E1,1.2000381E1,1.0265972E1,2.2930466E1,1.5942566E1,2.5597214E1,2.0215942E1,2.182695E1,7.3949127E0,7.782135E-1,7.818119E0,4.4105844E0,1.794374E1,1.4860886E1,8.054047E0,9.24057E0,2.0957657E1,1.7619095E1,8.163757E0,1.0058655E1,6.999954E0,8.571579E0,1.7428131E0,1.8988628E0,0E0,1.1648712E0,0E0,0E0,0E0,0E0,0E0,0E0,0E0,0E0,0E0,0E0,0E0,0E0,0E0,0E0,0E0,0E0,0E0,0E0,0E0,0E0,0E0,0E0,0E0,0E0,0E0,0E0,0E0,0E0,0E0,0E0],"parents":[2147483647,0,0,1,1,2,2,3,3,4,4,5,5,6,6,7,7,8,8,9,9,10,10,11,11,12,12,13,13,14,14,15,15,16,16,17,17,18,18,19,19,20,20,21,21,22,22,23,23,24,24,25,25,26,26,27,27,28,28,30,30],"right_children":[2,4,6,8,10,12,14,16,18,20,22,24,26,28,30,32,34,36,38,40,42,44,46,48,50,52,54,56,58,-1,60,-1,-1,-1,-1,-1,-1,-1,-1,-1,-1,-1,-1,-1,-1,-1,-1,-1,-1,-1,-1,-1,-1,-1,-1,-1,-1,-1,-1,-1,-1],"split_conditions":[1.95E0,1.3499999E0,3.85E0,1.8608334E2,2.7890496E-2,3.1094164E-2,9.13E1,7.429289E1,1.0299999E1,1.065E1,9.658333E1,2.75E0,6.914285E1,6.8331116E1,1.6656857E0,4.105186E-1,1.05E0,7.365192E1,5E-1,1.49975E2,1.4216666E2,2.5206667E2,1.205E2,6.405957E1,8.324196E1,1.165E1,4.4591736E1,4E0,2.5029945E1,1.5121341E-2,7.179898E1,1.13765905E-2,3.0061772E-2,1.202829E-3,9.763869E-3,9.04394E-2,3.353945E-2,1.3783E-2,3.0826379E-2,2.4249423E-2,5.7828385E-2,1.4362156E-2,2.7606597E-2,5.1904034E-2,1.8521345E-1,7.311146E-2,3.1594936E-2,5.7637293E-2,4.041495E-2,5.8643967E-2,1.3545184E-1,8.433429E-2,1.7752397E-1,-5.4121376E-3,6.82559E-2,6.289257E-2,1.7102087E-1,6.494707E-3,8.7297775E-2,6.1398473E-2,1.0364205E-1],"split_indices":[15,15,15,10,8,8,18,1,11,11,20,15,25,17,3,31,15,1,13,27,10,10,24,17,0,11,1,15,0,0,17,0,0,0,0,0,0,0,0,0,0,0,0,0,0,0,0,0,0,0,0,0,0,0,0,0,0,0,0,0,0],"split_type":[0,0,0,0,0,0,0,0,0,0,0,0,0,0,0,0,0,0,0,0,0,0,0,0,0,0,0,0,0,0,0,0,0,0,0,0,0,0,0,0,0,0,0,0,0,0,0,0,0,0,0,0,0,0,0,0,0,0,0,0,0],"sum_hessian":[3.935E3,2.912E3,1.023E3,1.555E3,1.357E3,9.8E2,4.3E1,8.61E2,6.94E2,1.234E3,1.23E2,8.81E2,9.9E1,2.2E1,2.1E1,2.43E2,6.18E2,7.9E1,6.15E2,9E1,1.144E3,1.3E1,1.1E2,6.67E2,2.14E2,1.4E1,8.5E1,1.5E1,7E0,1E0,2E1,1.54E2,8.9E1,2.59E2,3.59E2,1.8E1,6.1E1,4.32E2,1.83E2,2.8E1,6.2E1,1.56E2,9.88E2,7E0,6E0,4.4E1,6.6E1,8.5E1,5.82E2,2.1E2,4E0,8E0,6E0,4E0,8.1E1,2E0,1.3E1,1E0,6E0,1.3E1,7E0],"tree_param":{"num_deleted":"0","num_feature":"36","num_nodes":"61","size_leaf_vector":"0"}},{"base_weights":[5.722925E-1,4.4362336E-1,1.1049376E0,3.5100982E-1,1.0251702E0,1.0079039E0,2.097885E0,2.541487E-1,5.578001E-1,9.67641E-1,2.813798E0,7.825973E-1,1.25754E0,1.2642446E0,2.33463E0,1.3620393E-1,3.7006214E-1,3.9709237E-1,7.251362E-1,8.1523126E-1,1.5208056E0,5.4398304E-1,3.1770387E0,7.2094053E-1,1.1615486E0,1.0473531E0,1.7085582E0,1.3766087E0,2.8100863E-1,2.962624E0,1.933497E0,3.1234702E-2,2.2323535E-1,3.216923E-1,6.820861E-1,3.7534133E-1,9.239071E-1,6.90791E-1,2.4290314E0,4.2377985E-1,9.584693E-1,-5.998189E-1,1.5758177E0,7.7364945E-1,4.232514E-2,9.050931E-1,3.313724E0,5.789892E-1,8.5753226E-1,1.2479626E0,4.5243984E-1,1.2331524E0,7.398617E-1,3.7958364E0,1.4928312E0,1.5005305E0,3.8074517E-1,3.086971E0,4.2436337E-1,1.3690012E0,2.1791763E0],"categories":[],"categories_nodes":[],"categories_segments":[],"categories_sizes":[],"default_left":[1,1,1,1,1,1,1,1,1,1,1,1,1,1,1,1,1,1,1,1,1,1,1,1,1,1,1,1,0,1,1,0,0,0,0,0,0,0,0,0,0,0,0,0,0,0,0,0,0,0,0,0,0,0,0,0,0,0,0,0,0],"id":25,"left_children":[1,3,5,7,9,11,13,15,17,19,21,23,25,27,29,31,33,35,37,39,41,43,45,47,49,51,53,55,-1,57,59,-1,-1,-1,-1,-1,-1,-1,-1,-1,-1,-1,-1,-1,-1,-1,-1,-1,-1,-1,-1,-1,-1,-1,-1,-1,-1,-1,-1,-1,-1],"loss_changes":[2.6850952E2,1.6999652E2,7.1400024E1,5.4539978E1,4.193512E1,3.8218323E1,1.0271545E1,2.5392044E1,2.3108307E1,3.4338043E1,8.990105E0,7.7842407E0,2.939917E1,1.491333E0,7.1191406E0,8.43434E0,1.3937393E1,4.7638245E0,2.3193314E1,1.8265396E1,1.1444611E1,3.1289703E-1,4.167328E-1,5.7080994E0,2.4992142E0,1.2056519E1,4.0712494E1,1.2798157E0,0E0,4.3712463E0,1.7320099E0,0E0,0E0,0E0,0E0,0E0,0E0,0E0,0E0,0E0,0E0,0E0,0E0,0E0,0E0,0E0,0E0,0E0,0E0,0E0,0E0,0E0,0E0,0E0,0E0,0E0,0E0,0E0,0E0,0E0,0E0],"parents":[2147483647,0,0,1,1,2,2,3,3,4,4,5,5,6,6,7,7,8,8,9,9,10,10,11,11,12,12,13,13,14,14,15,15,16,16,17,17,18,18,19,19,20,20,21,21,22,22,23,23,24,24,25,25,26,26,27,27,29,29,30,30],"right_children":[2,4,6,8,10,12,14,16,18,20,22,24,26,28,30,32,34,36,38,40,42,44,46,48,50,52,54,56,-1,58,60,-1,-1,-1,-1,-1,-1,-1,-1,-1,-1,-1,-1,-1,-1,-1,-1,-1,-1,-1,-1,-1,-1,-1,-1,-1,-1,-1,-1,-1,-1],"split_conditions":[2.15E0,2.4583335E0,3.65E0,1.55E0,4.9416666E0,1.6583333E0,3.3755273E-1,1.3583333E0,1.475E0,6.0746723E-1,8.755E1,3.05E0,2.3720834E2,4.95E0,1.2E1,1.1500001E0,6.892276E-1,9.483142E1,1.4952418E0,1.1500001E0,7.5E-1,6.0561134E1,1.8311853E0,4.1922197E-1,2.2842586E0,8.47842E1,6.2459366E1,8.404342E1,1.4050432E-2,7.55E1,2.6275632E2,1.5617352E-3,1.1161768E-2,1.6084615E-2,3.4104306E-2,1.8767066E-2,4.6195354E-2,3.453955E-2,1.2145157E-1,2.1188993E-2,4.7923464E-2,-2.9990945E-2,7.879089E-2,3.8682472E-2,2.116257E-3,4.5254655E-2,1.656862E-1,2.894946E-2,4.2876612E-2,6.2398132E-2,2.2621993E-2,6.165762E-2,3.6993086E-2,1.8979183E-1,7.464156E-2,7.502653E-2,1.903726E-2,1.5434855E-1,2.121817E-2,6.8450056E-2,1.0895882E-1],"split_indices":[15,5,15,15,5,5,31,5,5,31,18,15,10,15,11,15,31,25,31,15,15,0,3,31,3,1,1,32,0,4,7,0,0,0,0,0,0,0,0,0,0,0,0,0,0,0,0,0,0,0,0,0,0,0,0,0,0,0,0,0,0],"split_type":[0,0,0,0,0,0,0,0,0,0,0,0,0,0,0,0,0,0,0,0,0,0,0,0,0,0,0,0,0,0,0,0,0,0,0,0,0,0,0,0,0,0,0,0,0,0,0,0,0,0,0,0,0,0,0,0,0,0,0,0,0],"sum_hessian":[3.924E3,3.162E3,7.62E2,2.729E3,4.33E2,6.96E2,6.6E1,1.86E3,8.69E2,4.21E2,1.2E1,3.68E2,3.28E2,1.6E1,5E1,9.23E2,9.37E2,4.45E2,4.24E2,3.32E2,8.9E1,2E0,1E1,3.19E2,4.9E1,2.26E2,1.02E2,1.4E1,2E0,1.7E1,3.3E1,4.19E2,5.04E2,8.13E2,1.24E2,4.29E2,1.6E1,4.17E2,7E0,9E1,2.42E2,2E0,8.7E1,1E0,1E0,1E0,9E0,1.59E2,1.6E2,4.3E1,6E0,1.39E2,8.7E1,8E0,9.4E1,1.2E1,2E0,1.6E1,1E0,1.2E1,2.1E1],"tree_param":{"num_deleted":"0","num_feature":"36","num_nodes":"61","size_leaf_vector":"0"}},{"base_weights":[5.47475E-1,4.3162543E-1,1.0209036E0,3.321135E-1,5.7754505E-1,1.3104945E0,7.716311E-1,5.3227484E-1,3.0479422E-1,7.541404E-1,4.9092367E-1,1.2593223E0,3.6965158E0,7.0905286E-1,2.0550432E0,1.3572439E0,4.9180496E-1,2.5520188E-1,4.1348362E-1,1.1862146E0,6.633612E-1,3.9896134E-1,5.699363E-1,1.2174681E0,3.9205093E0,8.824657E-1,4.0184464E0,1.3161992E0,6.190713E-1,2.4494493E0,1.3446534E0,2.1289754E-1,1.4607383E0,3.3351964E-1,6.2177724E-1,4.123221E-1,2.2497876E-1,4.0613595E-1,2.1171362E0,2.4610174E0,9.4090736E-1,5.1952827E-1,8.337788E-1,1.1655363E0,3.7453932E-1,6.4080167E-1,3.567139E-1,1.5047872E0,1.0370829E0,8.249389E-1,4.4881673E0,2.255176E0,1.0890598E0,5.3341424E-1,9.961934E-1,2.6894443E0,9.129815E-1],"categories":[],"categories_nodes":[],"categories_segments":[],"categories_sizes":[],"default_left":[1,1,1,1,1,1,1,1,1,1,1,1,1,1,1,1,1,1,1,1,1,1,1,1,1,0,0,1,1,1,0,0,0,0,0,0,0,0,0,0,0,0,0,0,0,0,0,0,0,0,0,0,0,0,0,0,0],"id":26,"left_children":[1,3,5,7,9,11,13,15,17,19,21,23,25,27,29,31,33,35,37,39,41,43,45,47,49,-1,-1,51,53,55,-1,-1,-1,-1,-1,-1,-1,-1,-1,-1,-1,-1,-1,-1,-1,-1,-1,-1,-1,-1,-1,-1,-1,-1,-1,-1,-1],"loss_changes":[2.165321E2,4.598413E1,5.5078125E1,1.0189209E1,1.9332214E1,3.905603E1,3.2274612E1,6.877823E0,8.885254E0,1.576535E1,6.072403E0,3.443335E1,2.795372E0,2.1147232E1,2.0298004E0,8.733463E-1,4.2569046E0,5.3587036E0,5.661972E0,2.0200134E1,8.170395E0,7.126869E0,6.782501E0,1.6475586E1,5.0836563E0,0E0,0E0,8.421196E0,1.0839325E1,1.600769E0,0E0,0E0,0E0,0E0,0E0,0E0,0E0,0E0,0E0,0E0,0E0,0E0,0E0,0E0,0E0,0E0,0E0,0E0,0E0,0E0,0E0,0E0,0E0,0E0,0E0,0E0,0E0],"parents":[2147483647,0,0,1,1,2,2,3,3,4,4,5,5,6,6,7,7,8,8,9,9,10,10,11,11,12,12,13,13,14,14,15,15,16,16,17,17,18,18,19,19,20,20,21,21,22,22,23,23,24,24,27,27,28,28,29,29],"right_children":[2,4,6,8,10,12,14,16,18,20,22,24,26,28,30,32,34,36,38,40,42,44,46,48,50,-1,-1,52,54,56,-1,-1,-1,-1,-1,-1,-1,-1,-1,-1,-1,-1,-1,-1,-1,-1,-1,-1,-1,-1,-1,-1,-1,-1,-1,-1,-1],"split_conditions":[2.2416668E0,1.475E0,2.5496255E2,6.3311317E1,6.8224266E1,5.7083335E0,7.7766195E-2,9.65E0,5E-1,1.145E1,5E-1,5E-1,1.8311853E0,6.482347E1,5.9458447E1,9.485E1,1.1133333E2,4.939321E1,5.699518E1,5.8572567E1,1.19875E2,6.791502E1,1.325E0,1.9502368E0,2.3083334E0,4.412329E-2,2.0092233E-1,1.9091072E0,3.141667E0,3.7166667E0,6.723267E-2,1.0644877E-2,7.303692E-2,1.6675983E-2,3.1088863E-2,2.0616105E-2,1.1248938E-2,2.0306798E-2,1.0585681E-1,1.2305087E-1,4.704537E-2,2.5976414E-2,4.168894E-2,5.8276813E-2,1.8726965E-2,3.2040086E-2,1.7835695E-2,7.523936E-2,5.1854145E-2,4.1246947E-2,2.2440837E-1,1.1275881E-1,5.4452993E-2,2.6670713E-2,4.9809672E-2,1.3447222E-1,4.5649078E-2],"split_indices":[5,5,7,17,17,5,19,11,30,11,30,29,3,17,9,27,24,0,28,17,24,32,6,3,5,0,0,3,5,5,0,0,0,0,0,0,0,0,0,0,0,0,0,0,0,0,0,0,0,0,0,0,0,0,0,0,0],"split_type":[0,0,0,0,0,0,0,0,0,0,0,0,0,0,0,0,0,0,0,0,0,0,0,0,0,0,0,0,0,0,0,0,0,0,0,0,0,0,0,0,0,0,0,0,0,0,0,0,0,0,0,0,0,0,0,0,0],"sum_hessian":[3.955E3,3.179E3,7.76E2,1.892E3,1.287E3,3.57E2,4.19E2,2.25E2,1.667E3,4.21E2,8.66E2,3.51E2,6E0,4.01E2,1.8E1,9E0,2.16E2,1.147E3,5.2E2,7.1E1,3.5E2,4.03E2,4.63E2,3.47E2,4E0,1E0,5E0,5E1,3.51E2,1E1,8E0,1E0,8E0,9.9E1,1.17E2,1.83E2,9.64E2,5.19E2,1E0,1E1,6.1E1,1.92E2,1.58E2,1.1E1,3.92E2,3.46E2,1.17E2,1.31E2,2.16E2,1E0,3E0,8E0,4.2E1,2.88E2,6.3E1,8E0,2E0],"tree_param":{"num_deleted":"0","num_feature":"36","num_nodes":"57","size_leaf_vector":"0"}},{"base_weights":[5.090541E-1,4.3740314E-1,8.6262727E-1,4.087683E-1,9.3459356E-1,1.9485663E0,7.535136E-1,2.153391E-1,4.6704316E-1,1.8752433E0,7.647088E-1,1.0970907E0,2.8502948E0,6.131399E-1,1.0081476E0,3.9191937E-1,1.7554393E-1,1.6499181E0,4.5850545E-1,1.5269181E-1,2.3601298E0,5.1719314E-1,1.1179508E0,4.564832E-1,1.6055702E0,3.5416362E0,1.3970418E0,1.1707305E0,5.579925E-1,8.947257E-1,1.5923091E0,7.6390684E-1,3.3500662E-1,7.383774E-2,2.5966054E-1,6.419456E-1,2.2913043E0,4.4727302E-1,1.1668102E0,3.5013095E-1,3.6899566E-3,3.4579954E0,1.2485645E0,6.8413866E-1,2.3385885E-1,9.71196E-1,2.3502562E0,6.506629E-1,-2.8872165E-1,2.2203434E0,7.440922E-1,1.4420482E0,4.1884856E0,-1.3646741E-1,1.7529846E0,1.3927867E0,2.4719223E-1,1.1450348E0,5.18827E-1,8.2598275E-1,1.8112087E0,2.2373533E0,1.0289104E0],"categories":[],"categories_nodes":[],"categories_segments":[],"categories_sizes":[],"default_left":[1,1,1,1,1,1,1,1,1,1,1,1,1,1,1,1,1,1,1,1,1,1,1,1,1,1,1,1,1,1,1,0,0,0,0,0,0,0,0,0,0,0,0,0,0,0,0,0,0,0,0,0,0,0,0,0,0,0,0,0,0,0,0],"id":27,"left_children":[1,3,5,7,9,11,13,15,17,19,21,23,25,27,29,31,33,35,37,39,41,43,45,47,49,51,53,55,57,59,61,-1,-1,-1,-1,-1,-1,-1,-1,-1,-1,-1,-1,-1,-1,-1,-1,-1,-1,-1,-1,-1,-1,-1,-1,-1,-1,-1,-1,-1,-1,-1,-1],"loss_changes":[1.01262085E2,4.714099E1,7.8513E1,3.549652E1,2.7490143E1,4.370874E1,2.136441E1,5.08202E0,2.3743896E1,2.2191162E1,1.2973907E1,1.0016365E1,2.4188293E1,1.161586E1,1.2953033E1,2.5809803E0,5.1139355E0,9.519604E0,1.8652008E1,2.0463961E-1,2.1309792E1,4.2390385E0,9.110786E0,2.503119E0,7.880905E0,1.9764236E1,6.2434826E0,6.8334274E0,7.797928E0,1.0096283E1,1.0054146E1,0E0,0E0,0E0,0E0,0E0,0E0,0E0,0E0,0E0,0E0,0E0,0E0,0E0,0E0,0E0,0E0,0E0,0E0,0E0,0E0,0E0,0E0,0E0,0E0,0E0,0E0,0E0,0E0,0E0,0E0,0E0,0E0],"parents":[2147483647,0,0,1,1,2,2,3,3,4,4,5,5,6,6,7,7,8,8,9,9,10,10,11,11,12,12,13,13,14,14,15,15,16,16,17,17,18,18,19,19,20,20,21,21,22,22,23,23,24,24,25,25,26,26,27,27,28,28,29,29,30,30],"right_children":[2,4,6,8,10,12,14,16,18,20,22,24,26,28,30,32,34,36,38,40,42,44,46,48,50,52,54,56,58,60,62,-1,-1,-1,-1,-1,-1,-1,-1,-1,-1,-1,-1,-1,-1,-1,-1,-1,-1,-1,-1,-1,-1,-1,-1,-1,-1,-1,-1,-1,-1,-1,-1],"split_conditions":[2.3655E2,1.0730221E0,6.916051E1,1.5141666E2,1.0299999E1,7.965E0,5.719738E-1,3.45011E1,2.8642769E1,1.3468645E0,1.9454166E2,1.02E0,1.5E0,1.6294296E0,7.803583E1,7.25E-1,3.098116E-1,8.169801E1,3.687478E-2,8.2262474E1,3.5278835E1,1.125E0,4.011698E-3,8.150178E1,6.2690918E1,1.8362573E-3,2.5483146E-3,4.04265E-1,9.55E0,3.220833E2,8.0495834E1,3.819534E-2,1.6750332E-2,3.6918873E-3,1.2983027E-2,3.209728E-2,1.14565216E-1,2.2363652E-2,5.834051E-2,1.7506547E-2,1.8449784E-4,1.7289977E-1,6.2428225E-2,3.4206934E-2,1.1692943E-2,4.85598E-2,1.17512815E-1,3.2533146E-2,-1.4436083E-2,1.1101717E-1,3.7204612E-2,7.210241E-2,2.0942429E-1,-6.8233707E-3,8.764923E-2,6.963934E-2,1.2359612E-2,5.725174E-2,2.5941351E-2,4.129914E-2,9.0560436E-2,1.11867666E-1,5.144552E-2],"split_indices":[10,31,1,10,11,35,31,34,34,31,10,6,6,3,0,6,31,9,19,1,34,6,19,32,1,8,8,31,11,10,0,0,0,0,0,0,0,0,0,0,0,0,0,0,0,0,0,0,0,0,0,0,0,0,0,0,0,0,0,0,0,0,0],"split_type":[0,0,0,0,0,0,0,0,0,0,0,0,0,0,0,0,0,0,0,0,0,0,0,0,0,0,0,0,0,0,0,0,0,0,0,0,0,0,0,0,0,0,0,0,0,0,0,0,0,0,0,0,0,0,0,0,0,0,0,0,0,0,0],"sum_hessian":[4.011E3,3.337E3,6.74E2,3.157E3,1.8E2,6E1,6.14E2,7.32E2,2.425E3,2.6E1,1.54E2,3.2E1,2.8E1,3.98E2,2.16E2,1.33E2,5.99E2,1.6E1,2.409E3,6E0,2E1,9.2E1,6.2E1,1.5E1,1.7E1,1.8E1,1E1,3.4E1,3.64E2,1.83E2,3.3E1,1.6E1,1.17E2,2.72E2,3.27E2,7E0,9E0,2.373E3,3.6E1,2E0,4E0,9E0,1.1E1,5.7E1,3.5E1,5.7E1,5E0,1.2E1,3E0,9E0,8E0,5E0,1.3E1,2E0,8E0,2.7E1,7E0,2.1E1,3.43E2,1.72E2,1.1E1,1.4E1,1.9E1],"tree_param":{"num_deleted":"0","num_feature":"36","num_nodes":"63","size_leaf_vector":"0"}},{"base_weights":[4.9195656E-1,3.7365246E-1,8.95109E-1,3.4523833E-1,8.239078E-1,8.044827E-1,1.785128E0,2.2594538E-1,4.2281294E-1,1.4370958E0,6.639632E-1,1.1769693E0,6.505556E-1,1.6092657E0,3.7738173E0,1.7085406E-1,3.0941582E-1,2.2772102E0,4.1730455E-1,1.1069508E0,2.958353E0,1.373887E0,5.667673E-1,1.0480949E0,2.62082E0,4.4738957E-1,9.0889895E-1,2.0444262E0,1.1666957E0,2.8835618E-1,1.3853475E-1,6.049172E-1,2.8417417E-1,1.0974252E-1,2.7916415E0,3.4476084E-1,5.4095834E-1,1.5086229E0,4.8275623E-1,1.6376251E0,4.1339034E-1,3.7150794E-1,7.780799E-1,8.8469994E-1,1.6376567E0,1.6427826E0,4.0627728E0,1.391577E0,4.165819E-1,8.1209826E-1,1.858432E0,7.7403605E-1,2.2584357E0,4.5908996E-1,1.3801464E0],"categories":[],"categories_nodes":[],"categories_segments":[],"categories_sizes":[],"default_left":[1,1,1,1,1,1,1,1,1,1,1,1,1,1,0,1,1,1,1,1,0,1,1,1,1,1,1,1,1,0,0,0,0,0,0,0,0,0,0,0,0,0,0,0,0,0,0,0,0,0,0,0,0,0,0],"id":28,"left_children":[1,3,5,7,9,11,13,15,17,19,21,23,25,27,-1,29,31,33,35,37,-1,39,41,43,45,47,49,51,53,-1,-1,-1,-1,-1,-1,-1,-1,-1,-1,-1,-1,-1,-1,-1,-1,-1,-1,-1,-1,-1,-1,-1,-1,-1,-1],"loss_changes":[1.9049158E2,3.93118E1,7.172168E1,2.6861694E1,1.6993767E1,4.6536316E1,2.2954987E1,5.235401E0,1.7068573E1,1.5307968E1,9.364571E0,4.1911255E1,3.0350494E1,1.26367035E1,0E0,2.5993767E0,3.229374E0,5.2687035E0,